0.3212551 0.44717616 -0.14327386 0.07580166 -0.10512597 0.39944044 
0.2291863 0.41731682 -0.13890389 0.46507108 -0.14633976 -0.29818076 
-0.38498646 0.30303016 -0.41818237 -0.3838552 0.45709538 0.36884567 
0.12617365 -0.46193978 -0.5070497 -0.10791196 -0.491686 0.055117954 
0.11360513 0.039102253 0.28340536 0.4074191 0.042749926 -0.20169418 
0.24391672 0.36736813 -0.4275603 -0.21298295 0.30646217 0.039970033 
-0.16451876 -0.04729634 -0.3047546 0.08997667 0.22157107 0.1448416 
-0.33455023 0.36180994 -0.47527635 0.07180284 0.45536867 0.22883736 
-0.19502312 0.11818581 -0.34111458 -0.10374097 -0.41516826 -0.49107632 
-0.4315161 0.23507422 -0.033894632 -0.046205603 -0.40577546 -0.05337135 
-0.12959325 0.22389051 0.505351 -0.3262975 0.41982958 0.5241049 
-0.19576615 -0.39025745 0.17647125 -0.016271314 0.27363384 0.47807193 
-0.15835245 -0.23787585 0.46911898 -0.28240237 -0.33029783 0.18985964 
-0.29812402 -0.37153482 0.4048771 -0.107774414 0.34969792 0.29759997 
0.2147432 -0.30218625 0.014010092 0.05543721 0.10009792 -0.21913743 
0.53726625 0.09206534 -0.053285573 0.011424057 -0.018804006 0.002100662 
