-0.038986985 0.013877068 0.036477324 -0.030344754 -0.034057185 -0.013328828 -0.03525166 0.01632747 -0.029048417 0.032770146 -0.013415495 0.013003498 0.037373934 -0.011751115 -0.02871104 0.027708475 
0.034298655 -0.035178926 -0.00716481 0.03676631 0.036483932 0.018786144 -0.022748739 0.033759896 0.016099427 -0.0011397377 0.037639055 0.034156147 0.026016813 -0.00014527515 -0.009232586 0.032978628 
0.02238207 0.004417062 -0.019376712 0.030148026 -0.037433363 -0.038317017 0.0061900467 0.006578043 0.033446867 -0.027501509 0.028668392 0.011103097 0.007731933 0.01703307 -0.008529648 -0.021199564 
-0.026569897 0.031295743 0.037812877 0.03320137 0.012173664 0.03289451 -0.035652775 -0.020660536 -0.0076889843 0.016403247 0.003190618 0.0068686306 -0.027099961 0.011585712 -0.022291226 -0.034386687 
0.02925035 -0.024088468 -0.015116122 0.027485099 0.0058578514 -0.011216482 0.029913414 0.037101906 0.0042286366 0.0058530048 0.033354435 -0.011602374 -0.007401999 0.019203417 -0.037846483 0.019989401 
-0.017357728 -0.0069183894 0.0021057166 -0.036181156 -0.0030487739 0.032603357 0.01841667 -0.013684774 0.036087092 0.0109898 -0.014147295 -0.008888505 0.0090383105 -0.009864887 -0.03144583 0.03474154 
-0.011832083 -0.033595264 -0.021336611 -0.018841257 -0.02142594 0.035292905 0.022203766 -0.01667586 -0.031708807 0.004687708 0.010600232 -5.2135438e-05 -0.028174205 -0.0223463 -0.024621367 0.033801865 
0.0028984062 0.027324546 -0.018425277 -0.039631102 0.035498302 0.037261132 0.03298014 -0.0028737634 0.0277558 0.02367397 -0.033537567 -0.028112255 0.010832373 -0.01703805 0.010441102 0.012113735 
0.029956799 -0.018872477 0.00028808787 -0.035126343 0.030450318 0.036538806 0.011508189 -0.027754355 -0.024992893 0.03714167 -0.016847104 -0.027987618 -0.015570214 -0.0035662055 -0.006040752 -0.030117333 
-0.029829247 0.004737735 0.006290868 0.023240317 -0.03410362 -0.03362203 1.5486032e-05 -0.028368097 -0.024688449 -0.030670477 -0.026361976 0.018311817 0.034492213 -0.024996264 0.0116674155 -0.02339347 
-0.0020754077 -0.02539446 0.03843298 -0.0059227124 -0.0018539056 -0.028515738 -0.020927496 -0.03322559 0.031945344 0.028531302 -0.019062702 -0.032951664 -0.031096388 0.023132648 0.0052108765 -0.035518765 
-0.0001802966 -0.00626364 0.030339058 0.031734522 -0.012124412 0.030351173 0.029259276 -0.02528506 0.0047971383 -0.023835612 0.011641186 0.036688235 0.007443253 0.03696123 0.033503268 0.02919532 
-0.01903132 0.016686518 0.02444705 -0.028627552 -0.013048315 -0.0012886785 -0.004118152 0.01978125 -0.0038668849 0.032475095 -0.03735752 -0.024002597 -0.015438242 -0.003924221 -0.028125595 -0.030543925 
-0.029464664 0.0027497597 0.02942397 0.009351879 -0.039855123 -0.0144841075 -0.021921989 0.021317217 0.0041850805 -0.029811434 -0.008605428 0.027090814 -0.032544054 0.029265475 -0.026943741 0.033288788 
-0.012990704 -0.029232398 0.0060946383 0.03593829 0.031196002 -0.030885717 -0.035943113 0.015934177 -0.024356062 0.03695109 0.006902311 0.034106735 0.0137865245 -0.017244507 0.034628224 0.0012906231 
0.012924798 0.019895803 0.008422874 0.03708444 -0.032420583 0.014967743 0.0011640601 0.007707257 0.032836836 0.011623144 0.036525484 0.008279081 -0.008289032 -0.0116565 -0.036023967 0.025037643 
0.02941816 0.014788128 0.034000028 0.019139446 0.0361589 -0.03638022 0.0029462576 0.015600707 0.007290844 -0.013771258 -0.03145302 0.020392004 -0.0045625344 0.012409139 0.033946503 0.028659869 
-0.039774127 -0.013645213 0.01869335 -0.008976629 0.006971244 -0.015942048 -0.009591127 0.0062094964 0.026114348 0.007728897 0.035676833 0.008134928 0.024643552 -0.01619994 0.0044459254 -0.003633406 
0.008998435 0.013276137 -0.010133851 -0.034499384 0.020812627 0.018268589 0.022088915 0.0027224869 0.03684515 0.031272758 -0.01786929 -0.011283901 -0.032279275 0.004909545 0.026369821 0.0007544197 
-0.0004498884 -0.0065161623 -0.016578438 0.0155376755 -0.0026234277 -0.0023277365 0.009714585 -0.032012258 0.035019968 0.018224806 -0.022488538 0.008392628 0.0131100565 -0.0026206784 0.015186172 0.0046561845 
0.024681356 0.037220303 0.0064678863 0.007869251 -0.0052339844 0.020239223 0.019386116 0.0046201013 0.029983182 -0.022845384 -0.0014725924 0.008369323 -0.010593671 0.011962589 0.03396933 -0.006566573 
-0.032921545 -0.0072515234 -0.0009656474 -0.017262366 -0.01707126 0.017622259 0.013520252 -0.018867468 -0.00397262 -0.018527955 -0.017180124 0.03968477 0.016994372 -0.020425731 0.037960384 -0.03153497 
-0.002049446 -0.014632694 -0.033770688 0.009577278 -0.031148523 0.027972113 0.030059647 -0.017142545 -0.03202986 -0.027028702 0.01725572 -0.010900261 0.020806864 -0.019896194 0.013997529 -0.018647641 
-0.029444668 0.021774378 -0.009361034 -0.021499688 -0.0006724261 -0.008817967 -0.014854504 -0.00022729486 0.013764095 0.033344094 -0.021457667 0.01695365 -0.027633663 -0.007280715 0.0075519457 0.01621151 
-0.023334106 -0.024485132 0.0061273016 -0.0067531504 -0.032898486 -0.014318636 -0.026374586 0.021321673 0.008035716 0.02440964 -0.016128626 0.03926747 0.03948276 0.01732602 -0.025752446 0.005072862 
0.021297682 0.03235766 0.037035283 0.0054126717 0.01638304 -0.029722096 -0.025554433 -0.03559676 -0.025445253 0.028958831 0.01903991 0.026245754 -0.035973568 -0.00042708963 -0.014429914 0.023696292 
0.017024864 -0.03925971 -0.025636908 -0.00026238337 -0.0292762 -0.029711323 0.015942201 0.019082267 -0.003741283 0.02120886 -0.004731063 0.026734527 0.029483702 0.032649595 0.017533358 -0.015086902 
-0.012458352 -0.034519408 0.0062145703 0.013845339 -0.037264332 -0.028651847 0.015452359 0.034816068 0.038497116 0.016506422 -0.021652354 -0.005861096 -0.021695793 -0.008116331 0.03473952 -0.035953008 
-0.034229215 0.017354645 0.023678083 -0.0036317967 0.025296625 0.023552869 -0.01905912 0.01145098 -0.005260244 -0.012240028 -0.0100335665 0.016747933 0.0040980615 -0.03873385 0.02133051 0.009778153 
-0.006464727 -0.027351217 -0.015193718 -0.0026555583 -0.032652326 0.00096686184 0.03541817 -0.02061315 0.02762108 0.024718884 0.03144074 -0.0034971014 -0.033257928 -0.03697475 0.0051239617 -0.020443132 
-0.005247958 -0.019877376 0.038194362 0.0075073205 -0.00053568557 0.019541886 0.010580324 -0.037447654 -0.024263093 0.023443487 0.007653877 0.014002558 0.027814645 -0.03991922 0.0018560886 0.008697994 
-0.004334178 -0.036782343 0.010284249 0.03943641 0.013639916 0.009723388 -0.021825084 0.038607072 0.009549975 -0.011805432 0.0015536584 0.0015224852 -0.02070861 -0.032893132 -0.03183627 0.02617557 
-0.021583673 -0.010034161 -0.032970645 0.037510592 0.027004946 0.028324667 0.015884236 -0.0013157614 -0.0040720217 -0.01297136 -0.017050335 -0.014003007 0.021499332 0.017473917 0.023245718 0.03985202 
-0.007782288 0.010169465 0.006729007 0.033000704 -0.035110615 0.009114891 -0.0072224215 0.030753192 -0.019419491 -0.023873765 0.012048185 -0.010953438 -0.0014068782 -0.010014223 0.02452119 -0.02881252 
0.02651849 -0.010471065 0.013595175 0.028257411 -0.020182692 -0.033646625 -0.026918843 0.028565388 -0.009755651 -0.00066682324 -0.020977562 0.029776443 0.016208913 -0.0273046 0.032057535 -0.005767267 
0.023177471 -0.038158413 0.0369662 0.030426268 -0.034947943 -0.0072169714 0.019500181 -0.01255741 -0.0018605255 0.040032294 -0.029493775 0.023439568 0.023013715 0.034654748 -0.00094660744 0.0044567436 
-0.03307474 -0.018061087 -0.023459097 -0.009160046 0.003121592 -0.024138696 -0.0017685816 0.0142626725 0.03079218 0.009116299 -0.012032766 0.036049787 0.023740787 -0.01636202 -0.0035600886 0.006184906 
0.0021695942 -0.02767177 0.0380972 0.023166712 0.012387484 0.02728891 0.03527051 -0.015958691 0.0083766095 -0.02860659 -0.009146331 0.0043027364 0.017246976 -0.00066239014 0.03578606 0.01147221 
-0.007992413 0.033098776 -0.022630537 0.016332287 -0.008144841 -0.020962067 0.023398463 0.026126463 -0.0075514093 0.03757729 0.03780083 0.02874672 -0.0036330223 -0.0034869984 0.012302659 -0.011648197 
0.004301876 0.0126049 0.03841346 0.03510337 -0.032249693 0.004214432 -0.026629712 -0.019855648 0.022350695 -0.039039195 -0.0030886233 -0.024689091 -0.013914013 0.017114986 -0.015418487 -0.011530876 
0.037906352 -0.031292636 -0.008868951 0.022900637 -0.019167352 -0.00453414 0.02107618 0.0067569017 -0.016594058 -0.00034628436 -0.034470472 -0.027940761 -0.034391075 -0.021768201 0.012246665 -0.020553749 
-0.03623228 0.037552927 -0.0152035635 -0.015517784 0.025479894 0.014294438 -0.012783356 0.035077456 0.024710674 0.015210945 -0.008864727 0.015035678 -0.016806252 -0.024737462 -0.025304308 -0.0016932636 
0.0017074645 0.031034056 -0.010074411 0.008291177 0.033273634 0.02887692 -0.029427852 -0.025788587 0.017542887 -0.018211398 -0.034584746 0.008327663 0.034811277 0.013070036 -0.016897218 -0.036892097 
0.03959653 -0.01668464 -0.018282378 -0.03683626 -0.037401322 0.017656453 -0.0024706349 -0.03444075 -0.020234367 -0.031013303 0.0022547096 0.013633903 0.0016564392 -0.037212122 0.0109153725 0.029447753 
0.014038373 -0.04010709 0.029073518 -0.006318994 -0.011580147 0.003936488 -0.03332338 0.0017964207 0.008393817 0.023316588 -0.0010025166 0.028089609 0.004776731 0.01159006 0.038419355 -0.008198909 
0.034522336 0.03408845 0.010115389 0.00512968 -0.037377696 0.0062380247 -0.022256942 -0.0016838759 0.00798659 -0.015375182 0.017539594 0.002269607 0.019206252 -0.033548627 0.021130614 0.0011872239 
0.040065866 -0.024826407 -0.025660034 0.021947011 -0.0016997829 -0.018448472 -0.030107003 0.019888945 -0.003091514 0.013667718 -0.013671059 0.033518072 -0.02872071 0.0025246479 0.026318822 -0.020540332 
0.01568992 0.005364809 -0.004336849 0.032419372 -0.039970905 0.013919253 -0.006394185 -0.025401365 0.032517698 0.027573202 -0.016318094 0.03483144 0.00086314976 0.026713494 0.032536443 0.0074681714 
0.024074953 0.0023875535 0.03781495 0.008960433 -0.002586864 0.032355558 0.037632402 -0.0133163985 -0.038876273 0.025717001 0.035492983 -0.025215525 0.0007163808 -0.038320802 -0.006753437 -0.008931054 
-0.0142240785 -0.007695459 0.034443777 -0.02874336 0.007974055 -0.035514597 -0.027421959 -0.022010637 -0.02198888 0.016275968 0.00025831535 0.021072887 -0.022882942 -0.011197483 -0.026101056 -0.0012043081 
0.025582407 -0.031302214 -0.0027496554 0.015144724 -0.039867688 -0.001959622 0.017184462 0.006390672 0.015937883 0.00885861 -0.016114673 0.02951796 0.015545987 -0.019551463 -0.010685433 -0.025670376 
0.016160704 -0.00895532 -0.03614422 -0.015550334 -0.015859356 -0.03981018 0.021196872 -0.0012487918 0.03553154 0.020173997 0.032795656 -0.0010393858 0.025909927 -0.017102344 -0.0031223595 0.036300045 
0.0054851174 0.028834198 -0.039777994 0.0220078 -0.04003962 -0.010041639 -0.032953445 0.013264906 -0.034353122 0.01887719 0.012039643 0.03869156 -0.026985236 0.03624707 -0.001234524 -0.008761801 
-0.03907551 0.028068643 -0.009281043 -0.015614582 -0.005023878 -0.027424898 0.029295336 0.028211411 -0.018723238 -0.008312773 -0.028886 -0.023360861 -0.03002726 -0.0051083826 0.014348399 -0.0316893 
-0.025413882 0.016276687 0.0014004074 0.03534523 0.03128894 0.034395862 -0.014052028 -0.016222494 0.009725418 0.03643306 0.0077176467 0.020628195 -0.026071973 0.030179236 -0.032076962 0.0183242 
0.026530292 -0.017918868 -0.026745912 -0.02798643 0.032728497 -0.03149242 0.029826757 0.029628333 0.023295943 0.024382386 -0.008403268 -0.016576389 -0.007928271 0.021612689 -0.006622307 0.038735997 
0.022830423 0.02341104 0.00062207505 0.021587264 0.009102147 0.037565988 -0.02674279 -0.017358523 -0.028630864 -0.03516983 0.021972138 -0.0123341065 0.016488105 0.011025913 -0.022355262 0.0036445893 
-0.034182444 0.012917504 0.005626619 0.021902636 0.02090346 -0.012579743 -0.030442271 0.029741298 0.0057676136 -0.030899229 0.036294047 0.028712358 -0.016307311 -0.0026268177 0.022521567 -0.030008689 
0.018446345 -0.03452122 0.025169183 -0.027362268 0.028696824 0.012910366 0.023392793 0.026422057 0.00976019 0.0077238046 -0.008563656 0.0029001012 -0.033765025 0.0012627915 -0.0054774657 -0.026088405 
-0.015562553 -0.00021868572 -0.0028751828 -0.006970573 0.025736492 -0.013950653 -0.037129525 -0.035251267 0.031262416 0.0024314895 -0.019403853 0.0030285865 -0.034579262 -0.011694796 0.022440013 0.01459891 
0.013309926 -0.023982046 -0.025333345 -0.019811042 0.021352287 0.016253598 -0.03512793 0.02052994 -0.012541389 0.008303866 -0.012352474 -0.0108985845 -0.01180841 0.010516018 0.028658222 -0.03627004 
-0.008312322 -0.013161777 -0.031337187 -0.018779011 0.023956206 -0.038057297 -0.038372964 -0.0023578182 0.034061525 0.018965025 -0.010185735 0.008849721 -0.015778406 0.037056815 0.0011705533 0.014296599 
-0.027456902 -0.005818244 -0.032649864 0.01817453 0.02811234 0.03260318 0.014429245 -0.017910248 -0.001024723 -0.010963138 0.02500533 -0.0111047365 0.004970655 0.034432534 -0.03380109 -0.03240666 
0.021861628 0.015795872 -0.038287494 0.021209683 0.006337963 -0.018719848 0.03982946 0.016014367 0.02494206 -0.03629093 -0.015770305 -0.03208135 0.015089929 0.017407574 -0.014123201 0.00895898 
-0.034610998 0.037400898 0.02582397 0.0044431463 0.011218905 -0.027855366 0.036840443 -0.0028905906 -7.513538e-05 0.026770387 0.022545557 -0.039182536 -0.015697246 0.036087457 -0.020757124 0.012278259 
-0.01907792 0.027513098 0.012331072 0.014222413 -0.011321066 -0.033117883 -0.0154697485 0.017143656 -0.036744017 0.031746205 -0.036996827 0.03201958 0.008489717 -0.0038942173 -0.036324494 -0.015693503 
-0.037455756 -0.0048306547 0.029487196 0.013282228 -0.010815576 0.020980723 -0.018125497 0.011041332 0.008732632 0.034458224 0.023498934 -0.016141918 -0.008907419 0.0054565035 -0.028235905 -0.020974278 
-0.02382846 -0.028931076 0.00019977242 0.015547156 0.013395585 0.009954035 0.008493479 -0.032362323 0.014404785 0.031584475 0.00027853996 -0.0014034137 -0.0019338503 -0.021133265 -0.03813387 0.013773039 
-0.03277542 0.028815757 0.01458532 0.0351323 0.025894333 0.0020931251 -0.030236457 0.027765188 0.028992627 0.009044286 0.025525305 -0.018245097 -0.031127233 -0.011091789 -0.01745693 -0.00032467023 
0.03168634 -0.035843894 0.008002125 0.026682373 -0.028174452 -0.007105887 -0.027636556 0.026765939 -0.0008687712 0.012444522 -0.011276269 -0.008341167 -0.035608158 -0.018498268 0.011739835 0.03216132 
-0.01444241 0.0006428547 0.022829097 -0.034940895 0.0150092095 -0.0014770478 0.03380878 0.0055661164 -0.0392518 -0.0020810403 0.026745211 0.018047191 -0.03449452 0.0069675855 -0.037469354 -0.025028374 
0.020858642 0.009248644 -0.021204839 -0.033413123 0.015293915 -0.0037993044 -0.021310037 -0.020735864 -0.026467364 0.0038259104 0.030092817 0.0006900765 -0.0011449158 -0.0047493316 0.010366671 -0.02942586 
-0.0012554191 -0.02548353 -0.0209324 -0.011998655 -0.002108831 -0.012799282 -0.024888348 -0.024232805 0.02596939 -0.0016369037 -0.0362963 0.005927969 0.001195088 0.009040091 -0.0060542636 0.023106944 
-0.0071459077 0.038140412 -0.039697055 0.036490243 0.012571737 0.018605229 0.006348297 -0.03209626 -0.0006252043 3.9283186e-05 0.014090192 -0.0035440363 -0.022348061 0.039085288 0.0079306625 0.03598922 
-0.00019611418 0.022020672 0.01509786 -0.016421214 -0.026231276 0.019089706 0.0084106065 -0.025202282 -0.025559377 -0.034508597 -0.0036504976 0.026434135 0.018797953 0.008374866 0.008336857 0.024133746 
0.0071475916 0.0039755516 0.036808994 0.0008970313 0.03816444 0.014353897 -0.03959007 -0.014528513 0.021950632 -0.030420955 -0.03166239 0.0044301413 0.013449375 -0.021146337 -0.013587458 0.029707637 
-0.00027851015 -0.02927215 -0.03742148 0.026576657 0.010581683 0.038672063 -0.0032755993 0.0094076805 -0.0024439842 0.025248718 -0.013447681 -0.011859816 -0.029976916 -0.034630273 -0.03855144 -0.031634353 
-0.002819296 -0.034160092 0.031393323 0.010969698 -0.010887016 0.027757589 -0.019904967 0.0026635528 -0.013455849 0.02682307 0.012499463 0.030879926 0.037257936 0.03567232 -0.027464334 -0.034241594 
-0.023724277 -0.02374818 -0.0029396117 0.019075803 0.03640308 0.008006807 0.02735525 -0.001468312 0.01980066 -0.00017367676 -0.024382167 -0.013478335 0.031032082 0.031991843 0.038432363 -0.025886716 
-0.039316442 0.023302037 0.027115028 -0.0364234 -0.02131491 -0.015973631 -0.022496294 -0.025767185 0.039058503 -0.0056946985 0.00014171004 -0.039969523 0.026671324 0.031263527 0.019871581 -0.027902292 
0.03956536 -0.032558035 0.014170021 0.021333173 0.030331288 -0.031294037 0.0064692646 0.021788616 -0.0067678504 0.03918754 0.0066959187 0.0165608 0.03265846 0.026199233 0.026001353 -0.027589738 
-0.038489874 -0.0013655573 -0.0062061846 -0.027379297 0.027592141 0.014963597 0.019438338 -0.00016399473 0.03731544 -0.015679577 -0.028119352 0.015028514 -0.036660768 -0.0022418648 -0.03967841 -0.019634577 
-0.0026057027 0.03605329 -0.03979554 0.022645537 0.025336895 0.030573715 -0.012357848 -0.031822693 -0.0073346384 -0.015958318 -0.0086517 0.01011917 -0.015399583 0.016443785 0.004060369 -0.012434008 
-0.014648419 0.0146966055 -0.034125127 -0.0013612956 -0.018996999 0.017662 -0.028284468 0.005898416 0.02567384 0.006163761 0.03462464 0.027112972 0.039567437 -0.02242585 -0.0058439746 0.015429471 
0.03446499 0.026148941 0.03714585 -0.032136567 0.014666844 0.028669145 -0.037928898 -0.0006014742 0.0027651787 -0.036147233 -0.023609044 0.02224316 0.022875126 -0.022488749 -0.01900327 0.005222954 
0.028618101 0.016562331 -0.012054419 0.02974261 -0.009692272 -0.017694205 -0.020351075 -0.022471827 0.007230945 0.008309189 -0.008075621 -0.01578736 0.019070037 -0.0038415566 -0.0314438 -0.028051235 
0.001390975 0.009593885 0.02482928 0.039542925 -0.003491588 -0.025318451 -0.03828536 -0.022626016 -0.009729497 0.009855799 -0.015677528 -0.004724875 -0.021566961 -0.037425283 0.026654456 0.007435143 
-0.03578108 0.017560251 -0.012119137 0.025583003 0.004276037 -0.03515285 -0.030152183 -0.03395553 0.02569947 -0.01987617 -0.03948268 -0.037104934 0.037965294 -0.029595457 0.03510746 0.015963327 
-0.013129352 -0.03987243 -0.03636933 -0.032333143 -0.017421048 0.020282947 0.027734455 -0.0032476187 -0.0032401197 -0.028353006 0.03290199 -0.022301272 -0.0025190264 -0.00480704 0.013039112 -0.0042444356 
0.036597524 0.034463916 0.023214888 0.007275466 -0.0028037913 -0.009316878 0.011618145 -0.028802283 0.03056841 0.025394652 -0.029919773 0.013077743 0.013805371 -0.018027876 -0.02920051 0.022100098 
0.010499746 0.02656078 0.0023514964 -0.00072268397 -0.0054179877 -0.032517336 -0.026906375 -0.031695873 -0.0045104884 -0.030725054 0.022823509 0.01053267 0.01058558 0.038146127 0.005514011 0.039472584 
0.024587158 0.0023111142 0.01525541 0.00830736 -0.0013269931 -0.034689113 -0.021024937 -0.0060724393 0.020305462 0.029536221 -0.015954362 0.024303045 -0.01728736 -0.026856788 0.026340965 -0.028739462 
0.0073242746 0.0015525371 0.004534658 -0.03708035 0.02811205 0.025217231 0.02852362 -0.03813814 0.025160875 0.012534093 0.025602903 0.023604173 0.013503339 0.030670691 -0.025153078 0.027156483 
0.003079515 0.020268764 -0.027371231 -0.037302744 -0.027074125 -0.02661547 -0.021689137 0.023858447 0.0009757392 -0.0006924905 0.017809715 -0.035620656 -0.03512279 -0.009592861 -0.025916222 -0.019508226 
-0.01754553 0.0028151572 -0.0022348762 0.022709314 0.0050796345 -0.013022143 0.00602543 -0.0073494613 -0.021916337 0.03031699 0.039490636 0.004743751 -0.037176996 -0.029013759 -0.0128694195 0.0145642795 
0.0012646429 -0.021180773 0.009602372 0.013008419 -0.03475445 -0.022298742 0.029418897 0.0309874 0.0036425404 -0.015686186 0.036618654 0.007539928 0.024949726 -0.023718188 -0.0009507835 0.035423715 
-0.024837151 -0.02494932 -0.026563395 0.017292827 0.006138459 0.016809028 -0.032576986 0.009971175 0.03598422 -0.028740056 -0.022373687 0.002641663 0.037962664 -0.029554596 -0.03428106 -0.012293743 
0.0020203441 0.03937475 0.03992113 -0.02461698 -0.013690423 0.03814957 -0.023026962 -0.037996527 -0.039862365 0.027240034 -0.02312921 -0.032341875 -0.022140292 -0.02491131 0.03949352 0.0014701784 
0.010659728 -0.022340897 0.017930932 0.026830714 0.014178522 -0.019470293 0.00982343 -0.015540518 -0.035422385 -0.02516367 -0.033092454 0.00881717 -0.0035703816 0.005046729 0.017648153 0.03770748 
0.029205155 -0.007593047 0.033763263 -0.038105324 -0.019917848 -0.013098229 -0.016997924 0.025029425 0.03467313 -0.017427195 -0.029447157 0.012780052 -0.0019300394 -0.03790301 0.023074824 0.0018443204 
-0.020545743 -0.019584443 0.02221851 0.032879714 0.0012357123 -0.0370747 0.036863875 0.011104342 -0.030887354 0.01055935 0.025155302 -0.02038828 0.0014283136 0.033631857 -0.035729896 0.019781277 
-0.009414423 -0.02135924 -0.039183006 0.015481241 -0.010198981 0.025788423 0.014998302 -0.0019774213 -0.008388415 -0.024896208 0.009129457 0.025045011 0.009612117 0.03911155 0.02505878 -0.032990467 
-0.014830973 0.0288519 -0.0039882585 0.006364424 0.030460838 -0.038334746 0.028862637 -0.01456612 0.039747704 -0.020352636 -0.038137786 -0.0066480003 0.02837642 0.026841294 -0.016232807 0.016268421 
0.009527415 -0.036225982 0.029866885 0.0168472 0.032790016 0.021498404 -0.0034439936 0.024445694 -0.00014919043 -0.028459227 -0.0031678863 -0.039891534 -0.007911369 -0.020639304 0.029406343 -0.013058284 
-0.017574318 -0.017610086 -0.014566444 -0.0119308345 0.018571548 -0.02164546 0.010909423 -0.025526758 0.0006143078 0.0015080273 -0.022257095 0.0039373673 0.032694314 -0.011132393 0.033122543 -0.0050726905 
0.03255259 -0.02820484 -0.030903893 0.0016675033 0.03375386 0.0011915155 -0.022032538 0.029253263 0.011514999 -0.008211158 -0.036132026 0.035018515 -0.03128221 -0.031957477 0.0005133897 -0.0014445148 
0.0018337108 -0.034927573 0.019083206 0.0065441243 0.033261765 -0.0100199 0.030189987 -0.03831117 -0.026383512 0.029621724 -0.020210214 -0.03835088 0.0115968585 0.03197783 -0.011693465 0.0023087487 
0.014954653 -0.040115524 0.03944577 0.03915676 -0.028120998 -0.037533045 0.021234058 0.029768284 0.033394527 0.021105349 0.001496572 0.0016240254 0.0006816387 0.010436084 -0.010600414 -0.026867993 
0.02094575 -0.0150015 0.010337435 0.033067655 0.0018986203 0.021553949 -0.0307283 0.03139205 0.03553732 -0.028359096 0.035161916 0.020627525 -0.03975733 -0.015192224 0.016011909 0.021495868 
-0.036171444 -0.038258173 0.021706156 -0.009854708 0.027658124 0.028081562 0.018252987 -0.0021870397 0.0349817 -0.002559688 -0.0216529 -0.0085235685 0.010830227 -0.02764075 -0.031606495 -0.005101219 
-0.02151411 0.012062781 0.026948776 0.01719172 -0.02328544 -0.02814063 -0.011274679 -0.03537913 -0.022965586 -0.036716886 0.008077931 -0.03912322 0.0073778667 -0.026395788 0.02027177 -0.009613421 
0.0024880841 0.024862882 0.016568795 0.0017159767 -0.0066836923 0.012585707 -0.018737506 -0.023684297 -0.03099371 -0.011817163 0.0075619332 0.010817386 0.017512858 0.035973806 0.001726944 0.03548349 
-0.026391163 0.017092817 -0.027458407 -0.03142684 0.0051243827 0.007270016 0.025326509 0.020948477 0.032429416 0.0237667 -0.038642414 -0.025246736 -0.00038036704 0.022394333 0.027042959 -0.0059862696 
-0.007040795 0.032634187 0.018952977 -0.035972964 0.015549395 0.010909807 -0.038824674 0.0047134683 -0.03395485 0.038593728 0.02995595 0.014691848 -0.0063165016 0.019446887 0.03719956 -0.0008885674 
-0.03308534 -0.023827827 0.037109297 0.03469297 0.01938828 -0.036492705 -0.0047354847 0.0185075 -0.03429351 0.014423929 0.0072099715 0.026982997 0.021997605 -0.037956744 0.0072273426 -0.009885084 
-0.029810093 0.0053736567 -0.008791786 -0.03076445 -0.016723722 -0.0358078 -0.020775022 -0.00078497827 -0.0037631728 0.0143735185 0.022969592 -0.01712641 0.03596515 -0.007866062 0.01565899 -0.0042674094 
0.032229822 0.0015642978 -0.03967092 0.002303049 0.024699952 -0.011524163 0.0070544146 -0.0031808503 -0.037991375 -0.031586893 0.011500288 0.03954267 0.014483772 -0.021830697 -0.018340124 0.002521716 
0.01970961 -0.016497135 -0.03459231 -0.026390925 0.037551377 -0.009945493 -0.033020616 -0.03602496 -0.007822018 0.024791319 0.010451566 0.004863102 0.037133273 -0.03317213 0.0010098703 -0.022045352 
0.027839001 0.0046941824 0.017172195 -0.007640995 0.034154784 -0.034188647 0.001971066 0.0063679107 0.009417862 -0.032076858 0.028013844 -0.026707232 0.025150705 -0.0031868555 -0.013885735 -0.010603957 
-0.001090914 -0.039931946 -0.0112685785 0.022001617 0.00023087859 0.0051982366 -0.008078784 -0.038412523 -0.02298702 -0.021971958 0.019293666 -0.026550246 -0.014605794 0.033124764 0.025442254 -0.016544059 
0.0141934045 0.016993672 0.015494965 -0.0054220855 -0.03632745 -0.0029314645 -0.021296868 -0.017279815 0.0009074025 0.03490125 -0.016815444 0.029186834 -0.020645117 -0.011828817 -0.02114241 0.028383318 
-0.012114299 -0.013742557 -0.018379167 0.0056749396 -0.02883942 0.02721228 0.0135171 -0.033861376 -0.016060641 0.030912649 -0.018707292 0.028430361 0.038074527 0.022063315 0.013959404 0.027460042 
0.0038078763 -0.03556814 0.020863 0.020227846 -0.014617065 -0.007774923 0.007637147 0.01582219 -0.010630626 -0.018793797 -0.021159332 -0.026441248 -0.014644435 0.0075847246 -0.015140742 0.03905217 
0.012710385 -0.0016416758 0.018718049 0.012387373 -0.022861078 0.035630766 -0.02658772 -0.0007010028 -0.03389631 0.031627294 -0.014297845 -0.02257417 -0.036000963 -0.010246679 0.028298449 -0.030407201 
0.009327527 0.035493646 -0.02551564 -0.00054755807 0.015518464 -0.02806171 0.00034585223 -0.019187061 -0.02315312 0.0067995004 -0.016699014 0.0048238076 -0.024437211 -0.03756554 -0.035110213 -0.03202824 
-0.01592165 0.0066544637 -0.03346298 -0.03628371 -0.01645905 0.029826384 0.021862354 -0.00940886 -0.0045207813 -0.009377554 -0.03134116 0.010764994 0.03863466 -0.037885256 0.03452887 0.032361526 
-0.029890038 0.032848354 -0.018698981 0.0058574677 0.012526497 -0.018902134 0.032439258 0.0024106018 -0.004508842 -0.03720968 0.022596274 0.024848703 0.023547184 -0.029694345 -0.011975596 -0.009561421 
0.036777046 0.029789407 0.014875963 -0.027295426 -0.008552097 0.017547186 -0.026068907 -0.035679955 -0.01207496 -0.020001229 -0.023572376 -0.014783006 -0.0076281354 0.024607655 -0.02855727 0.037343983 
-0.008443147 -0.024485966 0.01936135 -0.007911656 0.0061097406 0.016401503 0.011066496 -0.030723184 -0.031859033 -0.038793128 0.013200771 -0.030244146 0.0020098872 0.031075072 0.021841746 0.014159784 
-0.0029602982 -0.0073100366 -0.021040834 -0.0069874376 -0.0350922 -0.008094765 -0.033931866 -0.017549314 -0.037902657 0.0098504275 0.035618734 0.0038205162 -0.029486872 -0.031523917 -0.0061745606 -0.038582966 
0.031434137 -0.0070138387 -0.030551422 0.0027844459 -5.172193e-05 -0.0033016875 -0.013945309 0.033301633 -0.0067194216 -0.006346278 -0.03602735 0.0053155385 -0.025979148 -0.03837842 0.0056581646 0.039829586 
-0.008576535 0.036405925 -0.021143636 -0.02801809 -0.0036158785 -0.03924554 -0.0018127374 -0.037631214 -0.036541104 -0.010473095 -0.03417422 -0.032103788 -0.030017711 0.03914803 0.030021127 -0.0072332136 
0.014012344 0.037518453 0.033148084 -0.02229833 0.0071018822 -0.021937512 -0.013931682 -0.0124098845 0.028791297 0.0070283264 -0.0061485693 0.022134822 -0.028901782 0.026443448 -0.0122144595 -0.031919137 
0.022706669 0.03154633 -0.008644365 -0.0034039244 -0.016076816 -0.030232739 -0.008067682 0.022589665 0.038789947 -0.0048936605 -0.013774743 -0.027131075 0.02345812 0.02984145 -0.020915527 -0.009264169 
-0.03449447 -0.0126102995 0.013760954 0.030064624 -0.0069180913 0.027383503 -0.0002043806 -0.032885827 -0.032760326 -0.024478028 -0.035162453 -0.012469154 0.0067639127 0.022112098 -0.004367102 0.027010854 
-0.0070672557 0.011876497 -0.016351802 0.03496262 0.023967084 0.004661221 0.013266161 0.03150699 0.01909757 0.03581505 -0.037057184 -0.03275419 0.022425074 0.036291953 0.008940715 -0.03484947 
-0.039877743 -0.01382185 0.022898335 -0.015095282 0.007841431 0.03146479 0.0037741102 0.03533372 0.032870214 0.005633723 -0.023786189 -0.013828678 0.03707109 -0.027571235 0.01922128 0.001502566 
0.024253223 -0.03292667 0.035317633 -0.026617521 0.021360885 -0.01452741 0.0027106889 0.039209705 -0.008924743 -0.00953364 0.023464758 0.002745796 -0.031994924 0.03303772 0.01825884 0.023413349 
0.008505624 0.002560053 -0.013594745 0.0036517717 -0.0038176142 -0.0071908087 -0.02863777 -0.025757618 -0.0224012 0.004892759 -0.022091394 0.01467621 0.012555245 -0.018267248 -0.0056038946 -0.033313736 
-0.018658146 0.026713658 0.0007012524 -0.03140653 0.02389421 -0.035767548 0.009543963 -0.011136442 -0.030782953 0.0049474686 0.018852662 -0.0039183795 -0.0118066 0.035211455 -0.002947513 0.00032371283 
0.015921824 -0.036638916 -0.01806301 0.012229964 0.014771849 0.0007630661 -0.04000219 0.004198231 -0.030617855 0.017377216 -0.03494101 0.027223613 -0.0019000471 -0.019955808 0.007860448 -0.0023509115 
0.029941883 0.035532285 -0.007770449 0.023779113 -0.00441071 -0.004334435 0.01474699 -0.006636087 -0.019220062 0.013189923 0.021930713 -0.016200121 0.0037104264 -0.024620237 0.023874294 -0.03458036 
0.024145652 -0.020782942 0.0061400197 0.021187201 0.0066139363 0.0016999096 -0.004464999 -0.01882942 -0.03425833 0.033125658 -0.029806782 -0.013090959 -0.013638021 -0.021238616 0.023900572 -0.004110262 
0.016375218 -0.027988987 -0.031089175 -0.023124918 -0.022696959 -0.021787621 0.037452627 -0.013730999 -0.030983722 0.002925679 -0.024355065 -0.035070136 0.0064961575 -0.014697986 0.0079516545 0.029756833 
6.308779e-05 0.0375331 0.007457264 0.027251553 -0.023869408 0.028508592 -0.03373486 -0.026917368 -0.021844123 -0.0037519522 -0.024414727 -0.020478038 -0.019150423 -0.03980179 0.0040302686 -0.03434776 
-0.019609947 -0.039544243 -0.029411621 0.00074290857 0.020689916 -0.025436778 -0.025462817 0.030744899 0.022803862 0.003774751 -0.032224614 0.003929984 -0.03222465 -0.013965037 -0.038386945 2.95043e-05 
-0.02117407 -0.0025357082 -0.017045556 0.02756666 0.0019945651 0.017840177 0.011460319 -0.01924269 0.0225025 0.030375157 0.02293409 0.031948727 -0.017612586 -0.036980525 0.0146662295 -0.015577856 
0.01983634 -0.0012248121 -0.038646705 -0.0054477043 -0.019643838 -0.03451034 -0.0072224326 -0.0035107024 -0.0110644195 0.023082238 0.0032890067 -0.006393239 0.0015693046 -0.029617226 0.0008853115 0.016716473 
-0.008866414 0.015720747 0.0066083744 0.03308359 -0.012197988 0.018012151 0.021251429 0.031505626 -0.028082846 -0.010954089 -0.03675273 0.0078044645 0.034892406 -0.029260091 0.039800245 -0.03423632 
0.0015783533 0.026130024 -0.019887365 0.0020208992 0.03481331 0.027417187 -0.036057927 0.02160408 -0.009056045 -0.027220193 0.027081061 -0.014795655 -0.012329137 -0.037785616 0.029154245 -0.008660559 
0.016278073 -0.006276291 -0.02800313 -0.026854413 0.023591194 0.020299487 -0.023674548 -0.039655197 -0.004979003 -0.021466084 -0.004398953 -0.030556355 -0.028461985 -0.014700994 0.012758315 0.008841906 
-0.03262817 0.0012383163 -0.012224736 -0.006945703 -0.008921765 -0.013202066 -0.014582695 0.0060881525 -0.028331757 -0.034135565 -0.027368704 -0.013522759 0.028877858 0.008281555 0.024683919 -0.024606695 
-0.014408261 -0.015385715 0.026112545 0.011111066 -0.028490093 0.019616514 0.02077416 0.027073365 -0.014976544 -0.02588937 0.02601413 -0.03386013 0.0068384856 -0.040127937 0.025404643 0.014114678 
-0.005307667 0.011161707 0.0392917 0.02489597 -0.0020091012 0.034761805 -0.0048716925 -0.017824454 0.022170246 0.01776914 -0.0123911165 0.015291799 -0.009351669 0.039988976 0.030264925 -0.0060666725 
-0.02822497 0.036335964 -0.013942005 -0.019500824 0.034650903 0.010427635 -0.03092312 -0.014120912 0.03654295 0.032278683 0.032162394 0.0048480965 0.026280042 -0.034667842 -0.037091736 -0.03699781 
-0.009084957 -0.02131129 -0.0152760465 0.031377222 -0.0047908574 -0.03352437 0.021699615 -0.033976436 -0.03463985 0.004237313 -0.006234452 -0.036267705 -0.026992869 0.028087143 0.034542646 0.029393967 
0.038785573 0.006259963 -0.037409395 -0.0063366406 -0.017298756 -0.029272638 -0.02433014 0.02349997 -0.027868658 -0.023376338 -0.036879502 -0.034147143 -0.034852378 0.038594265 0.021860499 0.009056669 
-0.0024807006 0.0120140165 0.03983399 0.010077398 0.01594786 -0.0012181588 0.019893091 -0.004227601 -0.030733567 0.013516545 0.0055331327 0.0003250055 0.022160862 -0.029218014 0.009214591 0.033655915 
0.011835981 0.007596284 0.03212707 0.017338067 -0.014639627 -0.006078042 0.009130329 0.03059828 -0.0091913305 -0.025344338 0.010360945 0.012392983 -0.005364485 0.026725564 -0.0016738027 0.037864927 
0.003499966 0.015382029 -0.019507967 -0.028316375 0.02040682 0.021481931 -0.03689428 0.00818551 0.006721422 -0.025438512 0.023693185 -0.024288682 0.03493535 -0.021047767 0.0057210885 0.031636383 
0.036306176 -0.022339595 -0.008251034 -0.022283526 0.038111176 0.032988075 -0.005446516 -0.014450263 -0.021505624 -0.026112624 0.017990306 0.0038174056 -0.0055817254 0.0075481907 -0.037711415 0.002967883 
0.0008639656 -0.0363253 -0.020193791 0.03488225 0.009462219 -0.028312307 0.021935664 0.01701247 -0.0037001818 -0.03821844 -0.037974626 -0.02336251 0.0013934635 -0.00612035 0.012653243 -0.03934814 
-0.00046014786 0.035202313 0.035067867 0.03277057 0.03165702 -0.015841648 -0.016888177 0.018674254 0.025455255 -0.0013250001 -0.0026431829 0.029080566 0.03862651 0.010553431 -0.022753181 0.007308379 
0.00768099 0.014270764 0.021579985 -0.008695569 0.022171203 -0.017651398 0.03434791 -0.03201218 0.00267791 0.029852267 0.021756038 0.004672598 0.024902876 -0.029619198 0.037103515 -0.02520321 
0.031198215 -0.032543182 0.020285685 0.016500581 -0.017531933 0.0065356866 -0.03693226 0.023281846 -0.029719051 -0.02504993 -0.01852831 -0.014500521 0.019562572 0.0186827 -0.0075887665 -0.0072268173 
-0.0336185 -0.01661323 -0.025003983 -0.012389621 -0.038576223 -0.014033508 0.01700931 -0.0059479848 -0.028702017 -0.017555088 -0.02376537 0.037225757 -0.024360476 -0.00017004833 0.015416849 -0.0050442405 
0.031791482 -0.038089942 -0.034458723 0.022619616 -0.023857916 0.0127831735 -0.002321273 -0.01480213 -0.010376995 -0.02651831 -0.016851395 -0.012011919 -0.007673241 0.013439808 0.008391749 -0.037360728 
-0.0007787645 0.00027921796 -0.006913632 -0.020081105 -0.008477878 -0.03396456 0.034494314 0.013829846 0.003991142 -0.033370517 0.022305436 -0.034324434 -0.037428875 -0.03646833 -0.017252512 -0.013555665 
0.0129381865 0.02787884 -0.014250845 -0.018628526 0.015452914 0.0384587 -0.026298176 -0.034638308 -0.013808003 0.030413646 -0.03449245 0.00044154748 0.000915993 -0.008671917 -0.014473908 -0.025499782 
-0.016527185 -0.016701514 0.013864409 -0.006882269 0.023487348 0.027381655 0.019711532 0.028414603 0.016175043 0.032033663 -0.016946834 0.013390001 -0.025816675 -0.023606258 0.014545493 0.015768964 
-0.00027132034 0.02688292 0.008844338 -0.02157285 0.013601132 0.028990868 -0.010887237 0.039833393 -0.005264811 -0.026569583 0.0032166392 0.0047186315 0.024847727 0.01432126 -0.015792042 -0.016906632 
-0.0033262037 0.008265045 0.02241071 -0.004084021 0.009691525 0.039416786 0.03207537 0.035122227 -0.035136245 -0.03836336 -0.037608393 -0.004269507 0.013146836 -0.010600816 -0.030449953 -0.014472155 
0.0013969094 -0.031652138 -0.03863351 0.030730356 -0.0012705103 -0.017474666 0.0155994035 0.031578157 -0.020007195 -0.0348684 -0.017879814 -0.02315295 -0.017752707 0.0367934 0.039111618 -0.019740885 
-0.035459418 -0.011516474 0.0022322051 -0.033718523 0.0012376085 -0.004293449 0.011714704 -0.035332933 -0.0003119819 -0.012239665 -0.03604904 0.034232806 0.021773074 0.033200603 0.030608173 0.034045335 
0.029889751 0.039151605 0.036724787 0.03455333 -0.03609061 0.0074531287 -0.008356564 -0.037756845 -0.002013132 -0.019884722 -0.027802056 0.00015651807 0.017698966 -0.036840674 -0.018678965 0.025776204 
0.010854151 0.002163224 -0.0025808625 0.023462031 -0.01923797 0.019884013 0.0002477616 0.039320584 0.02056326 0.005023852 0.016111799 -0.013264809 0.015417356 0.02208905 0.011106335 0.030291308 
-0.012091307 -0.03338104 -0.018744277 -0.012662405 -0.016649581 0.02057198 0.035434674 -0.01074608 0.033098374 0.007631257 0.025101472 0.014931507 0.0071306787 -0.012687448 -0.0107814465 -0.004241161 
-0.02766224 0.013230391 0.009121884 0.02144127 -0.004348781 0.005987659 -0.03955724 -0.04002954 0.032819215 -0.027669758 -0.00079217926 -0.0040059946 0.03178997 -0.03822543 0.03840315 0.0064712577 
-0.033185367 0.029670727 0.029970903 -0.025045937 -0.0043374896 -0.02071107 -0.014467223 0.01723991 0.028104227 0.020012978 -0.022840546 -0.018494764 0.036571834 -0.03422068 0.0045800023 -0.03827971 
0.0117058195 -0.016173203 0.010164142 0.00046999007 -0.0034329593 -0.02354379 0.012050606 -0.0049131475 -0.020078281 -0.014718106 0.004784085 0.018666957 -0.019558597 -0.005504422 0.025688108 -0.028288547 
-0.03847476 -0.018435495 -0.033243008 0.026543114 -0.016063955 0.010715827 0.0036362 -0.003801249 0.031302627 -0.029627625 0.003090173 -0.022677068 0.014811743 0.0057976805 -0.0035501458 -0.009005722 
0.001814872 -0.009704618 0.026832242 -0.036286216 -0.015838096 -0.02799387 -0.023950616 -0.016239261 -0.0064644404 -0.033639383 0.03872506 -0.027201165 0.0022735447 0.020737931 -0.023767084 -0.0027627833 
-0.0153664 -0.03913247 -0.028884582 0.025545489 -0.016911257 -0.019123971 0.03604712 -0.028810252 0.026502986 0.035710063 -0.005331494 -0.029318748 -0.03204429 -0.038251277 0.018920597 -0.015252441 
-0.021914529 -0.039695267 -0.0382851 -0.039009165 0.026714843 -0.003083326 0.03843594 0.03851955 0.028939407 -0.030561086 -0.002324596 -0.033350598 0.027800333 0.011903025 0.034287993 0.0032527708 
-0.017020686 0.014918771 0.03272142 0.029372346 -0.02157378 0.017871886 0.010708015 0.01118014 0.026158776 -0.02545618 -0.0016993918 0.022724617 -0.020929892 -0.019919427 -0.002967652 -0.006092433 
-0.03317966 -0.027088825 0.006929517 -0.022255056 -0.038700517 -0.0015438981 0.009867188 -0.025083382 -0.00079830736 0.02970029 -0.0068018734 -0.0113514345 0.026382226 0.028574366 -0.039140802 -0.015293073 
0.00434814 0.020350344 0.007246565 -0.020317987 0.017165646 -0.014942912 -0.015860686 -0.006201174 0.035586987 0.008467067 0.028243575 -0.016944237 -0.009351525 -0.003249362 0.0024105832 0.029612925 
-0.012173368 0.012961898 -0.035923664 -0.016208922 -0.0154693555 0.007898901 -0.039218973 -0.008153595 0.0009059869 0.004517019 -0.013386028 -0.027651235 0.024982285 0.014498711 0.02057087 0.029385488 
-0.019785797 0.0141934715 -0.022204874 0.010439474 -0.0067757666 -0.026863042 0.02417631 0.024877574 -0.029627223 -0.030006612 -0.014961271 -0.02843836 -0.018382337 0.02568094 0.008604009 -0.027108772 
-0.030874234 0.016219247 0.020512562 -0.030947294 -0.008854136 -0.022902114 -0.03712605 0.0341142 -0.034205187 -0.03705589 0.039759275 0.02999032 -0.024873935 -0.013247801 0.020768326 -0.010483945 
0.03774586 -0.00914455 0.012964532 0.019076608 0.035126727 0.00738338 -0.016410401 0.0101535395 -0.012104215 0.032286096 -0.014944702 0.013655126 0.027136121 0.035788964 0.0053061433 0.027186904 
-0.036491267 0.02888761 -0.032636896 -0.016618688 0.025997106 -0.017010124 -0.025000297 0.013138648 -0.03799866 -0.036864094 0.014696874 -0.02219096 0.02721506 0.025362846 0.03165297 0.0039171726 
-0.03619251 -0.00120138 -0.003413625 0.006849449 -0.008893888 -0.028416622 0.015620537 -0.011641206 -0.038626578 0.032891277 0.012334805 -0.019063335 0.019819792 0.010420501 0.030838158 -0.017612586 
-0.022147177 0.006027773 0.0061775893 -0.03795961 -0.021383794 -0.031512808 -0.032012112 -0.032940853 0.013047636 -0.02050379 -0.020759134 0.012150921 -0.024056666 0.02956416 0.015737064 0.0061706826 
0.0021732897 0.013272949 0.019840509 0.023095813 -0.018381916 0.010793138 -0.0026183538 0.014025588 -0.022537962 0.032809835 0.02679753 -0.018832419 0.015476443 -0.03359105 0.03578343 0.029203985 
-0.03742768 0.027498495 -0.019329214 -0.037554353 0.02553707 -0.027867567 0.026632186 0.026095297 -0.011035297 -0.030455574 -0.022388695 -0.024796864 0.025584657 -0.030851882 0.022894967 0.04005974 
-0.02942587 -0.034452327 -0.02423086 -0.011255765 -0.0042446665 -0.014417933 0.014061108 0.04006088 -0.034741793 -0.019149475 0.014971487 0.006457612 0.016030505 -0.01934803 -0.007157445 -0.005652409 
-0.006855473 -0.0055346936 0.025983576 0.035960656 0.0012117885 0.039932523 -0.030519811 -0.022216385 -0.017883617 0.0030499026 0.018970069 0.015576143 -0.036361948 -0.000563927 0.025461849 -0.019482167 
-0.037284616 -0.012524007 0.031297807 -0.015113315 -0.02245594 0.024447035 -0.0058443956 -0.01572968 0.01838616 -0.016950779 -0.02497444 -0.006018419 0.02862868 -0.0028768964 -0.013769945 0.038776 
-0.028110549 -0.011497034 -0.03978671 0.027870942 0.029685523 -0.011510018 -0.01771243 0.008904211 0.026795875 0.0318277 -0.034855224 -0.013730289 0.02883916 0.009997312 0.02100493 -0.013428988 
0.0033517703 -0.00058118254 0.03433391 -0.01681941 0.033306237 -0.005817935 0.023183059 0.020341497 0.030280437 0.0046400875 -0.009312712 -0.03272162 -0.03548717 -0.03813497 0.0033924244 -0.0024304166 
0.035459552 0.018869698 0.020284232 -0.025992995 -0.021947594 0.03758998 0.014493033 0.020762362 0.0037416853 0.020036433 0.0070724078 -0.02374932 0.034162875 0.025265101 0.017001707 0.020383146 
-0.02084877 -0.019092888 0.028036576 0.026117604 0.0057741925 0.038945425 -0.02885453 -0.028402306 0.0033009686 -0.02175781 -0.038585283 -0.003703609 -0.008379798 -0.015316699 0.021530915 -0.023586579 
0.013209179 0.026424076 -0.009777857 0.037524465 0.005416885 0.038040403 -0.016033636 -0.01860701 0.033698585 -0.02071381 0.009546798 -0.0070777237 -0.033789963 -0.004112445 -0.027149212 -0.031170692 
0.006140344 0.0318279 0.027765606 -0.005377833 0.012153201 0.037412543 0.028204072 -0.018395254 0.025272217 0.014141969 0.004908044 0.009383261 -0.037575297 -0.005209863 -0.019976292 -0.028995574 
-0.039424263 0.03096288 -0.021089548 -0.028279841 0.02981894 0.0164315 -0.009876447 -0.01940321 -0.038468316 -0.03824939 -0.02521447 0.014378164 0.016666789 0.01743456 0.022935275 0.027162332 
0.03399169 -0.008744791 0.022725757 0.021962631 0.034975555 -0.034480672 -0.038622897 0.0044956356 0.027661677 0.013621196 -0.030599132 -0.020542018 0.020932555 0.0023166388 0.01637631 0.010933127 
0.025884096 -0.023667881 0.0048660226 0.03611615 0.029362272 -0.015543871 -0.016256977 0.031190332 -0.023536991 0.013984468 -0.037539683 -0.00078769773 -0.0037791766 0.0352483 -0.025410922 0.013699453 
0.017418671 0.014749173 -0.017167512 -0.019192243 0.01513128 0.007804226 0.03210516 -0.02556835 0.00010934472 0.011861876 -0.008694086 -0.017115742 -0.030184686 0.004094269 -0.0088579655 -0.0063339993 
-0.0030168556 -0.024848212 0.019147146 0.004849091 0.027665574 0.022270713 -0.021082558 -0.0007237196 0.03638694 0.01800764 0.0032788776 0.015981741 0.01806866 -0.02647354 -0.03358155 0.02350064 
0.03319792 -0.026545689 0.019937258 0.018825274 0.015869431 -0.024209283 -0.01969624 -0.011342978 0.018768229 0.018965617 -0.0219961 0.019796763 0.017776247 0.007379703 -0.013424583 0.004327856 
-0.0058245733 0.009735711 0.039702076 0.020078309 -0.02649068 0.025339704 0.011196565 -0.033659704 0.038334575 0.032624837 -0.031052174 -0.011077702 0.004734155 -0.01088264 -0.0037483685 0.025096808 
-0.026485194 -0.039941292 0.0361231 -0.021971345 0.010148302 -0.02728989 -0.023751704 -0.020580765 -0.036197826 0.006490562 0.03012507 -0.033587575 -0.013926731 0.03292432 -0.04006304 -0.015602123 
0.0035465658 -0.027643431 0.015057333 0.0056599155 -0.01711081 -0.0005332157 -0.016072344 -0.02500856 0.033121284 -0.0006220266 0.035592165 0.028614674 0.013258211 -0.01998292 -0.03904387 -0.016879924 
0.017749663 0.025665548 -0.032123495 0.024827745 0.0073820315 0.027765658 -0.0013380907 -0.02151771 0.027672831 0.0060945787 -0.003123872 0.026419621 -0.019241657 0.017617088 -0.028681554 0.020247515 
-0.024226407 -0.005894769 0.012724318 -0.004865382 0.001804214 -0.025329523 -0.025569346 -0.006383233 0.014255203 0.035291974 0.005549222 -0.024286624 0.028611403 0.004295595 -0.039476167 0.022314966 
-0.016162496 -0.020789577 0.021035664 0.023835372 0.011231307 -0.009157976 0.0073913485 0.012521315 -0.016352704 0.0373316 -0.013349811 -0.023376653 0.012603357 0.0137035735 -0.021768918 0.034185123 
0.004971631 -0.02035522 -0.00081530586 -0.00682275 0.033750806 0.03897762 0.011763278 -0.014643429 -0.0031231157 0.014783878 -0.024341267 -0.034034163 0.011732336 -0.015769662 0.01841167 0.018553868 
-0.031630725 -0.036249585 -0.0050077736 -0.017254082 -0.03348568 0.009381469 -0.022003358 -0.024696982 -0.0053685233 -0.029866442 -0.015438778 0.02310517 -0.019786373 -0.012297286 -0.037855025 0.024836864 
0.016042352 0.040119376 0.0003615208 -0.00477748 0.013653029 -0.032796048 0.013772447 0.012834359 0.02353682 0.03191274 0.04002511 0.02314714 -0.028363597 0.011154648 0.00791404 0.031522643 
-0.011468409 -0.02017663 -0.007515546 0.03254928 0.01393893 -0.039639693 0.03298181 0.0009388216 0.02554262 -0.025467195 0.03273155 -0.020449327 0.03327385 0.005937267 -0.0010000356 0.017702661 
0.036816414 0.017318208 -0.02570419 -0.008792378 0.037344467 0.01298897 -0.008164033 -0.029787991 0.025440034 -0.001721751 0.040040124 -0.034667324 -0.017378097 0.032022174 0.024790253 -0.034649014 
-0.037030935 0.0016551688 0.0047275648 -0.03132081 0.035671193 -0.018478272 0.030593771 0.008461311 0.006009884 -0.0014417581 -0.026739582 0.0066950284 -0.009870164 0.030213144 0.002128262 -0.022479441 
0.034934092 -0.023751466 -0.0067757107 -0.0329273 -0.010344589 0.0057909973 -0.020723347 -0.003987003 -0.03303472 -0.014346667 -0.02531531 0.026300427 0.004361097 -0.006670974 -0.017993143 0.0010194182 
0.02184908 -0.029171042 0.031621013 -0.028206583 0.009864476 0.0027258284 -0.0049355365 0.0010157041 0.03380118 0.0040468276 0.021480564 -0.004051566 0.0254887 0.009132091 -0.036726817 -0.0256366 
0.03931902 0.020926893 -0.006796062 0.0034787469 0.023356888 0.009699035 -0.0012660027 0.014537197 -0.018317092 0.03050873 0.0037819333 0.027787324 -0.0077311024 -0.00084230304 0.02030006 -0.01119552 
0.022518914 0.0061873645 -0.025709037 0.009324223 -0.037467178 0.01578736 0.0063138492 -0.026731806 -0.03545688 0.038969066 0.028135095 -0.01692725 -0.03192874 0.028501045 -0.039841842 0.02502818 
-0.034318704 0.0059140734 -0.032899473 -0.027604552 0.017502218 -0.02086979 -0.0010543726 -0.03292261 0.018138405 -0.028448444 0.035481412 -0.037888054 -0.015990619 -0.027939487 -0.0046946816 -0.03394243 
0.005978111 -0.010122944 0.006832365 -0.03309392 -0.01894226 -0.01600869 0.027273294 0.015159953 0.03452428 0.023701545 -0.008871414 0.0069145784 0.0049199574 0.031048696 -0.023181085 0.031426918 
-0.0068966113 0.0138783045 -0.027735613 -0.01231958 -0.03780042 -0.004799407 0.020791225 -0.013034526 0.018255018 -0.018967273 -0.012907237 -0.008062523 0.02665973 0.030477311 0.0208137 0.008084968 
-0.029268157 -0.017270584 -0.023759987 -0.029563598 0.01888708 -0.0033080056 -0.011761362 0.0018850379 -0.0032708496 -0.00821491 -0.024565231 -0.014700754 0.024669338 0.025318976 -0.036457136 0.006707154 
0.03766459 0.03103279 0.018945515 0.0179349 -0.009648979 -0.010829434 0.006420225 0.024848837 -0.030819936 -0.02016626 0.013746876 0.0003360547 -0.022187177 -0.0020297281 0.019558165 -0.002428241 
0.022919115 -0.03968047 -0.030808397 -0.029641252 0.03532275 0.0037550442 -0.012543131 -0.032251887 -0.029193163 -0.019119155 0.0282037 0.029200252 -0.025797771 -0.01374252 0.004995726 -0.0033657514 
0.0040897205 0.016148034 -0.020131353 -0.0228694 -0.022344 -0.0063658506 0.011818379 0.009435128 0.029285815 0.028108846 -0.01542788 0.031849552 -0.034513433 -0.021562183 -0.004571356 0.034413587 
0.0024336912 -0.012423992 -0.0097233 -0.0389981 0.011616968 -0.012755526 0.027084734 -0.03931768 0.020921472 -0.030870557 0.009201635 -0.010021921 0.03779837 0.03913595 -0.02805268 0.0029212534 
0.034252238 0.031449776 -0.02285994 0.012538619 0.038549114 -0.019871172 -0.006011773 0.019070316 0.02510966 -0.038571578 -0.005757913 -0.018963749 -0.008448988 -0.015922166 -0.020446483 -0.009256316 
-0.001820188 -0.009797346 0.0019142181 0.026670638 0.020905748 -0.038619798 0.028132278 0.034804393 0.031175483 -0.016538132 0.027772885 -0.015648616 -0.030946039 0.011470575 0.03491163 -0.027870059 
-0.0047642738 0.032727737 -0.011349183 -0.009966828 0.023025628 -0.036361467 0.004967399 0.03242619 -0.0006843507 -0.0103529785 -0.033195507 -0.023702022 -0.033671275 -0.00260669 -0.0042269602 -0.031045834 
0.038208175 -0.0066524707 0.037015382 -0.0298138 0.018392526 0.030798886 0.02587552 -0.023675524 -0.024942022 0.02584016 -0.014484096 -0.019585144 -0.002180826 -0.004237406 0.018685017 -0.022231612 
-0.039610773 0.02682634 0.034819294 0.03882109 -0.022347592 -0.03250773 0.009503666 0.026638735 -0.022293456 -0.02307449 0.01142611 -0.0016361289 -0.036509607 -0.0029619932 0.010519322 0.0068232752 
-0.034691956 -0.018494831 -0.01822262 0.009315845 -0.00527161 -0.029835846 -0.013876013 0.034599293 0.018194411 -0.036612496 0.008384846 -0.01724219 -0.0042036586 -0.030218882 -0.020431774 0.025910009 
0.024694558 -0.015295448 0.034641553 0.009201739 0.020147078 0.0051764585 -0.008044537 -0.02131201 0.027908217 0.0024060719 -0.027988996 -0.014313014 -0.0013154447 0.035274606 -0.013121584 -0.0036930256 
0.0244294 -0.008260667 -0.021872038 0.030327123 0.0217047 -0.0039092638 0.01486611 -0.015215209 -0.00929717 0.0016237758 -0.038733833 -0.02520844 0.012855247 -0.031339254 0.01868948 0.023235623 
-0.024068233 -0.008677453 0.0018198825 0.016363628 0.00081520155 0.004035011 -0.02385217 -0.023540266 -0.03883226 0.034111742 0.003058266 0.0030966662 0.0067305006 0.027439523 -0.026196226 0.01850864 
0.02356669 -0.032438837 -0.04000712 0.03278039 -0.033039134 0.030287083 -0.0018436201 -0.01315718 6.7245215e-05 0.013958611 -0.039826453 0.006466631 0.03914937 -0.021928424 -0.011740811 0.016517896 
-0.0019216798 0.020206805 -0.031102594 0.008408602 -0.032237023 -0.021667868 -0.011582857 0.022903685 0.004588343 0.007730633 0.010743082 0.0068552904 -0.02562598 0.0008983351 0.015535358 -0.02416261 
0.036586177 -0.034354396 0.023477774 0.012146909 0.031886328 0.012001786 -0.019839559 -0.033098977 -0.037892602 0.00671535 -0.001717519 -0.0009483248 -0.032976963 0.01605476 0.032939795 0.020219944 
0.0027157068 0.024752554 0.015954707 -0.030820243 0.030069482 0.02711941 -0.022805842 0.028704304 -0.0067371093 0.02585071 -0.020453809 0.017941277 0.035228442 -0.0104148425 0.0020074062 -0.015277637 
0.002691172 0.029468197 0.007060159 0.028336477 -0.02900738 -0.029255427 -0.03631666 0.016301736 -0.013471238 -0.015322579 0.019721866 0.0073596053 -0.03309714 0.0004474111 0.019949794 0.0063940324 
0.0018022992 0.038471777 -0.0023435764 -0.0045523085 -0.027243752 -0.038796317 0.030673128 -0.03671162 -0.020993728 -0.004150953 -0.0283647 0.03344771 0.018282399 0.010697987 -0.036586072 0.0002572015 
-0.013585294 -0.013449779 0.020519916 0.012213819 0.008906875 -0.0018332414 0.0051471554 -0.03526541 -0.024079878 -0.026342697 -0.022236649 -0.004667025 0.026246209 -0.030688278 -0.009466441 0.0077966526 
-0.039968394 -0.0021883324 0.0037679449 0.005170781 -0.0025272332 0.025032673 0.0014397651 -0.01251786 0.023463849 0.021121629 0.012888245 0.023731265 -0.005164366 0.033986334 -0.021834603 -0.03875444 
-0.012615576 0.035951894 0.019893754 -0.03526746 -0.0062508285 -0.030733911 0.018790513 -0.036656164 -0.03052757 -0.0018850006 0.0034251548 -0.029610598 -0.021492543 -0.031860344 -0.03691693 -0.029046997 
0.02640238 -0.024403311 -0.038579985 -0.005908329 0.030955378 0.008969512 0.017412294 0.02842534 -0.021805452 -0.010342032 0.0073169135 -0.007136561 -0.017708272 0.032220926 0.023296062 0.026670907 
-0.03318755 -0.02332948 -0.01315356 -0.012601748 0.015496593 -0.015569488 0.01025049 -0.018564165 0.027009714 0.031188462 0.0066848025 0.0018129386 0.008587606 -0.02545236 0.038570154 0.03653786 
-0.01664531 0.024181139 -0.023595972 0.029766273 -0.013364624 -0.0052813143 -0.0019887537 -0.016694572 0.013200294 0.027165849 0.022614572 -0.0256122 -0.037011076 0.029051337 0.022023987 0.02166649 
0.03232846 0.016999733 0.019610666 0.029733796 0.03202835 -0.037684496 0.012900896 -0.039859537 -0.015817238 -0.03029041 0.027684335 -0.032399036 -0.009382332 0.024195265 -0.01010585 0.02611174 
-0.021963406 0.023839768 -0.02639285 0.012570262 -0.023470972 -0.036692508 0.0013406873 0.036124635 -0.009925239 -0.03337923 -0.035952114 0.010863133 -0.026265137 -0.024231434 -0.010401579 -0.0355672 
0.028673645 0.01736451 -0.0330605 0.0070397034 0.0085820705 -0.036506437 -0.023881981 -0.017703973 -0.006954886 -0.03610137 0.008091051 0.032147516 0.021878768 0.036882658 0.01636478 0.016053978 
0.027104061 -0.008550938 -0.018423706 0.02986006 -0.03113615 -0.036718745 0.0116324425 -0.02279457 -0.0077486746 -0.030855618 0.025222976 0.0068927146 -0.039630406 0.005480312 -0.009888245 -0.0362475 
-0.030021388 0.032563236 -0.03045067 0.023902658 -0.013979057 -0.023771087 0.011790644 0.0387006 -0.03889032 0.03520276 -0.027553251 -0.029161196 -0.031858526 -0.0045140013 0.0006536171 0.02435946 
0.02327973 -0.012356851 -0.013012068 -0.014233904 0.022507805 -0.000116698444 0.0258994 -0.033425935 0.039719123 0.0047450922 0.03422327 0.035761114 -0.03339752 -0.0028415397 -0.032521117 0.0139893815 
0.040158745 -0.009695854 0.019828126 0.022174269 -0.030907437 -0.014882332 -0.011646435 0.009115554 -0.033444237 0.005946815 0.02173793 0.026163284 0.039364967 0.003140565 0.0032193772 -0.0053080022 
-0.016629126 0.016869072 -0.030163703 0.014245253 0.020446185 0.012672901 -0.020536626 0.019090042 -0.01978595 -0.032483548 -0.03691801 -0.0120191965 -0.007930271 -0.03233412 -0.036586974 0.032341007 
-0.038988978 0.0063141845 0.020160858 0.026264075 -0.038521055 -0.02208019 0.036120612 -0.024523351 0.00389418 0.0052656345 -0.014282562 -0.015740445 0.013083901 -0.009752795 0.010009512 0.018740505 
-0.026352886 -0.033824515 -0.031287655 -0.023837097 -0.035845146 0.013596937 -0.023618056 0.029124852 -0.037397455 0.015565157 -0.020668417 -0.0017680638 0.0083630085 -0.005644556 0.022167355 0.038026046 
-0.0074135475 0.010478955 0.010135949 0.02491657 -0.004251331 0.00071277097 0.029788818 -0.026437944 0.021086454 0.034442406 -0.018316498 0.030122753 0.018093456 -0.023951469 0.020593338 0.009300865 
0.017370705 -0.03567533 -0.015995225 -0.012507986 -0.03119013 -0.03107488 0.03609306 0.0089747235 -0.0173719 0.019389499 -0.02160001 0.019104522 0.017746098 -0.03163306 0.028412055 -0.022722326 
0.03216784 -0.0073531196 -0.03340791 0.02439722 -0.023705354 -0.014210546 0.00749309 -0.03517994 -0.005834542 -0.014219798 -0.024811726 -0.0019789636 -0.025378315 0.039447915 0.013662968 -0.012214154 
0.024011496 -0.020927468 0.025093894 -0.025656825 0.004310515 -0.0023007132 0.025505256 -0.0097093955 -0.0077381097 0.032749753 0.022483867 0.0264653 0.026215363 -0.011058731 0.018958472 -0.014260689 
-0.033001546 0.03827249 -0.009375533 -0.0072106123 0.008090083 0.03762049 -0.026858024 -0.0038057119 0.03906023 0.018010974 0.03131259 0.020353198 0.012431737 0.030593578 0.008402273 -0.0328468 
0.02899794 -0.0038211308 -0.011956768 -0.017375521 0.017613295 0.027797226 -0.022583162 0.012122929 -0.023914589 -0.038821027 -0.01660372 0.007564787 0.012675907 -0.0092299245 -0.024669018 -0.038431752 
-0.017353956 -0.03481868 -0.023133567 -0.027259361 -0.0068120137 -0.017386314 0.03390312 0.03346863 0.03397349 -0.02812817 0.009603001 0.032430504 0.014318213 -0.026893456 0.011087354 -0.0053794794 
0.0015071556 -0.031970635 -0.03782054 0.030660529 0.033410516 0.01823641 0.03706636 0.006564714 0.039454583 -0.022272436 -0.025860325 -0.02547112 0.04013693 0.029651958 0.035247963 -0.014126044 
-0.011460058 0.027078126 -0.018514425 -0.018505298 0.018225465 -0.017323943 -0.007957134 -0.0043074787 0.017124273 0.015318364 0.03961112 -0.03771328 0.013191942 -0.026087351 0.019481603 -0.018580234 
0.0033474714 -0.0062033758 -0.021328911 0.015800979 0.003391005 -0.033141132 0.014588356 0.035116967 0.027996313 0.0023032688 0.01084578 -0.008262459 0.006278485 -0.025873117 -0.0072222017 -0.008596338 
-0.001507882 0.010340404 0.0032759346 0.0032176077 0.033958662 -0.01939281 -0.020563133 0.03460228 0.016415555 -0.009491188 -0.035321884 -0.020428356 -0.010503242 0.0262446 -0.023355508 -0.01712144 
-0.014421726 -0.03839162 -0.028875092 0.023228366 -0.013042962 0.029195432 -0.035482574 -0.012901595 -0.0019390322 -0.014090804 0.034341242 -0.0070786886 0.021052327 0.031740423 -0.019073859 -0.0041887388 
0.022385295 0.037502926 0.010434054 -0.01632407 0.008083954 -0.009810407 0.022589792 0.012809422 -0.001801122 -0.0058112815 -0.024332112 4.8253685e-05 0.008879982 0.0062480904 -0.0306166 -0.015430773 
-0.02289092 0.029081386 0.029571127 0.0020083748 0.035511333 0.036885794 0.03090671 0.0063061714 0.02801646 0.02358472 0.009724334 -0.019678848 -0.03954595 0.020533573 0.022641595 -0.020612644 
-0.008208867 -0.016726768 -0.010734731 -0.023230873 -0.021190513 0.0010129251 0.020337332 0.037172187 -0.02840149 0.039847072 0.011500396 -0.038708244 -0.034246366 0.017933518 -0.0099193975 0.025624719 
-0.023624942 0.012535587 -0.00251868 0.033515904 -0.038272537 0.0023727082 -0.010108147 0.031460572 -0.035420213 0.02638958 -0.025073279 0.025735524 0.030962195 0.023565453 0.012213312 0.039980885 
-0.0019887537 -0.015558282 0.037872214 0.02677286 -0.0013912693 0.011228904 0.03596354 0.022495393 0.0155946165 -0.027110793 -0.032079667 0.019976445 -0.020591768 -0.03789154 0.027820583 0.013725061 
0.026929189 0.03575393 -0.038358763 -0.012291454 -0.011108462 0.020834807 -0.01545278 0.019180637 0.022126626 -0.02409793 0.018118229 -0.0026279278 -0.00029359385 -0.035135478 0.0021589734 0.01636339 
-0.010281853 -0.030679516 -0.028107515 -0.030727686 -0.005638495 0.03801423 0.03068417 0.017105084 0.02983575 -0.038065035 0.010215249 -0.0056198686 0.030812833 -0.0131263435 -0.02926488 -0.012496954 
0.0069578625 -0.02304443 -0.002915088 0.031423423 0.004336819 0.0029112846 -0.016881675 0.024320487 -0.011643121 -0.02748096 0.00083399937 -0.032438606 0.008912668 -0.0100453645 0.03163484 -0.0073242 
0.016555157 -0.0006118752 -0.0106132645 0.037977938 0.006734103 0.03405275 0.0032757334 0.02654164 0.014328949 0.009921294 0.031486694 0.030233081 -0.012038149 -0.02131378 -0.016229216 0.040049594 
-0.027013935 -0.01438956 -0.03118699 -0.011215707 -0.035231136 -0.036825072 -0.021513017 -0.030758733 -0.008273546 -0.014727224 -0.03694105 -0.0071377084 0.011922054 -0.025838653 0.013416145 0.036221873 
-0.0039551444 0.029745016 -0.03518036 0.00838089 -0.0048580356 0.010065228 0.015877109 -0.01607377 0.036140118 -0.0090005305 -0.020455504 0.00080515444 0.014800433 0.022875603 -0.022654584 -0.018577533 
0.013610978 -0.029457059 0.013920937 0.001314573 -0.0140903145 -0.020908765 0.0073486567 -0.009209106 0.026119616 -0.038021423 0.035160933 0.0289427 -0.029666372 0.0075424835 -0.013094531 0.032778744 
0.0071177594 -0.025212537 -0.005797729 0.0021054484 -0.034718752 -0.010175087 -0.026041597 0.016553778 0.02480163 0.035797093 -0.027054885 -0.025523733 -0.030594662 -0.0018756539 0.023144666 -0.026024885 
-0.02264967 0.01506326 -0.018530369 0.036697496 0.004271891 0.0074264556 -0.036451016 0.008829284 -0.019649688 0.027738702 -0.0029301979 -0.008573089 -0.0025822707 0.0112371 -0.02611792 -0.027294563 
-0.021045564 0.027439188 0.0017039701 0.012793563 0.030051801 0.006761603 0.006412469 0.00014800206 -0.011868838 0.0031306334 0.0014317892 -0.040054753 0.039598513 -0.027810061 -0.03317418 -0.0060454346 
-0.019678628 -0.022909144 0.035831604 -0.0016198307 0.0073887445 -0.025873922 0.01651983 -0.008584924 -0.01179125 -0.028357573 0.017891623 0.037100185 0.00043176115 -0.027555943 -0.03852835 0.024319854 
-0.032145463 -0.014726523 0.013238974 0.00841273 0.021827307 -0.014554914 -0.023829857 0.009610757 -0.01879621 -0.030675687 0.027285475 0.011386752 0.032539304 0.024989832 0.01790414 0.016073953 
-0.009560013 -0.028035825 -0.022597183 -0.0026093014 0.01872003 -0.010975819 0.029582385 0.02608424 0.0026525594 0.036201272 0.024288569 -0.0148709845 0.003093399 0.023427445 -0.023509575 0.02087339 
0.012625728 0.01891261 0.005537167 0.018405225 0.02457748 -0.015050704 -0.032547396 0.028997514 -0.030127466 0.023030553 0.034847837 0.018238835 -0.013628071 0.006893117 -0.023827616 0.026717652 
-0.028170843 -0.019676339 -0.03348209 0.015341062 0.025904369 -0.040050864 0.007027954 0.020253424 -0.026541762 0.031643067 -0.033537664 -0.011592643 -0.02969534 0.030497659 -0.03264909 0.02831779 
-0.027193245 0.038589727 -0.015949594 -0.014277142 -0.027393479 0.0025336482 -0.01939349 -0.026672613 0.027045693 -0.014803374 -0.038666636 -0.008205026 -0.02833528 0.03467762 -0.016891789 0.024513785 
0.016155746 -0.021786712 -0.0233168 0.0024618544 -0.030735377 -0.02401359 0.027792785 -0.0027837679 -0.012909746 0.021244649 -0.006305203 0.007801544 -0.034423042 -0.009191897 -0.0042775422 -0.029362474 
-0.035157427 -0.02594498 -0.0022287257 -0.0030311532 0.014940709 0.024750952 -0.035137095 0.0037492514 -0.026991393 0.023776468 0.03257436 0.037538294 -0.00042724982 0.00944091 0.0015119053 -0.03290751 
-0.034478094 0.035239328 -0.022311863 0.02638619 -0.00482405 0.01076119 -0.020447336 -0.01940298 0.0045790933 0.033312578 -0.039800644 -0.0017216653 0.013579078 0.023045126 -0.021230053 0.036788385 
-0.010459114 -0.034433708 0.022775408 -0.0045982264 0.0030365922 0.027094994 -0.0071351603 -0.032144926 0.0014211088 0.026346106 0.026502382 0.015462749 0.004309248 -0.0262895 0.021922506 -0.019183844 
0.012485012 0.02082318 0.027652193 0.026680674 -0.0036318041 0.01812882 0.008534513 0.003206633 -0.0024884976 -0.0065073892 0.014985193 -0.020755984 0.03695302 -0.008493174 -0.0021346398 0.030248802 
0.008495662 0.025863398 -0.019117134 0.00014166534 -0.0068470463 0.028632525 0.016970132 -0.004289206 -0.028908245 0.024095792 0.022964906 -0.0066963807 -0.018527161 0.03840227 0.0052705407 -0.016710766 
0.013556074 -0.037727676 0.015869353 -0.03391549 0.013721202 -0.033018384 0.024095412 0.00017934665 0.00437665 0.028129365 -0.0018641725 0.02149444 0.0024212115 0.030021418 -0.0012698136 -0.0366849 
0.007862892 -0.00531283 -0.021616338 0.018605687 -0.01617301 0.024777923 -0.0036441572 0.03873441 0.0025183558 -0.026151065 -0.014643937 0.014064152 0.030141477 -0.01538877 -0.02595377 -0.013596585 
0.023331072 -0.023242038 -0.012598665 0.0026756302 0.0015346669 0.009459335 -0.031191971 0.012641732 -0.005116351 -0.01301229 0.037879806 0.015941866 0.01687662 -0.03203477 0.021463286 0.028531473 
0.0061914176 0.036622677 -0.008840527 0.032878507 0.01622599 -0.024206584 -0.03914172 -0.021773286 0.038116727 0.038946543 0.028163154 -0.022196313 0.017030388 -0.012826765 0.036734547 -0.034729984 
0.022062205 -0.016195277 0.01007013 0.022337 -0.0014171749 0.019262858 -0.030060211 -0.026862707 0.012986653 -0.014103472 0.014566436 0.024007004 -0.027879499 0.029260445 -0.017644081 0.0333302 
0.027903441 -0.0073773116 0.020039774 -0.002415657 0.012864266 0.032373477 -0.026439104 -0.014051253 -0.008702878 -0.014319824 0.007404212 -0.01231483 0.02370352 -0.026441526 0.032670464 0.015936743 
0.018556148 -0.021005228 -0.027105287 -0.020761374 0.026614297 -0.0074901953 -0.014661567 -0.01151949 0.03214896 -0.03296917 0.028283168 0.005944114 0.0045984015 0.033029657 -0.037838124 -0.01242966 
-0.037353516 -0.0045199767 -0.006095689 -0.008559268 0.013673235 -0.000703685 -0.029102676 0.028458994 -0.009781323 -0.024831148 -0.024186626 0.031027805 0.039093997 -0.0021521822 0.0100485645 -0.0036107749 
0.00048642233 -0.011735084 -0.01926984 -0.01687479 0.035732213 0.0088742 -0.028913274 0.022070479 -0.0055774823 0.012166787 0.027128655 0.03615247 -0.037950635 0.015659362 0.006832853 0.039267603 
-0.033228137 -0.0061403736 -0.019506903 -0.039438568 0.018209856 0.031107668 0.014344532 -0.00055063516 -0.013731191 -0.027159087 0.008837894 0.03653061 -0.039410796 -0.033000052 0.028338175 0.005652666 
0.000280004 -0.019736614 -0.01157308 -0.029446296 -0.027383499 0.009362798 0.030522566 0.030449789 -0.014474252 -0.0019780472 0.032927927 -0.02360666 0.036605816 0.03253324 0.037649784 0.030096065 
-0.02559343 0.035684388 -0.021588355 0.010213345 0.022399668 0.006397672 -0.0228988 0.009959444 0.04007231 0.0060926937 0.03423774 0.036658738 0.027238619 -0.031134829 -0.0401661 -0.012602476 
0.039114725 -0.031025868 -0.020606602 -0.009119891 0.028682929 0.020298366 0.03750788 0.029559132 0.0067918934 -0.03253258 -0.03732204 -0.02851814 -0.0005847849 0.03325541 0.017187547 -0.025537781 
-0.031481694 -0.039116316 0.003442727 0.038801584 -0.019058613 0.03815612 -0.01672558 0.0066776685 -0.03202433 0.006112125 0.028438147 0.032892097 0.0133828 -0.003812693 -0.021817518 0.02787679 
0.021739002 0.024467494 -0.0348818 -0.03900747 0.0017320961 0.03320049 -0.0362671 0.005224362 -0.027211737 0.03626095 -0.0017608814 -0.0353472 -0.039102152 0.012742281 0.020487547 0.008531384 
0.00093273073 -0.025542751 0.03756736 0.0225815 0.0070711896 0.02338257 0.015674751 -0.0069417655 -0.024959166 0.035938922 -0.036494195 -0.035066824 -0.028647423 -0.016714135 -0.033779476 0.005876094 
-0.02795593 0.023699064 -0.0066924244 -0.023663936 0.023509528 0.020435203 -0.03734869 0.008912791 -0.033056688 0.032304507 0.0009858161 -0.012670297 -0.00470262 -0.006783411 -0.029938389 0.010439463 
0.0020624213 0.006579224 -0.038083997 -0.022900974 0.031716462 0.027553353 -0.028070118 0.007688936 0.022054363 0.02315363 0.008882999 0.017876014 -0.011549896 0.039433207 -0.01223233 0.0023647025 
-0.024064116 0.02392115 -0.0035875142 0.0047930777 -0.024254886 -0.025944155 0.00710034 0.035263967 -0.027648604 -0.020344265 0.00081963465 -0.018963357 -0.022816664 -0.009943616 0.0071064234 -0.007641062 
0.0067234524 -0.0022107922 -0.00999417 5.4746866e-05 0.031590674 0.01632065 0.029855084 0.03571054 -0.03679843 -0.031202102 -0.017256476 0.01580587 0.03249527 -0.023460006 0.016774919 -0.029033333 
-0.028082836 -0.020749012 -0.02786528 -0.005427055 0.0072485656 -0.03263115 -0.0076033324 0.022311125 -0.0008379929 -0.014046369 0.022910941 -0.01698152 -0.002063986 -0.0029035397 -0.039149363 -0.0037232004 
-0.014255058 -0.035227556 -0.018469099 -0.022974618 0.0322281 -0.025673095 -0.0396486 0.013726804 0.034931105 0.004912801 0.0055871643 -0.022260034 0.02893233 0.027243007 -0.00029033795 -0.02584706 
-0.013566457 0.023577195 -0.027691457 -0.033974137 -0.038355447 0.03573845 -0.035859272 -0.031063274 -0.012957264 0.035819437 -0.012070037 0.008328449 0.03552081 0.0048231483 -0.03975011 0.025145847 
0.005993109 0.026592862 0.0043442994 -0.035066854 0.010324363 0.028062869 0.03050622 -0.019013988 -0.021384167 -0.018469004 0.00499947 -0.032531146 -0.03284046 -0.015302736 -0.026227215 -0.028893892 
-0.0019999668 -0.032458086 0.03858873 -0.012355836 0.00327719 -0.0015984178 -0.018065147 -0.029331686 -0.004736215 -0.029111696 -0.021995027 -0.0059850067 0.019530002 0.016216815 0.02153356 0.006587565 
-0.02878494 -0.03527542 0.028769244 0.00964804 0.02751438 -0.016943865 0.007907115 -0.0033111386 -0.007675547 -0.023994954 -0.02811573 -0.03155592 -0.01845099 0.01380178 0.020118713 0.0074672513 
-0.0047611035 -0.0364526 0.027098145 -0.02663993 -0.033514325 -0.028953025 0.0011054352 -0.00711935 -0.032394223 -0.029218024 -0.025915943 0.040078606 -0.010420779 -0.025676256 -0.03168662 0.03759825 
-0.008650668 -0.0009027198 -0.038315 0.03756671 0.02704272 -0.007533245 0.03070825 -0.009285869 0.016455993 -0.024152888 -0.016982812 0.015539262 0.00052135065 0.013151176 -0.01203336 -0.003985375 
0.038815316 0.039080884 -0.00773203 -0.008582417 -0.016497355 0.019700002 -0.025004614 -0.011026343 0.0077361874 0.00867838 -0.010001428 -0.007411219 -0.0034703389 -0.019169727 -0.006448362 -0.018886037 
-0.038595464 0.023481969 0.010685787 -0.025444899 -0.022054229 0.03971399 -0.022811607 0.0074768104 0.031823937 -0.035507042 -0.036184326 0.006986439 -0.0173091 0.040136036 -0.005932957 -0.03197311 
-0.0012973621 0.0009496622 0.019331712 0.008065414 0.012015499 -0.0154419765 -0.002935551 -0.02496221 0.0226642 -0.0037416667 -0.038139854 -0.01935621 0.021188263 0.0050197057 -0.015942536 -0.024549104 
0.036345128 0.0003497973 -0.012540508 0.032158468 0.008801591 0.0035027228 0.0059464723 -0.039652325 0.023340482 0.025243584 0.035662983 0.035612542 -0.0094618555 0.014572352 0.038114037 0.005600456 
0.0065611787 -0.023910433 -0.038683813 -0.016424537 -0.009844251 -0.037603058 0.00627565 -0.031397346 0.029300783 0.009080246 0.010279864 -0.017168067 0.011499219 0.012868654 -0.0067063794 -0.0090257265 
-0.02711964 -0.034928627 0.03794312 0.029324349 0.031204853 0.0033868589 -0.017930886 0.008526355 0.011168439 0.03283142 -0.007877152 -0.031554256 0.0032381564 0.014015131 0.018418927 -0.008421887 
-0.028224595 -0.0393954 0.0066983253 -0.01978527 -0.019336712 0.022637118 0.018617734 0.024252806 0.0023565516 -0.038388688 0.0058078803 0.03431498 -0.03809498 0.007611502 0.010602251 -0.0027992912 
0.016807947 0.028311905 0.019924406 -0.031484433 -0.03234927 -0.03716289 -0.027911227 0.0080601275 0.024372939 -0.0146514345 0.0130300075 0.011016134 -0.004785847 -0.021038871 -0.033899 -0.0028914139 
0.00505352 -0.023788573 -0.0225787 -0.020327698 -0.018059498 -0.0006597489 0.021903947 0.004336208 -0.009506557 -0.023187347 0.019540623 -0.034599055 -0.025415279 0.03365365 -0.013803301 0.018412426 
0.015504044 -0.0009198636 0.013784014 0.019954123 -0.032872017 -0.0357585 -0.012994725 0.0052089803 -0.0015944615 -0.009402979 0.036370028 0.03352922 0.0009454116 -0.015473723 0.0041149817 -0.028179979 
0.011668786 -0.011946464 -0.03760461 0.020333223 -0.028988611 0.022712026 -0.021992393 -0.033751637 -0.035765693 0.0066553913 0.02417839 0.012192797 0.00313323 0.003809236 0.0060827807 -0.038757093 
0.018665943 -0.028458748 -0.037865646 -0.02719089 -0.014164388 0.014970817 0.03266563 0.02346177 0.0090002045 -0.038870633 -0.0109996535 0.016245618 0.012236465 -0.022578537 0.010470491 0.025196236 
0.0013117194 -0.03058269 0.011754505 0.04001994 -0.01665887 0.009664003 -0.0065505505 -0.01783785 0.034376334 0.035832953 -0.023735482 -0.030590668 -0.02026595 -0.004724797 0.02924117 0.020805486 
-0.027855521 0.02395891 0.019529946 -0.01665189 0.0018765628 -0.0078034885 0.038276676 -0.02098623 -0.008311018 -0.009320421 0.007428527 0.002719488 0.035308708 -0.013180643 0.034517687 0.0027875118 
0.012356602 0.029438067 -0.039866097 0.0060451925 -0.036755692 -0.012736527 0.033981282 -0.007908486 -0.03696747 0.02763572 0.0324541 -0.0193856 0.009757258 -0.029421885 0.03400496 -0.028806478 
0.028268848 0.0025160871 -0.019122498 -0.033138767 -0.03676092 -0.005470868 -0.0005550757 0.02992909 0.0359766 -0.0030371584 -0.039045047 -0.017862193 -0.03497444 0.006781455 -0.0070605315 -0.027671922 
-0.031185746 0.0033892244 -0.014551045 0.020171594 0.018710397 0.01844804 0.013775259 0.008992553 -0.028567404 -0.0075530075 -0.011437966 0.00044479594 -0.009613996 0.03598689 0.015516847 -0.021944368 
0.030598823 0.032747496 0.00097655505 0.023137119 0.009954877 0.02615143 -0.010592982 -0.007849321 0.009009898 0.036855403 -0.006735664 -0.002598308 0.013044149 0.019187387 -0.017363952 0.0211718 
-0.010975828 0.03962003 -0.03665461 0.037792075 0.01383698 -0.03334171 -0.021911167 -0.023942513 -0.01773705 0.036981422 -0.03967142 -0.012983177 -0.031171381 -0.015287731 0.0139034875 0.027673904 
-0.03616267 -0.027434092 0.02712189 -0.00662132 -0.03555499 -0.0069150776 -0.01939417 -0.0316437 -0.023650233 -0.008531593 0.032379616 -0.03857539 -0.0327135 -0.010581721 -0.017991696 0.0183524 
0.025338005 0.014475353 0.036608245 0.008085992 -0.02131066 -0.0071423426 0.03990284 0.035642896 -0.0026395917 0.0019849688 0.0208189 -0.029014803 -0.03541458 -0.003743831 -0.028567038 0.0015565008 
-0.011700915 -0.031763796 -0.013775511 0.03630289 0.017314203 -0.031042032 -0.030339133 0.012113467 -0.015940564 -0.0079772435 -0.024602924 -0.03200295 -0.0065968633 -0.004114054 -0.018392995 0.0055193827 
0.0344151 -0.025834296 -0.0098377 -0.030189052 -0.028214436 0.01199897 0.027381945 0.029306252 -0.030324098 0.017857157 0.019906498 -0.039357603 0.0060577393 0.006496828 -0.018121112 -0.008092526 
-0.00063985586 -0.029084232 0.036596935 -0.0065455996 -0.0118688475 0.021461975 0.0213762 -0.034712028 0.008884896 0.029022548 -0.028864339 0.03671358 0.004084222 -0.03896462 0.03135178 0.013213482 
-0.008198831 -0.001737956 -0.03276302 -0.03446099 -0.016649667 0.026846062 -0.03671371 0.029212754 0.00034262612 -0.0057862774 0.022955816 -0.012952045 -0.039952055 0.03726801 0.014615323 0.028521571 
0.031507175 -0.012134496 0.015796859 0.0056711473 -0.032609843 -0.03321939 -0.0373372 0.0034833997 -0.015718898 0.0387255 -0.012494139 -0.030985484 0.03339954 0.015656047 0.017297357 -0.005961783 
0.021176167 -0.038141415 0.0032153837 0.013139483 -0.03464119 -0.0139059685 0.008879188 -0.0076493174 0.020738468 -0.019973725 -0.011245126 -0.03235377 0.008869 0.02430709 0.024357136 0.0072346516 
-0.021544889 -0.022089738 -0.017125672 -0.0016694367 -0.035394605 0.004896436 0.0095672235 0.013552859 0.004367683 0.004982434 0.013842344 -0.029180015 -0.02483495 -0.020200754 -0.012889817 -0.00958791 
-0.034188036 0.04000901 0.006275218 -0.02732043 0.0029532015 0.005458638 0.035394806 -0.0052560978 0.024177317 0.0028406605 -0.025258772 0.0065149926 0.036549006 -0.022581572 0.009055089 -0.03521318 
-0.037323773 0.0073393993 -0.012037583 -0.037819497 0.014738187 -0.032062408 -0.015395733 -0.009978186 0.00895394 0.010581892 -0.012449743 0.025178943 -0.03481322 -0.03612963 -0.03878995 0.004921384 
0.010956217 -0.03487747 -0.035750177 0.014286995 -0.018906444 -0.010649905 0.030166749 -0.025644932 -0.013452087 0.031760413 -0.000869032 0.0005771108 -0.031123519 0.012156703 -0.010036316 0.0024262778 
-0.016174467 -0.006731622 0.023683857 -0.025212873 0.018616423 0.02031928 -0.0032154024 0.016877674 -0.01887239 0.038221706 0.036632147 0.0038809925 -0.029988445 -0.024757696 0.008285221 -0.015728235 
0.02176911 -0.01251059 0.00094871596 0.009807218 0.0112473555 -0.025295641 0.0008651912 0.003909003 -0.009442424 0.03816318 -0.005469259 0.020621032 0.038480986 -0.03605552 -0.036257133 0.018855065 
-0.020816727 -0.0048580915 0.023954954 0.004218735 0.009686545 0.023499344 0.0069982186 0.02178312 -0.03852989 -0.006484311 0.021857183 0.031740356 -0.008843467 0.011160996 0.013679393 0.022177804 
0.023228567 -0.023401514 -0.0051838905 -0.002025526 -0.0037230216 -0.029790625 -0.029945984 0.023689982 0.016408209 0.03488442 -0.009100758 0.009335984 7.491559e-05 0.029220264 -0.021331688 0.026187968 
-0.033452548 -0.006462436 0.00037698448 0.011716485 0.009930458 -0.0022136644 0.036023114 -0.0388937 0.028407808 0.0021872409 -0.023275172 -0.01615022 -0.033202574 0.0076502375 0.021922313 -0.011611568 
-0.028666135 0.00887483 -0.039043218 -0.0077743568 -0.030610835 0.0018703602 0.02967998 0.0081745945 -0.040073525 -0.0080638155 -0.009896308 -0.022416169 0.025529046 -0.016836599 0.007994004 0.02455255 
-0.012644278 -0.039970126 -0.0042739995 0.03833692 0.0335414 0.030324455 0.018816713 0.014142409 -0.0058570765 -0.0073173903 0.034725416 0.027934264 -0.011584552 -0.022273174 -0.016378578 0.026640993 
-0.013125962 -0.014345048 -0.03542929 0.024127413 0.013951648 -0.019431211 0.0008981824 -0.01310044 0.038645644 0.0082044825 -0.005890198 0.034427155 -0.037107587 0.00044678897 -0.039402723 0.02951559 
-0.03320901 0.03311905 0.01770921 0.030687917 0.028226566 -0.034755822 -0.012734268 -0.0008810684 0.03238493 -0.032770496 0.022981945 -0.03767365 -0.027569454 -0.037750058 -0.011342948 0.034358207 
0.0019215159 0.019548025 -0.027278436 0.0032506734 -0.018102312 0.0313376 0.02503663 0.027685512 0.03305004 -0.012989862 0.03174459 0.033668067 0.020688958 -0.028363923 -0.012308098 0.012371227 
-0.021561656 0.0018627942 -0.024907231 -0.032540396 0.035310935 0.0095730275 -0.0057617985 -0.0056362897 0.02022592 -0.0062092952 0.038853046 -0.03131072 0.03421442 0.013746779 -0.012023669 0.018546753 
-0.029650409 0.004362561 -0.026708659 -0.03573052 -0.019630468 -0.025614383 0.022756573 0.019312866 0.0060387887 0.012916591 -0.019345207 -0.021601973 -0.0005467348 -0.014178792 0.028828282 -0.032358397 
-0.0027977303 0.008773856 0.032959487 0.019425448 -0.019515686 0.0006599277 -0.00480143 -0.023375869 -0.028648142 0.029113378 -0.027110351 -0.03185794 -0.027670477 0.034445334 -0.014624976 0.0036592707 
-0.020703256 0.018074214 0.016913056 0.030623745 -0.027516361 0.003166575 -0.020818278 -0.034890138 0.02852453 -0.01678707 0.002425827 -0.028840482 0.0014462583 -0.010684945 -0.010998592 -0.035593707 
-0.0019439422 -0.025751766 -0.021288728 0.020988606 -0.0019956008 0.034123417 0.01720985 0.038873184 0.033861164 0.0032513924 0.027408909 0.009647656 0.009402502 0.018389318 0.037598815 -0.026202278 
-0.014140055 0.015564356 0.025831249 -0.021034274 -0.014739854 -0.010181196 -0.014675271 -0.026095636 -0.033569887 -0.012988482 -0.0040508956 0.016072668 -0.03642785 0.0006292835 -0.03806215 -0.012771165 
0.009410508 0.0034811683 -0.022680344 -0.016596643 -0.022977049 -0.025885127 0.020025399 -0.005799357 0.01993157 0.015139189 -0.028625196 0.0024247952 -0.034903012 0.015914734 -0.032402687 0.013521928 
-0.014031507 -0.016784858 0.018619869 0.029952694 0.025359858 0.024075251 0.0070434287 -0.02172637 0.020765513 0.0267266 0.004113842 0.025142465 -0.031745564 0.0019595437 0.003482461 -0.014059786 
0.025209356 0.022778254 0.033646863 -0.014283318 -0.02151998 -0.01700658 0.026523855 0.020962212 0.0010414422 -0.02733513 0.016170274 -0.03868411 0.038261693 -0.00928315 -0.03261517 0.031743836 
0.0076050386 -0.0018793717 -0.016295897 -0.010946572 0.017133057 0.009744849 0.0027757995 0.02810553 -0.032481924 -0.0031827763 0.029640343 0.0021696612 -0.008642126 0.023524534 0.027139436 0.0016180389 
0.037786465 -0.012086049 0.030284185 0.038840692 -0.010752726 0.017702594 0.03640114 -0.0063687153 0.022948522 0.028275516 0.036778558 0.03333466 0.02744859 0.029617991 0.013331126 0.028053883 
-0.014978757 -0.03773548 -0.0376071 0.01815442 0.031001296 -0.038300548 0.0051242 -0.0077402852 0.0057078637 -0.019217726 -0.028283585 0.021620084 -0.03307251 -0.025303524 0.00013539195 -0.033147637 
-0.026664887 0.0008579232 -0.025256503 -0.009574752 0.018391196 0.027301688 -0.0070266314 0.0021215193 0.031652633 0.0063302256 -0.009299984 0.0035679303 -0.028120719 0.03586742 0.0024399646 0.028072495 
0.036608074 0.030980099 0.03272729 0.025587048 -0.024592474 0.039855648 -0.032678984 0.0062403716 -0.0025258437 -0.0112816505 0.030441742 -0.035240896 -0.011107782 0.021452427 -0.0018915236 0.03905588 
0.0038784184 -0.012448372 -0.0050998665 -0.03542818 0.019696228 0.021067522 0.007883597 0.010103561 0.010323111 0.003993813 0.034048434 0.030928243 0.027283933 -0.018735342 -0.013701733 -0.035800356 
-0.033475302 -0.031642407 -0.03844589 0.014521118 0.035372797 -0.008734327 0.021612927 0.02070314 -0.015974961 -0.018023662 0.0021469072 0.026458774 -0.019220876 0.0073764883 -0.011029867 -0.0074021816 
-0.03638763 0.009450555 0.03276409 -0.035613924 0.00043170527 -0.032398377 0.017823342 0.0024882779 0.01884073 -0.010610804 0.03113709 -0.021979082 0.026125494 0.013918247 -0.00058520585 0.027750786 
0.0104403645 0.03214399 -0.013433268 0.020716578 -0.03787412 0.039502967 -0.038166735 -0.0173066 0.010107018 0.03963728 -0.015058709 -0.027069345 0.021764014 0.030967038 0.038742904 -0.005567588 
0.03492399 -0.008237168 -0.022310397 -0.029927347 -0.026924934 -0.023312703 -0.013853777 -0.018363653 -0.020879988 -0.03700325 0.012746993 -0.02082974 0.038368706 -0.025951464 -0.0135022085 0.0220689 
0.028976899 -0.015863694 0.02655546 -0.0028045774 0.006828323 -0.008458927 -0.021487353 -0.003452085 -0.031744786 -0.017977858 7.2378665e-05 -0.022331974 0.009318832 0.0075841807 -0.0353943 -0.036965787 
-0.029736817 -0.03730033 -0.034785334 -0.034068972 -0.034950566 0.00066280365 0.01624833 0.0039151907 0.035277937 0.005137954 -0.035008352 0.013186101 0.012840375 0.015667196 0.002945818 0.019351747 
-0.023755621 0.033238117 -0.02214462 -0.007808421 -0.011521444 0.03379612 -0.0033279844 0.017524388 -0.03852861 0.0304499 -0.019342074 -0.019421004 0.008816596 0.023435231 0.039335806 0.0023565814 
-0.012745807 -0.028953198 -0.012602352 0.039988887 -0.012253551 -0.005458094 -0.021405512 -0.013308927 -0.015706401 0.033675466 -0.0076005086 -0.014991082 0.008485176 -0.020515855 0.017023817 -0.023505015 
0.027891818 -0.009956209 -0.0033715554 0.010462914 -0.008733358 0.02856626 0.0031920187 0.011249043 -0.018175151 -0.032257788 0.03548194 -0.030043213 0.010099605 -0.032067522 -0.025944864 -0.038987625 
0.012526266 0.02516206 0.018530369 -0.012891827 0.028172757 0.0035364255 0.0087921955 -0.009953786 -0.014026834 -0.011262545 -0.00025999174 -0.02437805 0.00026033446 -0.018501563 0.021866877 0.0017625876 
0.029098604 -0.024874404 -0.0023722686 -0.009188574 0.00090993196 0.03844068 -0.02498299 -0.029536573 0.029079791 -0.026298856 -0.03405609 -0.0055049695 -0.027260797 0.0077029467 0.034242842 -0.03132745 
0.006830029 -0.008825809 -0.024686592 0.021691531 -0.006634038 0.0072578937 0.036443394 -0.03219326 -0.032218523 -0.025612649 -0.02918189 -0.023223747 0.00042659044 0.03139272 -0.033168983 0.017537046 
0.020633183 0.014430046 0.02549867 -0.0027179457 0.038510982 0.019125983 -0.029416274 0.023163226 0.036763396 -0.011883451 0.021662667 -0.039429154 0.0035109706 -0.015697256 0.035343047 -0.0016391166 
0.0041901097 0.037208002 0.018466666 0.020196721 -0.002227787 0.018080756 -0.038897455 0.0023263767 0.039075438 -0.03544034 0.029336225 0.02352916 0.012662474 -0.036171682 -0.026120648 0.030248012 
0.0020220093 0.020510733 -0.023590945 0.026780989 -0.00077373534 -0.006739598 0.017413184 0.0050150678 0.022448 -0.020139579 0.010436505 -0.019410986 0.018569153 -0.0015485995 -0.029055502 0.009307243 
0.004642613 -0.022944193 -0.00091316923 0.005885478 0.020646852 -0.019356402 0.011007745 0.032479506 -0.016845496 -0.019190634 -0.040026464 0.03414799 0.011348598 -0.020832527 0.03654142 -0.01062808 
0.020392634 0.01430295 -0.030794062 -0.02467284 0.039115842 0.012094986 -0.025080968 -0.0062884353 -0.030296978 -0.0046701655 0.022268634 0.008369409 0.028981138 -0.020378022 9.452924e-05 0.0016397685 
0.022544075 0.024735678 -0.008557584 -0.011446279 0.028876688 0.033354837 0.022553187 -0.0013542771 0.018497523 -0.026742887 -0.012892939 -0.0060180537 -0.030062385 -0.010343613 -0.010485783 0.011866827 
0.026010241 0.029182028 0.03174999 -0.012600657 -0.038343057 0.03971188 -0.018522345 -0.017305978 -0.014718661 0.032858264 0.0016500428 0.007740218 -0.022470687 -0.027038682 -0.0020095892 0.0045615323 
-0.02954774 0.032190893 0.0028978512 0.03659721 -0.030676788 0.022170573 0.019773751 -0.033895276 -0.020010518 0.026211511 0.024240207 -0.0319323 -0.018849397 -0.028223783 0.038922254 0.01349064 
-0.01864429 -0.020067105 0.020909876 0.038697075 0.018945448 -0.00467591 -0.009729985 -0.0056277774 0.01863369 -0.009332066 0.039398868 0.022448126 0.006915219 -0.020007893 0.01754829 -0.0016223602 
0.028351251 -0.00065959245 0.024527635 -0.008606318 0.032505084 0.032380577 -0.01968171 0.016665373 -0.028236259 -0.018231805 0.038807657 0.01708119 -0.032739047 0.025380757 0.012413714 0.007064391 
-0.040007927 0.013077658 0.020955402 0.0016080886 -0.008217555 -0.014765441 0.027503613 0.0029920712 0.018920168 0.008663278 -0.0032182187 -0.03527738 -0.0030508041 -0.03457519 0.028789755 0.023092333 
0.00937878 0.029566001 -0.030340828 0.01112435 0.0109690875 0.017243892 0.026875604 0.019073714 0.0006818697 0.02469008 -0.034671415 -0.009962279 -0.013755735 -0.0324612 -0.015599193 0.0013779216 
0.027177464 0.015483558 -0.021478122 -0.037502985 -0.005316086 0.03754208 -0.0388837 -0.02512521 -0.009393221 0.018142506 0.011020146 0.015493441 -0.00829678 -0.025908004 -0.01679925 -0.024353715 
0.010148119 0.039207775 -0.0071554445 0.02079586 -0.025513247 -0.008911941 0.026368838 0.026255127 0.0138496235 0.008330669 0.001573693 0.010059461 0.04000325 0.03472733 0.014688976 0.018090937 
0.036672298 0.02014498 0.0032571293 0.02199566 0.03395323 -0.013148323 -0.03967121 -0.03966782 0.010380089 -0.017548451 -0.0054847933 -0.004462242 0.039014768 -0.026019044 0.013824169 -0.026771031 
0.010140248 -0.023666168 0.028763007 0.0056015775 -0.0014469475 0.011502206 0.0050104707 0.0327042 -0.018283585 0.009403314 -0.0006400123 -0.017201519 0.00085582584 -0.018067062 0.022204816 0.035769317 
0.037061695 -0.005798705 -0.02528482 0.032650437 -0.029044699 -0.017927151 -0.02849646 0.03720027 0.004642185 0.0076918676 0.026043568 0.026774261 0.020344418 0.035521198 0.002174925 0.026838232 
-0.005358115 -0.008246399 -0.0028997846 0.0011601336 -0.019413257 0.034019943 -0.016228478 -0.0367186 0.033016805 -0.029578172 0.03420989 0.02035005 -0.030113742 -0.033285275 -0.008665375 -0.025722338 
0.021034915 0.02889647 0.004451249 0.025948357 0.032496918 0.01896536 0.039861638 0.01402346 -0.023803627 -0.034332685 -0.017932609 -0.011244465 -0.007046167 -0.038455725 -0.03050284 -0.005157739 
0.0051013343 -0.0025192648 -0.020917078 -0.005768329 -0.03903206 -0.014635462 -0.031695776 0.023759443 0.025573153 0.006430164 -0.02094009 -0.00579549 -0.032883078 0.01457357 0.020570021 -0.025827974 
0.020239267 -0.02002541 0.0005249195 0.021296494 -0.029747829 -0.010422571 0.001479812 0.027529571 0.010313455 0.027691726 0.024131704 0.029307049 -0.008875184 -0.014894608 0.03561515 0.0049095377 
-0.037601296 0.03845835 0.0009986088 0.016296785 -0.022803381 0.015718706 -0.036499705 0.0080198385 -0.017282294 -0.023619043 -0.004482027 -0.001855351 -0.025018701 -0.019202221 0.036421027 0.03015503 
0.025179569 0.001932241 -0.0254424 0.0048203506 0.008479327 0.035724107 -0.038180135 -0.010975406 0.035066996 0.026769932 -0.013078213 0.039406102 0.024418633 0.034102764 0.030032028 -0.028576251 
0.015279416 0.019079011 -0.03856297 -0.008716121 -0.026782302 0.027001906 0.012205515 -0.020267194 -0.015535299 -0.0017028861 -0.025820516 0.013870288 0.039386664 0.009152155 0.01691575 0.035755467 
-0.018140446 0.030353423 -0.015620798 -0.0044446327 0.0345581 -0.0064762086 0.03751145 0.033206236 -0.034498207 0.03659487 -0.028153788 0.036826354 -0.027130358 -0.0053987093 -0.0019547157 -0.031142421 
-0.03164206 -0.032530926 -0.010697585 0.013662469 -0.020405151 0.029013615 -0.00569129 -0.020975484 -0.0038128085 0.038497735 0.035120133 -0.008732181 -0.028470479 -0.014866713 -0.021547157 0.021977942 
-0.00011686981 0.006167397 -0.022693962 0.025124859 -0.004307717 -0.008613691 -0.008262582 -0.019684613 0.012840431 0.030137543 0.031560767 -0.01805852 0.007697977 0.003966473 0.033441115 0.015890442 
0.0055515766 0.023118917 0.0121158995 0.035973597 0.026806097 0.031260077 -0.02734622 0.017374784 -0.012486601 0.0087267235 -0.03101115 0.03849901 -0.004275255 0.019188143 0.027172443 -0.029333917 
-0.0026401393 0.022533793 -0.019972308 0.0043981373 0.014947664 -0.0025035515 -0.030042725 -0.0061129853 -0.0013223588 -0.033979923 0.012305953 0.03223804 0.0135980025 0.022094775 0.023547355 0.026477594 
0.031118307 -0.006278388 0.01087882 0.004356414 -0.02122067 -0.009341124 -0.037516326 -0.020472676 -0.007091943 -0.007398464 0.024815928 -0.011406345 0.014300775 0.017063495 -0.032843422 -0.025337586 
-0.014883654 -0.034603775 -0.033128206 -0.029210774 -0.0011945516 0.029775646 -0.019574618 0.018669717 -0.009831285 0.009404186 -0.037636384 -0.0050095357 -0.031318687 0.0020929538 0.00601995 -0.025620166 
0.026432473 -0.019023582 -0.039542627 0.010879882 0.0025346465 -0.012463648 -0.01748404 -0.027952895 0.020856813 0.020836253 0.0028329901 0.028582055 0.039405365 0.01685395 -0.037843484 -0.0259314 
0.014656387 0.033964608 -0.009985646 -0.020054368 -0.00035229698 -0.039096154 0.018247098 0.008692622 -0.017031038 -0.025709093 0.03486507 -0.0358946 -0.0041540153 0.0095657 -0.0060499534 0.037275013 
0.011397075 0.033155505 -0.009069635 0.0132121 0.005432859 0.017760225 -0.012738643 0.00010121241 0.027055208 -0.015531756 -0.038410705 0.03123409 0.0043179654 -0.03962145 0.0028123222 -0.019353269 
-0.019387323 -0.025484048 0.027782511 -0.010991437 0.009814162 -0.01159909 0.033708584 0.017782778 -0.008721359 -0.0038527325 -0.035066526 0.015131425 -0.027390605 -0.026782006 -0.0011327341 0.024776306 
-0.021993753 -0.019950934 -0.024201345 -0.012718955 -0.019570118 0.035201725 0.024461437 0.025827888 0.0304772 0.030746076 -0.013854573 0.010653302 -0.0022141524 -0.035460856 0.02089464 -0.03329648 
0.020926032 0.0326404 0.039708864 0.014105875 0.03798868 -0.033519585 0.016699914 0.009654753 0.01971706 0.017120454 -0.015272772 -0.00294891 0.0079437755 0.024058048 0.0279232 0.02573995 
-0.022361487 0.01350823 -0.023358248 0.0042290464 -0.013539989 0.030958261 0.0084486045 -0.025652725 -0.010236472 0.010594878 -0.029618002 -0.03170854 -0.010500111 -0.017700363 0.017842859 0.0027749278 
0.034806903 -0.033692524 0.013115648 0.038048748 -0.038105946 -0.03807015 -0.030562945 0.0039585344 0.0053885505 -0.022789592 0.013055477 -0.0031188652 -0.0040616244 -0.0038573407 -0.039267287 5.735457e-05 
0.025529 -0.03658226 0.030047875 0.023117755 0.0046639517 0.0111177005 -0.02058311 -0.026557248 -0.032910984 0.026955482 -0.022039538 -0.0137787 -0.018891007 0.008804902 0.021604713 -0.0076383725 
-0.020443343 0.024564963 -0.0050035305 -0.009666542 -0.0250868 0.027629744 0.008403517 -0.011137247 0.01313547 -0.03494281 -0.03920253 -0.009098709 0.018474184 -0.017053649 -0.016917568 -0.03361431 
-0.024559904 -0.03034258 -0.02399641 0.02095975 -0.017882256 0.012523729 0.014355477 -0.0006853081 0.030438717 -0.027837336 0.016353928 -0.003878016 -0.033080965 0.032062057 -0.02569923 0.016718157 
-0.014055161 -0.033885717 -0.020651467 0.0259598 -0.03146777 0.0344386 -0.028800875 0.038468163 0.033117134 0.0070279427 -0.035308946 -0.039490063 0.0042803474 0.038952727 -0.030125014 0.018023193 
-0.020820662 0.038457636 0.0070575736 0.028249133 0.019851185 -0.03377063 0.0019238144 -0.022677576 -0.002859965 -0.02719158 0.032894474 -0.0373351 0.004363157 -0.037316572 -0.00047222152 -0.01876137 
0.017476235 0.03040411 -0.013666013 -0.018231671 -0.027270814 0.022722919 0.009986356 -0.034196213 0.0040929466 -0.016996946 -0.02446959 0.0346434 0.023242269 0.0012701973 -0.024599427 -0.005340848 
0.0010790043 -0.019389546 -0.021662237 0.034470405 0.03962255 -0.017503893 -0.032857355 0.019643798 0.0132544 -0.015685601 0.005433768 0.028217051 0.0066245683 -0.010247752 0.021524806 -0.0017701611 
0.035948772 0.040157583 0.021841776 -0.0013101213 0.012215942 0.017506927 -0.001061622 0.0373415 -0.005060967 0.020486485 -0.007920418 -0.013775002 -0.021530045 -0.030526726 -0.0138893165 -0.03284525 
0.01002036 0.0006163679 0.028096762 -0.018969936 0.03205577 0.024390507 0.0074856468 0.0013863854 0.019597478 0.012307435 -0.024142412 0.01693312 0.033123214 -0.019537682 -0.019648405 -0.023302456 
0.01836896 -0.032545537 -0.0144649055 -0.03342176 -0.030178968 -0.0081332065 -0.013722226 0.018581036 0.03192227 -0.002123043 0.02666298 0.0075695105 0.015362591 -0.023967672 -0.03435995 0.01819915 
0.009519018 -0.016793793 0.00065015256 -0.0063355044 -0.009151733 -0.030256059 -3.6332756e-05 -0.008423302 -0.026736766 -0.033504684 -0.019400902 0.03566419 -0.0043813996 -0.0060939565 0.010809954 -0.014736636 
-0.0014249682 -0.02634963 0.013509419 0.03059711 -0.015316296 0.0063450783 -0.028802685 0.030398916 -0.012329003 -0.03112937 0.027219754 0.023938444 0.00901635 -0.0016583949 -0.0256759 -0.027365582 
0.028743897 0.03822496 -0.028796162 -0.029223338 -0.022238469 0.01316325 0.00016091391 0.008089863 0.007674139 0.022955012 0.0150164105 -0.02042349 -0.022942603 -0.00756108 0.018355016 -0.03496199 
0.009000935 -0.016525615 -0.03560747 0.0182276 0.03330938 -0.01684561 0.00054389983 -0.016712585 0.012077037 -0.036872387 -0.026935419 0.007545732 0.018555727 0.018160194 -0.025827419 -0.035136204 
0.029600907 0.0151371695 -0.014658464 0.014934264 0.026300665 -0.03668196 0.025847692 0.0069812126 -0.028657373 -0.014397996 -0.007544093 0.002880592 -0.030641153 -0.033978626 0.036446717 0.031159516 
0.0070871823 0.015853781 0.037658487 -0.007865448 -0.018254243 0.0017677471 0.013397958 0.0075914115 -0.0030643642 -0.034992922 -0.024461795 0.009755526 -0.0075092353 0.026472192 -0.018826308 0.0058374815 
0.015048634 -0.036424145 -0.022485942 0.013052244 -0.028323155 -0.005001977 -0.009036165 -0.010902472 0.028002497 0.030449282 0.012546942 0.00752341 0.016718112 -0.032683007 0.0049312487 0.010052968 
0.027945023 0.03580485 -0.022422824 -0.0060353316 -0.010677762 -0.018830761 0.012163933 -0.031911284 -0.013321597 -0.027610604 -0.004791133 -0.03287278 -0.020568946 -0.028240807 -0.03048845 0.0136572905 
-0.017842237 0.0030520856 0.027675819 0.014600124 0.028899122 0.030004237 0.025599275 0.030733194 0.025673058 0.0072466396 -0.035448827 -0.028378729 0.019281887 0.031678643 -0.02115397 -0.03395209 
0.028806295 -0.010481264 0.025300879 -0.01456294 0.031481262 0.006553415 -0.027066348 -0.0046644583 -0.03986767 -0.033147704 -0.0062879845 -0.020400153 0.029029999 -0.014338439 -0.035859473 0.025819767 
-0.02504791 0.034349117 -0.0050138347 0.0056027174 0.035296764 0.03480846 0.024251077 0.0074828155 -0.028894752 -0.033284616 0.025825206 -0.011987431 -0.031167023 -0.017148646 0.006051168 0.023068737 
0.0048918203 -0.009407289 -0.03625879 -0.01431784 0.01979144 -0.0030281544 -0.019897085 -0.022260992 -0.021201871 -0.018899472 -0.009417679 0.013252579 0.037322592 -0.020193934 0.021119293 -0.008248657 
0.020541415 0.010353781 -0.02674958 -0.037290446 0.036331188 -0.03956476 0.019230768 -0.029011164 0.0065414235 -0.0350169 0.01587648 0.023122605 -0.033427007 -0.02551788 -0.027354099 -0.026802173 
-0.019402014 -0.027064443 -0.012395406 0.03195363 0.039843854 -0.035191998 -0.033801753 -0.0022010505 -0.0068193786 -0.0017403215 -0.008434087 0.015787236 0.039806273 -0.0075805783 0.019361973 -0.0020167828 
-0.022903292 -0.036084488 -0.038191978 -0.036846217 -0.022000438 0.017380014 0.032722283 0.037989046 -0.03648922 -0.01859048 0.039239723 0.03772344 0.024337407 -0.017551191 0.032910716 0.03532734 
0.032243166 0.0036281757 -0.012923285 0.007922504 0.009264525 -0.03184124 -0.018973872 0.024033252 0.001995828 0.020127635 -0.011797799 0.009185959 0.025617074 0.00034367666 0.010267969 -0.023345914 
0.018853992 0.016712088 0.03188127 -0.013144156 -0.011942901 0.0257853 0.017683182 0.02263039 0.003092654 -0.020480739 0.02204971 0.03574748 -0.023361849 -0.016937783 0.018939607 0.007313676 
0.026348542 -0.025535846 0.014968213 -0.020986525 0.022432994 -0.019340275 -0.0142236855 -0.030969376 0.000620082 -0.012992725 0.032313216 -0.03161539 0.024238523 0.035723466 -0.019980965 -0.013165617 
0.028938401 0.019607387 -0.006280344 0.023575377 -0.021203902 0.010726906 0.033541497 -0.022640765 0.029823903 -0.0056487024 0.008526392 -0.029476127 -0.011978162 -0.030632287 -0.013628626 -0.0029553473 
-0.019363133 0.00453645 0.026958477 -0.028444221 -0.02965578 0.030464184 -0.032117482 0.03297845 0.021505374 -0.00044782087 -0.011677435 0.012515802 0.017206833 0.03957283 -0.017589927 -0.020843253 
-0.03217435 -0.0183013 0.011474442 0.03989343 -0.0011793524 0.029227842 0.007826999 0.005653452 0.024910774 0.0054863803 -0.02253325 -0.024413157 -0.02903362 0.0354445 0.029718768 0.0070162974 
0.022078771 0.0053635836 -0.014104057 -0.011612995 0.003216181 -0.027347714 0.007188309 -0.016675025 -0.012127822 0.026432622 -0.016107997 0.035056915 0.029675785 -0.0137522295 -0.027122304 -0.028494248 
-0.00745124 -0.034662087 0.019921046 -0.015131136 0.02107843 0.021889284 0.030225683 0.024327267 0.017621588 -0.001194004 -0.013271265 -0.027641125 -0.005161606 -0.012153909 -0.02346809 -0.025785342 
-0.028313521 -0.009679928 -0.010488667 -0.009039747 -0.009569781 0.023998793 0.03380541 0.0101612955 0.03793623 -0.010885866 0.00515363 -0.011320934 -0.019260503 -0.02833368 0.020772733 -0.017682292 
0.019719623 -0.029420573 -0.030177416 0.012692388 0.039125513 0.011971727 0.031868163 -0.024700984 0.033371013 0.028057542 -0.005472161 0.0018611178 -0.002439946 0.026629593 -0.01467528 -0.0011500306 
-0.037212007 -0.032688506 -0.0024695657 -0.022522323 -0.0076575466 0.006166719 0.03423546 0.014962889 -0.030085608 -0.020508941 0.006926194 0.015452329 0.025191028 -0.03652534 -0.017155224 0.040002648 
-0.004375577 0.0132760815 -0.02741107 0.00057334825 -0.014512099 -0.00224993 0.012424108 0.03352965 -0.024173383 0.0036361516 -0.03909404 0.026717413 -0.034689743 0.032319274 -0.022675574 -0.0090069175 
0.030303407 -0.012058891 -0.0008680038 0.03202534 -0.030883208 -0.015374588 0.021837551 0.033646885 -0.0020542257 -0.030810159 -0.03901461 -0.033396997 -0.030091602 -0.03760783 -0.039495338 -0.021451155 
-0.036473293 -0.031134855 -0.008069262 0.0025394037 0.028980028 0.024353344 -0.0064705573 -0.006721545 0.00084569305 0.037345868 -0.030512668 0.013353217 -0.039982613 0.029903505 -0.012240488 -0.013973972 
-0.013677314 -0.010028271 0.0068046898 -0.035601534 -0.006380655 -0.020556 0.009433884 -0.026265655 0.009952109 -0.010122791 0.0070717 0.012833133 0.025568213 0.004973363 0.012042619 -0.004732825 
0.017074801 -0.019385274 -0.03964085 -0.027005661 0.0068620034 0.030971598 -0.010419477 0.008200545 0.017689351 0.019418601 -0.017093372 -0.038184404 -0.0064564347 -0.020150026 -0.032047708 0.02755944 
-0.012042621 0.030835506 -0.020823536 0.035497833 0.010447882 0.033799198 0.007140629 -0.03953686 -0.009311534 -0.028037108 0.027201612 -0.037714183 0.03458971 0.006487172 0.01527413 -0.038452823 
-0.013314405 -0.0059938915 -0.030628677 0.02693836 0.00031794608 -0.0009892732 0.030412126 -0.019817045 -0.00020781904 -0.038357995 -0.026619159 -0.039463747 -0.02017618 0.028945979 0.036445443 0.022487793 
-0.031864204 -0.02534653 0.008926131 0.016309198 0.0173776 -0.036206197 -0.020548847 0.0328778 -0.025926555 -0.0103474725 0.025718536 -0.024213258 -0.027419757 -0.039045066 0.019480944 0.024564732 
0.0019100159 -0.039033115 -0.015687957 0.029746916 0.010367334 -0.03980521 -0.0030594133 0.03667928 0.022458095 0.01409024 0.0170905 -0.015721982 0.038839575 0.00535392 0.0024116635 0.010033041 
-0.015002908 -0.027913459 0.033952694 0.019838754 -0.029476117 0.01720196 -0.025136854 -0.027261697 0.019437466 -0.017651772 -0.011769569 -0.01915727 -0.0010251366 0.0144301355 -0.03134463 -0.012457557 
-0.013121575 -0.00215403 0.023633216 0.023187157 0.018229593 0.027808 -0.04010053 -0.014386399 0.00981329 -0.02600848 -0.023949342 -0.004988972 -0.0009486675 -0.015735159 0.0035825334 0.0021356344 
0.037557963 0.014713366 -0.02651238 0.017192133 -0.018553017 0.033581074 -0.0064336993 -0.007342413 -0.02393764 0.031397987 0.01224611 0.01865689 -0.024069909 0.010418575 0.03648257 -0.026986117 
-0.0072834343 0.0028939731 -0.011412254 -0.0044113435 0.004522994 -0.036162432 -0.026390523 -0.009535823 -0.00635026 0.0316726 -0.011046013 -0.005578812 -0.036841534 0.039610345 -0.022977548 0.014579229 
-0.01124661 0.015335515 -0.0035876185 0.037713353 -0.0019847862 -0.010219416 0.027066212 -0.022156773 -0.0019153096 -0.014174884 -0.03202326 0.037766825 -0.018839112 0.034972746 -0.0152508225 0.024363186 
-0.036650352 0.027169485 -0.01624426 0.03184403 0.01800061 0.018315904 0.014371738 0.0028834753 0.0069858655 -0.019271536 0.025269013 0.0117648095 0.03561729 -0.017488906 0.012474451 -0.010151548 
-0.026571266 -0.0028964914 -0.022666065 0.014946781 -0.025827564 0.002563212 -0.005336445 0.020726621 0.022153314 -0.03107713 -0.002963256 -0.014048208 0.017382246 -0.017163968 -0.021772021 -0.02080737 
0.010197226 -0.033715576 0.0071972087 -0.021339675 -0.021291688 -0.038129244 0.0050180294 -0.022198066 0.026371438 -0.00834218 -0.037814803 -0.009060239 0.0023835301 -0.015372442 -0.0283095 -0.0013847202 
-0.025788443 -0.008066803 -0.015144736 0.0129386 -0.029308368 0.035370026 0.008399919 0.00995734 0.019129653 0.023730356 -0.015795797 -0.019233162 0.034679364 -0.026060384 -0.014602261 -0.0037051812 
0.026693214 -0.021865841 -0.001846198 -0.0037834384 0.029658545 -0.037229013 0.03565615 -0.02252916 -0.03487729 0.026312437 0.037617538 6.584823e-05 0.022795517 0.017670281 -0.029543497 0.018852089 
-0.024394875 -0.024551556 -0.0112045035 -0.00012185052 -0.00890585 -0.014326327 0.02532513 0.015854184 -0.03191887 -0.037641108 -0.018016364 -0.028978584 0.004019592 -0.024829492 0.03238334 0.008664131 
0.036249455 0.03544304 0.015166044 0.027116451 0.00063129514 0.018186625 0.029493738 -0.010251621 -0.030329585 -0.014013024 0.030963723 0.021382522 0.03390066 -0.0169503 0.00092209503 -0.0272103 
-0.019348912 0.03659888 0.032468665 0.020586587 0.014082119 0.004727088 0.0068347678 0.026577268 0.033187773 -0.022866212 -0.0072811916 -0.012130292 -0.0144783035 0.0015533417 0.0289975 0.039971385 
0.028756615 0.0013496317 -0.026055243 0.025852796 -0.028699845 -0.010423537 0.015129652 -0.038574364 0.021633308 -0.012112413 -0.023835497 -0.037098326 0.016464919 -0.016865501 -0.029299634 0.02663387 
