0.30273694 0.42975736 -0.12501729 0.07320827 -0.08613142 0.38134074 
0.21047574 0.3997985 -0.1207796 0.44791204 -0.14902183 -0.27974033 
-0.3892922 0.31918085 -0.40032953 -0.38775277 0.4414516 0.372832 
0.1265769 -0.4431189 -0.51190174 -0.12772888 -0.4939744 0.058724165 
0.1107468 0.05904293 0.28774267 0.4121002 0.03413719 -0.20976007 
0.22618383 0.34887415 -0.4320299 -0.19406196 0.3117466 0.03601128 
-0.16753212 -0.052051425 -0.28614324 0.090596616 0.22500336 0.12720042 
-0.3383914 0.38023633 -0.45719302 0.06540525 0.43741196 0.21289998 
-0.21278343 0.123858094 -0.32135555 -0.09976989 -0.41887617 -0.49751782 
-0.4381634 0.21642113 -0.015029371 -0.026309341 -0.4104639 -0.07305762 
-0.111729324 0.24314469 0.5108724 -0.33408582 0.43923444 0.50612825 
-0.19926164 -0.3709972 0.18320334 -0.019316256 0.25448734 0.4823814 
-0.13868675 -0.2484695 0.47255504 -0.29014897 -0.34004188 0.20384586 
-0.28206867 -0.3742402 0.38824993 -0.09153542 0.35729676 0.27939814 
0.19584072 -0.30551028 0.03393984 0.058691442 0.10328895 -0.20184174 
0.5190417 0.11175734 -0.034062713 0.030463994 -0.023178667 -0.0059384108 
