-0.0262537 -0.0058192634 0.056033105 -0.029610999 -0.039567128 0.0059416457 -0.0155704925 0.03619995 -0.038812533 0.015334392 0.0061010676 0.032081492 0.019067783 0.007898245 -0.008869787 0.046268143 
0.05341911 -0.015898323 -0.017864943 0.033988822 0.018450862 0.03821348 -0.033928372 0.020758105 0.011732046 -0.016568724 0.020257177 0.016486367 0.008061937 -0.016799971 0.010685239 0.052951198 
0.0034595935 -0.0011543741 -0.00060689816 0.010976429 -0.017921533 -0.018745318 -0.0060645924 -0.0073591233 0.014024767 -0.008245513 0.009471532 -0.0058612 -0.0059305546 -0.0014184476 0.007888573 -0.0020544215 
-0.012529431 0.011681427 0.028999748 0.014330391 -0.005072214 0.013658725 -0.015985956 -0.00086963945 -0.01193629 -0.00091252883 0.007734695 0.025735697 -0.008313649 -0.005415208 -0.0029422247 -0.015640456 
0.010176767 -0.004614937 -8.213356e-05 0.008078667 -0.009509636 0.0067324415 0.010950576 0.018232167 -0.008700457 -0.007731667 0.013915011 -0.015152043 -0.01213437 0.010191892 -0.018196672 0.006787222 
-0.0072742114 -0.025917158 0.021681141 -0.016551478 -0.0042537935 0.013393501 0.010083652 0.006021259 0.01692182 -0.005654554 0.0037370324 0.010629205 -0.0072618225 0.009124664 -0.011698164 0.015290222 
0.0073860083 -0.014013608 -0.023606116 0.00077598746 -0.002457795 0.01623322 0.003875596 -0.021242267 -0.012276445 -0.010445948 -0.0058933063 -0.018478606 -0.008893121 -0.0031454111 -0.004984206 0.032451946 
-0.0023013516 0.008075429 0.00021157347 -0.020084247 0.016021963 0.01775227 0.013558199 0.0022747554 0.008490128 0.004599339 -0.014102665 -0.008833415 -0.0057903305 0.0014142112 -0.0059551736 -0.0051138476 
0.010616439 -0.00018436236 0.00266668 -0.015657406 0.011095167 0.017042784 -0.0054569645 -0.008488737 -0.0058470964 0.017634887 0.0015762259 -0.008713329 0.0026322277 0.003023473 0.0054569924 -0.01077209 
-0.01906889 -0.015005824 0.025944026 0.005674485 -0.014685141 -0.0141852135 0.019330239 -0.0084705455 -0.0068894033 -0.036761142 -0.0071524926 0.03533985 0.015762307 -0.0051809624 0.03031664 -0.03696527 
0.0011937858 -0.0062295916 0.018915279 0.0043557333 0.001121765 -0.009195979 -0.0019975961 -0.013776638 0.012549042 0.009237546 -0.00035382737 -0.013546021 -0.011757697 0.0040905345 -0.005295034 -0.016061671 
0.015905624 -0.0247998 0.050298735 0.027852057 0.005491266 0.050091796 0.04890024 -0.006786966 -0.011116293 -0.03811106 0.030571893 0.05663264 0.0018444373 0.03319623 0.030478138 0.009438319 
-0.00062607316 0.013368843 0.0066024614 -0.009043985 0.005653376 -0.0040198625 -0.006115469 0.001993863 0.008773801 0.0130654005 -0.017846992 -0.0047199894 0.003918096 0.0137782125 -0.008594314 -0.011791925 
-0.015735831 0.0058278637 0.027061915 0.028028084 -0.053244688 0.005367284 -0.0019698706 0.041233834 -0.011985243 -0.03789193 -0.015961155 0.04673321 -0.04252485 0.047538668 -0.008869143 0.019887488 
0.0065216436 -0.018205708 -0.00549673 0.024412578 0.01269663 -0.011518037 -0.01645818 0.017547276 -0.0259572 0.017447662 0.026127711 0.050113697 0.031150686 0.002359313 0.014995299 -0.015572454 
-0.0058088605 0.0018326638 -0.007760864 0.017648218 -0.012855979 -0.0025379166 -0.0106132645 -0.008688205 0.013482512 -0.0043143826 0.017126827 -0.009174443 0.010831328 0.007399415 -0.016484741 0.0065077594 
0.032486383 0.007443963 0.053513557 0.006698891 0.017748725 -0.016435416 0.02288171 0.03557698 0.025609855 0.0059549855 -0.045187082 0.014280497 -0.018743966 0.03153353 0.026802998 0.014508053 
-0.020020166 0.006010098 0.00033777126 0.010859013 -0.00634047 0.002330093 -0.01583038 -0.0101259025 0.0069892667 -0.0086653875 0.01619701 -0.007650163 0.0055155815 -0.029642938 0.023755707 0.01624314 
0.028956152 -0.0012798371 0.0024950616 -0.037301403 0.014022073 0.010418268 0.015341948 -0.007527945 0.022788877 0.025686795 0.0011709388 0.007809304 -0.040073413 0.0013641657 0.044046372 0.020689761 
0.01848522 -0.02329327 0.0022339963 0.012002191 -0.006575633 -0.0039044998 -0.0059259483 -0.012230814 0.016347224 -7.31532e-05 -0.0032682323 0.028036943 -0.0029479896 0.01704141 -0.0013902815 -0.013755108 
0.0054456885 0.017761357 0.003038033 -0.010229323 0.006262813 0.0018075302 0.0009240733 -0.004200518 0.0113126775 -0.003821407 0.0128678195 -0.002143046 0.008602561 -0.005257407 0.014707549 0.0023337316 
-0.04889403 0.01224605 -0.016708776 0.0007583341 0.0025776683 0.00062553363 8.884818e-05 -0.030386828 -0.009471229 0.00026699554 -0.028818538 0.021424549 0.036587022 -0.00084893074 0.019643623 -0.013091043 
-0.02118177 0.0045542256 -0.04717074 0.0005474264 -0.011160176 0.013614874 0.016049782 -0.030928878 -0.013063499 -0.03334015 0.0025378084 -0.013232245 0.005782973 -0.021934012 0.03337173 -0.038527805 
-0.010336917 0.0024733907 0.0062778797 -0.0033867094 -0.0013762462 -0.010790845 0.0034797383 -0.010480381 -0.0039306483 0.013913627 -0.0021702377 -0.00062923244 -0.008372609 0.011259455 0.00037260234 -0.0013251354 
-0.003797998 -0.017576942 0.023246948 0.013038314 -0.01335996 0.0036089602 -0.0067829923 0.009652654 -0.0070677283 0.0056238077 -0.02039678 0.0200069 0.02046878 0.036668386 -0.006486797 -0.013133441 
0.03904327 0.029153712 0.026395772 0.024337044 -0.001956549 -0.01048431 -0.005959398 -0.016079938 -0.0060563474 0.017518627 0.008894652 0.013132197 -0.016140778 0.01891606 0.0024350253 0.004433031 
-0.00020333982 -0.019925436 -0.02617274 0.018695194 -0.00974727 -0.010455141 -0.0008869523 0.0016581876 -0.0022538302 0.002417835 0.01083432 0.0071927053 0.010342937 0.013666741 0.0018766723 0.003688416 
-1.3544413e-06 -0.0248641 0.0015029829 0.011109015 -0.044934683 -0.034792293 0.0033657036 0.018094458 0.019331278 0.00028364806 -0.0044147153 -0.014464576 -0.0024870732 0.011732756 0.015552009 -0.01614353 
-0.0143791875 0.0372822 0.01031582 -0.010376998 0.0066160145 0.008547772 -0.02652281 0.02781559 0.014630742 0.007229911 0.008889132 -0.00090025977 -0.005406933 -0.049067434 0.0054009007 0.027323673 
-0.0016081386 -0.046446167 0.004639233 -0.018975338 -0.035201915 0.020752868 0.031750057 -0.0007317113 0.010480903 0.008653098 0.04876821 0.016350739 -0.04309331 -0.019276926 0.024630805 -0.00083576416 
-0.015721416 -0.018816894 0.058019023 -0.0075944867 -0.01439593 0.0008335677 0.030212123 -0.017551377 -0.032239813 0.00586823 0.026483115 0.033515777 0.008546768 -0.020147577 -0.013938086 -0.010709103 
0.013514305 -0.017386856 0.013379393 0.020395828 -0.0038709773 -0.006325885 -0.0023801366 0.022599716 -0.0017388929 -0.026061706 0.01879534 -0.018072335 -0.016472608 -0.0132150715 -0.012239065 0.020682016 
-0.037678182 0.0027780384 -0.037087295 0.035148077 0.014078148 0.011260379 0.011833497 -0.008595274 -0.019729495 0.0065768966 8.147193e-05 0.0054537226 0.04029293 0.03444297 0.008054753 0.020203115 
0.012014541 -0.008791637 0.026382161 0.02196237 -0.018133247 -0.00634506 0.0122703565 0.05050199 -0.00067325175 -0.003978121 0.009560745 -0.025021547 -0.01489203 -0.0021546292 0.0071363198 -0.0117612835 
0.04591226 0.009438532 0.0025290311 0.022338226 -0.0012793185 -0.014107649 -0.036258634 0.019595504 0.009210198 -0.0059658657 -0.0018273818 0.011867695 -0.0007594771 -0.046055127 0.019261606 0.014151235 
0.042342935 -0.01820412 0.033077545 0.018385438 -0.015424115 0.01243785 0.001992429 -0.016938396 0.017688539 0.023330249 -0.010185204 0.0053067687 0.0050666174 0.017062122 0.01761553 0.02388621 
-0.021632515 -0.037203293 -0.0036021573 -0.02235244 -0.014031315 -0.0044243415 0.017690938 0.034224365 0.013309802 -0.0073617017 0.007856326 0.055222735 0.009014766 0.0033700482 0.016278375 -0.013666466 
0.012983513 -0.007732982 0.057327345 0.018007614 -0.0018506135 0.045138743 0.040430963 0.003990391 0.026609104 -0.043000646 -0.018417908 -0.0019808514 0.002601656 -0.008176247 0.05299989 0.03123872 
0.011871494 0.014414501 -0.0030820405 0.035529938 -0.023234775 -0.02427487 0.041941762 0.045388147 -0.022414953 0.024114275 0.05671545 0.048701644 -0.012086944 0.015712883 0.029036649 0.008112929 
-0.01352701 0.0057248496 0.01964792 0.016107699 -0.012590038 -0.008653988 -0.007183783 -0.0009316388 0.0035888436 -0.01950128 -0.01724694 -0.0054248613 0.0023266764 0.0027892815 0.0038178607 -0.004686232 
0.057560164 -0.027353402 0.011042004 0.04270932 -0.033941697 0.009292504 0.026113993 0.02588718 0.002121958 0.018396085 -0.014557988 -0.007981097 -0.014925291 -0.0018863193 -0.0053572035 -0.039637886 
-0.016339986 0.017697195 -0.022183865 0.0039604236 0.017601993 -0.0023206067 -0.01421303 0.01811588 0.010641868 0.028726082 0.011007054 0.034958035 0.0031051473 -0.0050424477 -0.009569802 -0.020644167 
-0.017670311 0.011490897 -0.021257192 -0.009709374 0.014848467 0.01243427 -0.035218995 -0.027514404 0.026407337 0.0015054725 -0.014971729 0.0048139556 0.05448466 0.031757977 0.0006864858 -0.01758058 
0.019911865 0.0003232517 0.00036789294 -0.017236186 -0.017859414 -0.0011196153 0.010533834 -0.014836461 -0.0014097906 -0.011522533 -0.0015959517 -0.002487918 0.002754865 -0.017617328 -0.0045379777 0.009980639 
0.02969559 -0.03711743 0.04742681 -0.021067327 -0.02091196 -0.0071137575 -0.015876742 0.020137226 -0.005645834 0.019796742 0.018849513 0.04697754 0.02304785 0.030151347 0.026222683 -0.027147045 
0.05177179 0.014303381 0.029970879 -0.009396154 -0.045684855 0.014756841 -0.002682647 0.018265948 0.027537929 -0.02952908 0.017901678 0.021904992 0.0016993335 -0.013850515 0.008882646 0.020113476 
0.043310497 -0.0048980117 -0.028701518 0.008870441 -0.0051314817 0.0002519604 -0.010431951 0.038791403 0.01594504 -0.00089180877 -0.017961174 0.023585768 -0.04246839 -0.004668563 0.045217063 -0.0006605598 
-0.0037912591 -0.013367402 -0.014423723 0.013276301 -0.020419065 -0.003698749 -0.010068955 -0.009798459 0.013124362 0.008301922 0.003151784 0.015606043 0.002643845 0.0077591254 0.013189246 -0.008279143 
0.043258205 0.021857256 0.023597702 -0.0072891735 0.016703527 0.01516836 0.018130856 -0.022603935 -0.019051507 0.04523947 0.019336527 -0.0342563 0.010291505 -0.035761498 0.0015016454 -0.027147638 
0.004799093 0.0102979 0.015593926 -0.009302652 -0.006321472 -0.01603794 -0.008034338 -0.0024718414 -0.002949363 0.0050151492 0.0028129416 0.0023752376 -0.0036444666 0.0056173224 -0.0068203523 0.0006048952 
0.006408039 -0.011922978 0.0021406366 -0.0029717227 -0.020317351 0.0012518173 -0.0012893481 -0.0056996755 -0.0023335034 -0.006348396 0.002188235 0.010191307 -0.0026517434 -0.0007918983 0.0058548576 -0.006491899 
-0.0035869554 -0.02802845 -0.016279865 -0.022850515 0.0023741636 -0.020203643 0.008797738 0.01866016 0.01690132 0.0028105197 0.018182723 0.018769177 0.006547036 0.0024600453 0.016381172 0.016476702 
-0.0018039478 0.009322502 -0.020004302 0.0030405456 -0.020503292 0.005946912 -0.013334166 0.007419239 -0.0148977535 0.0003926091 0.01982877 0.020680133 -0.0075858706 0.016756421 -0.012440894 -0.00027956252 
-0.019305402 0.048022352 -0.014036909 -0.030783571 0.014558335 -0.030664537 0.01835802 0.02611151 0.000943987 0.010653469 -0.039424177 -0.029911805 -0.03469189 -0.015775748 -0.0015621078 -0.021284198 
-0.0056147324 -0.0019690194 0.020910505 0.05499692 0.012967221 0.01878101 0.005613414 0.0035807535 0.0051792767 0.018701954 -0.0012335149 0.008120021 -0.0067055793 0.018534496 -0.01402898 0.037611935 
0.014726658 0.0009727168 -0.03244572 -0.0086443955 0.013414542 -0.011930489 0.010254025 0.009995683 0.0041954704 0.0063768597 -0.017391238 -0.030812962 0.006314267 0.0026706606 0.012845601 0.03154246 
0.0035589864 0.0041310675 -0.0023296336 0.0027889542 -0.0064048176 0.018096628 -0.0072972304 0.0020841677 -0.009109646 -0.015911773 0.004426852 0.006423233 -0.0018781562 0.01024315 -0.0028673126 0.00440702 
-0.015050609 0.032296233 -0.0098554585 0.041541774 0.006929529 0.006676101 -0.04277949 0.011903874 0.023917137 -0.011431944 0.018358046 0.009920077 0.0034855604 -0.0074812863 0.04174464 -0.010313824 
-0.0007802856 -0.015402761 0.006393702 -0.008097392 0.009573948 -0.004224274 0.004625997 0.0072099855 -0.0061836326 -0.0054054507 0.006362147 0.0016552999 -0.014126937 -0.00026473965 0.0068302667 -0.007116135 
0.0040441365 -0.0048836484 -0.00681173 0.012674559 0.0065549538 0.0051189447 -0.017392911 -0.015582422 0.012514874 -0.00026977021 0.00024440512 -0.0072161937 -0.015440397 0.007517991 0.0052113594 0.0017673139 
-0.0059335986 -0.0060342676 -0.0057173613 -0.0020753725 0.0025869834 -0.0020733771 -0.015462436 0.01090535 0.0052263374 -0.007132601 0.004968655 0.007903919 0.005291606 -0.003473284 0.009614617 -0.016974604 
0.011579951 0.005462135 -0.025464518 0.0010395421 0.00507386 -0.018559322 -0.018692983 -0.01679458 0.0173612 0.002508242 0.009607567 -0.011012764 -0.0012354464 0.032050878 -0.017226182 0.011243402 
-0.008202629 0.005284186 -0.013235874 -0.00043196528 0.008833498 0.013190329 -0.003525487 0.0006629089 -0.00019183736 0.0057303878 0.0058589117 0.0056629134 -0.004514199 0.014977958 -0.014360254 -0.012998664 
0.002678482 -0.0035847593 -0.018585473 0.0028146352 -0.008567341 -4.883223e-05 0.020728517 0.011169605 0.0060263867 -0.016781013 0.0029785268 -0.012449631 -0.003014923 0.012942761 0.0045259628 -0.0085093 
-0.015154648 0.017789321 0.008772453 0.006550932 -0.0056066387 -0.00858597 0.017413802 0.013760303 -0.0016430871 0.007533882 0.004681117 -0.019490495 0.0025295527 0.016895467 -0.0020383366 -0.0059260046 
-0.0377883 0.0076121744 0.032152984 -0.0015110631 -0.026149118 -0.013222992 0.004331149 0.037008338 -0.05258569 0.015280943 -0.018161597 0.05179185 -0.00752361 0.015552657 -0.016569348 -0.03509714 
-0.018345693 -0.011520219 0.013732558 -0.003814503 0.005835023 0.0027664849 0.0006708595 0.029626718 -0.0060797133 0.015284852 0.0050294483 0.0028978223 0.0060420204 -0.0034891139 -0.008721016 -0.0025372084 
-0.0061625745 -0.032915264 0.020000156 -0.002805311 -0.0038980653 0.027457805 0.027714241 -0.012613093 -0.0031263153 0.012943382 0.0027135885 0.018031158 -0.005489208 -0.0019569823 -0.018410573 -0.005225297 
-0.013564829 0.009351717 -0.00013771457 0.015663244 0.006705567 -0.0014103934 -0.010743492 0.008995597 0.009755864 -0.006328979 0.0063536265 0.00065984874 -0.011666838 0.005669191 0.0013289701 -0.0030480626 
0.01534807 -0.015920628 -0.009348185 0.010344106 -0.008416919 0.008632015 -0.008125858 0.046292376 0.018991102 -0.0052052997 -0.021148955 -0.024833586 -0.04812671 -0.032976415 0.0024198596 0.0124563025 
0.0044027907 -0.008925646 0.0038830766 -0.015255196 -0.0030783357 0.0006091414 0.014384715 -0.008830862 -0.019648466 0.0021114128 0.0075556105 0.000118049495 -0.015038632 -0.0072796918 -0.01798696 -0.005697103 
0.0010205923 -0.008494559 -0.002623897 -0.04162118 -0.0024140882 0.0021226183 -0.002088192 -0.00118863 -0.03284272 -0.012039832 0.011260258 0.020414976 -0.016155714 0.015071019 0.029025476 -0.011332328 
-0.0197266 -0.010626944 -0.01998422 -0.016730139 0.005517433 -0.01547196 -0.005988013 -0.02565604 0.006923387 0.017438905 -0.016544797 0.022246797 -0.00014420322 0.02876558 0.013197992 0.0038720197 
0.012765561 0.05795984 -0.027324898 0.056410298 -0.005023831 0.03851392 -0.007617094 -0.012429426 0.01923629 -0.015576227 -0.0027102954 -0.014020366 -0.0031471099 0.020624833 0.027598118 0.05591665 
0.019023558 0.0026441838 0.032571603 0.0027575379 -0.0070274817 0.000110483496 -0.0075898776 -0.005836369 -0.006750193 -0.015052412 0.015228428 0.023180366 0.0001181362 -0.003564507 -0.007005424 0.0049836864 
0.024593418 -7.8558325e-05 0.032702643 -0.010935974 0.019416258 0.007998915 -0.042202614 0.0046086414 0.023093214 -0.041684005 -0.03823723 -0.0071922424 -0.002716024 -0.02505012 0.006055143 0.049677428 
0.019609207 -0.009360958 -0.030222792 0.04650819 -0.006167847 0.05851979 -0.01881706 0.014763545 0.017345637 0.008520919 -0.02883678 -0.022905188 -0.01063594 -0.037233483 -0.018637817 -0.011685341 
-0.022184812 -0.01571491 0.015218842 -0.001181072 -0.020113707 0.009466785 -5.905401e-05 0.021895174 0.0042383964 0.009088682 0.002668339 0.050260957 0.017642895 0.030456122 -0.007827743 -0.01911114 
-0.026241738 -0.0044028913 0.0023458104 0.0007955208 0.017184561 -0.0077582863 0.008104932 -0.013790717 0.0011599608 0.014961289 -0.006611667 0.004568307 0.011546355 0.012919266 0.019745898 -0.008382968 
-0.019774297 0.0042495215 0.007874213 -0.01692949 -0.0023993975 0.0023042122 -0.0034952362 -0.006584231 0.019520292 0.005182414 0.0033034615 -0.020417703 0.0074486784 0.011885348 0.0010807433 -0.008631153 
0.019800032 -0.013327676 -0.0048172474 0.002245755 0.011207265 -0.012132389 -0.006110348 0.004002022 0.009754016 0.01958551 -0.005716375 -0.00045443897 0.014490818 0.008614846 0.006870748 -0.009250286 
-0.019383973 -0.0012807584 0.0129497005 -0.008368199 0.008628014 -0.0019320662 0.0024641845 0.012244884 0.018249003 0.0027900543 -0.008671567 0.0017860619 -0.016990019 0.006078644 -0.020112796 -0.0017972479 
-0.016621673 0.017987175 -0.02010632 0.006506466 0.044652138 0.023106026 0.0052569173 -0.03713067 -0.014532976 -0.02001847 0.010499069 0.029225348 -0.026591433 0.013839755 0.023161 0.0023686474 
0.0048716706 0.003945138 -0.014679687 0.002501022 -0.00029354024 4.5341883e-05 -0.009407192 -0.012237292 0.0063822074 -0.007381778 0.015462511 0.008064626 0.020164238 -0.0034295395 -0.0006019143 0.007343665 
0.054296114 0.0063506393 0.057040647 -0.012229927 -0.002165688 0.009370609 -0.018699765 0.017280491 -0.0134697845 -0.016429007 -0.0037813555 0.018725265 0.042581607 -0.0030206132 -0.00075196126 -0.011979773 
0.010741793 -0.0032253908 0.0051490976 0.011792185 0.0062018856 0.00085061695 -0.0015160093 -0.030567868 -0.006127091 -0.0063561713 0.011713983 0.0024563707 0.00036037416 0.015991779 -0.01177092 -0.016089235 
0.00070160377 -0.002349209 0.0053022825 0.020772632 0.0027136507 -0.0061566513 -0.018759344 -0.0068406584 0.0062241186 -0.006156466 0.0025455276 -0.013441658 -0.0026320813 -0.018299028 0.008082341 0.022371296 
-0.016042015 0.037460636 -0.018800067 0.04500771 -0.007007767 -0.015557678 -0.040177856 -0.045137655 0.02031896 -0.0020301754 -0.02082115 -0.019065708 0.023640892 -0.012576594 0.036421474 0.035793643 
0.0044630216 -0.020322025 -0.016876416 -0.01292698 0.0010864742 0.001453983 0.008469585 0.0026782758 0.0026701698 -0.009065523 0.013481911 -0.0033134585 0.0018897039 0.0043493994 -0.0045241346 0.0037584007 
0.017100433 0.015222242 0.004387845 -0.008312672 0.013001477 0.006353084 -0.0046796766 -0.00949919 0.011209815 0.006362693 -0.010435903 -0.0042709275 0.00023473933 0.000832567 -0.009805235 0.0029290346 
0.003913217 0.007137811 0.022060411 0.018462732 -0.018794596 -0.028593538 -0.0082390355 -0.01621739 -0.017284157 -0.011361944 0.041546363 0.030216696 0.027407594 0.020008031 -0.012638994 0.019740598 
0.023634888 -0.011219149 0.00083754794 0.027984401 -0.011173365 -0.014953001 -0.001964045 0.0054804618 0.002001485 0.010495461 -0.023862964 0.00840453 0.0019813522 -0.0072867563 0.012451131 -0.0092296675 
-0.012453274 -0.018048957 -0.011976156 -0.04086104 0.008772535 0.0073895464 0.010018112 -0.018521031 0.0064394604 0.019545218 0.01112734 0.004928944 -0.0042037736 0.011469349 -0.0059003388 0.0075017954 
-0.0035353745 0.017587148 -0.0075432933 -0.039865844 -0.0071348352 -0.0073914616 -0.0025199435 0.043455593 0.02074489 -0.0010420264 -0.00016585439 -0.043415517 -0.05031338 0.0074456884 -0.030669488 -0.031374373 
0.0017802279 0.006913708 0.013850756 0.025945652 -0.0073486594 0.005629442 -0.0005888766 -0.014507854 -0.0026569138 0.010965773 0.020324958 -0.00504698 -0.017669598 -0.0095400615 0.006224291 0.026597098 
0.00912393 -0.008860887 0.029459741 0.005480999 -0.041194603 -0.0030976213 0.04909565 0.049924567 -0.0067460863 0.002556151 0.054949194 0.027444517 0.008908822 -0.0038847511 -0.015676638 0.015741214 
-0.0054689473 -0.005071692 -0.009440025 0.00071443315 -0.005586516 -0.001372896 -0.013164779 0.029044194 0.054762524 -0.00949279 -0.0033809184 -0.010164914 0.019025778 -0.010330379 -0.017079115 0.006149337 
0.0006224755 0.020092905 0.020276655 -0.0053011547 0.0041555674 0.018625762 -0.0039360514 -0.018433586 -0.020312104 0.008601895 -0.00408731 -0.013853784 -0.0030923141 -0.005769616 0.019916046 0.00012300792 
-0.007734277 -0.0032721686 0.003185178 0.0078056743 -0.0034510717 -0.00071889284 -0.0030691165 0.0035909123 -0.01584278 -0.0059660636 -0.013623631 -0.0064129275 0.0030280075 -0.004907553 0.015275145 0.01949917 
0.009888609 0.00624273 0.014323273 -0.01858224 -0.0011226084 0.004484165 0.0014483357 0.005881804 0.0152134895 0.0010811854 -0.010122767 -0.004696246 0.0012158689 -0.01838326 0.0040363106 -0.0011097427 
-0.0016935597 -0.0008215884 0.003236418 0.013460167 -0.00021730608 -0.017569091 0.017361995 -0.005663105 -0.0115196295 -0.005907742 0.0060014506 -0.001549906 -0.00053508836 0.014194818 -0.01624905 0.0009991134 
0.0054558567 -0.0016111128 -0.019710468 0.011929989 0.0060553458 0.007283639 0.010245308 0.013327191 0.010972863 -0.005755277 -0.007281008 0.005688546 -0.0066202497 0.019973565 0.006053773 -0.014451391 
0.0030941428 0.048724383 -0.012700152 -0.0021523635 0.048111487 -0.0377922 0.013537156 -0.018372621 0.059676662 -0.0031950453 -0.042894717 -0.019700084 0.016132895 0.013637311 -0.02317386 0.036001053 
0.002392771 -0.016915573 0.049078356 -0.00062015903 0.013487626 0.015263263 0.015699053 0.012022618 0.017264156 -0.009312087 0.0030892864 -0.020928444 -0.017278206 -0.00140883 0.010130451 0.0015800662 
0.0018072601 -0.0035537232 0.0052035884 0.0052214446 0.0009930934 -0.002694586 0.023225931 -0.0058411676 -0.016169224 0.0062642996 -0.0024326586 0.023712737 0.0132792415 0.005649432 0.013949372 -0.0042771073 
0.04863644 -0.02307486 -0.011407291 0.02143531 0.014422976 -0.010255408 -0.0028377802 0.039614912 -0.00520265 0.010665882 -0.016643526 0.015666889 -0.011641458 -0.012119366 -0.0011058139 -0.017069386 
-0.0010963862 -0.017437099 0.016045867 -0.008987884 0.01381044 0.0061059473 0.013809875 -0.01852144 -0.0074410574 0.010545246 -0.00138783 -0.018615382 -0.00540915 0.018557902 0.007252245 -0.014982108 
-0.0026495524 -0.02053274 0.019933619 0.019617043 -0.008841841 -0.017987125 0.0023248969 0.0104337465 0.0140190665 0.0022064417 -0.0006381971 -0.004513621 0.0010757328 -0.0059664557 0.005915058 -0.007636301 
0.0015015305 0.0009936581 -0.0059949732 0.0138222985 -0.0011773226 0.003111393 -0.011234214 0.012364253 0.016060218 -0.009071397 0.015890587 0.002072832 -0.02020861 0.0029341746 -0.002272801 0.0025663858 
-0.028824033 -0.056604076 0.01417258 -0.024394557 0.010216487 0.008803837 0.03648646 0.017511709 0.016172333 -0.016572958 -0.0020263346 0.011242869 -0.0013519675 -0.007898473 -0.011847524 -0.024595166 
-0.0024394954 0.01702616 0.04636502 0.034234002 -0.03178347 -0.009303351 0.008428189 -0.017093195 -0.031858455 -0.044066805 -0.004082321 -0.019859143 -0.0015201911 -0.029052708 0.03855257 0.009235989 
0.021736668 0.02161026 -0.0020957375 0.02127335 0.009117312 0.017037023 -0.00015817337 -0.003901262 -0.011198174 0.005286641 0.0154151125 -0.0058802078 -0.00060626765 0.017435554 0.020232825 0.015663238 
-0.00854264 0.03630912 -0.030818537 -0.011721905 0.024750693 -0.0087230215 0.008066315 0.0018556544 0.020429568 0.004686706 -0.05288788 -0.0073079006 -0.015530655 0.004279378 0.011846864 -0.004967838 
0.00604994 0.05091234 0.0018677062 -0.01617224 0.035319377 -0.005755115 -0.019290088 0.00964381 -0.014510609 0.019062774 0.01049415 -0.0037974173 -0.0205373 0.0006978599 0.019608675 -0.0013514761 
-0.013122991 -0.012611063 0.056424294 0.05454448 0.0023555502 -0.016844008 0.014987823 0.038126927 -0.016284361 0.033401355 0.027059382 0.046810105 0.0054134033 -0.04278311 -0.010258756 0.009941061 
-0.010474256 -0.0049000983 0.0063533867 -0.011400213 0.0016803978 -0.016325451 -0.0019032615 -0.0007722691 0.0032374691 -0.0035676183 0.003937695 0.0013389208 0.016479796 0.0063035027 -0.0025605352 0.0037830542 
0.0128262555 -0.0007364862 -0.020123476 -0.0016504228 0.0055690575 0.005448416 -0.0060558463 0.0026061283 -0.018470163 -0.01219999 -0.0054611824 0.019997131 -0.0034841143 -0.0028762256 0.0002865526 -0.001892651 
0.0009344123 0.0018706067 -0.015134363 -0.007180192 0.018037533 0.0061294525 -0.013597713 -0.016538477 0.006295197 0.0056557246 -0.005951063 -0.0044063204 0.017626638 -0.013745661 0.00022372475 -0.0030754227 
0.010596196 -0.012854122 0.026619036 0.009912465 0.015236567 -0.014739301 0.015619911 -0.005685013 -0.009212747 -0.012677176 0.013665828 -0.007023587 0.0058478285 0.0026126148 0.00209567 0.0015490467 
-0.015873997 -0.04245119 0.0071863853 0.004427485 0.0029461263 0.0009338143 0.0057214596 -0.018942516 -0.0037885972 -0.0027173108 0.038697693 -0.0068724845 0.0034689698 0.052859396 0.0063913935 -0.035484314 
-0.0037027174 -0.000670675 -0.0026927714 0.006595557 -0.016754871 0.002337021 -0.0024200398 0.0012008281 0.00045722796 0.0154368915 0.0018531838 0.009856141 -0.001696991 0.0053295903 -0.0021693888 0.009094761 
0.0071386 -0.019235864 0.0013954305 0.024959007 -0.009507234 0.008127729 -0.0026348233 -0.014097665 -0.017109929 0.011916639 0.0008314207 0.032443333 0.02287716 0.038278483 -0.0031912106 0.007894389 
0.018219335 -0.015662462 0.013316756 0.0051138005 0.0036357155 0.009025351 0.026571367 0.03425448 0.006753258 -0.022397358 -0.034861907 -0.03625536 0.0033010757 -0.008826423 -0.016720349 0.01955868 
-0.0063276314 -0.0005261744 4.723712e-05 -0.0047214185 -0.0037524442 0.01607614 -0.007128676 0.016117118 -0.01441486 0.012364913 0.004077334 -0.0031998707 -0.016514933 0.008520242 0.009253621 -0.011251663 
-0.010337245 0.015710892 -0.037032694 -0.017758671 0.018511107 -0.036271147 -0.014334989 -0.021704167 -0.0042592087 0.0011004164 0.0020625996 0.010644715 -0.0046169185 -0.01775661 -0.015471374 -0.01297704 
-0.035564266 -0.012577384 -0.045338277 -0.049851015 0.0018763329 0.012082995 0.005742048 -0.012543287 0.010526567 -0.01497885 -0.032903776 0.007948974 0.02134787 -0.018028777 0.031161135 0.01270889 
-0.010551729 0.01342956 -3.0334348e-05 -0.0053156447 -0.004859625 -0.00021074279 0.013030451 -0.0017703013 0.004039928 -0.01770171 0.0035885503 0.0057101813 0.004479982 -0.0103621185 0.0051954146 0.0062345364 
0.016938824 0.009986446 -0.001765607 -0.030863134 0.00635986 0.00026044247 -0.008942328 -0.016178416 -0.014746956 -0.0005921156 -0.0039387224 0.0036911636 0.006251793 0.005481556 -0.009131131 0.01765248 
-0.02774254 -0.01899395 0.008034632 -0.025826525 -0.007138589 -0.0012302438 -0.003975115 -0.010957438 -0.012752501 -0.02210191 0.023038665 -0.010504435 -0.0013121862 0.018998163 0.0076846904 -0.0048159533 
0.016711395 0.012333027 -0.0013614268 -0.022620564 -0.015566973 0.0063375924 -0.0142893195 0.0023715205 -0.01798714 0.0050651203 0.016580809 -0.010119356 -0.036890887 -0.011950363 -0.018691964 -0.019548018 
0.011882366 -0.026561845 -0.010606876 -0.0120843975 -0.01338026 0.0013223507 0.0058817733 0.024006769 -0.023610499 0.0069491016 -0.016273528 0.025146 -0.036842316 -0.018702313 -0.0003688335 0.020418217 
-0.022451803 0.01680514 -0.0024687252 -0.037777748 -0.009306573 -0.046975523 -0.011345144 -0.018320508 -0.018736266 -0.014178545 -0.014425533 -0.013029336 -0.010525059 0.033846095 0.011190343 0.0028524755 
0.009698591 0.03037287 0.034720007 -0.0033107197 -0.0060759718 -0.0022948529 0.0029848337 0.0071949414 0.043743927 0.025989197 0.005535653 0.0035683617 -0.009704469 0.008388681 -0.0013822519 -0.012513335 
0.022376727 0.016089786 0.009799895 -0.01998802 0.0015851468 -0.010612417 -0.013365055 0.04184095 0.02949271 -0.019346183 0.0048129596 -0.031363174 0.00818573 0.01166844 -0.0011578599 0.010300205 
-0.016500067 -0.026906762 0.030610278 0.011071592 0.0036626717 0.008486666 0.0183026 -0.013132862 -0.01321743 -0.013694794 -0.01569279 0.0070017786 -0.008771311 0.006131279 0.014656026 0.007925516 
-0.0011066962 0.031807616 0.002830116 0.015381983 0.0048756944 -0.0041993638 0.032435823 0.01422765 0.032024857 0.039677486 -0.049263883 -0.024786027 0.0036703025 0.016486544 0.028133038 -0.02255236 
-0.020352133 0.0035920956 0.004175681 0.0020556208 -0.0057336185 0.0124678 -0.0070280354 0.016108548 0.013609689 -0.0051307245 -0.0044664387 0.0048015607 0.01786655 -0.008184491 0.00078249536 -0.00264611 
0.024505557 -0.0155435335 0.021207143 -0.0069389553 0.002441792 0.0034508996 0.012526222 0.020199524 -0.0137864435 0.0063147084 0.015025844 -1.7542985e-05 -0.012829641 0.01420566 -2.944406e-05 0.004143805 
0.027887514 0.022439914 -0.016806982 -0.010688652 0.01598728 -0.017144708 -0.008821122 -0.0060928566 -0.0025471929 0.024600742 -0.0023079247 0.0024860103 -0.003278127 -0.021556137 0.013815074 -0.017848993 
-0.0030459256 0.038227096 -0.014732424 -0.011665296 0.043401476 -0.023987798 -0.006718578 -0.021791914 -0.011394901 -0.004491097 0.00021730583 -0.0052171187 -0.018256087 0.01800125 0.01633377 -0.016216293 
0.035529483 -0.017251313 0.0017973956 -0.0013334774 -0.0019909176 -0.012611836 -0.025408752 0.0046365205 -0.011026371 0.016252114 -0.015324795 0.008486464 0.016766336 -0.02609408 -0.011793319 0.0032735215 
0.019431986 0.015745854 0.011965883 0.04252622 -0.015119477 0.007042279 0.008403396 0.011993816 -0.023761032 0.017060297 0.01385704 0.0023603332 0.021528052 -0.004808807 0.0052669644 -0.016612528 
0.04397236 -0.038636383 0.0259285 0.04107396 -0.009662111 -0.0023321214 0.014687945 0.0006597735 -0.045924816 0.013786579 -0.009896338 0.006168795 0.0054608216 -0.0016048707 0.004792254 0.0023835883 
0.0096914945 -0.009152996 -0.011785868 -0.032194313 -0.0033395495 -0.0034108122 0.018382955 0.0060887914 -0.011613286 0.022724258 -0.005242351 -0.015561991 -0.0047649248 -0.028328434 -0.008305557 0.010356459 
0.00311722 0.018019568 -0.006204121 0.008005309 -0.00478354 0.009215628 -0.014295505 -0.0076845465 -0.0028886725 0.003225275 -0.005298818 -0.0016317551 -0.0004321755 -0.02025242 -0.0035273626 -0.014894993 
-0.0008445587 -0.019998677 -0.010088372 0.0008912297 0.0018253499 -0.0062692994 -0.0062940996 0.011381221 0.003782559 -0.0032500508 -0.012821179 -0.0034186486 -0.012821215 0.003871549 -0.018859291 0.0023460453 
-0.0072753783 0.014812386 0.0013516902 0.008398639 0.018234378 0.00023292318 -0.005081648 -0.018365676 0.0038304105 0.010921138 0.0051124725 0.01252711 0.0014531461 -0.017446712 0.001221181 -0.0027977251 
0.0021313461 -0.0019360918 -0.01900286 -0.012525288 0.00026853324 -0.03690947 -0.016106794 -0.018381752 0.006925321 0.0041433265 0.022709904 -0.013605689 -0.011923773 -0.0098691275 0.015277619 -0.0017011672 
0.010909274 0.035157036 -0.009873102 0.05298911 0.005295095 0.0372879 0.0033495126 0.013751427 -0.008912472 -0.021448182 -0.044238288 -0.008624516 0.015792422 -0.0318546 0.059575643 -0.014667613 
-0.00828736 0.04604002 -0.034952644 0.021818077 0.054520942 0.012280265 -0.019439952 0.004266929 0.010691644 -0.008021205 0.008797025 -0.031031236 -0.01955211 -0.04421951 0.048965614 0.011157409 
-0.0027333193 -0.006274341 -0.008466471 -0.0074705514 0.0045964485 0.0014690361 -0.004372777 -0.02000036 0.004522496 -0.0025388778 0.003923566 -0.011076088 -0.009170655 0.004238864 -0.0033620435 -0.008108856 
-0.013272372 0.012914794 0.0054062395 0.0083368495 0.009008421 0.0044133584 0.0035935466 -0.008883993 -0.009003119 -0.0146873705 -0.007982556 0.002927534 0.009572202 -0.006354485 0.005612546 -0.0057973363 
0.0035413704 0.0027802943 0.006913986 -0.0056598363 -0.009197775 0.00085047545 0.001902471 0.007834221 0.0031039193 -0.00670083 0.0068199607 -0.014417979 -0.00595527 -0.02057383 0.0062387004 -0.0037612377 
0.004839124 -0.0056350366 0.019749928 0.005755051 0.0013112485 0.015300322 0.0044150027 0.00073756924 0.0031915165 -0.00078562356 0.004944671 -0.002855168 0.0062797023 0.020436876 0.010915256 0.005476212 
-0.008736355 0.016624345 0.0034496954 -0.000104485494 0.0152493855 -0.0059604393 -0.011360099 -0.022349967 0.017255671 0.01307901 0.0137720015 0.021201855 0.012661941 -0.015091981 -0.017486863 -0.017321378 
0.009861786 -0.0019581988 -0.026984977 0.0366917 0.009620828 -0.014252093 0.0036513794 -0.0144757405 -0.015180905 -0.008952428 -0.005530945 -0.019720186 -0.007512423 0.009284523 0.01546346 0.021941753 
0.056680445 0.022598738 -0.04788316 0.01352202 -0.022915466 -0.009947389 -0.01111004 0.0077659003 -0.009908243 -0.035266183 -0.017081283 -0.014285483 -0.015114369 0.022079468 0.017569058 0.028920693 
0.0018476362 -0.0051729144 0.020284144 -0.006087118 -0.0023253337 0.00018601249 0.0011002035 0.003740316 -0.011370213 -0.004194451 -0.005043425 0.0024868872 0.0031827884 -0.009901047 -0.006304237 0.014218334 
0.0033467917 -0.011119907 0.013858912 0.0030277001 0.0033650694 0.0054845815 0.00077849993 0.011455578 0.0028168382 -0.006241426 0.011668052 -0.004943509 0.00489168 0.0075006527 -0.006371491 0.018303575 
-0.015750071 -0.0038179704 0.000303786 -0.009030746 0.0036150895 0.007731089 -0.017160583 0.02689766 -0.008245499 -0.006756291 0.006959 -0.004676874 0.015855651 -0.0015271708 0.01980806 0.012014546 
0.016600827 -0.012624308 0.011407867 -0.0033258558 0.018699076 0.0135659445 0.0130407335 0.0051883752 -0.0027421266 -0.0068377703 -0.0005930995 0.020874983 0.0014140777 -0.00067784765 -0.018013911 -0.01194634 
0.0005640942 -0.016712995 -0.001104 0.015418283 -0.006257022 -0.00902627 0.0029735805 -0.0014359703 0.0031690146 -0.018693509 -0.01845369 -0.0043063313 -0.0038806081 0.0055153933 -0.0058160317 -0.019807281 
-0.019794654 0.015518045 0.016413474 0.013626167 0.012135206 -0.025201272 0.0017925062 0.0015645147 0.0063883765 0.012243766 0.016321914 0.010695261 0.040974855 -0.006812178 -0.0034539073 -0.010754325 
0.00847037 0.033840768 0.040955786 -0.010704993 0.003156303 0.0020305447 0.015064807 -0.012276134 0.022380114 0.047946107 0.0032843342 -0.011399175 0.00658122 -0.037191823 0.017754577 -0.0058073862 
0.011821828 -0.013444666 0.0028535828 0.01758183 0.0009909342 -0.009028772 -0.017429166 0.004287036 -0.010386049 -0.0059012896 0.00012066864 0.0014699514 0.0019267558 0.00043961246 0.011138317 0.0061255377 
-0.014143703 0.0025500979 -0.03136424 0.003023192 -0.044468835 0.0041492423 0.013386415 -0.01369071 -0.03296146 -0.023280945 -0.028686898 0.055814244 -0.0066046515 0.01839101 0.034727637 0.014910918 
0.051006425 -0.018301386 -0.048573863 0.04159485 -0.0046167355 0.032325406 -0.017395334 -0.025020106 0.002981437 -0.04042507 -0.026052391 -0.018624587 0.0092271 0.033292998 0.028084677 -0.017394805 
0.009605721 -0.016333845 0.011231557 -0.0008310327 0.0059025 -0.014517565 0.015105503 -0.0019605528 -0.007055309 -0.01393944 0.0046058483 -0.014708453 -0.01791712 -0.016818946 0.0003708334 0.0031456412 
0.031951763 0.047214128 0.003583346 -0.021270776 0.033130314 0.033061408 -0.029929861 -0.015645737 -0.018430157 0.021608574 -0.017148027 0.018306118 -0.011359874 -0.011951827 0.0040662116 -0.005653331 
0.003468857 0.0032336286 0.033227958 -0.010783342 0.009044861 0.046965286 0.038497105 0.048064787 0.007891991 0.026093861 0.002119664 0.032385487 -0.036970362 -0.02816823 0.007764288 0.035272162 
-0.014009797 0.007282594 0.028410912 -0.028021598 -0.003128016 0.009792968 0.008478248 0.027506467 -0.012207902 -0.0070783263 0.02308301 0.024477953 0.0057093822 0.034170493 -0.020317953 -0.036568224 
0.01659427 0.028166154 0.01257612 0.014779949 0.01120806 0.03686843 0.014405372 0.024464965 -0.015196279 -0.018444898 -0.019344104 -0.02043447 0.0005927536 -0.026638988 -0.0107278805 0.0054865195 
-0.007849469 -0.012233481 -0.019101925 0.012430296 0.0002780792 0.0010584301 -0.0026086865 0.012867295 -0.0012035399 -0.015404718 0.001469474 -0.0037501906 0.0007998868 0.01728741 0.01971287 -0.002639919 
-0.016184071 0.007492828 0.019529391 -0.014789109 -0.014149436 0.013831294 0.030543888 -0.015423067 -0.016850175 0.007563677 -0.044890158 0.02712934 0.0044614775 0.015130872 0.019396413 0.0195804 
0.049722027 0.020901073 0.03300192 0.054452788 -0.05025394 -0.0057676677 0.01151629 -0.01783526 -0.018019548 -0.0001639986 -0.008081118 0.02008984 -0.00084649114 -0.017235922 -0.032551505 0.006111707 
0.030751184 0.020052146 0.016586076 0.009264687 -0.027872736 0.00208134 -0.0065474487 0.05869204 0.04001235 0.022622518 0.034490258 0.005985132 0.0004027493 0.010497682 -0.0041384753 0.03606941 
-0.0006902979 -0.014213442 0.00020472487 -0.00090080075 0.0017308885 0.0021164566 0.016050957 -0.014825321 0.0136951255 -0.0059503587 0.0063976664 -0.0022881688 0.022005152 0.004731814 0.0063869213 0.0007423474 
-0.015456688 0.0191244 0.028935893 0.013066242 -0.010889393 0.025670802 -0.02052684 -0.020995704 0.02147575 -0.035858557 0.016563911 0.012854609 0.015225762 -0.041405033 0.05803945 0.02639182 
-0.019886328 0.049541388 0.013299296 -0.006278205 0.013979803 -0.0014269914 0.003335145 -0.0009156236 0.04793819 0.0027476836 -0.037377775 -0.024449123 0.017330607 -0.03896342 0.024220483 -0.018429434 
0.0022385386 0.0036943578 0.028252438 -0.004428125 0.015977645 -0.0046225106 0.029291743 0.013786595 -0.001284836 0.004744215 -0.0067012543 0.03515951 -0.03224821 0.01019373 0.017968217 -0.034662817 
-0.018945701 0.00020256675 -0.013814884 0.0073258737 0.002230014 -0.005841762 -0.0030994937 0.003278845 0.011923381 -0.010297495 -0.0025082359 -0.0036640174 -0.0032322912 -0.005267527 0.0030060373 0.006333672 
-0.0010725416 0.006198633 0.007602912 -0.016794838 0.0024150426 -0.008719353 -0.004860153 0.0020852583 0.0057460987 -0.014202175 0.019192033 -0.0079569165 -0.0016172251 0.0018692954 -0.0046870667 0.002154842 
0.0037284591 -0.022253197 -0.009315163 0.014977456 0.0015695207 -0.00026679752 0.017754316 -0.0090841325 0.008365645 0.016157523 0.014209124 -0.009876288 -0.012892218 -0.018543081 0.0015656038 0.0031965722 
-0.0029539696 -0.020147461 -0.018759089 -0.019471714 0.007490379 0.002500847 0.0189075 0.018989775 0.009631679 -0.011202704 0.0016745758 -0.013919979 0.008532991 -0.0052375156 0.014836505 -0.0026838458 
0.001683197 0.011611601 0.013365125 0.025900679 -0.0026383854 -0.00081203395 -0.0058420734 -0.004046664 0.041105133 -0.0062877787 0.0010181745 0.0038350227 -0.00198387 -0.0016385763 0.015765995 -0.024405945 
-0.013777493 -0.0079551255 -0.006766718 -0.0031316685 -0.019178648 0.0007072725 -0.0062353304 -0.0058968477 0.0013299021 0.010367878 0.008200567 0.0055157226 0.0071718693 0.00927911 -0.019604383 0.0026809725 
-0.0120942155 0.039493814 -0.01004563 -0.00054199836 0.013088558 -0.01573807 0.0038431452 0.012901674 0.02242359 0.0016533806 0.014318689 -0.021472244 -0.023780407 -0.009963052 0.02206499 0.038133632 
0.0017991768 0.031260524 -0.018360054 0.003057961 0.0026612903 -0.006877556 -0.019649373 0.0041553746 0.017079687 -0.004048544 0.004286096 -0.008305724 0.0060316757 -0.0034481655 0.0022750264 0.0098108845 
-0.0012708633 -0.0038423946 -0.0037643427 0.004955973 0.0035467478 -0.0076324465 0.005169725 0.005309053 -0.010160861 -0.014526743 0.0033761591 -0.009647825 0.00024939957 0.006196115 0.006542154 -0.007412324 
-0.048751783 -0.0036143663 0.040180467 -0.012514733 -0.017932922 -0.0038745047 -0.017256437 0.053946063 -0.01516677 -0.017462863 0.02032407 0.049594473 -0.0056824046 0.0066288286 0.039792974 -0.0280725 
0.01807264 0.009596264 -0.0036238548 0.0012449453 0.015490541 -0.006180728 -0.0005212309 -0.0060613067 0.006835051 0.012988452 0.0043550385 -0.004095964 0.007894462 0.016927034 -0.008469047 0.00795073 
-0.016996112 0.009581625 -0.013223223 0.0017687493 0.0068036993 0.001437964 -0.0058541307 -0.004456693 -0.01847733 -0.01736221 -0.003321057 -0.0032107844 0.00797026 0.0061989063 0.012264312 -0.0034047458 
-0.016585257 -0.0018689696 0.016168255 0.026200477 -0.021163998 -0.009126889 0.022745175 0.007827742 -0.022476863 0.013471453 0.031723242 0.00013027126 0.0010339158 0.029494535 0.011119968 -0.00375003 
-0.011956438 0.009722724 0.02584714 -0.024253843 -0.0024463804 -0.012617687 -0.013700314 -0.013210845 0.009480875 -0.0012996562 -0.002649783 0.0023037752 -0.028255919 0.029673353 0.008329282 -0.0064144833 
0.014861 0.00318681 0.0010526432 0.02240941 0.00025534857 0.005968112 0.0019981638 -0.0031638583 -0.0033873953 0.013391967 0.007992142 -0.00199191 -0.0027076416 -0.014154933 0.016877554 0.017438145 
-0.017737463 0.008908106 6.692251e-05 -0.017968575 0.0063656378 -0.008597717 0.007359436 0.0077823494 0.005693738 -0.010862257 -0.0033949048 -0.005615995 0.006618089 -0.011485159 0.00403075 0.020565048 
-0.015819283 -0.016075304 -0.004617022 -0.01430433 -0.012062901 0.0045748358 0.031193221 0.027383322 -0.027957674 -0.028212642 0.0019721335 -0.0015447822 -0.0011946844 -0.0036116864 0.012312166 0.014156601 
-0.0023508575 -0.024122357 0.014028136 0.022144875 -0.004682863 0.02390231 -0.033634864 -0.026717285 -0.03308054 -0.008508485 0.038479295 0.035266995 -0.01757041 0.018389681 0.045329224 0.00042342555 
-0.017684808 0.0022677057 0.012007097 0.0040882207 -0.0034505944 0.005329403 0.0041553513 0.0025049874 -1.8175544e-05 0.0017338052 -0.0058941687 0.0028463462 0.009348409 0.005728238 0.0037184802 0.019249469 
-0.008244903 -0.008618172 -0.02014778 0.047678098 0.010876687 0.005455987 0.0016771854 0.028032772 0.009068158 0.013844775 -0.015175463 -0.0032799467 0.009534813 0.02968131 0.0038906888 0.00067981816 
0.022500359 0.019206585 0.030352188 -0.019507607 0.020780416 0.013690831 0.017804794 0.014187847 0.024651162 -0.0045538615 -0.017039461 -0.038592122 -0.044526696 -0.04770661 0.021979554 0.017561361 
0.02416016 0.011324805 0.009026597 -0.0066056396 -0.002818779 0.018881885 -0.0043142783 0.004322982 0.01942406 0.0011482835 -0.008162088 -0.034753654 0.015073601 0.00643288 -0.0022154136 0.012457609 
-0.001505453 -0.011132476 0.01788184 0.02916392 -0.007584542 0.01940896 -0.009339916 -0.008776046 -0.011012878 -0.0027611572 -0.018890325 0.014756972 0.0063595446 0.0043432293 0.00254782 -0.004159729 
-0.0061680833 0.006809506 -0.014563804 0.018361062 -0.0049395235 0.01903337 0.00014240331 0.00029613878 0.014338082 -0.0016350513 0.0015319067 0.007842628 -0.014260781 0.014240039 -0.007873439 -0.011856642 
0.009459604 0.01294393 0.009173071 0.0139432 -0.0050845193 0.018192066 0.008988612 0.00023802431 0.0061454424 -0.0032372833 -0.009756445 -0.0066076377 -0.018061046 0.001261184 -0.0005869803 -0.009343258 
-0.020055419 0.011510756 -0.0019767445 -0.008890519 0.010482828 -0.0015799318 0.006105775 -0.0003862523 -0.01893936 -0.018723955 -0.0058914325 -0.0030658504 0.0012118533 -0.0010748475 0.00394602 0.007840603 
0.014466257 0.011105592 0.015781704 0.04114239 0.018564153 -0.038435087 -0.01883819 0.024208555 0.026789868 0.011366731 -0.039502308 -0.0008654759 0.016821323 0.020385692 -0.0016116571 -0.008608414 
0.006549942 -0.004791818 0.0033969374 0.016627947 0.010040614 0.0026534467 0.0024326527 0.012013644 -0.004415658 -0.0038572946 -0.018026037 0.0034090797 -0.00011115531 0.015776912 -0.006172223 -0.004352934 
0.036790308 0.031513385 0.0025983588 -0.024412757 -0.0035053664 0.02757854 0.022175632 -0.005871292 0.019983947 0.0016285367 0.01053149 -0.025181007 -0.010782351 -0.011031554 -0.022958873 -0.007717087 
0.007055471 -0.005271293 0.017671863 -0.01048287 0.008775246 0.0035886206 -0.0028743173 0.019125296 0.029748984 0.0011144918 -0.008078105 0.015457243 0.0025064412 -0.0068479157 -0.014949566 0.009636227 
0.048841517 -0.011895766 0.00095469726 0.038691238 0.000108977314 -0.004550266 -0.031272613 -0.018224228 0.0016765648 0.0019668094 -0.023550404 0.039515156 0.037486337 0.027155465 0.006372021 0.024191564 
-0.020656375 0.029597709 0.024200737 0.0027886364 -0.0066870167 0.009727432 -0.0011288445 -0.043948803 0.05807322 0.01988996 -0.034407806 -0.013108173 0.024591945 0.0067702667 -0.0071626105 0.005244531 
-0.0066738925 -0.02031482 0.019033246 -0.0021063143 0.027504617 -0.0077804755 -0.032259896 -0.0008311804 -0.016355027 0.013876515 0.014265237 -0.040089384 -0.020764079 0.015484673 -0.022503551 0.0040649655 
-0.015455222 -0.007690397 0.0039415807 0.025108937 0.0025766378 0.011160713 0.003069885 -0.0055927946 0.05182217 0.012298941 0.017968578 0.008930129 -0.001118418 -0.025762422 -0.01922675 -0.035337966 
-0.0017323538 0.006008146 -0.01220574 0.0072350916 -0.0084106205 0.008499616 0.018400624 -0.0025395132 0.008647314 -0.005496687 0.016225306 0.0459371 -0.03216362 0.03612676 -0.009029395 0.0019880475 
-0.021604752 -0.024956577 0.031099813 -0.021758659 -0.0133403195 -0.006228181 -0.00586767 0.013543598 -0.0026892687 0.017084563 0.022729905 -0.0044107214 0.010529012 0.023661526 -0.019616755 0.0025793158 
-0.03570131 -0.039043583 0.003561899 0.0059691183 -0.005600428 -0.022874119 -0.008478492 -0.0048629087 0.00016380803 0.018307477 0.0057586688 -0.0041432595 -0.004810652 -0.0040612556 -0.00272752 0.0144830085 
-0.011802433 -0.03202773 0.019048909 -0.021095153 0.014841022 0.057461895 0.031283613 0.005247041 -0.001713067 -0.0032923385 -0.00503171 -0.014617243 -0.003759443 0.0040313764 0.008647881 0.0005225764 
-0.012253918 -0.016666887 0.010672414 0.0015011821 -0.013867012 -0.006273839 -0.002920143 -0.0054811523 0.008066727 -0.010545526 0.0033888954 0.004495546 -0.00080046454 0.006158077 -0.018316029 0.0055369497 
-0.002715873 0.020269556 0.020311998 -0.015052711 -0.003204721 -0.013378512 0.033677537 0.009662605 0.0049004434 0.0126951635 0.057100434 0.04285587 -0.038039155 0.029612275 0.0017974526 0.012081495 
0.006118969 -0.0005882815 -0.021659203 0.018681956 0.033352677 -0.020079322 0.01361496 -0.0066130245 0.0064600483 -0.0062982687 0.013180793 -0.005141856 0.01469303 -0.005378344 0.017568568 0.00021773034 
0.01886416 -0.0019084249 -0.006150002 0.0092137 0.017834164 -0.0045578387 0.0063449848 -0.0101789115 0.006990437 0.00095204957 0.022816746 -0.01490015 0.0011234041 0.015061548 0.006074754 -0.015403239 
-0.020489603 -0.0071045435 -0.011996881 -0.040182807 0.017008463 -0.03027491 0.01267635 -0.008411776 0.021944454 0.008677078 -0.0072537665 -0.008903324 0.009959372 0.019789118 0.021305794 -0.0029339222 
0.039033372 -0.011755834 0.012031962 -0.013032454 -0.023070496 0.00022918584 -0.0012903773 -0.0072816378 -0.038797054 0.004178996 -0.005578276 0.04577256 -0.0038832524 0.012760621 -0.00012309858 0.004510808 
0.040722374 -0.0096126925 0.013976343 -0.008287363 -0.00617091 0.022472536 -0.016318941 0.00021114518 0.014328365 -0.010430557 0.004177304 -0.018674832 0.006318754 -0.0065572937 -0.016966235 -0.007038053 
0.01971372 0.027230293 -0.008062363 0.017671606 0.012017717 0.009616184 -0.006818656 0.0044611376 -0.022356363 0.013769204 -0.010893461 0.022763945 -0.017516684 -0.0050385105 0.03966833 0.008665763 
0.003508629 0.025881952 -0.0073518916 0.028999042 -0.017753284 0.010059897 0.025903946 -0.00800609 -0.016245076 0.022444718 0.010712245 0.0012186569 -0.04409598 0.0111983735 -0.0199536 0.0063578757 
-0.015281891 -0.012538879 -0.01372354 -0.03029021 -0.00078310614 -0.001990115 0.018147271 -0.0131052565 0.00036089992 -0.009030987 0.016005404 -0.018159516 -0.014720167 -0.008219507 0.014438563 -0.015193416 
-0.0035864296 0.0069039124 -0.012040967 -0.013355684 -0.0002464593 0.0024927706 0.0084266905 -0.0015851054 0.015173242 0.0049524847 -0.02148477 -0.01074006 -0.0058949753 0.011690783 -0.00416275 0.012332339 
0.012628699 0.010259828 -0.030579425 0.006463973 -0.018120766 -0.005484417 0.003341197 0.0057603624 0.006949321 -0.00044200863 0.0067256363 -0.014513851 0.00847543 0.016055768 0.002245397 -0.010403865 
-0.010115867 0.00122283 -0.0059396913 -0.01043852 0.0021177183 0.008881446 0.006716626 0.021731872 -0.01894148 0.011532916 -0.007738067 0.0032197786 0.0094022285 0.013313447 -0.044264648 0.026275028 
0.018015059 0.01540803 0.0010739081 0.0011122636 0.0062130587 0.005791651 -0.0057184757 0.0056797564 -0.011304802 -0.0013478841 -0.0040301126 -0.005444462 -0.0032072656 0.0013357847 0.0013734737 0.00014157598 
0.0032080847 -0.03685427 -0.012783309 -0.04380213 0.016495518 -0.0032286353 0.007229245 -0.012360795 -0.040291227 -0.03308927 0.010658586 0.048779197 -0.039718367 0.0059064426 0.024716046 -0.022915347 
-0.013115674 -0.0028373655 -0.0006265356 -0.0038438828 -0.0032644514 0.005683678 -0.0015509423 0.010764226 0.010114306 0.009079542 0.0027465685 0.012660165 -0.015057146 -0.002627665 0.009502676 0.014905406 
0.016746623 -0.012550066 0.009739603 -0.019304581 -0.00517479 -0.008404213 0.008697093 -0.01966031 0.002662706 -0.011503305 0.028479997 0.009645337 0.018210826 0.021305067 -0.008891474 -0.015355263 
0.014916488 0.012867379 -0.0031643272 0.0293361 0.019018868 -0.0010803721 0.012981717 0.007554097 0.0074536554 -0.019069443 0.0134184705 0.00040001664 0.00570311 0.0033883767 -0.0014572107 -0.0023408541 
0.018016307 -0.027656766 0.021644063 0.046658248 0.004137764 -0.019017957 0.04765108 0.05449727 0.013762933 0.0014015618 0.047500066 0.0043217805 -0.011506362 0.031170355 0.016260073 -0.0475073 
-0.024237448 0.014234576 0.0073060063 -0.022029772 0.042544354 -0.016661728 -0.010294794 0.014263777 -0.016907671 -0.022309564 -0.04715208 -0.0038197525 -0.020995783 -0.0061369473 0.01420548 -0.014616036 
0.018804878 0.012783378 0.019962443 -0.011661181 -0.00015231028 0.011434168 0.0069987667 -0.004006163 -0.005365562 0.00704084 0.004191459 -0.022839708 -9.525506e-05 -0.01302912 -0.0006814426 -0.0031504182 
-0.020675395 0.007245213 0.01779506 0.019735908 -0.003161999 -0.013401122 -0.006215372 0.008951304 -0.0031544408 -0.0035136852 0.030186515 0.017433874 -0.01669107 -0.009209642 -0.004721042 -0.012228915 
-0.015280242 0.0012302267 0.0014717614 -0.0051466343 -0.018043034 -0.010455361 0.005384958 0.05451091 0.0373172 -0.0167075 0.0051171253 0.00016738524 -0.019318126 -0.040069893 -0.03315547 0.0065844404 
0.017367125 0.0032125304 0.05420838 -0.0071863006 0.0017601497 -0.004715188 0.0005657154 -0.0015314785 0.008914677 -0.0017652846 -0.008731159 0.0039988765 -0.015503959 0.015802694 -0.005550257 0.00613496 
0.0048340596 -0.003961314 -0.0019735193 0.01355672 0.0037229897 -0.011892915 0.03450365 0.0012257629 -0.019982118 -0.0054443995 -0.018925436 -0.00548662 -0.0033381179 -0.01146979 0.0043234807 0.0037849352 
-0.0046911477 0.009115157 0.019570768 -0.0016800803 0.0006903797 -0.003532497 -0.0045193685 -0.0039374973 -0.019254757 0.015006507 -0.002473808 0.005973666 -0.007986529 0.008185925 -0.0068781544 -0.0003906443 
0.04338819 -0.014898806 -0.020681838 0.022062887 -0.015920242 0.048953608 -0.011916539 0.00577836 -0.003987649 0.00656682 -0.020304086 -0.0035113837 0.023388801 -0.0042010676 0.007902194 0.03622049 
0.01738068 0.0014507521 -0.04057089 -0.006302069 -0.014839587 -0.03726515 -0.021378044 0.0129206125 -0.010466183 0.027468543 0.030211616 0.025869643 -0.0056668776 0.01970934 0.0069206315 -0.004303974 
0.0514446 -0.014468495 0.041579623 -0.0024638872 0.013372979 0.005300024 -0.0005147916 -0.0135394 -0.018032955 0.026461605 -0.016101032 -0.016584625 -0.035138782 -0.0009383668 0.01417442 0.0010643316 
0.022063296 0.024429567 0.0112575935 -0.01383106 0.017872306 0.020186082 -0.028800044 0.021864133 -0.020466162 0.011375203 -0.030037157 0.008292583 0.022191057 -0.015192749 0.02167625 0.0046962528 
0.008764392 0.010026414 0.00027765817 0.047494512 -0.009546808 -0.009607411 -0.01658402 0.0021274833 -0.016173154 -0.020482913 0.0020668926 0.021016315 -0.01354979 -0.013386519 0.039376013 0.026155395 
-0.018028902 0.058349025 -0.013795205 -0.0106443195 -0.0073568258 -0.052261796 0.049704023 -0.046600685 -0.023868378 -0.008326176 -0.03713712 0.051016867 0.013120766 0.0065004965 -0.017058631 -0.018541655 
-0.00894347 -0.026482366 0.040379044 -0.0041079093 -0.0071902843 0.01785694 0.024767058 -0.01537644 -0.004846924 -0.0071604913 -0.0029912798 0.012130436 0.008467385 -0.010849677 0.008276512 -0.008522676 
-0.020378964 0.01752105 -0.0032066556 -0.005493733 0.0039352155 0.0426575 0.010397732 0.0067405924 0.007189768 0.04040653 -0.003625632 0.004796034 -0.016406763 0.014623231 -0.0024539812 -0.019760827 
0.0062535987 0.016227053 0.008723442 -0.015629731 -0.011085424 -0.011347749 0.0014455635 -0.01698354 -0.011034171 0.005530547 0.018116139 -0.0103008775 -0.0026201257 -0.01219929 -0.017431008 -0.010054781 
0.007386606 -0.004526041 -0.019616684 -0.023562495 0.04985958 0.026829679 0.036964543 0.04815226 -0.0031047922 -0.019014921 -0.010261965 0.012274689 -0.03146426 0.0125044435 0.022483105 0.0072046383 
-0.013277455 -0.020183455 0.0066821254 0.0072550573 -0.001430429 0.0026498064 0.029068468 0.0013156462 0.0095055755 0.011930822 0.026579693 0.021730468 0.028070297 -0.0055599143 0.018758941 0.016756503 
0.0012495831 0.0060361903 -0.004329184 0.010535814 0.004301019 0.004814514 0.0012869098 0.0016848803 -0.0029993493 0.007923005 0.003605638 -0.006377753 -0.017506586 0.009739869 0.0031848596 0.0025264192 
0.012922415 -0.0014467984 0.0008452063 0.010400333 0.012629911 -0.0181684 -0.0046165893 -0.02030932 0.0024320432 -0.010939982 0.008421358 -0.012991228 0.0062736664 0.005091219 0.006077589 0.0069132173 
-0.0022437156 0.021617236 -0.006564323 0.006592167 -0.02811869 -0.017092597 0.018464334 0.022555957 0.007143461 -0.013848359 -0.016081445 0.02912086 -0.006662855 -0.0077459244 -0.020060847 -0.025804307 
0.009044336 -0.0020615822 -0.013562848 -0.008217861 -0.0063619255 -0.016937055 -0.004603197 -0.021425037 0.0060113277 -0.016617505 0.011050057 0.012928687 0.0033462602 0.017380442 -0.001594292 -0.0029382498 
0.016562404 -0.0035905107 -0.00014305756 0.01237515 -0.0152600305 -0.017161258 0.02668527 -0.0030965314 0.006280097 -0.011304354 0.0073051155 0.021974532 -0.02012017 -0.00018190067 -0.007821675 -0.017254107 
-0.015344233 0.012803642 -0.010797248 0.0048764977 0.0042180377 -0.004207046 0.031323187 0.058579344 -0.01906968 0.017152058 -0.0077446736 -0.009323666 -0.040408663 -0.01796567 -0.00046635143 0.004769221 
0.0037695798 -0.009005978 0.00620239 -0.0252688 0.0036489675 0.011226472 0.008925716 -0.0135815935 0.02060839 -0.011148881 0.01588455 0.020729886 -0.013858734 0.016692387 -0.0128100505 -0.0054365476 
0.020409703 -0.014342595 0.023689197 0.008753923 -0.011221533 0.0035528662 0.008187977 -0.0016126052 -0.018375875 0.023983909 0.006069276 0.040267147 0.022928147 0.00017186473 0.021774702 -0.024836723 
0.0017599828 -0.0023506058 -0.010817064 -0.0033197394 0.0016026974 -0.004401665 -0.0016852334 0.0009666694 -0.0010033352 -0.013073643 -0.017305955 0.006102496 0.0063145943 -0.012751861 -0.017045118 0.0129346475 
-0.019510375 -0.0070369653 0.0013429768 0.0071096113 -0.018991256 -0.003107793 0.016632326 -0.0053082304 -0.0033797866 -0.004799803 0.0036360507 0.002604913 -0.004493875 0.0061856625 -0.00593176 -5.359655e-05 
-0.007002356 -0.013916285 -0.011747684 -0.004131355 -0.016281145 0.0013880652 -0.004430675 0.04816016 -0.017575448 -0.002175137 -0.032894425 -0.0174585 -0.0075142263 -0.019648481 0.0056298804 0.018218474 
0.008953484 0.026693245 0.02808377 0.0063385027 0.0037658035 0.019494962 0.010686547 -0.007042374 0.024048664 0.017685385 0.0005782699 0.010829748 9.5385716e-05 -0.0046602823 0.0026066902 -0.007127285 
-0.00046385033 -0.031007826 0.003953864 -0.015737439 -0.011698049 -0.0114944205 0.0558883 0.007134455 -0.030835336 0.0023294764 -0.0025619573 0.038933545 0.0011316775 -0.012260612 0.048031196 -0.04122806 
0.0127658425 0.0061706575 -0.013975973 0.0052822456 -0.004628901 0.0036899317 -0.006214857 -0.015709924 0.0052973083 0.0036830248 -0.0056750877 0.0012751489 -0.0062136333 0.01990379 -0.0040903557 0.005053413 
0.004917618 -0.0020430281 0.0059430725 -0.0064789797 -0.0038292268 0.0016478001 0.0063345255 0.0061973664 0.0062777903 0.013333336 0.003483643 0.0072513735 0.007012267 0.005685122 0.000260898 0.003652444 
-0.0133191915 0.020961499 0.0100889765 -0.0126574 -0.007236568 0.019655742 -0.007629364 0.007873362 0.025103226 -0.00057505595 0.012179984 0.0031977526 -0.0047406885 0.012199172 -0.0101267155 -0.0135023175 
0.009387065 0.015738402 0.0046290476 -0.014995629 0.032610707 0.009784976 -0.0029570754 0.0044377656 -0.004178211 -0.019271567 0.0021159204 0.00086247607 0.00071742514 0.01039665 -0.0049310992 -0.02018626 
0.0022592547 -0.014899221 -0.035287097 -0.008263359 0.013065144 -0.03209219 0.017897343 0.019326542 0.029118048 -0.010929839 -0.000615166 0.015421689 0.032184705 -0.007132584 0.030881466 0.011716327 
-0.00065380783 -0.012573682 -0.018302163 0.011299271 0.013978519 -0.0003776882 0.017560896 -0.0058064912 0.019910358 -0.0032866094 -0.0066731065 -0.0063020075 0.020582695 0.010321062 0.015776584 0.0037528095 
0.0062130014 0.04042805 0.001248994 -0.026548916 0.00035235172 0.0024057832 -0.012474304 -0.011100955 0.035936538 0.03451931 0.02013944 -0.018177615 -0.004146219 -0.012057291 0.00186948 -0.00090526056 
0.0023091529 0.010683866 -0.0020438298 -0.0008265735 -0.0029138888 -0.013648852 -0.0032614176 0.015559705 0.0089085 -0.0016506697 -0.005790086 0.00081483694 -0.0056258715 -0.006685316 0.009204045 0.009409015 
-0.015972376 0.023085246 -0.0027088926 -0.00654802 0.015695602 -0.0006492969 -0.0017094427 0.015345183 -0.0011503275 0.0065088277 -0.022769129 -0.0018036527 0.005930514 0.0066621983 -0.004074852 -0.0010246282 
-0.011212951 -0.056876965 -0.008993445 0.005064509 0.0049231774 0.010166839 -0.015922999 0.006701399 -0.016008329 -0.026123911 0.014888613 0.012688053 0.0036702435 0.018865706 0.00035287827 -0.019685958 
0.002749676 0.017838703 0.029433103 -0.032603506 -0.008437448 -0.015617476 0.01697972 0.032779384 -0.007717615 -0.02090507 -0.0045616142 0.017622069 -0.0068192976 0.02576648 -0.010749731 -0.03429887 
-0.0037764243 0.009832425 0.010299948 -0.0013103822 0.01603474 0.017415304 0.011538439 -0.005644442 0.008815819 0.004515307 -0.0061933785 -0.000797141 -0.020000359 0.001787603 0.003694504 -0.0017533443 
0.011319567 0.0030845786 0.008725891 -0.03609087 -0.024705417 0.019680357 0.017138846 0.056625426 -0.009004194 0.02408363 2.184633e-05 -0.02236093 -0.045033567 0.011499979 0.009918736 0.025298307 
-0.0045531704 -0.004853859 0.0018893242 0.014081496 -0.01874673 -0.0017282515 0.0060768137 0.01207705 -0.015945412 0.0071789045 -0.0059234784 0.0065540285 0.011592364 0.0044971732 -0.0050539235 0.020428902 
0.006662577 0.0030158707 0.020780224 0.01008751 0.002485526 -0.005479916 0.017281396 0.0077818213 -0.0021813381 -0.007848994 -0.013817744 0.009719571 -0.0019296592 -0.01817182 0.008741791 -0.0055077313 
0.007206703 0.0160045 -0.018652914 -0.016768644 0.005726216 0.0025661243 0.0034941416 0.019260256 0.0034569432 -0.0048485035 0.021886734 0.016016098 -0.0026396743 -0.015428375 0.00033013258 -0.0029856665 
0.004210419 -0.011007087 -0.009203611 -0.011233825 0.003465481 0.018511819 0.011391203 -0.0012836491 0.010595022 -0.018553087 -0.0060228556 -0.007121603 0.011468079 0.0046158363 -0.010145749 0.0038871914 
0.026751583 -0.020240799 0.012857752 0.051238373 -0.011967552 -0.0023152484 0.0029983555 0.044194285 -0.02630683 -0.007806377 0.020684931 -0.012508814 -0.006343577 0.0078062885 0.014390218 -0.026035003 
-0.0015915057 0.018774869 0.008324235 0.057399083 0.026205216 0.030501451 0.023202417 0.04638414 0.0031942327 -0.005396662 0.028017417 0.049926378 -0.027972369 -0.027986526 0.0019591958 0.027156593 
-0.01105186 -0.027720021 -0.011374217 0.0068604257 -0.015675606 -0.01708645 -0.0024190515 -0.010914819 0.0106276255 -0.02470362 -0.017379824 -0.009644898 -0.0048419763 -0.0061141024 0.011252077 0.01773976 
-0.021081192 0.009922881 -0.015324279 -0.0076697343 -0.00062262826 -0.0060911514 0.0104417475 0.0036685248 0.01757107 -0.021051632 -0.0011455514 0.02026922 -0.002293903 0.019323189 -0.0033979944 -0.006345597 
0.002292142 -0.02544804 0.030271256 0.019171182 -0.018334128 -0.001789956 0.026062228 0.009964524 0.007720465 -0.018601278 0.025272608 0.026730051 -0.010048718 0.004590073 0.0039762594 0.01313868 
-0.011462207 -0.006724396 -0.02147845 0.021815434 -0.014832917 -0.022382407 -0.006654209 -0.0018270734 0.005665508 0.01631495 -0.039044116 -0.010298171 -0.032884583 -0.008096752 0.03723755 -0.009939438 
-0.0050760265 -0.0039833384 0.0010236551 0.017450947 -0.005080212 -0.006194572 -0.016908258 0.026462601 -0.00036423194 0.008891911 0.00887983 0.010497371 0.0019588466 -0.003658558 -0.0069505787 -0.008688758 
-0.012610226 0.008158669 -0.00092850305 -0.00412097 0.0107085435 -0.005915884 0.02535208 0.019848315 0.0052571655 -0.002551905 0.019214159 -0.020276459 0.02005214 -0.008013068 -0.013531079 -0.016537646 
-9.864436e-05 -0.0031881 0.016997043 -0.010435102 -0.00837651 -0.006418064 -0.0017740431 0.010200034 0.00776865 -0.009069927 -0.00067912997 0.01793141 -0.010290644 -0.008162785 -0.018966913 0.005092842 
-0.05110746 -0.034062117 0.032491166 -0.0064329985 0.0041511385 0.0037597474 -0.00394038 0.029536098 -0.021772452 -0.011159173 0.0091842525 0.031121064 0.014172543 0.044812806 0.037329733 -0.0036942542 
-0.015521284 -0.010763049 -0.0060209823 -0.02017468 4.899422e-05 0.0059846793 0.010787439 0.00699965 -0.010290468 0.016711477 0.0057382765 0.004194637 -0.0025117174 0.013424174 -0.0043494925 0.0017429092 
-0.005042787 0.00035283648 -0.0060988264 -0.00011324786 0.00545296 0.0031463515 -0.013119979 0.009717595 -0.010771409 0.0039948127 0.015384576 -0.00044523462 0.004045115 -0.0061385185 -0.0047758915 0.00744956 
-0.0089297 -0.0005486111 -0.013953653 -0.0028159362 0.0069258832 -0.02044822 -0.0060443175 0.001459425 -0.0072625806 0.012254673 -0.014102759 0.00544912 -0.010286048 0.011141123 -0.013214834 0.008991488 
-0.03440618 0.018829508 0.0027640755 -0.025224676 -0.032151952 0.006097458 -0.00022499499 -0.006897373 0.009555492 -0.02981139 -0.018878251 0.011623351 -0.03586357 0.05415536 0.002951571 0.008055646 
-0.0030103123 -0.0019775883 -0.029802194 0.020132083 -0.0109209735 -0.01592117 0.013735555 0.0056997975 0.0064873653 0.0026981607 -0.02236695 -0.009822472 -0.0370039 -0.02359193 0.01476961 -0.012783145 
-0.016130347 -0.009970085 0.017165903 -0.013694855 -0.0021064149 0.043758623 -0.015586158 0.023186715 -0.007937913 0.0076045766 0.02402813 0.028042221 -0.01614171 0.00795248 -0.0021204422 -0.013902369 
-0.0150225535 0.015768122 -0.0033233226 0.007175661 0.0043667173 -0.005821971 -0.0016037477 -0.0006584267 -0.004113736 0.013882838 -0.020251287 0.00095193693 -0.004150158 0.004008472 -0.0023212088 0.017287854 
0.0043596346 -0.014992815 0.004071283 0.0029550306 -0.002823333 0.007822808 0.0031736984 -0.012720084 -0.0031072486 0.0072339303 0.0072942777 -0.002332087 -0.0044846977 -0.0071180216 0.0030502363 -0.00056935044 
0.030829584 0.040537342 0.010014716 0.009799274 -0.007887483 -0.000472009 -0.0009570223 0.022969535 0.017369272 0.0057723504 0.0024338698 -0.022930894 0.018333016 0.0063621914 -0.017375175 0.010644354 
0.00068972376 0.006418246 0.000180267 0.010522216 0.005959539 0.009335253 -0.0008894333 0.009498717 -0.009524569 0.0049756593 0.004679263 0.011347118 0.000121683915 0.019080348 -0.007472514 0.0013509525 
-0.00416648 -0.018210853 -0.0023895376 -0.014472117 -0.004048591 -0.0135955345 0.0049968646 0.0031771343 -0.0038998278 0.008849904 0.0011345976 0.002565068 -0.0017820422 0.010679085 0.00027687842 -0.01718623 
-0.006302924 0.0048439284 -0.0026777387 -5.2274223e-05 0.0021400773 0.005643014 0.0031081387 0.019201236 -0.0018889691 -0.0069507994 0.0033617609 -0.003798621 0.010795507 0.0027778535 -0.0067623137 0.0041377135 
0.041625954 -0.0041835243 -0.023420934 -0.002814842 -0.01028751 -0.0008479971 -0.03472821 0.032520015 -0.008805687 0.006844229 0.026120253 0.033814494 0.030500693 -0.04138113 0.0050268914 0.011192789 
-0.0055659655 0.017125132 0.006349853 0.01345899 -0.0020962504 -0.0051019196 -0.019602232 -0.002823023 0.018593457 0.01941006 0.008882469 -0.003215765 -0.0014207296 0.004665587 0.017234983 -0.01526916 
0.011229125 0.0032315368 -0.006440616 0.04119183 0.00022054267 0.0063937367 -0.010616585 -0.033608854 -0.004703131 0.0037695405 -0.0034211178 0.005183846 -0.008545453 0.010809974 0.0020019638 0.05218539 
0.008568702 -0.0028114007 0.022488466 -0.0058199456 0.0058330735 0.01368908 -0.006807938 0.0051071364 -0.013630789 -0.01472851 -0.0049059964 0.006757314 0.0052023637 -0.007564796 0.013482245 -8.6951484e-05 
0.0045650043 -0.0014294331 -0.007625869 -0.0016822411 0.007459743 0.011452028 0.0032983485 0.0054509197 0.013832116 -0.0135474885 0.008970885 -0.008885153 -0.004133933 0.013993563 -0.018286798 0.0049248077 
-0.01817836 -0.0002927844 0.012088604 0.004718183 -0.004007298 -0.0010077301 -0.009715989 0.009859442 0.0061034365 -0.0055426294 -0.0050830534 0.01183285 0.01955524 0.009743539 -0.003995778 -0.002009042 
0.005268765 0.0071929274 -0.022350643 0.002571369 0.016752155 -0.0030103584 -0.009302513 0.0041165063 0.0045650294 -0.0047905194 0.009663154 0.016821096 -0.018191665 -0.0023433191 0.0031203057 0.019700367 
-0.013333149 -0.004359555 -0.0019728758 -0.01947209 0.0013259528 0.01173378 0.03421148 0.019362997 -0.029397564 -0.0073469556 0.0285367 0.05647168 -0.019867228 -0.013920072 0.010942576 -0.013893067 
-0.018699577 -0.0075165736 0.0060733194 -0.036026057 -0.008327722 -0.006277534 0.048635375 0.05009289 -0.0230158 -0.016144862 0.013507228 -0.004065234 0.018226052 0.02626624 0.019518534 0.010380302 
-0.0056769312 0.02702765 -0.018083293 0.02992319 0.0038366131 -0.0063552056 -0.0036045385 -0.005614932 0.02252993 -0.009941398 0.05356221 0.016763784 0.018147277 -0.011354166 -0.020661766 -0.013290318 
0.02233929 -0.0116848 -0.0009957817 0.010069889 0.009707833 0.0014849565 0.018007733 0.025651708 0.0065868683 -0.013121466 -0.017558599 -0.00883967 -0.00097419834 0.015217935 -0.0019142915 -0.006855637 
-0.013563761 -0.020282978 0.0012289003 0.019196039 -0.00066495675 0.018632203 0.0026396029 0.024632437 -0.012496544 -0.0055094436 0.00908818 0.013967707 -0.003883931 0.015132535 -0.0025078484 0.008329712 
0.0022850418 0.0051099584 -0.0151694985 -0.019470045 -0.00400912 0.013773358 -0.01660789 0.015713125 -0.007836843 0.016946644 0.001003239 -0.015775327 -0.01956327 -0.0047209105 0.0019859949 -0.008481549 
-0.0018014124 -0.006387957 0.018208524 0.0036920884 -0.0060630403 0.004308695 -0.002338969 0.0060052243 -0.0058150613 0.016519504 -0.016964193 -0.01566231 -0.009333207 0.002028703 -0.014334751 0.0016712835 
-0.008366193 0.009043783 -0.014379952 -0.004645516 0.004732659 0.002081674 -0.017785994 0.016342163 -0.013373164 0.014442349 -0.005281876 -0.020793973 0.014229728 0.011645354 -0.010694619 0.006293656 
0.021867793 0.026424639 -0.034073465 -0.0038040362 0.013277341 0.008295366 -0.008676812 -0.008886327 0.0151918605 0.0060820556 -0.0072673513 -0.002012195 -0.02403787 0.01988831 0.005970381 0.0018299577 
-0.018662725 0.005016675 -0.019116638 -0.012338091 -0.005147588 -0.0065820115 -0.009181131 0.017696578 -0.008386981 -0.0015182523 0.020632546 0.000712961 -0.0034466386 0.0061300327 0.0039686146 -0.0003766357 
0.0038806647 0.000392407 0.008947549 0.011972991 0.012203672 -0.0019218861 0.01068349 0.016367879 -0.01726892 -0.011833395 0.0020308073 0.0053061116 0.013042781 -0.004017361 -0.0020169006 -0.009798194 
-0.008805065 -0.0018794407 -0.008595515 0.004948738 -0.0061336635 -0.013217618 0.0062454254 0.003322635 -0.0006304884 0.003811745 0.003882769 0.0014622746 0.0013762458 0.002306891 -0.019609759 0.0031940292 
0.003362663 -0.015740588 0.00034436595 -0.003798728 0.012824579 -0.0064453827 -0.020087093 -0.0040119877 0.015506382 -0.003889807 0.0011344914 -0.0033664803 0.009764177 0.008069542 -0.0001316306 -0.00675001 
0.0052956184 0.005003397 -0.008161353 -0.014457489 -0.0188283 0.016257437 -0.01638334 -0.0116906185 0.0057474505 0.016336866 0.005115036 -0.0071277367 0.01604403 -0.0043658004 -0.020279624 0.005987638 
-0.013565714 0.0073211314 -0.0038653307 -0.0437592 0.013924327 0.0102442 0.01187392 -0.032112423 -0.0025049048 0.0001285657 0.024602894 -0.0127744535 -0.012947484 0.0034848324 -0.006798224 -0.013188174 
0.017445793 -0.013048811 0.030529983 0.004966574 -0.0027102504 0.00078463904 0.0014823155 -0.009644471 -0.017411437 -0.009587882 -0.002471056 0.013748977 0.0007725863 0.03476797 0.00260121 -0.00850562 
-0.009310995 -0.017593602 0.009467275 0.01217721 0.008257888 0.0015242045 0.0036283724 0.012850469 0.0062634465 -0.0049020015 -0.008564371 -0.0118501205 -9.051882e-05 0.0011687994 0.0017131717 -0.010446515 
-0.000935722 -0.017447967 0.0075890673 -0.007325729 -0.014079951 -0.009627684 -0.00919137 -0.0005893182 -0.012935345 -0.009901056 -0.0067261974 0.020645706 0.006962717 -0.006162919 -0.012306253 0.017924072 
0.006360341 -0.00046850764 -0.018788503 0.018052604 0.0078048115 0.006226422 0.01134562 0.0062919827 -0.0019049856 -0.0050511677 0.0014611767 -0.0026571562 0.001632309 -0.0044481545 0.0051615313 0.0034787245 
0.021586595 0.019302437 0.0085522635 0.011081719 0.002127763 0.0009417766 -0.005596511 0.006571051 -0.007842575 -0.006734411 0.00935116 0.012162823 0.007780543 0.00013794455 0.0011421078 0.00057103287 
-0.019113095 0.0043103434 -0.0015950114 -0.006341458 -0.003052407 0.02016591 -0.003678365 0.00021835664 0.012472934 -0.016001737 -0.016694846 -0.0027516163 0.0011826388 0.02062277 0.006936092 -0.012631042 
0.017809082 0.019648517 0.0022341227 0.026878353 -0.0051653655 0.003185408 -0.012501314 -0.03273465 0.0037845366 -0.016003018 -0.018801691 -0.027966252 0.0023656408 -0.011012025 0.0036217696 -0.0047412 
0.02315083 -0.017947974 0.0053770044 0.022646116 0.02848327 -0.0045457724 0.0018382168 -0.021267314 0.008266942 0.034438267 0.05541287 0.02667084 0.01009093 0.033507954 0.021694079 -0.013101429 
0.0038761543 -0.0045645433 -0.019335765 -0.0065980325 0.007426133 -0.01799455 -0.008846415 -0.011829914 0.011366931 -0.005027576 -0.006059709 0.0011697878 0.028328706 0.006701055 -0.00674607 0.0087287035 
-0.03628564 -0.015328327 0.020340882 0.010091899 0.013186163 -0.009275324 -0.028126165 -0.005150511 0.030021237 0.021500446 0.009799536 -0.011989079 0.023077892 0.016554842 0.00096537214 0.00033203757 
-0.009084232 -0.020570477 0.026120434 -0.001002721 -0.0005691292 0.0036266942 -4.1615385e-05 0.0053372565 -0.0017102642 -0.018861007 0.022833265 0.016012788 -0.018572064 0.02629535 -0.0053245616 -0.014721181 
0.03666602 0.048182122 0.039780285 -0.042534474 -0.012942703 -0.017655736 -0.008915995 0.026690068 0.020727808 0.0033560041 -0.0036460664 -0.005670083 0.004327766 -0.0361208 -0.049403705 0.0028653704 
-0.004596032 -0.0047073215 -0.0035721415 -0.0014947203 0.0005326601 -0.0011451404 0.0029441533 -0.003856691 0.0062472178 -0.004141851 0.0007821428 -0.015140965 -0.006248828 0.014216119 0.003989366 -0.0002228976 
-0.0033983502 -0.017761525 0.03207574 0.0017431687 -0.013332093 -0.016265685 0.006707209 0.017162308 -0.014555917 -0.012752299 0.016962167 0.031014279 -0.003391813 0.0036367718 0.022489283 -0.012473627 
-0.0075243968 -0.0010105955 -0.017975966 0.00194078 -0.009661811 0.004279469 -0.0028912488 -0.014311905 -0.016179753 -0.0017229989 0.006337098 -0.0041428907 -0.0005748855 -0.00035667705 -0.004778787 -0.019356847 
-0.0011673034 -0.047748085 -0.044344846 -0.033152614 0.0037243245 -0.0019811147 0.014187435 0.0048548016 -0.0072242916 -0.019162033 0.007901772 -0.0014024292 -0.005039859 -0.0032244946 -0.0051076864 0.0054771802 
0.020950174 -0.010901347 0.0070116944 0.025096104 0.0017949856 -0.006255772 0.013041304 0.0013049493 0.049363647 0.01641958 -0.038344003 -0.045086112 -0.0015013557 -0.020139385 0.010523413 0.0021941697 
-0.008011759 0.0048679807 0.00077253603 -0.028266303 -0.0011500226 0.006291533 0.018895492 -0.001137213 0.0063562756 0.010546483 0.01019412 -0.013448706 0.016587546 -0.010210054 0.01650855 -0.0019926114 
-0.0049660993 0.0101139685 -0.020315785 -0.0054602986 -0.017255748 0.004724658 0.014536459 0.0063109654 -0.017463751 0.008374587 0.0130449245 -0.000642825 -0.0061844387 -0.010098306 0.014559616 -0.009503242 
0.04510742 0.022117075 0.00064150617 -0.013628676 -0.017153904 0.01423768 -0.0024265635 0.048688184 0.02657354 0.016669769 -0.019507045 -0.02963791 -0.015508586 -0.009453658 -0.01985886 -0.008617974 
-0.011809702 -0.0028315168 0.0034328718 0.0013527313 4.0452785e-05 -0.00019150665 -0.0040096394 -0.006335196 -0.00927239 0.006231932 0.0054942016 0.00194197 0.0062218206 0.016501125 -0.0026751868 -0.002981658 
0.011668616 0.013449267 0.020554442 0.01168761 -0.0065088915 0.0068720323 0.008883726 0.011658404 -0.0072219498 0.017311398 0.012539939 0.017141394 0.023724021 0.014061633 -0.0014992023 0.0016410663 
0.008335516 0.01987419 -0.016900476 0.019069005 -0.0035154154 -0.013911298 -0.0026054617 -0.004417847 0.000367005 0.017466364 -0.019893637 0.006573431 -0.01167488 0.004219263 -0.0054074973 0.00824092 
-0.016673597 -0.008180703 0.007880801 0.0058391937 -0.01607754 0.0059926407 -0.00065051735 -0.012255289 -0.004576985 0.006362326 0.012972292 -0.019044727 -0.01329796 0.00589853 0.0005918865 -0.00027575082 
0.006175262 -0.0034905118 0.01711096 -0.00633656 -0.0023954792 0.0060925633 0.020351991 0.016163735 0.0020212673 -0.0012823666 0.0019434631 -0.009704552 -0.01593989 0.0032164494 -0.009272036 -0.0007253585 
-0.03143385 -0.024553679 0.0036110827 0.018548096 -0.00027565804 -0.011669968 -0.010494409 0.031732976 -0.029485775 -0.023170704 -0.005477072 -0.012165914 -0.022196423 0.015450945 0.0013688119 -0.01371722 
0.014834783 -0.007362055 0.0061617387 -0.010841651 -0.008869851 -0.0051817433 0.008130584 0.009986408 -0.010863338 -0.0003316468 0.0021132724 -0.019814838 -0.007975069 0.009770296 0.00092679623 0.0034640958 
-0.0015982647 -0.009845934 0.017145721 0.0057952213 0.0052571604 0.0025350845 0.0026029064 -0.015177351 -0.006431537 0.009712039 -0.009559141 0.017234957 -0.0049446407 -0.019427858 0.012002418 -0.004604998 
0.006348194 0.0009733517 -0.013346281 -0.015005813 0.0017427226 0.0076161637 -0.017214518 0.009895959 0.0024025615 0.0052582407 0.0039247912 0.0045825406 -0.020400489 0.017759029 -0.003383709 0.009228153 
0.051020663 -0.016781477 0.03352585 0.025318565 -0.012959049 -0.01368105 -0.017803969 0.022748558 -0.021860275 0.019511176 0.006735925 -0.011358941 0.022598868 0.035057433 -0.002152089 -0.021234846 
0.013132116 -0.01841854 0.021567483 -0.0044561247 -0.015182219 0.00391475 -0.0065749018 0.011579445 0.02355654 -0.0011732099 0.0055934857 -0.014777 -0.006347524 0.0060472647 0.0047985204 -0.006001136 
-0.014468208 -0.03832578 0.0021159535 -0.009527843 -0.015786553 0.0021042041 0.027476339 0.024604352 -0.010274577 -0.009962932 0.00024847244 -0.009376093 -0.005794427 -0.0042997985 0.0067716287 0.007049608 
-0.014548362 0.021695955 0.0033522912 -0.008132241 -0.007499638 0.023721846 0.016047994 0.013513799 0.024364231 -0.0022390145 -0.006099863 -0.0078795925 0.017343357 -0.0035221607 -0.006514614 -0.015788635 
-0.017862795 0.0046467963 0.007620106 -0.017980395 -0.0028675145 -0.012663095 0.0038381142 0.0092775235 0.02828443 -0.005900659 0.0069435076 0.027742412 -0.015451111 -0.016382754 -0.019092623 -0.014648546 
0.013704234 -0.019921564 -0.015913453 0.008223601 -0.016432947 0.0066526523 0.0120865945 -0.005909636 -0.014779913 0.012818023 0.018492756 0.0034307165 -0.011670463 0.0021719187 0.00851666 -0.015655074 
0.0031563838 -0.025001638 0.019245192 -0.0056127696 0.0015760693 0.0028342376 -0.0037331132 0.010684127 -0.032291416 0.019582978 0.055718776 0.023755336 -0.010267593 -0.0051721367 -0.010750815 -0.033989016 
0.039030295 0.006938671 -0.00376598 -0.0070536286 -0.0046354635 -0.0060130153 -0.009470172 0.023802357 0.010214821 0.057940736 0.013104429 0.0034158733 0.020844998 -0.047664575 -0.047057185 -0.0003342534 
-0.0010464166 -0.0029817924 0.01864661 0.023878045 -0.0068537844 0.004434974 0.026091786 0.039102443 -0.0429711 0.012208558 0.039563086 0.05140136 0.0063496213 -0.0056353873 -0.0033456641 0.0026386802 
0.0036997837 -0.006432892 0.014097982 -0.010121499 -0.0006748616 -0.010455391 -0.0106059555 0.009486357 -0.00155401 0.015732534 0.006321495 0.001606821 0.0032282083 0.011380213 -0.0019554829 0.006986075 
-0.014986997 -0.0027376574 0.01683015 -0.0063268584 -0.005274277 -0.00863692 0.016926013 -0.019230451 0.009370162 0.0006181886 -0.0039447155 0.0029552395 -0.0135148885 -0.0061251884 0.0032947047 -0.00076202874 
-0.008864989 -0.009706295 -0.019206276 0.01188365 -0.025029225 -0.0011423089 0.016681913 0.026812501 -0.020520201 0.010465271 0.0061444463 -0.0034205136 0.006357191 0.0028784112 -0.008050145 0.0050347853 
-0.025876304 -0.020551566 0.014541451 0.019016229 0.014537934 0.011475793 0.0019241116 0.008247061 -0.010981537 0.004891087 0.018402604 0.019740311 0.006514682 -0.0025890237 0.0032575983 0.0069725253 
0.005421233 0.0043275934 -0.015999215 0.0052736844 -0.0038813585 -0.0006837775 -0.0014908797 0.00496246 0.019113868 -0.0063486835 0.005341574 0.015064227 -0.017536035 0.0019335184 -0.019948985 0.0101262815 
-0.013317117 0.052452806 0.035954326 0.012083987 0.009352098 -0.015149223 0.005290129 0.018903852 0.052196957 -0.013353578 0.006683896 -0.017949505 -0.03302638 -0.04862977 -0.015801275 0.0150001785 
-0.017684761 0.038970847 -0.039487492 -0.0002192726 0.0003908717 0.013482662 0.006037988 0.00924088 0.03038572 0.004406427 0.013163798 0.014424101 0.0052018375 -0.00873162 0.0069225975 -0.0068087317 
-0.007618895 0.020739071 -0.0053918674 -0.01291526 0.016220963 -0.006758928 0.013046381 0.0071091554 0.0016488697 0.006647331 0.020466127 -0.011883073 0.015995756 -0.0048323944 0.0071198754 -0.0009819955 
-0.010250442 0.023313835 -0.034331094 -0.015897226 -0.023613824 -0.0062569124 0.019466544 0.00081381947 -0.009397864 -0.004457956 -0.032734722 -0.0018259113 0.018381026 -0.0190061 0.009496141 -0.013003335 
0.0026564805 -0.005889834 0.013504187 0.0006786018 -0.00075874064 0.0011445654 0.0037004505 -0.0044235126 -0.009353329 0.009837318 -0.007869724 -0.012490455 -0.008408025 0.014990487 0.0035817241 -0.001827026 
-0.0015634651 5.9437232e-05 -0.0015697713 0.011241349 -0.008259795 -0.0025907115 -0.0020340031 -0.015435003 0.0092310095 0.0016269637 -0.001787146 -0.00970488 -0.00056261773 0.005855067 0.0055711046 -0.01602639 
0.006740178 -0.008569527 -0.0016575273 0.0028875011 0.001295115 0.014991408 -0.00078843185 0.019506102 0.014782569 0.0029162818 0.011357266 -0.00093357067 0.004729979 0.0108138565 0.018130256 -0.007863545 
-0.027075302 -0.004219752 0.0066453577 -0.03220474 0.0032879135 0.006051688 0.0033376836 -0.03299018 -0.0141342515 0.004558166 0.015725208 -0.0022228423 -0.01693386 0.020452421 -0.018333526 -0.0074584857 
0.028859518 0.0063938396 -0.027851688 0.002971288 -0.032013617 -0.033888772 0.014511986 -0.011182204 0.00475653 0.0052133016 -0.009249847 0.022356678 -0.042740464 0.034425125 -0.013014856 0.03340121 
0.0053679277 0.002579678 0.006981373 0.021551093 0.0071550445 0.0053016352 -0.0013645543 -0.0021295834 0.0061170165 0.007446807 -0.0013568514 0.015835345 -0.012176847 -0.012658549 -0.0062920004 0.005353939 
0.006052856 0.0037586077 0.014209486 0.0036354833 -0.0025886612 0.0014409779 0.007307431 0.002074919 0.000156488 -0.008085598 -0.0021423385 -0.019151729 0.01873606 0.0062924703 -0.013202028 0.012352783 
-0.007988685 0.014177373 0.0023571358 0.006750749 -0.0013332485 -0.006353146 0.0020652777 0.008850133 -0.013015262 0.0026082087 0.010309813 -0.0014990243 0.006360603 0.004576938 0.007959908 -0.004253995 
0.02344809 0.0075081307 0.012251014 0.05693624 0.0058336225 0.000281182 0.017654996 -0.02529415 0.004363225 0.010165715 0.017912384 0.0138356155 0.008269912 0.010581018 0.03284431 0.04777078 
-0.0011390295 -0.04355818 -0.01771755 -0.00044958753 0.01200239 -0.01851287 0.02475167 0.0105227595 -0.007894001 -0.02834156 -0.008998574 0.04044669 -0.013534444 -0.006142445 0.019353839 -0.013859237 
-0.024605356 -0.015996302 -0.0070113945 -0.020433834 0.03734113 0.008060801 0.012408164 0.022028903 0.013292198 -0.009800671 -0.02452955 0.023446945 -0.03440852 0.052444868 0.022172716 0.008360891 
0.05587455 0.048288558 0.02623488 0.0453155 -0.03982158 0.034766182 -0.014111801 0.025011733 0.0152113065 -0.02524547 0.025574295 -0.03855046 -0.022969047 0.012236919 0.015697908 0.05892982 
-0.003362673 0.0049088947 0.00464128 -0.015953222 0.00092233985 0.0021716629 -0.006306651 -0.0060783606 -0.006000338 -0.0034878703 0.014602139 0.011559364 0.008036412 -6.2571366e-05 0.004062576 -0.016318152 
-0.014648747 -0.012159632 -0.018851386 -0.0024220513 0.016000928 0.0060185376 0.0028519186 0.0018374724 0.0025210306 0.00070540456 -0.008557985 0.007343365 -0.0009549097 0.007159722 0.0069096927 0.0014034368 
-0.016485998 -0.008279232 0.052554976 -0.015739094 -0.012542136 -0.012678173 0.012908159 0.02154105 0.0070300833 0.00810345 0.049790636 -0.0020955678 0.007539162 0.0061801146 -0.0066104657 0.011706246 
-0.009269636 0.012344103 0.006401458 0.0027277933 -0.01834754 0.020297388 -0.01843 0.0024893507 -0.0063553993 0.020885356 0.0041825697 -0.007297133 0.0034243348 0.011682766 0.019716874 -0.021499364 
0.024203528 -0.025524477 -0.0025129241 -0.010150033 -0.0289357 -0.0042595393 0.0056759715 0.0012575146 -0.0019994683 -0.017363332 -0.0047178394 -0.0019533986 0.018841347 -0.0061893337 -0.020633083 0.002594254 
0.010284548 0.003705172 0.0076002246 0.0166199 0.024455769 0.0076545286 -0.0020559405 -0.022307033 -0.012332256 0.00060396263 -0.015200911 -0.024752345 -0.006758815 -0.0062403814 -0.015599818 -0.017470969 
-0.010403261 -0.029786475 -0.014923275 -0.014203969 -0.043147624 -0.0020253127 0.013536333 0.023324706 0.015764711 -0.0046781707 -0.015267296 -0.0044242935 -0.0046566227 0.035204288 -0.015827022 -0.0001603333 
-0.003938871 0.027129231 -0.027868891 0.012048815 0.0055779116 0.040505152 -0.0147222495 0.008326267 -0.01884831 0.011083833 -0.029360645 -0.023097368 -0.0026540668 0.0071685943 0.020767545 0.021433588 
-0.028836347 -0.033468507 -0.020062368 0.023893299 0.007087263 -0.018571747 -0.03156427 -0.020928543 0.004061323 0.01816969 0.012009398 0.003352101 0.028053086 -0.0009768554 0.01700552 -0.040187422 
0.008164605 -0.007431582 -0.013654456 -0.005548025 0.006356862 0.010255869 -0.010843051 -0.00544177 0.00048846373 -0.012772641 0.01730672 -0.010516604 0.028770957 -0.012375976 -0.0066346233 -0.019521829 
0.0018264446 0.005562782 0.0055936794 0.006032916 0.008891727 -0.0029911438 -0.0063533597 0.008177367 0.0041788258 0.006318964 -0.0028047229 -0.005264102 0.002803042 0.0007050273 0.00290977 -0.0035701816 
0.009661691 -0.004934431 -0.018190617 0.0088274935 0.020739049 0.020356093 -0.005514978 -0.009974699 0.04774231 -0.0070921113 -0.036362387 -0.012129988 -0.035698704 -0.008574671 0.019716404 -0.026116654 
0.0041031274 0.010455051 -0.0050639687 0.0032492655 0.0058464026 0.026625121 0.016949117 -0.0125337085 -0.012815244 -0.0057791756 -0.009866108 -0.0041760122 -0.013873485 0.012011027 -0.013742586 -0.00095137156 
0.005333626 0.015393935 0.012234463 -0.0060723517 0.019031717 0.0013234349 -0.010262891 0.014164463 0.02104926 -0.024581889 0.0037336927 -0.019701557 -0.010976812 0.0030437587 0.021876479 0.017858041 
0.023971565 0.019004805 0.0138596045 0.03978477 -0.011794717 -0.0002490419 -0.019144917 -0.013971361 0.02038253 -0.016329184 0.015778998 0.042486157 -0.0044704606 -0.031532723 -0.0068475357 0.049728263 
0.013360564 0.0009209493 -0.0041899574 0.011006739 -0.000803479 0.0059042657 0.0026747335 0.023931993 0.004271187 -0.0011046772 0.026499225 0.0001383767 0.00028455816 0.016430525 -0.00967752 -0.009744057 
-0.0111681195 -0.008215307 -0.00044341455 -0.009412777 0.035942014 -0.020644763 -0.00565443 0.014248036 -0.018022478 -0.0004681313 -0.020172719 0.026133623 0.03119066 -0.0009750312 0.017218903 0.005879204 
0.02937017 0.033744924 -0.03447608 -0.004835009 0.058099866 -0.0038665372 -0.0054195956 -0.015444793 -0.0106890965 0.0076237815 0.00511721 0.0021447171 0.0108308215 -0.0009657826 0.018951744 -0.0003183442 
0.041933715 0.005882917 0.011069043 0.0012046772 0.010844693 0.01381505 0.02116603 0.018345254 0.0019085887 -0.0075172554 0.005910276 0.013838322 -0.0105379205 0.008433813 -0.024185311 -0.0069603636 
0.032645717 0.041259777 0.018360114 0.0073210644 -0.041554105 0.02646757 -0.019699052 -0.020118006 -0.01968125 0.015204397 -0.003768432 0.025843374 -0.0054193 -0.011231237 0.017899286 0.02444522 
-0.0118544875 0.050978567 -0.0023007526 0.017130919 -0.011315062 0.0031918208 0.008356972 -0.014328645 -0.0019630862 0.0072470307 0.0060963654 -0.012827333 -0.00016384172 -0.013332905 0.019606942 -0.0058710077 
-0.002235987 -0.002184627 0.014952277 0.039495118 0.037155505 0.015163271 0.009973706 -0.020389682 0.008171567 -0.02478875 0.022213513 0.041954476 -0.0073292344 -0.022353323 0.03624295 0.018170994 
0.020795776 0.019148702 0.044217274 -0.022308314 0.0131261805 0.051279493 -0.0014366588 -0.0017295172 -0.008335679 0.00038172997 0.019325493 -4.0807117e-05 -0.013301992 0.007589253 -0.0066608344 -0.007860685 
-0.020227272 0.0191774 0.004638988 0.021341061 0.006992973 0.004450047 0.009088426 -0.015609847 0.0017636108 -0.0039459723 0.014461223 -0.015516922 0.01639712 -0.014966522 0.036828935 0.04225575 
-0.0004888563 0.00971734 -0.01059122 -0.0019559271 -0.0056988155 -0.000813838 0.04541723 0.038996436 -0.007864922 0.007180456 -0.01493974 0.009049325 -0.026797876 -0.012805886 0.003997694 -0.017879417 
0.007437651 0.012733698 -0.03689611 -0.01761133 0.004846955 0.018028393 -0.019082269 -0.0056383824 0.010383685 -0.00046002306 -0.005721409 -0.0040958943 0.00635544 -0.006867033 0.0015317203 -0.0050184443 
0.027594704 0.056408912 0.012458572 0.0039924136 -0.0059787887 0.006001938 0.00986661 0.0458403 0.033395402 -0.006673404 -0.0015746142 -0.002516966 0.02147489 0.017429471 0.0046442337 -0.0007012274 
0.017003004 0.0013682385 -0.0042698365 0.018326914 0.014514393 0.0045185336 -0.020045886 -0.020290688 -0.006041105 -0.025624482 -0.022353467 -0.010660941 0.019390903 -0.011203401 0.02966953 -0.0071049207 
-0.0015236564 -0.019993026 0.020400142 0.022991998 0.014331393 -0.005460159 0.01297569 0.014284631 0.0006637676 0.0006851859 -0.011424562 0.0012935543 0.0005846947 0.0013426043 0.0040948587 0.016168598 
0.024656015 0.013921849 -0.005646227 0.01427512 -0.009803532 0.0016521158 -0.009058436 0.017548978 0.02418351 0.025081592 0.006972657 0.0085872365 0.0021680668 0.016659638 -0.007915377 0.01171629 
0.014526514 0.011611003 0.015749501 0.019805124 -0.032740172 0.053997893 0.0015828045 -0.01816152 0.052527655 -0.043157898 0.018902382 0.010927762 -0.042723283 -0.047626633 -0.015345347 -0.0057994463 
0.04082255 0.048338402 0.010131135 0.045794003 0.013315967 0.038820956 0.022648882 -0.002647307 -0.0040092343 -0.04677313 -0.031372067 0.0076530646 0.005409339 -0.018825915 -0.0105824815 0.014778657 
0.023839682 -0.001493771 -0.0013046429 0.013690911 -0.019494258 0.0033682657 -0.011998175 0.012357319 0.007259203 -0.0031569446 -0.0012320209 0.012483485 -0.013926827 0.008303937 0.0017873605 -0.0077670226 
0.00092349015 -0.0019397335 0.0035775069 0.0025984824 -0.010402222 0.00617924 -0.0044495957 0.00866635 -0.006009849 0.008476011 0.0052851005 0.010080651 0.0063469927 0.0035675848 0.01614816 -0.005669465 
-0.018104536 0.019024836 -0.0062798355 -0.0020375494 -0.003587242 -0.0023350427 -0.017004397 -0.0060032993 0.0014103334 -0.0045476165 0.0040116305 -0.0011134543 -0.0057701943 -0.0004784974 0.016943354 0.010774425 
0.0059888866 -0.00011885002 -0.0062560304 -0.0066040982 -0.007183132 0.016264511 -0.018645512 0.005724646 0.01571472 0.007525491 0.0046243463 0.019975878 0.005342262 0.014777683 0.010523899 -0.009319075 
-0.004029918 -0.00021331673 -0.049986806 -0.023895284 -0.007271339 0.009168084 -0.0045642206 -0.033613052 0.0037588435 0.016134897 -0.0059921094 0.00015829182 0.059010424 0.02858783 0.03158081 0.04263233 
0.0009705614 0.012076058 -0.03224479 -0.007393571 0.015363887 -0.015378714 0.01847587 0.017409075 -0.015081277 0.05269016 -0.009047368 0.01916545 -0.007570667 -0.0009789495 -0.00755947 -0.01131473 
-0.012333053 -0.013173031 0.005849638 -0.004018992 -0.0015652836 0.0097034015 0.0051795496 -0.0019821043 0.003291405 0.018968308 0.015651321 0.0068567046 -0.009178851 0.0031896038 -0.0025986396 0.002938362 
0.018393677 -0.011491088 -0.0030724166 0.019073773 -0.007876034 0.006361343 0.010637909 -0.00039292287 -0.0041904463 0.0107269585 0.01710258 0.0015322602 0.010535649 -0.00077865995 0.013971375 -0.0032252192 
-0.005059617 0.004077656 -0.005112555 0.016488086 0.0075778468 0.011881993 -0.008096254 -0.0011262514 0.0048848502 -0.0063572037 -0.011639946 0.018969562 0.0037914664 0.0004659037 0.007929336 -0.010013176 
0.01675298 0.041206334 -0.00055167265 -0.00964369 -0.0030515182 0.0067396564 -0.010493517 0.0134344995 0.018226033 -0.014185659 -0.0040624235 0.014154717 -0.0034491376 0.003866004 0.0060444633 0.011739904 
0.011323705 0.0126318615 -0.007478292 0.0021211267 -0.0016984218 -0.010971951 -0.017723018 -0.00067225687 0.011649128 0.011164847 0.0075043743 0.007936963 -0.0014239239 0.036145464 -0.013091662 -0.04247208 
0.0026118977 -0.0152043635 -0.013702766 -0.009849748 0.00014322167 0.010440878 -0.0008127412 0.00015584525 0.0061496617 -0.0062692445 -0.018121101 0.00593412 -0.011939004 -0.003891257 -0.0049222563 -0.006516472 
0.04634264 6.049479e-05 -0.019630516 -0.005791068 -0.01568795 0.007469883 0.0019626922 -0.008187543 0.040799875 0.0049175043 -0.0034541155 0.012104674 0.020566233 -4.3077627e-05 -0.051380407 -0.006931506 
0.025394466 0.014257249 0.009266921 -0.00020593326 -0.010223391 -0.01945787 0.016078824 0.02651511 -0.025751622 -0.029880421 0.022237483 -0.016073598 0.015339304 0.02765003 0.013239192 0.017867403 
-0.0030432686 0.013862339 -0.026919693 0.003955537 -0.007413391 -0.0007933625 0.00063309795 -0.019328909 0.008079431 -0.021209823 -0.019299218 0.011700353 -0.0038371957 -0.020196814 0.020565245 0.00044178267 
-0.0005451887 -0.0064708483 0.008583172 0.0062961113 -0.006168506 0.005407935 0.014286241 -0.0006650658 0.006214269 0.0035973913 -0.01557041 -0.0024946702 -0.008138906 -0.007479018 2.7085725e-05 0.005621234 
-0.0030275008 -0.0011525655 -0.0050969664 0.004736087 -0.00080868974 0.015731271 0.00534304 0.00664215 0.011121263 0.011382365 0.003952179 -0.0058685564 0.001549916 -0.015985254 0.002012907 -0.013867115 
0.0012771486 0.013010006 0.02045743 -0.0038528927 0.018583387 -0.014660989 -0.0010949844 -0.006396075 0.0017551328 -0.001617239 0.004004499 0.015779348 0.026841305 0.0052583357 0.008808607 0.0060675708 
-0.002879173 0.0023741028 -0.024676122 0.023120167 0.004191628 0.01158854 -0.0072302907 -0.024641145 0.0060364734 -0.0059662405 -0.011837264 -0.015312251 -0.0011946517 -0.019272503 0.014916776 0.022270437 
0.0153444875 -0.014254118 -0.0044723395 0.018526591 -0.01858285 -0.018547641 -0.011204508 -0.003449622 -0.0049137287 -0.0037692122 -0.004513095 0.0025392019 0.0035612998 0.003339782 -0.019725887 0.0030424264 
0.0063571483 -0.01708545 0.010704736 0.004076566 -0.004202198 -0.005656606 -0.0017276931 -0.007339408 -0.01349069 0.0077211065 -0.0030700227 0.004007155 -0.00020084345 -0.006352492 0.0026669877 0.0062543666 
-0.0020855148 0.007653482 -0.011498591 0.0062085697 -0.005936329 0.0083688395 -0.0010610971 0.0060277213 -0.0017618149 -0.015556647 -0.019773306 0.006321779 0.00022302997 0.0014009335 0.0019552808 -0.01432678 
-0.0054363064 -0.0110687185 -0.0049033766 0.0021477928 0.0006872851 -0.0048613795 -0.0035812256 -0.0047346866 0.011097001 -0.008568612 -0.0019900575 0.0040883594 -0.013593029 0.012662754 -0.0064977002 -0.0016850871 
0.005667702 -0.027056785 -0.0017665448 0.04584568 -0.037468776 0.020819541 -0.03505759 0.055242892 0.015808886 -0.0068666874 -0.018603723 -0.019583978 0.022909423 0.05883365 -0.010295167 0.034973267 
-0.027671434 0.018677026 -0.0085827615 0.045609083 0.0013479134 -0.014330473 -0.009872734 -0.03386791 0.013480022 -0.03952065 0.052493438 -0.017633388 -0.003885449 -0.018465627 0.016150305 0.00088763074 
0.036439024 0.050324954 -0.024073545 -0.0015292628 -0.0077879447 0.03656281 0.029140143 -0.014402545 0.023945263 0.002797233 -0.038340557 0.017434835 0.0055636535 -0.013566677 -0.004982948 -0.00062374107 
7.908822e-05 -0.00064636656 -0.0027202023 0.0150150275 0.02007582 0.001015121 -0.013438345 0.00087506283 -0.004377387 0.0025389888 -0.0049548075 0.008934424 -0.0058410396 0.0060280175 0.0025931206 0.0010152566 
0.01631628 0.020433472 0.011718047 -0.0027332455 -0.004870333 -0.0010125048 0.014223856 0.018392231 -0.008046505 0.0016394635 0.009172772 0.0054083434 -0.0025979623 -0.010987244 0.004027114 -0.013533256 
-0.0074120313 -0.003602138 0.008818485 -0.0001038191 0.012656627 0.005275892 -0.006212659 -0.0071987365 0.00085477385 -0.0049964422 -0.005041269 -0.0012595219 0.01369789 -0.0008673782 -0.00081781397 -0.004446439 
-0.00026117728 -0.013134103 0.003498446 -0.0139895035 -0.010831871 0.0063418606 0.0040478543 -7.4075e-05 0.012526564 0.0014452138 0.0074406834 -0.006236442 -0.002798762 -0.0048762504 -0.014906921 -0.00041037903 
-0.007029317 0.0023562002 -0.010502126 0.007861344 0.006314122 -0.0109066535 0.0019071312 0.0066497144 -0.0075743496 -0.0140705295 -0.0003836387 0.01617054 0.0039048863 0.005496233 -0.0051729726 0.0030010592 
0.00038068698 -0.0071412087 -0.004168447 0.01127448 0.0028356707 -0.00610228 -0.009471955 0.011070157 0.0049831583 -0.011754881 0.007974768 0.004815489 -0.0062140985 0.00086727715 -0.006534341 -0.008148288 
0.009442795 0.018699925 -0.009493278 -0.009906197 -0.0032549908 -0.004439915 0.0032460936 -0.006337018 -0.0062631103 0.003924038 -0.00307269 -0.001582003 -0.0039124168 0.0062341485 -0.00027345004 -0.015496389 
0.012376031 0.0027172992 -0.017566964 -0.00038542063 0.013884814 0.0015774894 0.001546818 0.00168978 -0.0036264327 -0.017308095 -0.007701862 -0.008165247 -9.6447664e-05 0.00017138486 -0.006213608 -0.0153181255 
0.010032214 0.033755936 -0.0047754357 0.002239465 0.0070951544 -0.017191764 0.007556899 -0.008357534 -0.009710764 0.0034348185 -0.02078908 -0.015196322 -0.011266946 -0.01531903 0.017243702 0.0119285695 
0.016865462 -0.003724655 0.028272232 0.011571536 -0.0011217712 -0.0016286343 0.009596104 0.02719226 -0.013447085 -0.015533196 -0.004738707 0.029398123 0.010666053 0.025127308 -0.00039136843 -0.013199574 
-0.002385833 -0.016887724 -0.0033465952 -0.00498326 -0.009036734 0.006148282 0.006098549 0.0057284897 0.008727663 0.011094163 -0.0047693485 -0.006223635 -0.0016851247 -0.013353796 -0.004474884 -0.0060834265 
0.0086723035 0.016322559 -0.0034267178 0.0054529486 0.0058581415 -0.0001472799 -0.0050837547 -0.0125158625 0.004330927 -0.008350427 0.0043331683 -0.013453401 -0.001714753 -0.008957327 -0.011132184 -0.0040944167 
-0.008524018 -0.015007803 0.008621074 -0.003962958 0.0095000295 0.011148654 0.0067570717 0.012035429 0.0066993656 -0.005069662 -0.015796086 -0.00897616 0.03117136 0.012327553 -0.002143553 -0.01522813 
0.04871018 -0.018989898 0.04491371 0.0046304087 0.01917334 -0.0056640576 -0.0142892795 0.014577538 -0.045874957 -0.04599151 0.01286124 -0.001382293 0.014336952 0.0031531914 -0.016362956 0.044402055 
-0.0054914947 0.014644265 0.014838581 0.009335041 0.016298441 0.05074434 0.03716107 -0.00919092 -0.009466909 -0.039093748 0.0076893386 0.007409593 -0.011677501 0.0019954604 0.024414992 0.011502774 
0.0009902088 0.00735423 -0.016468165 -0.0016335921 0.0018304712 -0.011319939 -0.0009999995 -0.0027847171 -0.0025721148 -0.00020837484 0.0062664645 -0.0022077698 0.017802153 -0.0013730327 0.0017839384 -0.00029835614 
0.04037305 0.014731788 -0.007856864 -0.017337097 0.019549254 -0.02032627 0.01054819 -0.031484257 -0.009564642 -0.015813595 0.035335757 0.04309872 -0.013965839 -0.005560784 -0.008174028 -0.0071399263 
-0.019569132 -0.020802809 0.007263236 0.013121595 0.020640919 -0.01572174 -0.014074765 0.0174069 -0.010502566 0.00097644894 0.009895075 0.034198742 0.020172209 0.011938428 0.0022135463 -0.019338246 
-0.003098771 -0.016276741 -0.043697238 -0.017228635 -0.002814269 0.023583425 0.014439927 0.01978679 -0.016664885 -0.028382888 0.020939633 0.018603705 0.0059919883 -0.029258588 0.034485787 0.053733036 
0.014362062 -0.016161008 0.006003967 -0.007928892 -0.0062957676 -0.012447639 -5.6055756e-05 0.0063652266 -0.0058445996 0.001275191 0.008016911 -0.0063088476 0.006441083 0.020167504 5.8945232e-05 -0.014162085 
0.0034399403 0.035694864 0.01199785 0.006691418 0.008005309 0.013516202 0.0006860924 0.006798501 0.02291072 -0.03401699 0.0054839295 0.016667109 -0.03884024 0.0021934488 0.036888797 -0.0013266309 
0.006782375 -0.011100256 0.0076692924 -0.0020227688 0.0034579502 -0.0006021599 0.005061014 -0.011182565 -0.00864461 -0.009669724 0.012907553 -0.011908109 0.005970355 0.016848484 -0.00048915733 0.0035408807 
0.009651067 0.039260253 -0.013057819 0.010878653 -0.0014485095 -0.0058696307 0.016282696 -0.0028874893 0.026719024 0.013678665 -0.009128774 -0.011297572 0.00599093 -0.011111596 0.005861986 -0.001282747 
-0.001000582 -0.013753757 0.013491185 -0.008702249 -0.010205738 0.011549273 -0.012620226 0.014868361 0.003474242 0.0073726694 0.007901449 0.007527891 0.02938005 0.021090476 -0.00028136253 -0.007209763 
-0.013557519 0.0014254438 -0.004522229 0.020581465 0.018155815 0.010411827 0.0034983263 -0.004598602 0.006621001 -0.006207445 -0.030591317 -0.005274263 -0.009447784 0.016050268 0.0115514975 -0.011685965 
0.039759766 0.02526395 -0.019878648 -0.025906531 0.0030701975 -0.036534596 -0.0080576595 -0.030211838 0.006749793 0.04631065 0.0037675207 0.016864566 0.013425238 -0.015632508 -0.008125633 -0.01996761 
0.012144441 -0.032459795 0.039863877 0.004801571 0.004106013 0.0029205324 0.048894886 0.04394746 -0.00044334825 0.017761614 0.006604398 -0.007683977 0.013480182 0.0076699103 -0.04080266 -0.045294873 
-0.010740676 -0.0019020367 -0.014355873 -0.013259601 0.0062325513 0.0050154366 0.014624423 -0.0063162223 0.01841593 0.00576609 0.02082742 0.007172509 -0.00053066795 -0.009046884 0.0020267933 0.0007708711 
0.0009434484 -0.010097035 -0.010830365 -0.0047533186 0.019586274 -0.0051976726 0.012473863 -0.005570036 0.013939923 0.008780693 0.004989321 -0.0011307843 0.0018027417 0.0074086986 0.0033376766 6.020141e-05 
-0.018079361 -0.013468897 0.014010804 -0.0035195213 0.0055948915 -0.005548559 0.015153429 0.006900462 -0.010630746 -0.0014080262 -0.0059979097 -0.00046583705 0.006035424 -0.017029563 0.0016699418 0.020413501 
-0.0156056825 0.011676974 -0.008158574 0.001438907 0.004863202 0.001590543 -0.004924091 0.014723831 -0.0050560865 0.005762989 -0.02147865 0.007510691 -0.015229757 0.012933566 -0.0033277876 -0.0003982072 
0.010576928 -0.008338409 4.7892125e-05 0.012584273 -0.011515842 -0.011300744 0.0059782867 0.017779995 -0.0042477106 -0.011313102 -0.019284029 -0.013697864 -0.010460921 -0.018086854 -0.019818341 -0.0055896486 
-0.016978469 -0.011760215 0.0063345316 -0.0019120167 0.009670937 0.005240723 0.005749873 0.0058946195 0.0006106021 0.01783554 -0.011155696 -0.00430896 -0.020430604 0.010564782 0.00503741 0.0038649968 
0.0058672987 0.009337751 0.023491245 -0.016167456 0.002866758 -0.0011603694 -0.0070803147 -0.006535488 0.029045118 0.008871495 -0.0029803123 -0.0039809286 0.006543032 -0.010914648 -0.005741897 0.0024740417 
-0.0013829194 -0.0001536582 -0.020000963 -0.007681084 0.0064306045 0.011601503 0.0059636156 -0.0058728703 -0.0008548222 0.00067245215 0.0013645135 -0.018677693 0.0057411427 -0.001333138 -0.012582998 0.008201543 
0.0069640214 0.018656721 -0.027615756 0.016837839 0.015959516 0.015855266 -0.00818474 -0.020485723 0.008310413 -0.008176052 0.021984797 -0.018038072 0.015556811 -0.009873123 -0.001043518 -0.019989157 
-0.02003643 -0.00983841 -0.010804943 0.024568988 -0.0052245967 -0.014518943 0.012150952 -0.008158859 0.019364897 -0.018744899 -0.006840062 -0.019687241 -0.0009959257 0.047291916 0.034347545 0.0026879248 
-0.0119578475 -0.005848006 0.028817069 -0.0013965521 0.0005930415 -0.016564379 -0.0014513934 0.014258207 -0.03784239 0.0075468053 0.045581326 -0.004980009 -0.008576549 -0.019491546 0.0014189463 0.0047788024 
0.02177903 -0.05845163 0.0042206147 0.046760138 -0.0062283888 -0.019953948 0.016034322 0.056395747 0.0049109496 -0.0016574578 0.036872506 0.0042295055 0.058128428 0.024821617 -0.0058162287 -0.009729607 
0.0030832745 -0.008641907 0.0145085 0.0010510563 -0.0101507995 -0.0012743903 -0.005983911 -0.008015052 0.00068939617 0.0008873658 0.005313544 -0.00043829682 -0.00019095643 -0.0035248126 -0.01196424 0.0049031293 
-0.0043696333 0.0054147444 0.042348985 0.042514827 0.0011722828 0.00861341 -0.020263935 0.0053117676 -0.00873788 -0.0068145627 -0.0042548915 0.008131436 -0.013439046 0.0040595075 -0.014221003 -0.017115377 
0.032379214 -0.0026705507 -0.006643389 0.036977228 -0.03273863 0.014242643 0.013343685 0.0124678295 -0.035669822 0.012146543 0.032105755 0.012762753 -0.004972775 0.030214572 0.01665987 -0.015297886 
0.012050706 -3.233348e-05 0.007746027 -0.006986414 -0.009866044 -0.016890466 -0.006925604 0.009995747 0.00447763 0.012331949 0.008274402 0.012268098 -0.017270312 0.020547932 -0.004306759 -0.0044266838 
