0.27610844 0.40037462 -0.14063911 0.05345854 -0.083378725 0.3905536 0.22574072 
0.40990514 -0.11488735 0.41842207 -0.12832995 -0.29286838 -0.40010217 0.32953182 
-0.39133888 -0.3990386 0.4235106 0.36199984 0.1043947 -0.42144242 -0.48766258 
-0.1144967 -0.46801552 0.075130105 0.09967018 0.039208613 0.26941973 0.38707256 
0.013548136 -0.224162 0.23995376 0.36081713 -0.4114969 -0.20949195 0.28810674 
0.039572306 -0.15818852 -0.070060775 -0.29785743 0.06868181 0.20300603 0.14334023 
-0.3504507 0.36148566 -0.4420942 0.08206818 0.44691938 0.22726524 -0.2274713 
0.10180994 -0.30289173 -0.07796234 -0.42929766 -0.50642544 -0.41576368 0.2083734 
0.0028962786 -0.018028129 -0.42127886 -0.08940801 -0.09092588 0.22126944 0.4911659 
-0.3465966 0.42769608 0.4777952 -0.18159078 -0.34963956 0.19615328 -0.038783956 
0.23028423 0.49065804 -0.15427683 -0.26176906 0.48016068 -0.27920887 -0.35062158 
0.21896467 -0.27074447 -0.38487133 0.359809 -0.08655961 0.36690447 0.26782864 
0.17164792 -0.3174646 0.013320806 0.07587292 0.12095387 -0.2167553 0.5254938 
0.12470518 -0.05313829 0.01002657 -0.0029113032 0.014103134 -0.067545265 -0.10373439 
-0.10821726 -0.4670471 0.43527505 0.01235234 0.5266252 0.15106146 0.091427095 
-0.43659157 0.14682157 0.29715917 0.13944775 -0.33752367 -0.4419809 0.48974025 
