0.29608262 0.42031103 -0.12226933 0.071599126 -0.0842382 0.37295866 0.20584935 
0.39101064 -0.11812478 0.43806666 -0.14574623 -0.27359146 -0.38073534 0.31216508 
-0.39153004 -0.37922972 0.4317482 0.3646369 0.123794675 -0.43337885 -0.5006498 
-0.12492132 -0.4831165 0.057433367 0.10831255 0.0577451 0.2814179 0.40304196 
0.033386827 -0.20514941 0.22121215 0.34120566 -0.4225336 -0.18979636 0.3048942 
0.03521973 -0.16384965 -0.050907284 -0.27985364 0.088605225 0.2200576 0.12440449 
-0.33095333 0.3718785 -0.4471436 0.063967586 0.42779738 0.2082203 -0.20810631 
0.12113559 -0.31429195 -0.09757689 -0.40966898 -0.48658207 -0.42853227 0.21166402 
-0.014699012 -0.025731057 -0.40144163 -0.07145178 -0.10927343 0.23780024 0.49964315 
-0.3267424 0.4295798 0.49500316 -0.19488174 -0.36284244 0.17917639 -0.018891662 
0.2488935 0.47177833 -0.13563833 -0.24300796 0.46216798 -0.28377134 -0.33256757 
0.1993652 -0.2758686 -0.36601415 0.37971598 -0.089523405 0.34944314 0.27325678 
0.19153601 -0.29879498 0.033193827 0.05740136 0.10101855 -0.19740513 0.5076329 
0.10930085 -0.03331399 0.029794395 -0.022669196 -0.0058078766 -0.07443938 -0.084119976 
-0.08861205 -0.44860685 0.41661358 -0.0066690445 0.50859064 0.17101336 0.08792722 
-0.4416744 0.1288951 0.30255997 0.1205892 -0.3522159 -0.4224424 0.5043772 
