-0.062459502 0.0222319 0.058438875 -0.04861413 -0.054561663 -0.021353588 -0.056475285 0.026157588 -0.046537317 0.05249975 -0.021492433 0.02083239 0.059875295 -0.018825993 -0.045996815 0.04439065 
0.05494851 -0.056358762 -0.011478458 0.058901846 0.058449462 0.030096538 -0.03644485 0.05408539 0.025792256 -0.0018259287 0.060300037 0.054720208 0.0416805 -0.00023274124 -0.014791161 0.05283376 
0.035857424 0.0070763975 -0.031042662 0.048298955 -0.05997051 -0.061386175 0.009916827 0.010538422 0.053583905 -0.044059075 0.0459285 0.017787836 0.012387022 0.027288005 -0.013665013 -0.03396298 
-0.04256658 0.05013766 0.06057851 0.053190596 0.019502945 0.052698992 -0.057117898 -0.033099424 -0.012318216 0.026278995 0.0051115677 0.011003964 -0.043415774 0.018561006 -0.03571189 -0.05508955 
0.04686083 -0.03859118 -0.024216939 0.044032782 0.009384632 -0.017969482 0.047923096 0.059439495 0.00677453 0.009376869 0.053435825 -0.018587705 -0.011858448 0.030765034 -0.060632348 0.032024227 
-0.027808126 -0.011083677 0.0033734888 -0.057964392 -0.0048843212 0.05223255 0.029504612 -0.021923833 0.057813704 0.017606325 -0.022664819 -0.014239922 0.01447992 -0.015804145 -0.050378118 0.05565805 
-0.018955711 -0.053821642 -0.034182537 -0.030184831 -0.034325648 0.05654136 0.03557177 -0.026715733 -0.050799426 0.0075099915 0.016982213 -8.352101e-05 -0.045136776 -0.03580012 -0.039444916 0.05415263 
0.004643418 0.043775573 -0.029518407 -0.06349142 0.056870416 0.05969459 0.05283618 -0.0046039447 0.044466466 0.037927136 -0.053729206 -0.04503753 0.017354116 -0.02729598 0.016727276 0.019406937 
0.047992595 -0.030234847 0.00046153367 -0.05627452 0.048783243 0.05853737 0.018436812 -0.044464152 -0.04004012 0.05950319 -0.026990078 -0.044837855 -0.024944425 -0.0057132766 -0.009677645 -0.04824979 
-0.047788255 0.0075901374 0.010078348 0.037232384 -0.054636057 -0.053864524 2.4810433e-05 -0.045447405 -0.039552383 -0.049135953 -0.042233475 0.029336631 0.055258602 -0.040045522 0.018691905 -0.03747775 
-0.0033249296 -0.040683456 0.06157195 -0.009488542 -0.0029700696 -0.04568393 -0.033527113 -0.053229395 0.051178373 0.045708865 -0.030539598 -0.052790552 -0.049818292 0.037059896 0.008348145 -0.056903202 
-0.0002888441 -0.0100347325 0.048605002 0.050840616 -0.01942404 0.048624404 0.046875127 -0.040508192 0.0076853037 -0.03818609 0.018649884 0.058776766 0.0119245425 0.059214123 0.05367425 0.04677266 
-0.030489322 0.02673281 0.039165646 -0.045863066 -0.02090419 -0.002064541 -0.00659753 0.031690754 -0.0061949864 0.05202706 -0.059849 -0.03845361 -0.024732996 -0.006286837 -0.0450589 -0.04893321 
-0.047204167 0.0044052824 0.04713898 0.014982276 -0.06385031 -0.023204412 -0.035120346 0.034151472 0.006704755 -0.04775972 -0.013786413 0.043401122 -0.05213754 0.04688506 -0.043165497 0.053330652 
-0.020811893 -0.046832062 0.009763978 0.057575308 0.049977876 -0.04948078 -0.057583038 0.025527515 -0.039019883 0.059197873 0.011057921 0.054641046 0.022086844 -0.027626738 0.05547651 0.0020676553 
0.02070631 0.031874277 0.013493948 0.05941151 -0.051939733 0.023979232 0.0018648952 0.01234749 0.05260659 0.018620983 0.058516026 0.013263591 -0.013279531 -0.018674415 -0.05771257 0.040111817 
0.04712967 0.023691475 0.0544701 0.030662552 0.05792874 -0.058283307 0.0047200844 0.02499327 0.011680372 -0.022062387 -0.05038964 0.032669216 -0.007309459 0.01988019 0.054384343 0.045914844 
-0.063720554 -0.021860454 0.029947877 -0.0143810995 0.011168353 -0.02554012 -0.015365563 0.009947985 0.04183676 0.012382165 0.057156436 0.013032645 0.039480463 -0.025953282 0.007122636 -0.0058209337 
0.014416032 0.021269172 -0.016235042 -0.055270094 0.033343084 0.029267378 0.035387777 0.004361585 0.059028156 0.05010084 -0.028627682 -0.018077489 -0.051713347 0.007865392 0.042246036 0.0012086257 
-0.00072075427 -0.010439284 -0.026559658 0.024892293 -0.004202891 -0.0037291758 0.015563354 -0.051285565 0.0561041 0.029197238 -0.036027994 0.013445497 0.021003097 -0.004198488 0.024329163 0.007459484 
0.03954102 0.059629165 0.010361947 0.012607016 -0.008385163 0.032424457 0.03105773 0.007401675 0.04803486 -0.03659968 -0.0023591816 0.013408154 -0.0169717 0.019164793 0.05442092 -0.010520045 
-0.052742302 -0.011617381 -0.0015470237 -0.027655352 -0.027349189 0.028231919 0.02166026 -0.030226823 -0.0063643754 -0.029682904 -0.027523596 0.06357739 0.027226008 -0.032723255 0.06081482 -0.050520923 
-0.0032833368 -0.023442458 -0.054102678 0.015343383 -0.049901813 0.044813015 0.048157364 -0.027463395 -0.051313765 -0.043301612 0.027644709 -0.017462876 0.033333853 -0.031874903 0.022424884 -0.029874649 
-0.047172137 0.034883864 -0.014996942 -0.034443796 -0.0010772645 -0.0141269155 -0.02379781 -0.00036413968 0.02205091 0.053419255 -0.034376476 0.027160771 -0.0442708 -0.011664141 0.01209867 0.025971815 
-0.037382647 -0.03922666 0.009816304 -0.010818951 -0.05270536 -0.022939317 -0.04225368 0.034158602 0.012873702 0.03910572 -0.02583903 0.06290885 0.06325377 0.027757332 -0.04125697 0.008127034 
0.034120172 0.05183892 0.05933276 0.008671425 0.026246622 -0.047616594 -0.04093975 -0.057028163 -0.04076483 0.04639379 0.030503087 0.042047285 -0.057631824 -0.00068422407 -0.02311759 0.03796289 
0.027274854 -0.06289642 -0.04107187 -0.0004203543 -0.04690224 -0.04759933 0.025540367 0.030570947 -0.005993761 0.033977874 -0.007579446 0.042830326 0.04723467 0.052306622 0.028089501 -0.02417013 
-0.019959033 -0.055302173 0.009956121 0.022181071 -0.059699707 -0.045901988 0.024755612 0.055777438 0.06167469 0.026444286 -0.034688376 -0.009389833 -0.03475797 -0.013002854 0.05565481 -0.057598885 
-0.054837268 0.02780319 0.037933715 -0.005818356 0.040526725 0.037733115 -0.030533861 0.018345162 -0.008427229 -0.019609265 -0.016074378 0.026831195 0.00656534 -0.062053967 0.034172766 0.015665196 
-0.010356881 -0.043818302 -0.024341255 -0.0042543635 -0.052310996 0.0015489757 0.05674205 -0.033023514 0.044250637 0.03960114 0.050369956 -0.005602572 -0.053281207 -0.05923578 0.008208901 -0.03275113 
-0.008407544 -0.031844757 0.061189674 0.012027182 -0.0008582026 0.03130728 0.016950317 -0.0599934 -0.038870938 0.037557885 0.012261972 0.022432938 0.044560745 -0.063953 0.0029735714 0.013934709 
-0.0069436133 -0.058927532 0.016475983 0.063179515 0.021851972 0.01557745 -0.0349651 0.061850853 0.015299641 -0.018913016 0.0024890527 0.0024391115 -0.03317644 -0.052696783 -0.051003627 0.04193484 
-0.034578346 -0.016075332 -0.052820962 0.06009423 0.043263547 0.04537783 0.025447503 -0.0021079257 -0.006523628 -0.020780902 -0.027315665 -0.02243366 0.03444323 0.027994275 0.03724104 0.063845344 
-0.012467694 0.016292095 0.010780275 0.05286912 -0.056249328 0.014602609 -0.011570755 0.04926846 -0.031111196 -0.038247213 0.019301921 -0.01754807 -0.002253905 -0.016043387 0.039284423 -0.046159394 
0.042484224 -0.016775277 0.02178029 0.045270085 -0.03233389 -0.053903922 -0.04312561 0.045763478 -0.015629139 -0.001068294 -0.03360732 0.04770366 0.025967658 -0.043743618 0.051358104 -0.00923951 
0.03713171 -0.06113208 0.05922208 0.048744716 -0.055988714 -0.011562027 0.03124047 -0.02011773 -0.0029806718 0.06413416 -0.047250807 0.037551604 0.036869362 0.055519 -0.001516521 0.0071399733 
-0.05298773 -0.028934952 -0.03758289 -0.014674947 0.0050009787 -0.03867165 -0.0028333738 0.022849657 0.049330935 0.014604859 -0.019277219 0.057753928 0.03803417 -0.026212946 -0.0057034753 0.009908587 
0.003475815 -0.04433184 0.061034016 0.03711447 0.0198455 0.043718487 0.05650548 -0.025566787 0.013419829 -0.045829482 -0.014652975 0.0068932474 0.027630694 -0.0010611862 0.057331428 0.018379174 
-0.012804326 0.053026237 -0.036255486 0.026165307 -0.013048526 -0.033582497 0.03748574 0.04185617 -0.012097813 0.060201086 0.060559213 0.046053983 -0.005820319 -0.0055863857 0.019709602 -0.018661115 
0.0068918616 0.020193808 0.061540686 0.056237713 -0.051665954 0.0067517757 -0.042662404 -0.031809945 0.035807163 -0.06254315 -0.004948158 -0.03955341 -0.02229109 0.02741924 -0.024701346 -0.01847316 
0.06072826 -0.05013269 -0.014208596 0.03668821 -0.030707255 -0.0072639696 0.033765316 0.010824963 -0.026584681 -0.0005547628 -0.055223778 -0.044762783 -0.055096578 -0.03487397 0.019619897 -0.032928348 
-0.058046304 0.060162053 -0.024357025 -0.024860427 0.040820323 0.022900552 -0.020479709 0.056196198 0.039587997 0.024368852 -0.014201827 0.024088062 -0.026924629 -0.039630905 -0.040539026 -0.002712708 
0.0027354583 0.049718432 -0.016139813 0.01328297 0.053306364 0.04626257 -0.047145195 -0.04131487 0.028104767 -0.029175758 -0.055406854 0.013341419 0.05576977 0.020938985 -0.027070362 -0.059103366 
0.06343604 -0.0267298 -0.029289473 -0.059013907 -0.059919175 0.028286703 -0.0039581098 -0.055176154 -0.032416675 -0.049685184 0.0036121756 0.021842338 0.002653718 -0.059616063 0.017487086 0.047177076 
0.022490323 -0.06425398 0.046577528 -0.010123409 -0.018552095 0.006306492 -0.05338607 0.002877973 0.013447404 0.03735459 -0.0016060919 0.045001246 0.0076526105 0.018567972 0.061550118 -0.013135146 
0.055306867 0.054611757 0.01620546 0.008218057 -0.059881326 0.009993695 -0.035656966 -0.0026976727 0.012795001 -0.02463197 0.028099485 0.0036360472 0.03076958 -0.053746928 0.033852518 0.0019020066 
0.06418794 -0.039773405 -0.04110892 0.035160437 -0.0027231574 -0.029555563 -0.048233233 0.031863287 -0.004952792 0.021896511 -0.021901865 0.053697973 -0.046012312 0.004044637 0.04216434 -0.032906853 
0.025136195 0.008594751 -0.0069478936 0.05193779 -0.064035796 0.022299483 -0.010243874 -0.04069452 0.052095316 0.044173926 -0.026142571 0.055802062 0.0013828203 0.042796634 0.052125342 0.011964463 
0.038569532 0.0038250014 0.060581826 0.01435516 -0.0041443147 0.05183556 0.060289375 -0.021333672 -0.062282134 0.04120019 0.0568619 -0.040396795 0.0011476874 -0.061392237 -0.010819413 -0.0143080875 
-0.022787832 -0.0123285875 0.055181004 -0.046048597 0.0127749145 -0.05689653 -0.043931633 -0.03526237 -0.03522751 0.02607508 0.00041383505 0.033760034 -0.03665985 -0.017939042 -0.041815467 -0.0019293763 
0.040984564 -0.050148036 -0.004405115 0.024262764 -0.063870445 -0.0031394288 0.027530544 0.010238245 0.025533445 0.014192022 -0.025816675 0.04728955 0.024905607 -0.031322625 -0.017118707 -0.04112549 
0.025890425 -0.014346965 -0.05790522 -0.024912573 -0.025407646 -0.06377831 0.033958666 -0.002000641 0.056923673 0.032319963 0.052540615 -0.0016651601 0.04150927 -0.027398989 -0.005002208 0.058154866 
0.00878749 0.04619413 -0.06372675 0.035257824 -0.06414589 -0.016087312 -0.052793406 0.02125118 -0.055035777 0.03024239 0.019288234 0.061986215 -0.04323198 0.05806999 -0.0019777827 -0.014036935 
-0.06260132 0.04496766 -0.014868792 -0.025015503 -0.008048557 -0.043936342 0.04693289 0.045196377 -0.029995758 -0.013317563 -0.046277113 -0.03742551 -0.04810548 -0.0081839375 0.022987 -0.050768174 
-0.04071457 0.026076235 0.0022435337 0.056625187 0.05012677 0.05510425 -0.022512197 -0.025989413 0.015580706 0.05836796 0.012364134 0.033047616 -0.04176887 0.048348956 -0.051389232 0.029356472 
0.042503126 -0.028707106 -0.042848565 -0.044835947 0.05243302 -0.050452758 0.04778426 0.047466382 0.037321508 0.039062053 -0.0134625435 -0.026556376 -0.012701567 0.03462483 -0.010609336 0.0620574 
0.03657572 0.037505902 0.0009965971 0.034584098 0.014582187 0.06018298 -0.042843565 -0.0278094 -0.045868374 -0.05634419 0.035200693 -0.019759983 0.026414938 0.01766418 -0.03581448 0.0058388487 
-0.054762337 0.02069462 0.009014182 0.035089344 0.0334886 -0.020153508 -0.048770357 0.04764735 0.009240061 -0.04950243 0.058145262 0.04599893 -0.026125297 -0.0042083226 0.03608091 -0.04807573 
0.029552162 -0.055305075 0.04032255 -0.043836005 0.045974046 0.020683184 0.03747666 0.04232973 0.015636414 0.012373999 -0.013719492 0.0046461374 -0.05409361 0.002023071 -0.0087752305 -0.0417952 
-0.02493215 -0.00035034865 -0.004606217 -0.011167277 0.04123141 -0.022349786 -0.05948374 -0.056474656 0.05008427 0.0038953945 -0.031086143 0.004851982 -0.055398062 -0.01873577 0.03595026 0.023388334 
0.0213233 -0.038420685 -0.040585548 -0.031738482 0.03420765 0.026039243 -0.056277066 0.032890208 -0.020092063 0.013303295 -0.019789409 -0.01746019 -0.018917784 0.01684729 0.045912206 -0.058106795 
-0.013316844 -0.021085963 -0.050204065 -0.03008511 0.03837929 -0.060970087 -0.061475806 -0.0037773661 0.05456861 0.03038311 -0.016318165 0.014177784 -0.025277957 0.059367247 0.0018752962 0.022904016 
-0.043987617 -0.0093211755 -0.05230705 0.02911669 0.045037664 0.052232258 0.023116522 -0.0286933 -0.0016416684 -0.017563611 0.04006005 -0.017790455 0.007963285 0.05516299 -0.054151386 -0.051917426 
0.035023645 0.025305942 -0.061338875 0.033979192 0.0101538 -0.029990327 0.06380919 0.025655985 0.039958686 -0.058140256 -0.025264978 -0.05139626 0.02417498 0.027887985 -0.022626221 0.014352828 
-0.055448905 0.0599185 0.04137156 0.007118188 0.017973363 -0.04462598 0.05902061 -0.004630901 -0.00012037158 0.042887777 0.03611934 -0.06277279 -0.025147934 0.057814285 -0.03325416 0.019670509 
-0.030563977 0.044077642 0.019755118 0.022785164 -0.018137034 -0.053056844 -0.02478347 0.027465172 -0.058866132 0.050859332 -0.059271146 0.0512973 0.013601035 -0.0062387735 -0.05819403 -0.025141936 
-0.06000638 -0.0077390037 0.047240272 0.021278933 -0.017327204 0.033612385 -0.029038142 0.017688878 0.013990201 0.055204153 0.03764671 -0.025860325 -0.014270224 0.008741647 -0.045235626 -0.03360206 
-0.03817463 -0.04634933 0.00032004714 0.024907477 0.021460533 0.015946962 0.01360707 -0.051846392 0.023077331 0.05060024 0.00044623762 -0.0022483505 -0.0030981451 -0.033856764 -0.06109276 0.022065237 
-0.052508198 0.04616458 0.023366563 0.056284063 0.04148428 0.0033533126 -0.048440628 0.0444815 0.046447933 0.014489494 0.040893078 -0.029229745 -0.049867705 -0.017769713 -0.027967054 -0.00052013993 
0.050763436 -0.05742408 0.012819886 0.042746767 -0.045137174 -0.011384059 -0.044275433 0.042880647 -0.0013918281 0.019936875 -0.018065263 -0.013363052 -0.05704642 -0.029635344 0.018807925 0.05152438 
-0.023137614 0.0010298938 0.03657359 -0.055977423 0.024045661 -0.0023663156 0.05416371 0.00891725 -0.06288376 -0.0033339523 0.042847447 0.028912686 -0.0552623 0.01116249 -0.060028166 -0.040096965 
0.033416808 0.014816888 -0.033971433 -0.053529836 0.024501778 -0.0060867183 -0.034139965 -0.033220105 -0.042402312 0.0061293393 0.04821051 0.001105547 -0.0018342286 -0.007608719 0.016608037 -0.047142003 
-0.0020112582 -0.040826153 -0.033534966 -0.019222569 -0.0033784732 -0.02050522 -0.039872635 -0.038822412 0.041604526 -0.0026224218 -0.058148865 0.0094969645 0.0019146055 0.014482774 -0.0096992925 0.037018716 
-0.011448175 0.061103232 -0.063597076 0.058459572 0.020140678 0.029806696 0.010170355 -0.051420145 -0.0010016188 6.2935054e-05 0.022573337 -0.0056777596 -0.035802945 0.06261698 0.012705401 0.057656907 
-0.00031419098 0.035278447 0.024187684 -0.026307773 -0.042024087 0.03058286 0.013474293 -0.040375575 -0.04094766 -0.055284854 -0.0058483183 0.042349078 0.030115455 0.013417043 0.013356149 0.038663715 
0.011450872 0.006369069 0.058970228 0.0014370978 0.061141737 0.022995807 -0.063425675 -0.023275554 0.035166234 -0.048736203 -0.05072506 0.007097356 0.021546714 -0.033877708 -0.02176793 0.04759343 
-0.00044619292 -0.04689575 -0.05995147 0.04257741 0.016952492 0.061954983 -0.0052477084 0.015071675 -0.0039154105 0.04044997 -0.021543995 -0.019000143 -0.048024826 -0.055479787 -0.061761733 -0.050680142 
-0.00451668 -0.054726526 0.050293997 0.017574117 -0.017441656 0.04446934 -0.031888958 0.004267171 -0.021557081 0.042972177 0.020024896 0.049471498 0.059689462 0.05714921 -0.043999523 -0.054857105 
-0.03800772 -0.038046017 -0.0047094375 0.03056059 0.058319926 0.012827389 0.043824762 -0.0023523234 0.031721853 -0.00027824193 -0.039061703 -0.021593105 0.049715266 0.051252857 0.061570965 -0.041472085 
-0.06298731 0.03733127 0.04343991 -0.05835248 -0.034147773 -0.025590722 -0.03604042 -0.041280583 0.06257408 -0.009123247 0.00022703409 -0.06403359 0.042729065 0.05008605 0.031835474 -0.044701155 
0.06338609 -0.052159935 0.022701226 0.034177028 0.04859256 -0.050134934 0.0103641525 0.034906678 -0.010842502 0.062780805 0.010727271 0.026531398 0.05232083 0.04197275 0.04165574 -0.044200424 
-0.0616631 -0.0021877065 -0.009942681 -0.04386328 0.044204272 0.023972586 0.031141385 -0.00026272982 0.05978159 -0.025119629 -0.045048896 0.024076588 -0.058732763 -0.0035916045 -0.063567206 -0.031455778 
-0.0041744933 0.057759546 -0.06375486 0.036279514 0.04059124 0.048980936 -0.019798018 -0.05098187 -0.011750534 -0.025566187 -0.013860546 0.016211525 -0.02467106 0.026343934 0.006504953 -0.019920032 
-0.023467649 0.023544848 -0.054670513 -0.002180878 -0.030434337 0.028295591 -0.045313425 0.009449616 0.041131042 0.009874716 0.055470765 0.043436624 0.06338943 -0.035927564 -0.0093624 0.02471894 
0.055214986 0.04189218 0.059509896 -0.05148472 0.023497172 0.045929693 -0.06076438 -0.0009635985 0.004429981 -0.05791005 -0.037823115 0.03563489 0.036647335 -0.036028333 -0.030444387 0.008367486 
0.045847923 0.026533857 -0.019311905 0.047649458 -0.015527606 -0.028347183 -0.032603648 -0.03600122 0.011584409 0.013311826 -0.012937635 -0.025292303 0.030551352 -0.006154407 -0.050374866 -0.04493977 
0.002228424 0.0153699815 0.039778 0.06335015 -0.005593732 -0.04056169 -0.061335456 -0.036248244 -0.01558724 0.015789583 -0.025116347 -0.0075695366 -0.034551576 -0.05995756 0.04270205 0.011911549 
-0.05732345 0.02813258 -0.019415587 0.04098551 0.0068504736 -0.056316987 -0.048305616 -0.05439881 0.041172102 -0.031842824 -0.06325363 -0.05944434 0.060822703 -0.04741371 0.05624426 0.025574215 
-0.021034013 -0.06387804 -0.05826586 -0.051799648 -0.02790957 0.032494508 0.044432275 -0.005202882 -0.005190868 -0.045423225 0.052710973 -0.03572798 -0.004035633 -0.0077011697 0.020889446 -0.006799843 
0.05863145 0.055213265 0.03719165 0.011655733 -0.0044918396 -0.014926199 0.018612973 -0.046142995 0.048972443 0.04068376 -0.04793328 0.020951338 0.022117034 -0.028881744 -0.046780974 0.035405695 
0.016821228 0.042551972 0.003767237 -0.001157783 -0.008679941 -0.052094735 -0.043105636 -0.0507787 -0.007226076 -0.04922339 0.03656464 0.01687397 0.016958736 0.061112396 0.008833773 0.063237466 
0.039390117 0.0037025437 0.024440087 0.013308898 -0.0021259226 -0.055574052 -0.033683218 -0.009728413 0.032530576 0.0473188 -0.025559854 0.038934946 -0.027695395 -0.043026194 0.042199813 -0.046042353 
0.011733934 0.0024872571 0.0072648004 -0.059404958 0.045037203 0.04039952 0.045696557 -0.061099604 0.040309235 0.020080373 0.04101739 0.037815303 0.021633163 0.049136296 -0.04029675 0.043506324 
0.004933566 0.032471783 -0.043850366 -0.059761245 -0.043374382 -0.04263959 -0.034747306 0.038222663 0.0015631914 -0.0011094064 0.028532237 -0.05706644 -0.056268826 -0.015368342 -0.04151935 -0.031253353 
-0.028109 0.0045100525 -0.0035804063 0.03638169 0.008137882 -0.020862259 0.009653099 -0.011774283 -0.035111293 0.04856965 0.06326639 0.007599771 -0.05955979 -0.046481792 -0.020617586 0.023332857 
0.002026029 -0.03393288 0.015383579 0.020840272 -0.05567873 -0.035723932 0.047130853 0.04964368 0.0058355704 -0.025130216 0.05866529 0.012079418 0.039970964 -0.03799797 -0.0015232116 0.05675093 
-0.039790615 -0.039970316 -0.042556163 0.027704157 0.009834178 0.02692908 -0.0521903 0.015974425 0.057648897 -0.046043303 -0.035844 0.004232101 0.06081847 -0.047348246 -0.054920327 -0.01969532 
0.003236711 0.063080736 0.06395606 -0.03943789 -0.021932885 0.06111791 -0.03689058 -0.060872726 -0.063861914 0.04364018 -0.03705439 -0.05181364 -0.035470083 -0.039909422 0.06327099 0.0023553148 
0.017077528 -0.035791468 0.028726436 0.04298442 0.022714853 -0.031192586 0.015737727 -0.024896849 -0.0567488 -0.040313717 -0.05301611 0.014125638 -0.005719967 0.008085161 0.028273404 0.060409658 
0.046788417 -0.012164522 0.05409079 -0.061047025 -0.031909592 -0.02098415 -0.0272317 0.040098652 0.055548444 -0.02791942 -0.047176123 0.020474412 -0.0030920394 -0.06072291 0.036967263 0.002954714 
-0.03291552 -0.03137546 0.035595395 0.052675292 0.0019796863 -0.059395906 0.059058152 0.017789826 -0.049483404 0.016916715 0.04030031 -0.032663252 0.0022882447 0.053880267 -0.057241447 0.0316908 
-0.015082475 -0.034218792 -0.06277353 0.02480188 -0.01633938 0.04131461 0.024028182 -0.0031679496 -0.01343875 -0.03988523 0.014625944 0.04012361 0.015399195 0.06265908 0.040145673 -0.05285272 
-0.023760114 0.04622248 -0.0063894317 0.010196187 0.048800103 -0.061414573 0.04623968 -0.023335803 0.06367823 -0.03260615 -0.061099038 -0.010650497 0.04546074 0.04300137 -0.026005935 0.026062995 
0.01526349 -0.05803621 0.047848545 0.026990235 0.052531578 0.03444174 -0.0055174828 0.039163485 -0.00023901463 -0.0455934 -0.005075142 -0.063908644 -0.012674488 -0.033065412 0.047110736 -0.020920161 
-0.028155118 -0.02821242 -0.023336325 -0.019113917 0.029752739 -0.034677334 0.017477557 -0.04089541 0.0009841546 0.0024159476 -0.035657212 0.0063079 0.052378267 -0.017834764 0.053064317 -0.008126754 
0.05215121 -0.045185857 -0.0495099 0.0026714355 0.054075718 0.0019088835 -0.035297453 0.046865493 0.01844772 -0.013154767 -0.057885688 0.05610177 -0.050115988 -0.051197812 0.0008224845 -0.0023141988 
0.0029377118 -0.05595608 0.030572444 0.0104840845 0.053287357 -0.016052485 0.04836619 -0.061376803 -0.04226798 0.047455795 -0.032377984 -0.061440427 0.018578865 0.051230416 -0.018733636 0.0036987513 
0.023958258 -0.064267494 0.063194506 0.0627315 -0.045051537 -0.060130205 0.03401824 0.047690585 0.05350004 0.033812046 0.0023975968 0.0026017874 0.0010920241 0.016719237 -0.016982503 -0.043044142 
0.033556357 -0.024033308 0.016561195 0.052976377 0.0030416995 0.03453072 -0.04922859 0.050291955 0.056932934 -0.045432985 0.056331515 0.033046544 -0.06369364 -0.02433886 0.025652044 0.03443768 
-0.057948835 -0.0612919 0.03477457 -0.015787836 0.04430998 0.044988357 0.029242389 -0.0035037734 0.05604279 -0.0041007735 -0.034689255 -0.013655271 0.017350681 -0.044282153 -0.05063551 -0.00817246 
-0.0344669 0.019325301 0.043173566 0.027542174 -0.037304677 -0.045082986 -0.018062714 -0.056679502 -0.036792256 -0.05882267 0.012941331 -0.062677756 0.011819787 -0.042287648 0.032476604 -0.015401281 
0.0039860606 0.03983184 0.026544206 0.0027491003 -0.010707676 0.020163067 -0.030018616 -0.03794367 -0.049653795 -0.01893181 0.012114674 0.017330103 0.028056651 0.057632208 0.0027666688 0.0568467 
-0.042280234 0.027383722 -0.043990023 -0.050347697 0.008209571 0.011647008 0.040574588 0.03356073 0.051953882 0.038075686 -0.06190748 -0.04044679 -0.0006093681 0.03587708 0.043324456 -0.009590365 
-0.01127978 0.05228194 0.030363813 -0.05763086 0.024911068 0.017478168 -0.06219947 0.0075512603 -0.054397717 0.061829485 0.047991246 0.023537226 -0.01011942 0.031155087 0.059595935 -0.0014235377 
-0.053004712 -0.038173616 0.059451334 0.055580236 0.031061195 -0.058463514 -0.007586535 0.02965013 -0.054940272 0.023108006 0.011550814 0.043228388 0.035241485 -0.060808994 0.011578642 -0.015836503 
-0.04775757 0.008608922 -0.014084969 -0.049286507 -0.02679241 -0.057366256 -0.03328284 -0.0012575835 -0.006028831 0.023027241 0.03679867 -0.027437542 0.057618335 -0.012601905 0.025086641 -0.006836649 
0.051634118 0.0025060996 -0.06355521 0.0036896244 0.03957081 -0.018462405 0.011301592 -0.0050959177 -0.06086447 -0.050604105 0.01842416 0.063349746 0.023203872 -0.03497409 -0.029381987 0.004039943 
0.031575978 -0.026429404 -0.055418972 -0.042279854 0.06015957 -0.015933279 -0.052901015 -0.057714164 -0.012531348 0.03971719 0.01674404 0.0077909827 0.059489742 -0.05314376 0.0016178712 -0.035317983 
0.044599757 0.0075203627 0.027510889 -0.012241337 0.054718025 -0.05477228 0.0031577647 0.010201775 0.0150879845 -0.051389065 0.044879876 -0.0427866 0.04029294 -0.0051055364 -0.022245783 -0.016988177 
-0.0017477125 -0.06397339 -0.018052943 0.035247914 0.00036987662 0.008327886 -0.012942698 -0.06153918 -0.03682659 -0.035200402 0.03090962 -0.042535096 -0.023399364 0.053067878 0.040760033 -0.02650458 
0.022738695 0.027224883 0.024823867 -0.008686509 -0.058198772 -0.0046963803 -0.03411887 -0.027683306 0.0014537126 0.055913903 -0.026939359 0.04675907 -0.033074725 -0.018950481 -0.03387142 0.04547178 
-0.019407839 -0.022016406 -0.029444534 0.009091601 -0.046202492 0.043595716 0.02165521 -0.054247968 -0.025730118 0.04952392 -0.029970214 0.045547158 0.060997687 0.03534676 0.022363812 0.043992646 
0.006100446 -0.056982305 0.03342378 0.032406226 -0.02341742 -0.012455896 0.012235172 0.025348105 -0.017030906 -0.030108795 -0.033898525 -0.042360477 -0.023461267 0.012151189 -0.024256382 0.06256393 
0.020362802 -0.0026300624 0.02998744 0.019845314 -0.036624826 0.057082646 -0.042595133 -0.0011230484 -0.054303933 0.050668836 -0.022906013 -0.036165185 -0.05767572 -0.0164158 0.04533582 -0.048714176 
0.014943264 0.056862958 -0.040877596 -0.0008772239 0.024861515 -0.044956554 0.0005540773 -0.03073883 -0.037092697 0.010893211 -0.02675283 0.007728033 -0.039149888 -0.06018226 -0.056248683 -0.051311173 
-0.025507443 0.0106608495 -0.053609706 -0.05812869 -0.02636839 0.047783665 0.035024814 -0.01507356 -0.007242568 -0.015023407 -0.05021043 0.017246172 0.06189505 -0.060694467 0.055317335 0.05184512 
-0.047885645 0.052625045 -0.029956896 0.009384014 0.020068206 -0.03028236 0.051969647 0.0038619265 -0.0072234347 -0.05961215 0.03620059 0.039809115 0.037724003 -0.047572132 -0.019185625 -0.015317973 
0.05891905 0.047724433 0.023832195 -0.043728918 -0.013700973 0.028111652 -0.04176396 -0.05716144 -0.019344814 -0.032043174 -0.03776437 -0.023683269 -0.012220733 0.039422944 -0.04575047 0.059827305 
-0.0135264285 -0.039227992 0.031018056 -0.01267495 0.00978817 0.026276201 0.017729193 -0.049220398 -0.051040094 -0.062148932 0.021148436 -0.048452944 0.0032199621 0.04978414 0.034991793 0.022684827 
-0.004742574 -0.011711121 -0.033708684 -0.011194292 -0.056219824 -0.012968302 -0.054360896 -0.02811506 -0.060722344 0.015780978 0.057063356 0.0061206967 -0.047239747 -0.050503217 -0.00989202 -0.061812237 
0.050359383 -0.011236593 -0.048945226 0.004460849 -8.286536e-05 -0.0052895024 -0.022341225 0.053351223 -0.010764919 -0.010167118 -0.057717986 0.008515812 -0.041620165 -0.06148455 0.009064719 0.0638094 
-0.013740126 0.058324486 -0.03387338 -0.04488667 -0.005792856 -0.06287372 -0.0029041134 -0.060287476 -0.058541052 -0.016778529 -0.054749157 -0.051432207 -0.048090182 0.062717505 0.04809566 -0.011588044 
0.022448622 0.06010682 0.053105235 -0.035723273 0.0113776475 -0.035145216 -0.022319395 -0.019881386 0.046125397 0.011259802 -0.009850383 0.03546132 -0.0463024 0.042364 -0.019568302 -0.051136382 
0.036377452 0.05053912 -0.013848793 -0.0054532923 -0.025756031 -0.048434675 -0.012924917 0.036190003 0.06214384 -0.007839937 -0.022067972 -0.04346562 0.037581325 0.047807798 -0.033507936 -0.014841758 
-0.055262223 -0.020202462 0.02204588 0.048165344 -0.011083201 0.043870017 -0.00032743067 -0.05268508 -0.05248402 -0.039215274 -0.056332372 -0.019976337 0.010836199 0.035424918 -0.0069963597 0.043273017 
-0.0113221705 0.019026868 -0.026196577 0.056012236 0.038396724 0.0074675605 0.021253191 0.050476097 0.030595459 0.057377867 -0.059367847 -0.052474186 0.03592632 0.058141902 0.01432357 -0.05583095 
-0.06388655 -0.022143438 0.036684506 -0.024183553 0.012562446 0.050408497 0.006046355 0.056606747 0.05266007 0.009025566 -0.03810691 -0.022154376 0.05939012 -0.044170782 0.030793644 0.0024072006 
0.03885512 -0.052750513 0.056580976 -0.042642877 0.034221433 -0.023273788 0.00434269 0.062816314 -0.014297977 -0.015273467 0.037591957 0.004398927 -0.051257797 0.052928418 0.029251762 0.037509598 
0.013626523 0.0041013584 -0.021779604 0.00585036 -0.006116051 -0.01152011 -0.045879435 -0.041265257 -0.035888076 0.007838495 -0.035391748 0.02351217 0.020114258 -0.029265232 -0.0089777745 -0.053370617 
-0.029891476 0.042796895 0.0011234507 -0.050315157 0.038279966 -0.05730177 0.015290007 -0.017841253 -0.049316145 0.007926144 0.030203104 -0.006277479 -0.018914886 0.05641088 -0.0047220923 0.0005186051 
0.025507718 -0.058697753 -0.028938033 0.019593142 0.02366539 0.0012224764 -0.06408592 0.006725818 -0.04905165 0.027839348 -0.055977605 0.043613866 -0.0030439869 -0.031970408 0.012592912 -0.003766302 
0.047968708 0.056924865 -0.012448732 0.03809557 -0.0070662275 -0.006944027 0.023625568 -0.010631412 -0.0307917 0.021131054 0.035134323 -0.025953572 0.0059443265 -0.039443105 0.038248055 -0.055399828 
0.03868279 -0.033295527 0.009836681 0.03394317 0.010595925 0.0027233586 -0.007153198 -0.03016587 -0.054883905 0.0530693 -0.04775226 -0.020972505 -0.021848932 -0.034025542 0.038290158 -0.0065848865 
0.026234083 -0.044840045 -0.049806736 -0.037047513 -0.036361896 -0.034905083 0.060001366 -0.021997888 -0.04963779 0.0046871156 -0.039018285 -0.056184478 0.010407232 -0.02354706 0.0127390325 0.047672234 
0.00010107458 0.0601303 0.011946984 0.043658637 -0.03824023 0.045672484 -0.054045282 -0.043123245 -0.0349956 -0.0060108528 -0.039113864 -0.032807052 -0.030680131 -0.06376488 0.0064567327 -0.055027187 
-0.031416316 -0.063352264 -0.047119193 0.0011901855 0.033146493 -0.040751256 -0.04079297 0.049255177 0.036533162 0.006047383 -0.051625773 0.006296076 -0.051625837 -0.02237283 -0.061498202 4.7266483e-05 
-0.033922136 -0.0040623583 -0.02730801 0.04416345 0.0031954125 0.028581038 0.018360123 -0.03082795 0.036050364 0.04866284 0.036741793 0.05118379 -0.028216425 -0.059245035 0.023496188 -0.024956666 
0.031779014 -0.001962226 -0.061914355 -0.008727547 -0.03147061 -0.055287644 -0.01157077 -0.0056243576 -0.017725866 0.03697914 0.005269192 -0.010242354 0.002514124 -0.047448583 0.0014183223 0.026780799 
-0.014204528 0.025185585 0.010587014 0.053001903 -0.019541912 0.028856553 0.03404607 0.050473914 -0.044990413 -0.017549112 -0.058880094 0.012503229 0.055899747 -0.046876434 0.06376239 -0.05484865 
0.0025286227 0.041861877 -0.031860758 0.003237605 0.05577302 0.04392399 -0.05776697 0.03461104 -0.014508329 -0.04360839 0.04338549 -0.023703534 -0.019752022 -0.060534835 0.046706855 -0.013874739 
0.026078455 -0.010054998 -0.044862706 -0.04302239 0.037794515 0.032521002 -0.037928052 -0.06353002 -0.007976666 -0.03438996 -0.007047385 -0.048953123 -0.045597818 -0.023551878 0.020439588 0.014165267 
-0.0522723 0.0019838586 -0.019584764 -0.011127435 -0.014293205 -0.021150503 -0.023362357 0.009753592 -0.045389183 -0.05468724 -0.043846317 -0.021664277 0.046264075 0.013267547 0.039545126 -0.03942141 
-0.023082905 -0.024648845 0.041833878 0.0178006 -0.045642845 0.03142684 0.03328146 0.043373168 -0.023993328 -0.04147633 0.04167621 -0.05424597 0.010955662 -0.06428738 0.040699765 0.022612564 
-0.008503202 0.017881729 0.06294767 0.039884843 -0.003218703 0.055690512 -0.007804744 -0.028555851 0.035518073 0.028467238 -0.019851316 0.024498388 -0.014981937 0.06406475 0.04848624 -0.009719178 
-0.045218103 0.058212414 -0.022335935 -0.031241495 0.055512838 0.0167057 -0.049540706 -0.022622552 0.05854401 0.051712394 0.0515261 0.0077669397 0.04210221 -0.055539973 -0.0594232 -0.059272725 
-0.01455465 -0.034141973 -0.02447315 0.05026821 -0.0076752417 -0.053708065 0.03476409 -0.0544323 -0.05549513 0.0067884326 -0.009987969 -0.058103055 -0.043244205 0.044997305 0.05533941 0.047090918 
0.062136836 0.010028839 -0.05993211 -0.010151684 -0.027713653 -0.046896532 -0.03897835 0.037648372 -0.044647276 -0.037450306 -0.05908319 -0.054705784 -0.055835616 0.06183035 0.035021834 0.014509328 
-0.003974233 0.019247182 0.06381645 0.016144596 0.025549434 -0.0019515604 0.031869933 -0.006772872 -0.049237028 0.021654323 0.008864418 0.0005206764 0.035503037 -0.04680902 0.0147623345 0.0539188 
0.018961959 0.012169704 0.051469505 0.027776629 -0.023453567 -0.009737387 0.014627337 0.04902029 -0.014725067 -0.04060316 0.016598858 0.019854307 -0.008594226 0.04281596 -0.0026815347 0.06066189 
0.005607158 0.024642937 -0.03125294 -0.045364544 0.032692954 0.03441535 -0.059106864 0.013113685 0.010768123 -0.04075403 0.037957907 -0.038911935 0.055968538 -0.033719793 0.009165533 0.050683394 
0.05816468 -0.035789378 -0.013218652 -0.035699554 0.061056398 0.052848883 -0.008725647 -0.023150194 -0.03445331 -0.041833997 0.028821558 0.006115712 -0.008942258 0.012092657 -0.060415965 0.0047547296 
0.0013841242 -0.05819532 -0.032351673 0.055883467 0.015159048 -0.045358025 0.035142258 0.027255006 -0.005927913 -0.061228245 -0.060837638 -0.037428148 0.00223241 -0.009805169 0.020271257 -0.063038096 
-0.0007371828 0.056396224 0.056180842 0.052500434 0.050716452 -0.025379278 -0.027055878 0.029917285 0.04078085 -0.0021227337 -0.004234541 0.046588816 0.061881997 0.016907237 -0.036451973 0.011708468 
0.012305409 0.02286262 0.034572437 -0.013930827 0.035519607 -0.028278604 0.055027433 -0.051285446 0.004290171 0.047825135 0.034854487 0.0074857846 0.039895907 -0.047451742 0.059442073 -0.040377066 
0.049981423 -0.05213614 0.032498896 0.026434928 -0.028087214 0.010470569 -0.05916771 0.037298925 -0.047611713 -0.0401315 -0.02968347 -0.02323071 0.03134042 0.029930815 -0.012157664 -0.011577796 
-0.05385886 -0.026615396 -0.04005789 -0.01984892 -0.061801437 -0.022482526 0.02724994 -0.009529028 -0.045982365 -0.02812431 -0.038073555 0.05963791 -0.039026953 -0.00027243048 0.02469872 -0.008081175 
0.05093187 -0.061022386 -0.05520495 0.036237992 -0.03822182 0.020479418 -0.0037188195 -0.023713905 -0.016624574 -0.042483933 -0.026996952 -0.019243818 -0.012292996 0.021531388 0.013444088 -0.059854142 
-0.0012476221 0.0004473254 -0.011076052 -0.03217114 -0.013582073 -0.054413274 0.055261977 0.022156246 0.006394051 -0.05346158 0.035734653 -0.05498981 -0.059963316 -0.05842447 -0.027639564 -0.021716993 
0.020727754 0.044663586 -0.022830714 -0.029844023 0.024756499 0.061613165 -0.042131267 -0.055492662 -0.022121254 0.048724495 -0.055258986 0.0007073879 0.0014674738 -0.013892934 -0.023188073 -0.04085219 
-0.02647755 -0.026756834 0.022211619 -0.011025809 0.03762815 0.04386706 0.031579062 0.045521908 0.025913395 0.051319852 -0.027149849 0.021451592 -0.04135987 -0.037818648 0.023302756 0.025262833 
-0.00043466687 0.043068066 0.014169164 -0.03456101 0.021789834 0.046445124 -0.01744201 0.0638155 -0.008434545 -0.042566072 0.005153246 0.0075595304 0.03980755 0.022943519 -0.025299806 -0.027085442 
-0.005328778 0.013241097 0.035903312 -0.0065428503 0.0155264065 0.06314806 0.051386684 0.056267925 -0.05629038 -0.061460417 -0.060250916 -0.0068400092 0.021062024 -0.016983148 -0.04878266 -0.023185264 
0.0022379383 -0.05070863 -0.061893214 0.049231887 -0.0020354353 -0.027995467 0.024991184 0.050590113 -0.032052733 -0.055861283 -0.028644543 -0.03709242 -0.028440908 0.058945253 0.06265918 -0.031626087 
-0.05680813 -0.018450085 0.0035761222 -0.05401911 0.0019827187 -0.006878365 0.018767662 -0.05660549 -0.00049981475 -0.01960868 -0.057752736 0.054843023 0.034881778 0.053189367 0.049036138 0.054542683 
0.047885187 0.06272323 0.058835328 0.055356517 -0.057819333 0.01194036 -0.013387721 -0.060488746 -0.0032251626 -0.031856526 -0.04454057 0.0002507493 0.028354809 -0.05902098 -0.029924832 0.041295037 
0.017389007 0.0034656152 -0.004134696 0.037587583 -0.030820388 0.03185539 0.00039692968 0.06299395 0.032943584 0.008048512 0.025812075 -0.021251027 0.024699531 0.035387985 0.017793022 0.048528507 
-0.019371003 -0.053478442 -0.030029465 -0.020285938 -0.026673634 0.032957554 0.056768484 -0.01721587 0.053025596 0.012225732 0.04021407 0.023921177 0.0114237815 -0.020326056 -0.017272528 -0.006794598 
-0.04431658 0.021195889 0.014613807 0.03435021 -0.006967008 0.009592593 -0.06337309 -0.06412974 0.05257836 -0.044328623 -0.001269117 -0.0064178444 0.05092945 -0.061239444 0.06152416 0.010367349 
-0.05316496 0.047534302 0.048015192 -0.0401251 -0.006948922 -0.033180386 -0.023177367 0.027619377 0.04502467 0.032062 -0.036591936 -0.029629726 0.058590285 -0.054823596 0.0073374435 -0.061326403 
0.018753424 -0.025910448 0.016283564 0.0007529557 -0.00549981 -0.03771857 0.019305803 -0.007871158 -0.032166615 -0.023579296 0.0076643974 0.029905595 -0.031334054 -0.008818418 0.041153908 -0.04531996 
-0.061638888 -0.029534776 -0.0532573 0.042523667 -0.025735427 0.017167404 0.0058254153 -0.0060898326 0.050148696 -0.047465242 0.0049506426 -0.03633003 0.02372931 0.0092882365 -0.0056875497 -0.01442771 
0.002907537 -0.015547384 0.04298687 -0.058132708 -0.025373586 -0.04484787 -0.038370334 -0.026016276 -0.0103564225 -0.053892322 0.06203989 -0.04357791 0.003642358 0.03322342 -0.038076304 -0.004426148 
-0.0246179 -0.062692575 -0.046274845 0.040925413 -0.027092855 -0.030637756 0.057749666 -0.04615576 0.042459384 0.05720967 -0.008541372 -0.046970405 -0.051336884 -0.061280854 0.030311942 -0.02443533 
-0.035108395 -0.06359421 -0.061335042 -0.062495034 0.042798795 -0.0049396753 0.061576687 0.06171065 0.046362676 -0.048960704 -0.003724143 -0.05342967 0.044537812 0.019069366 0.054931432 0.0052111372 
-0.027268168 0.02390077 0.05242169 0.047056273 -0.0345625 0.028631836 0.017154887 0.017911263 0.04190793 -0.04078234 -0.0027225278 0.036406204 -0.03353095 -0.031912126 -0.004754357 -0.009760447 
-0.053155817 -0.043397933 0.011101507 -0.03565394 -0.06200056 -0.0024734177 0.01580783 -0.040185086 -0.0012789369 0.047581658 -0.010897011 -0.018185683 0.04226592 0.045777857 -0.06270593 -0.024500426 
0.00696598 0.03260248 0.011609435 -0.03255064 0.027500398 -0.023939446 -0.025409777 -0.009934656 0.0570125 0.013564751 0.045247912 -0.027145691 -0.014981709 -0.0052056722 0.0038618967 0.04744169 
-0.019502468 0.020765744 -0.057551876 -0.025967672 -0.024782844 0.012654513 -0.06283116 -0.013062548 0.0014514402 0.0072365403 -0.021445226 -0.04429895 0.040023126 0.02322781 0.03295578 0.04707732 
-0.03169804 0.0227388 -0.03557355 0.016724661 -0.01085519 -0.043036215 0.03873191 0.039855376 -0.0474646 -0.048072405 -0.023968857 -0.04555997 -0.029449612 0.04114241 0.01378414 -0.04342989 
-0.049462385 0.025984213 0.032862358 -0.04957943 -0.014184862 -0.03669057 -0.05947817 0.05465301 -0.054798774 -0.059365775 0.06369675 0.048046306 -0.039849542 -0.02122378 0.033272117 -0.016795915 
0.060471147 -0.014650121 0.020769961 0.03056188 0.05627513 0.011828624 -0.026290454 0.016266584 -0.019391686 0.05172427 -0.023942318 0.021876335 0.043473706 0.057336077 0.008500762 0.043555066 
-0.05846121 0.04627969 -0.05228628 -0.02662414 0.04164893 -0.027251244 -0.04005198 0.02104891 -0.060876146 -0.059058506 0.02354528 -0.035551257 0.04360017 0.040632814 0.050709963 0.0062755495 
-0.057982586 -0.0019246824 -0.005468834 0.01097323 -0.014248546 -0.04552514 0.025025047 -0.018649913 -0.061882105 0.052693807 0.0197611 -0.030540612 0.031752504 0.01669427 0.04940459 -0.028216425 
-0.035481114 0.009656861 0.009896867 -0.060813583 -0.034258127 -0.05048542 -0.051285338 -0.052773234 0.020903103 -0.032848306 -0.033257388 0.019466504 -0.03854023 0.04736357 0.02521173 0.00988581 
0.0034817383 0.021264069 0.03178569 0.037000895 -0.029448938 0.017291263 -0.004194759 0.022469841 -0.036107175 0.05256334 0.04293126 -0.030170672 0.024794199 -0.05381489 0.05732721 0.046786547 
-0.059961397 0.044054247 -0.030966565 -0.06016434 0.040911928 -0.044645526 0.04266636 0.041806243 -0.01767921 -0.048791666 -0.03586804 -0.03972607 0.040988162 -0.049426578 0.036679126 0.06417813 
-0.04714202 -0.055194706 -0.0388193 -0.018032417 -0.006800212 -0.023098398 0.022526741 0.06417995 -0.055658445 -0.030678611 0.02398523 0.010345481 0.025681838 -0.030996714 -0.01146666 -0.009055499 
-0.010982882 -0.008866914 0.04162725 0.057611145 0.0019413605 0.06397431 -0.04889458 -0.03559199 -0.028650634 0.004886128 0.030391194 0.024953924 -0.058254033 -0.0009034425 0.040791422 -0.031211607 
-0.059732202 -0.020064216 0.050140977 -0.024212442 -0.03597577 0.03916563 -0.009363074 -0.025199898 0.029455736 -0.02715617 -0.040010557 -0.009641871 0.045864873 -0.0046089627 -0.022060283 0.06212149 
-0.045034796 -0.018418942 -0.06374071 0.044650927 0.047558002 -0.018439744 -0.028376378 0.014265083 0.042928606 0.050989896 -0.055840172 -0.021996751 0.04620208 0.016016297 0.033651166 -0.021514047 
0.0053697377 -0.0009310916 0.055005 -0.02694571 0.053358607 -0.009320684 0.03714066 0.032588303 0.048511088 0.0074336976 -0.014919527 -0.05242201 -0.05685259 -0.061094526 0.0054348707 -0.0038936734 
0.056808345 0.030230395 0.032496564 -0.041642345 -0.035161372 0.06022141 0.023218714 0.03326256 0.005994402 0.032099575 0.011330426 -0.038047843 0.05473099 0.040476218 0.027237758 0.03265503 
-0.033400986 -0.030587956 0.04491628 0.041841976 0.009250604 0.062392913 -0.046226703 -0.04550221 0.0052883476 -0.034857325 -0.06181595 -0.005933404 -0.01342494 -0.024538275 0.034493826 -0.03778712 
0.021161906 0.04233297 -0.015664719 0.060116455 0.0086781755 0.06094303 -0.025686853 -0.02980955 0.053987168 -0.033184774 0.015294544 -0.011338938 -0.05413356 -0.0065883845 -0.04349468 -0.04993733 
0.009837203 0.050990216 0.04448218 -0.008615613 0.019470155 0.059937157 0.045184627 -0.02947031 0.040487617 0.022656292 0.007862985 0.015032552 -0.060197894 -0.008346513 -0.032003224 -0.046452656 
-0.06316005 0.04960441 -0.03378673 -0.045306012 0.047771744 0.02632425 -0.015822664 -0.031085115 -0.061628565 -0.061277833 -0.040395103 0.023034684 0.026701204 0.027931213 0.0367437 0.043515697 
0.05445674 -0.014009684 0.03640803 0.035185456 0.05603294 -0.055240117 -0.061876215 0.0072022825 0.044315673 0.021821976 -0.049021658 -0.032909553 0.033535212 0.003711395 0.026235834 0.017515525 
0.041467875 -0.037917376 0.0077956617 0.057860248 0.047040135 -0.024902217 -0.02604466 0.049968794 -0.03770768 0.022403963 -0.060140837 -0.0012619421 -0.0060544685 0.056469902 -0.04070983 0.021947354 
0.027905762 0.023629062 -0.02750339 -0.03074713 0.024241224 0.012502842 0.051434398 -0.04096204 0.00017517805 0.019003443 -0.013928451 -0.02742045 -0.048357688 0.0065592676 -0.014190998 -0.010147449 
-0.004833184 -0.039808337 0.030674882 0.007768534 0.044321917 0.035679027 -0.03377553 -0.001159437 0.058294073 0.028849326 0.0052529573 0.025603712 0.028947085 -0.042412207 -0.053799674 0.037649445 
0.053185076 -0.042527795 0.03194069 0.030159228 0.025423788 -0.038784735 -0.031554565 -0.018172134 0.030067831 0.030384064 -0.035239078 0.03171561 0.028478615 0.01182273 -0.021506991 0.006933488 
-0.009331316 0.015597194 0.06360512 0.03216666 -0.04243967 0.040595733 0.01793757 -0.05392488 0.061414294 0.052266963 -0.049747456 -0.017747145 0.0075844005 -0.017434645 -0.006005112 0.040206596 
-0.042430878 -0.06398836 0.057871386 -0.03519942 0.016258195 -0.04372005 -0.038051665 -0.032971624 -0.057991102 0.010398276 0.048262186 -0.053809322 -0.022311464 0.05274675 -0.06418341 -0.024995543 
0.0056818128 -0.044286445 0.024122752 0.009067528 -0.027412549 -0.00085423887 -0.025748864 -0.04006522 0.05306229 -0.0009965226 0.0570208 0.04584243 0.021240458 -0.03201384 -0.062550634 -0.027042653 
0.028436027 0.041117758 -0.05146378 0.03977555 0.011826463 0.044482253 -0.0021437034 -0.03447267 0.044333547 0.009763882 -0.005004633 0.042325832 -0.030826297 0.028223634 -0.04594958 0.03243774 
-0.038812168 -0.009443775 0.020385124 -0.0077946335 0.0028904602 -0.040579423 -0.040963635 -0.0102263205 0.022837691 0.05653987 0.008890189 -0.038908638 0.0458372 0.0068818033 -0.0632432 0.03574992 
-0.025893293 -0.03330616 0.0337004 0.03818571 0.017993234 -0.014671631 0.011841387 0.020059906 -0.026198018 0.059807472 -0.0213872 -0.037450813 0.020191342 0.021953948 -0.03487512 0.054766633 
0.0079648495 -0.03261029 -0.0013061687 -0.010930456 0.05407083 0.0624445 0.018845476 -0.023459658 -0.005003419 0.023684666 -0.038996175 -0.05452478 0.018795907 -0.02526395 0.029496603 0.02972442 
-0.050674327 -0.058074027 -0.008022752 -0.027642082 -0.053646084 0.015029684 -0.03525071 -0.039566055 -0.008600701 -0.047847845 -0.024733856 0.037015878 -0.03169896 -0.019700993 -0.060646035 0.039790154 
0.025700815 0.06427366 0.00057917833 -0.00765381 0.021872975 -0.05254125 0.022064291 0.02056142 0.037707403 0.05112613 0.064122654 0.03708311 -0.045440193 0.017870419 0.012678772 0.050501175 
-0.018373083 -0.03232418 -0.012040358 0.052145913 0.022331007 -0.06350518 0.052838847 0.0015040487 0.040920816 -0.040799983 0.052437916 -0.032761056 0.05330672 0.009511858 -0.0016021207 0.028360732 
0.05898212 0.027744815 -0.041179664 -0.014085919 0.059828088 0.020809114 -0.013079271 -0.04772216 0.04075647 -0.0027583502 0.06414669 -0.055539146 -0.02784076 0.051301464 0.039715484 -0.055509813 
-0.059325792 0.0026516765 0.007573843 -0.050177827 0.0571474 -0.02960331 0.049013063 0.013555534 0.009628199 -0.0023097806 -0.042838424 0.010725841 -0.015812598 0.048403285 0.0034096017 -0.036013417 
0.055966526 -0.038051277 -0.010855097 -0.052751523 -0.016572658 0.00927753 -0.033200055 -0.00638742 -0.052923616 -0.022984225 -0.040556654 0.042134874 0.0069867373 -0.010687303 -0.028826099 0.0016331673 
0.03500355 -0.046733767 0.05065877 -0.045188647 0.015803486 0.0043669418 -0.007907029 0.0016272143 0.054151528 0.0064832643 0.03441316 -0.0064908564 0.04083444 0.014630161 -0.05883858 -0.041071378 
0.06299143 0.033526145 -0.010887701 0.005573161 0.037419148 0.015538439 -0.002028212 0.023289472 -0.029345088 0.04887683 0.0060588866 0.044516973 -0.012385692 -0.0013494194 0.03252192 -0.017935898 
0.036076657 0.009912536 -0.041187428 0.014937967 -0.060024682 0.0252923 0.010115169 -0.042825967 -0.05680406 0.06243079 0.04507412 -0.027118474 -0.051151767 0.0456604 -0.063829035 0.040096655 
-0.054980636 0.009474702 -0.052706942 -0.044224158 0.028039604 -0.033434663 -0.0016891658 -0.052744005 0.029058821 -0.045576125 0.05684337 -0.06069895 -0.025617938 -0.04476074 -0.0075211637 -0.05437782 
0.009577297 -0.016217567 0.010945864 -0.05301846 -0.030346643 -0.025646888 0.04369346 0.024287157 0.05530998 0.037971303 -0.014212538 0.011077575 0.007882066 0.049741887 -0.037137493 0.05034782 
-0.01104879 0.022233881 -0.04443413 -0.019736711 -0.060558554 -0.0076889433 0.033308797 -0.020882096 0.029245637 -0.030386716 -0.02067817 -0.012916647 0.042710505 0.048826493 0.033344805 0.012952611 
-0.04688935 -0.027668517 -0.038064934 -0.047362667 0.030258246 -0.005299628 -0.01884241 0.0030199438 -0.0052401014 -0.013160784 -0.03935498 -0.023551494 0.03952176 0.040562533 -0.05840653 0.010745265 
0.06034094 0.049716406 0.030351862 0.028732792 -0.015458245 -0.017349407 0.010285586 0.03980933 -0.049375396 -0.032307565 0.022023328 0.00053837895 -0.0355452 -0.00325175 0.031333365 -0.0038901903 
0.036717802 -0.06357051 -0.04935691 -0.047487076 0.056589186 0.0060158074 -0.020094853 -0.05166947 -0.04676921 -0.03063004 0.04518403 0.046780564 -0.041329585 -0.022016346 0.008003451 -0.005392138 
0.006551981 0.02587013 -0.03225164 -0.036638163 -0.035796437 -0.010198478 0.018933758 0.015115641 0.04691764 0.04503207 -0.024716396 0.051024906 -0.055292603 -0.034543917 -0.007323589 0.055132642 
0.0038989186 -0.019903984 -0.015577313 -0.062477313 0.018611081 -0.020435125 0.043391377 -0.062989295 0.033517465 -0.049456496 0.014741577 -0.016055722 0.06055527 0.06269816 -0.04494209 0.0046800226 
0.054874152 0.05038444 -0.036623 0.02008763 0.061758004 -0.031834815 -0.00963122 0.030551799 0.04022719 -0.061793998 -0.009224523 -0.030381072 -0.013535786 -0.025508273 -0.0327565 -0.014829177 
-0.0029160492 -0.015695937 0.0030666962 0.042727977 0.033492275 -0.061871246 0.045069605 0.055758737 0.049944997 -0.026495084 0.04449384 -0.02507003 -0.049577422 0.018376552 0.05593054 -0.04464951 
-0.0076326504 0.052431814 -0.018182077 -0.015967462 0.03688845 -0.058253266 0.007958069 0.05194871 -0.0010963678 -0.016586095 -0.05318121 -0.03797207 -0.05394341 -0.004176073 -0.006771844 -0.0497373 
0.061211802 -0.010657661 0.059300877 -0.047763508 0.029465936 0.04934168 0.041454144 -0.037929617 -0.039958626 0.04139749 -0.023204397 -0.03137658 -0.0034938157 -0.0067885816 0.029934525 -0.035616383 
-0.063458845 0.042977422 0.05578261 0.06219373 -0.035802193 -0.052079346 0.015225448 0.04267686 -0.03571546 -0.036966726 0.018305317 -0.0026211776 -0.058490593 -0.0047452897 0.016852587 0.010931298 
-0.055578604 -0.029629834 -0.02919374 0.014924541 -0.008445438 -0.047798827 -0.022230212 0.05543016 0.029148541 -0.058655426 0.013433024 -0.027623028 -0.0067345165 -0.048412472 -0.032732934 0.041509397 
0.039562173 -0.024504233 0.055497862 0.014741741 0.03227683 0.008293003 -0.0128878355 -0.034143124 0.04471065 0.003854677 -0.04484006 -0.022930313 -0.002107419 0.056512043 -0.021021571 -0.00591645 
0.03913737 -0.013234086 -0.035040326 0.048585884 0.03477224 -0.0062628724 0.023816407 -0.02437568 -0.014894627 0.0026013851 -0.062053937 -0.04038544 0.02059488 -0.050207376 0.029941678 0.037224866 
-0.038558763 -0.0139018 0.0029155612 0.026215523 0.0013060048 0.0064643323 -0.038212616 -0.037712928 -0.06221162 0.05464907 0.004899524 0.0049610436 0.0107826665 0.043959767 -0.041967936 0.029651955 
0.03775526 -0.051968977 -0.06409382 0.052516162 -0.052930687 0.048521742 -0.0029535927 -0.021078598 0.000107727945 0.022362538 -0.06380438 0.010359935 0.06271965 -0.035130657 -0.018809486 0.026462667 
-0.003078647 0.03237252 -0.04982823 0.013471089 -0.05164566 -0.03471323 -0.018556435 0.03669308 0.0073508024 0.012384936 0.017211065 0.010982588 -0.041054368 0.001439184 0.024888583 -0.038709957 
0.058613263 -0.05503782 0.037612803 0.019460082 0.051083818 0.019227587 -0.031784173 -0.05302656 -0.060706235 0.0107584 -0.0027515702 -0.0015192702 -0.052831087 0.0257207 0.052771546 0.032393567 
0.0043507293 0.039655082 0.025560401 -0.049375888 0.048173122 0.043446936 -0.036536336 0.045986034 -0.010793254 0.041414395 -0.03276824 0.028743006 0.056438096 -0.016685206 0.0032159835 -0.024475697 
0.00431142 0.04720983 0.011310801 0.045396745 -0.046471573 -0.046868965 -0.05818148 0.026116364 -0.021581735 -0.024547696 0.031595618 0.011790529 -0.053023614 0.00071677566 0.03196077 0.010243624 
0.0028873906 0.0616341 -0.0037545525 -0.0072930716 -0.043646134 -0.062154043 0.049140207 -0.05881423 -0.033633217 -0.0066500753 -0.04544196 0.053585254 0.029289506 0.017138824 -0.0586131 0.00041205436 
-0.021764461 -0.021547355 0.032874145 0.019567274 0.014269352 -0.002936963 0.008246057 -0.056497313 -0.03857742 -0.042202592 -0.035624452 -0.007476855 0.042048007 -0.049164474 -0.015165813 0.012490705 
-0.06403178 -0.003505841 0.0060364753 0.008283906 -0.0040487796 0.040103853 0.002306588 -0.020054366 0.037590496 0.033838123 0.02064775 0.038018927 -0.008273624 0.054448165 -0.03498035 -0.06208695 
-0.020210914 0.05759711 0.03187099 -0.0565006 -0.010014202 -0.04923758 0.030103534 -0.058725387 -0.048907008 -0.0030198842 0.005487308 -0.047437966 -0.03443235 -0.051042195 -0.05914315 -0.046535045 
0.042298205 -0.03909558 -0.06180747 -0.009465497 0.049592376 0.014369704 0.027895547 0.045539103 -0.03493365 -0.01656856 0.011722133 -0.011433199 -0.028369721 0.051619865 0.037321694 0.04272841 
-0.053168457 -0.037375234 -0.021072797 -0.02018876 0.024826474 -0.024943259 0.016421907 -0.029740911 0.04327119 0.049965806 0.010709457 0.0029044375 0.013757862 -0.040776215 0.06179171 0.05853585 
-0.02666679 0.038739644 -0.037802175 0.047687367 -0.021410935 -0.00846098 -0.0031860992 -0.02674571 0.021147668 0.04352133 0.03622991 -0.04103229 -0.059293974 0.046541996 0.03528375 0.034711026 
0.051792145 0.027234599 0.031417467 0.04763534 0.05131136 -0.060372837 0.020668015 -0.063857384 -0.02534017 -0.048527062 0.044351973 -0.051905215 -0.015031062 0.03876227 -0.016190182 0.04183259 
-0.0351867 0.03819275 -0.04228294 0.020138316 -0.03760191 -0.05878361 0.0021478608 0.057873845 -0.015900832 -0.053475544 -0.05759746 0.017403394 -0.04207834 -0.038820222 -0.016663957 -0.056980804 
0.045936905 0.027818993 -0.052964915 0.011278033 0.013748996 -0.058485515 -0.038260378 -0.028362833 -0.011142146 -0.057836577 0.012962349 0.051502258 0.035051107 0.059088238 0.026217364 0.025719441 
0.04342234 -0.013699118 -0.029515889 0.047837622 -0.04988199 -0.058825646 0.018635876 -0.036518276 -0.0124138445 -0.04943256 0.04040873 0.011042543 -0.0634903 0.0087797865 -0.015841566 -0.058070682 
-0.048096076 0.052168265 -0.04878381 0.038293496 -0.02239529 -0.038082715 0.018889323 0.0620007 -0.06230464 0.056396946 -0.04414197 -0.046717998 -0.051039282 -0.007231705 0.0010471344 0.03902533 
0.037295535 -0.01979642 -0.020846121 -0.022803571 0.036058865 -0.00018695742 0.041492395 -0.053550366 0.06363242 0.0076019242 0.054827742 0.057291463 -0.053504847 -0.0045523196 -0.052100793 0.02241183 
0.064336725 -0.015533343 0.031765856 0.035524517 -0.049515575 -0.023842394 -0.018658292 0.014603667 -0.053579684 0.009527154 0.034825474 0.041915156 0.063065045 0.0050313696 0.0051576346 -0.008503739 
-0.026640862 0.027025275 -0.04832407 0.022821754 0.032756023 0.02030275 -0.032900915 0.030583404 -0.031698287 -0.052040607 -0.05914488 -0.019255478 -0.012704775 -0.051801212 -0.05861454 0.05181224 
-0.06246269 0.010115705 0.032298908 0.042076632 -0.06171305 -0.0353738 0.0578674 -0.039287888 0.006238714 0.008435868 -0.022881526 -0.025217142 0.020961203 -0.015624568 0.01603584 0.030023418 
-0.042218916 -0.054188915 -0.050124716 -0.03818847 -0.057426088 0.021783113 -0.03783755 0.046659775 -0.05991298 0.024936326 -0.03311205 -0.002832543 0.013398044 -0.009042919 0.03551344 0.060920022 
-0.011876952 0.016787916 0.016238399 0.03991785 -0.0068108886 0.0011419058 0.04772348 -0.04235518 0.033781774 0.055178806 -0.029344138 0.04825847 0.028986804 -0.038371697 0.032991767 0.01490055 
0.027828917 -0.05715403 -0.025625318 -0.020038549 -0.049968474 -0.049783833 0.057823263 0.0143780485 -0.027830835 0.031063147 -0.03460452 0.030606598 0.02843032 -0.05067807 0.045517825 -0.03640254 
0.05153483 -0.011780143 -0.05352149 0.03908582 -0.03797741 -0.022766154 0.012004383 -0.056360386 -0.009347286 -0.022780973 -0.039749883 -0.0031704195 -0.04065759 0.06319795 0.021888897 -0.01956781 
0.03846786 -0.03352707 0.040201932 -0.04110378 0.0069057047 -0.0036858805 0.040860966 -0.015555039 -0.0123969205 0.052467085 0.03602051 0.04239901 0.041998588 -0.017716754 0.03037262 -0.022846483 
-0.05287047 0.06131483 -0.015020169 -0.011551838 0.012960799 0.060270295 -0.043028176 -0.0060969815 0.06257685 0.028854668 0.050164647 0.032607056 0.019916393 0.049012758 0.013460949 -0.05262256 
0.04645645 -0.00612168 -0.019155465 -0.027836632 0.028217562 0.044532835 -0.036179587 0.01942166 -0.038312614 -0.062193625 -0.02660016 0.0121192485 0.02030757 -0.014786895 -0.039521255 -0.06156999 
-0.027802084 -0.055781625 -0.03706137 -0.04367114 -0.01091326 -0.027853925 0.054314844 0.05361876 0.05442757 -0.045063026 0.015384585 0.051955625 0.022938646 -0.043084938 0.017762609 -0.0086182505 
0.0024145544 -0.05121889 -0.060590785 0.049120016 0.053525664 0.029215835 0.059382543 0.010517068 0.06320862 -0.035681788 -0.0414298 -0.04080627 0.06430178 0.04750423 0.05646936 -0.022630777 
-0.018359706 0.043380797 -0.029661223 -0.029646605 0.029198296 -0.027754001 -0.012747809 -0.0069008395 0.027434118 0.024540946 0.063459404 -0.060418956 0.021134287 -0.04179351 0.031210706 -0.029766656 
0.0053628534 -0.009938184 -0.034170203 0.025314122 0.0054325983 -0.053094096 0.023371428 0.056259498 0.04485178 0.0036899745 0.017375596 -0.013236955 0.010058515 -0.041450296 -0.0115704015 -0.013771854 
-0.0024157166 0.016565949 0.0052482486 0.005154796 0.054403827 -0.031068452 -0.032943383 0.055434942 0.02629871 -0.015205454 -0.056587785 -0.032727458 -0.016826827 0.04204543 -0.037416935 -0.02742958 
-0.023104474 -0.06150569 -0.04625964 0.037213236 -0.020895611 0.046772845 -0.056845225 -0.020669136 -0.003106445 -0.022574317 0.055016734 -0.011340488 0.033727095 0.05085007 -0.030557472 -0.006710615 
0.035862595 0.06008195 0.016715981 -0.026152145 0.012950979 -0.015716866 0.036190204 0.02052147 -0.0028855056 -0.009310022 -0.038981512 7.7307224e-05 0.014226265 0.010009818 -0.049049642 -0.02472103 
-0.036672633 0.046590135 0.047374725 0.0032175332 0.0568913 0.059093274 0.049514413 0.010102868 0.044884063 0.037784144 0.01557897 -0.031526703 -0.063355 0.03289602 0.036273204 -0.033022698 
-0.013151102 -0.02679729 -0.017197687 -0.03721726 -0.03394848 0.0016227663 0.032581635 0.05955209 -0.045500904 0.06383742 0.018424325 -0.06201294 -0.05486474 0.028730579 -0.015891474 0.04105234 
-0.037848584 0.020082764 -0.004035078 0.0536945 -0.061314914 0.0038012192 -0.016193863 0.050401732 -0.056745317 0.04227771 -0.040168904 0.041229866 0.049603306 0.037753277 0.019566461 0.064051785 
-0.0031860992 -0.024925306 0.060673572 0.04289174 -0.002228897 0.017989382 0.057615764 0.03603898 0.024983518 -0.043433122 -0.05139356 0.03200347 -0.032989252 -0.060704533 0.04457026 0.021988377 
0.043142177 0.05727996 -0.061453052 -0.01969165 -0.017796423 0.033378616 -0.024756286 0.030728534 0.035448194 -0.03860634 0.029026493 -0.0042100996 -0.00047035515 -0.056289155 0.0034588054 0.026215136 
-0.01647215 -0.049150437 -0.045029934 -0.04922761 -0.009033207 0.060901098 0.049157895 0.027403377 0.04779867 -0.060982484 0.016365446 -0.009003367 0.049364015 -0.021029197 -0.046884105 -0.020020876 
0.011146918 -0.036918566 -0.004670147 0.050342217 0.006947845 0.004664056 -0.027045462 0.038962886 -0.018652983 -0.044026155 0.0013361201 -0.051968608 0.014278628 -0.01609328 0.05068092 -0.011733811 
0.02652236 -0.000980258 -0.01700309 0.060842954 0.010788433 0.05455456 0.005247928 0.042521305 0.022955842 0.01589451 0.050443582 0.048435226 -0.019285839 -0.034145962 -0.026000183 0.06416186 
-0.043277957 -0.023052942 -0.04996344 -0.017968241 -0.056442406 -0.05899599 -0.034465153 -0.049277347 -0.013254721 -0.023593899 -0.059181795 -0.011435039 0.019099846 -0.041395083 0.021493472 0.05802963 
-0.006336376 0.047653303 -0.056361064 0.013426691 -0.0077828653 0.016125098 0.025436088 -0.025751151 0.057898656 -0.014419392 -0.032770954 0.0012899116 0.02371119 0.036648102 -0.03629401 -0.029762328 
0.021805607 -0.04719199 0.02230218 0.0021060258 -0.022573534 -0.033497103 0.01177299 -0.014753543 0.041845202 -0.060912617 0.056329936 0.04636796 -0.047527317 0.0120835155 -0.020978231 0.052513525 
0.011403084 -0.040392004 -0.009288315 0.0033730567 -0.055621535 -0.016301103 -0.041720208 0.026520155 0.039733715 0.0573491 -0.04334356 -0.04089056 -0.049014494 -0.0030049123 0.037079148 -0.041693434 
-0.036286138 0.024132252 -0.029686768 0.0587916 0.0068438277 0.011897631 -0.05839673 0.0141450465 -0.031479985 0.04443907 -0.004694354 -0.013734605 -0.00413695 0.01800251 -0.041842483 -0.04372754 
-0.033716265 0.04395923 0.002729863 0.020496063 0.048144802 0.010832496 0.010273159 0.00023710728 -0.019014593 0.0050154626 0.0022938102 -0.06417013 0.06343921 -0.0445534 -0.05314704 -0.009685148 
-0.03152635 -0.03670183 0.05740439 -0.002595067 0.011837214 -0.041451585 0.026465766 -0.013753567 -0.018890291 -0.045430545 0.028663456 0.05943673 0.0006917119 -0.044146284 -0.061724745 0.038961872 
-0.051498972 -0.023592781 0.021209635 0.013477705 0.03496866 -0.023317851 -0.03817687 0.015397012 -0.030112661 -0.0491443 0.04371298 0.018242262 0.052129924 0.04003521 0.028683513 0.025751442 
-0.015315719 -0.044915084 -0.03620205 -0.00418026 0.029990613 -0.017583922 0.04739277 0.041788526 0.004249558 0.057996623 0.038911752 -0.023824215 0.0049558133 0.03753218 -0.037663758 0.033440433 
0.020227179 0.030299142 0.00887087 0.029486284 0.039374605 -0.024112135 -0.052142892 0.04645577 -0.04826602 0.036896333 0.05582834 0.029219717 -0.021832991 0.011043191 -0.03817328 0.042803288 
-0.045131393 -0.031522684 -0.053640332 0.024577305 0.04150036 -0.0641639 0.011259206 0.032447204 -0.042521507 0.0506941 -0.053729363 -0.018572114 -0.047573727 0.048859097 -0.05230581 0.045366816 
-0.04356522 0.061823063 -0.025552213 -0.022872843 -0.043886006 0.0040590614 -0.031069543 -0.042731136 0.04332883 -0.023715898 -0.06194628 -0.013144951 -0.04539483 0.05555564 -0.027061664 0.03927256 
0.025882475 -0.034903627 -0.037354924 0.0039440393 -0.049239926 -0.038471222 0.04452572 -0.004459761 -0.02068219 0.034035206 -0.010101315 0.01249855 -0.05514779 -0.014725972 -0.00685288 -0.047040455 
-0.056324318 -0.041565422 -0.0035705566 -0.004856091 0.023935921 0.039652526 -0.056291748 0.006006524 -0.043241844 0.03809134 0.052186094 0.060138613 -0.00068448484 0.01512491 0.0024221614 -0.052719813 
-0.05523599 0.056455523 -0.03574495 0.042272277 -0.0077284165 0.017240077 -0.032757867 -0.031084746 0.007335983 0.053368762 -0.06376303 -0.0027582124 0.021754503 0.036919683 -0.034011826 0.058937214 
-0.016756132 -0.05516488 0.03648758 -0.0073666386 0.0048648044 0.043407813 -0.01143096 -0.051498115 0.0022767037 0.042208053 0.042458415 0.024772257 0.006903678 -0.042117365 0.035121173 -0.030733675 
0.020001747 0.03335999 0.04430048 0.042744055 -0.0058183707 0.029043466 0.013672806 0.00513722 -0.00398672 -0.010425232 0.024007179 -0.033252336 0.059200972 -0.013606574 -0.0034198202 0.0484604 
0.013610564 0.041434728 -0.030626804 0.00022695214 -0.010969382 0.045871027 0.027187176 -0.006871566 -0.046312757 0.03860292 0.03679117 -0.010728005 -0.02968163 0.061522745 0.008443721 -0.026771653 
0.021717653 -0.060442016 0.02542366 -0.054334663 0.021982193 -0.052897442 0.0386023 0.0002873242 0.007011652 0.04506494 -0.0029865168 0.03443539 0.0038789287 0.04809612 -0.0020343177 -0.058771428 
0.012596831 -0.0085114725 -0.03463068 0.029807433 -0.02591014 0.039695725 -0.005838163 0.06205485 0.0040345564 -0.041895583 -0.02346047 0.022531621 0.048288465 -0.02465374 -0.041579507 -0.021782547 
0.037377782 -0.03723515 -0.02018382 0.00428652 0.002458632 0.015154429 -0.049971417 0.020252816 -0.0081967 -0.020846471 0.06068573 0.02553983 0.02703736 -0.051321637 0.03438548 0.04570914 
0.009919025 0.058671735 -0.014163058 0.052673355 0.025995009 -0.038780406 -0.062707394 -0.034882117 0.061065294 0.062394716 0.04511907 -0.035559833 0.027283706 -0.020549253 0.05885096 -0.055639528 
0.035344988 -0.025945809 0.016132958 0.03578522 -0.0022704005 0.03086026 -0.048158273 -0.043035675 0.020805404 -0.022594616 0.023336306 0.038460664 -0.044664644 0.046877004 -0.028266884 0.053396992 
0.044703 -0.011818897 0.032104924 -0.003870029 0.020609334 0.051864266 -0.04235704 -0.022510957 -0.013942532 -0.02294122 0.011861995 -0.0197291 0.037974462 -0.04236092 0.052340053 0.02553162 
0.02972807 -0.033651643 -0.0434243 -0.033260975 0.042637706 -0.011999749 -0.023488715 -0.018454917 0.051504575 -0.0528186 0.04531134 0.009522833 0.0073669106 0.0529155 -0.060618956 -0.019913066 
-0.05984259 -0.007241279 -0.009765662 -0.013712466 0.021905348 -0.0011273474 -0.046624243 0.04559303 -0.01567027 -0.039780997 -0.038748436 0.04970841 0.062630944 -0.0034479275 0.016098402 -0.005784679 
0.0007792786 -0.01880031 -0.030871447 -0.027034432 0.057245158 0.014217004 -0.04632081 0.035358243 -0.008935463 0.019491926 0.04346174 0.057918444 -0.060799208 0.025087245 0.010946646 0.062909074 
-0.05323348 -0.009837247 -0.031251237 -0.063182965 0.029173285 0.04983636 0.022980802 -0.00088214874 -0.021998197 -0.043510497 0.0141588375 0.058524236 -0.06313848 -0.052868076 0.045399465 0.0090559125 
0.00044858456 -0.031619247 -0.018540774 -0.047174744 -0.043870017 0.014999762 0.048898995 0.0487824 -0.023188625 -0.003168948 0.052752525 -0.037819296 0.058644734 0.052120216 0.060317226 0.04821571 
-0.041002218 0.057168543 -0.03458585 0.016362391 0.035885625 0.010249458 -0.03668526 0.015955634 0.06419825 0.009760864 0.05485092 0.058729514 0.04363791 -0.04987987 -0.06434851 -0.020189926 
0.062664144 -0.04970531 -0.03301302 -0.014610615 0.04595179 0.032519206 0.060089886 0.047355518 0.010881029 -0.05211916 -0.05979216 -0.045687784 -0.00093685836 0.053277172 0.027535483 -0.040913068 
-0.050435573 -0.06266669 0.005515456 0.06216248 -0.03053305 0.0611284 -0.026795387 0.010698028 -0.051304914 0.009791993 0.04555963 0.052695125 0.021440051 -0.006108165 -0.034952983 0.0446603 
0.034827195 0.0391984 -0.055882744 -0.06249232 0.0027749166 0.05318919 -0.058102086 0.008369744 -0.043594845 0.058092237 -0.0028210394 -0.05662835 -0.062644005 0.020413905 0.03282229 0.013667792 
0.0014942959 -0.04092103 0.06018517 0.03617692 0.011328474 0.03746029 0.025111899 -0.011121128 -0.03998609 0.057576314 -0.058465905 -0.05617917 -0.0458949 -0.026777055 -0.054116763 0.009413853 
-0.044787087 0.03796733 -0.010721669 -0.037911054 0.037663683 0.032738425 -0.059834857 0.014278829 -0.05295881 0.051753774 0.0015793368 -0.020298582 -0.007533882 -0.010867432 -0.047963105 0.016724646 
0.0033041239 0.010540314 -0.06101286 -0.036688745 0.050811686 0.044142142 -0.044970024 0.012318142 0.03533242 0.037093513 0.014231101 0.028638452 -0.018503629 0.063174374 -0.01959693 0.0037883967 
-0.038552165 0.038323127 -0.005747415 0.0076787993 -0.038857795 -0.041564103 0.011375174 0.056494996 -0.04429473 -0.03259274 0.0013131052 -0.030380443 -0.036553673 -0.015930273 0.011384919 -0.0122414455 
0.010771379 -0.0035418198 -0.016011264 8.7708235e-05 0.05061017 0.026146665 0.04782965 0.057210438 -0.058953308 -0.04998765 -0.027645916 0.02532196 0.052059382 -0.037584346 0.02687443 -0.04651315 
-0.044990398 -0.033241168 -0.04464186 -0.00869447 0.011612639 -0.052277073 -0.012180999 0.035743766 -0.0013425127 -0.02250313 0.03670471 -0.027205419 -0.0033066273 -0.0046516433 -0.06271964 -0.0059647933 
-0.022837464 -0.05643667 -0.02958861 -0.036806725 0.05163136 -0.04112985 -0.06351945 0.021991171 0.055961743 0.007870607 0.008950971 -0.03566192 0.046351336 0.043644935 -0.00046513975 -0.041408554 
-0.021734282 0.03777209 -0.044363387 -0.05442862 -0.061447743 0.05725515 -0.05744872 -0.049765237 -0.020758316 0.057384893 -0.019336928 0.013342679 0.056906484 0.007726975 -0.06368207 0.040285163 
0.009601317 0.042603366 0.006959833 -0.056179214 0.016540252 0.044958413 0.048872806 -0.030461553 -0.034258727 -0.029588457 0.008009449 -0.052116856 -0.0526124 -0.024515908 -0.04201758 -0.046289757 
-0.0032040663 -0.051999815 0.06182147 -0.019794796 0.0052502602 -0.0025607608 -0.028941456 -0.046991132 -0.007587701 -0.046638694 -0.03523736 -0.009588342 0.031288244 0.025980316 0.03449806 0.010553673 
-0.046115212 -0.056513347 0.046090066 0.015456744 0.0440797 -0.027145095 0.012667678 -0.0053046457 -0.012296692 -0.038441367 -0.045043096 -0.05055449 -0.029559601 0.022111282 0.03223139 0.0119629875 
-0.007627573 -0.05839926 0.043412857 -0.042678773 -0.053691972 -0.04638449 0.0017709732 -0.011405628 -0.051897496 -0.046809036 -0.041518904 0.06420835 -0.016694717 -0.04113491 -0.05076388 0.060234666 
-0.013858888 -0.0014462098 -0.06138294 0.06018413 0.043324076 -0.012068711 0.049196467 -0.014876522 0.0263635 -0.038694385 -0.02720749 0.024894841 0.00083523244 0.021068975 -0.019278169 -0.0063848123 
0.062184475 0.06260993 -0.012387179 -0.013749547 -0.026429757 0.031560592 -0.040058903 -0.017664868 0.01239384 0.01390329 -0.01602289 -0.011873223 -0.0055596903 -0.030711062 -0.010330662 -0.03025657 
-0.06183226 0.037619524 0.017119274 -0.040764265 -0.035332203 0.06362421 -0.03654557 0.011978298 0.05098387 -0.056884423 -0.05796947 0.011192702 -0.027730223 0.06430035 -0.009504959 -0.05122285 
-0.002078455 0.001521416 0.030970573 0.012921281 0.019249558 -0.024738979 -0.004702933 -0.03999097 0.036309414 -0.005994372 -0.06110235 -0.031009816 0.033944875 0.008041866 -0.025540903 -0.039329145 
0.058227092 0.0005603954 -0.02009065 0.05151981 0.014100678 0.005611576 0.009526603 -0.063525416 0.037392862 0.040441744 0.057134256 0.057053447 -0.015158463 0.02334579 0.061060987 0.008972265 
0.010511406 -0.038305957 -0.061973806 -0.026313096 -0.015771084 -0.06024237 0.01005397 -0.05030044 0.046941623 0.014547102 0.016468957 -0.02750428 0.01842244 0.02061636 -0.01074402 -0.014459759 
-0.0434473 -0.055957768 0.060787164 0.046979375 0.049992055 0.0054259524 -0.028726362 0.013659738 0.01789251 0.052597918 -0.0126196705 -0.05055182 0.00518772 0.022453085 0.029508233 -0.013492368 
-0.045217507 -0.06311381 0.010731116 -0.0316972 -0.03097858 0.03626603 0.02982673 0.038854465 0.0037753433 -0.061500996 0.009304576 0.054974668 -0.06103046 0.012194082 0.016985446 -0.004484631 
0.026927345 0.045357376 0.031920105 -0.05043996 -0.051825482 -0.05953719 -0.04471547 0.01291281 0.039046913 -0.023472484 0.020874858 0.01764851 -0.0076672174 -0.03370554 -0.054308243 -0.0046322197 
0.008096039 -0.03811073 -0.03617244 -0.032566197 -0.028932404 -0.0010569543 0.035091445 0.006946869 -0.015230078 -0.03714753 0.031305254 -0.055429775 -0.040716812 0.05391518 -0.022113722 0.029497817 
0.02483841 -0.0014736727 0.02208282 0.031967707 -0.052662954 -0.057287276 -0.020818334 0.008345105 -0.002554424 -0.015064139 0.058266982 0.053715833 0.0015146062 -0.024789836 0.0065924525 -0.045146026 
0.018694103 -0.019138955 -0.060244855 0.03257505 -0.046441503 0.036386028 -0.03523314 -0.054072164 -0.057298794 0.01066234 0.03873524 0.019533597 0.00501962 0.006102629 0.009744979 -0.0620912 
0.029903963 -0.045592632 -0.06066305 -0.043561444 -0.022692204 0.023984157 0.052332304 0.037587173 0.01441887 -0.062273096 -0.01762211 0.026026465 0.019603558 -0.036172178 0.016774356 0.040365897 
0.0021014512 -0.048995316 0.018831424 0.06411437 -0.026688516 0.015482314 -0.010494377 -0.028577313 0.055072963 0.05740656 -0.038025673 -0.049008094 -0.032467272 -0.0075694136 0.04684612 0.03333164 
-0.044626225 0.038383618 0.031288147 -0.026677333 0.0030063689 -0.012501661 0.061321534 -0.033621207 -0.013314754 -0.014931876 0.0119009465 0.0043567866 0.056566678 -0.021116186 0.055299416 0.004465759 
0.019796021 0.047161564 -0.0638679 0.009684764 -0.058884837 -0.020404685 0.054440066 -0.012669869 -0.05922412 0.0442741 0.05199343 -0.0310569 0.01563172 -0.047135636 0.054478005 -0.046149716 
0.0452884 0.0040309206 -0.030635394 -0.053090304 -0.05889321 -0.008764662 -0.00088926405 0.04794821 0.057636686 -0.0048657097 -0.06255252 -0.028616313 -0.056031164 0.0108643025 -0.011311401 -0.044332087 
-0.049961448 0.0054297447 -0.023311652 0.03231611 0.029975183 0.029554874 0.022068799 0.014406614 -0.045766704 -0.012100376 -0.018324312 0.00071258843 -0.015402202 0.057653166 0.024858922 -0.0351562 
0.04902117 0.052463464 0.0015644953 0.037067063 0.015948318 0.041896164 -0.016970597 -0.012575086 0.014434397 0.059044577 -0.010790937 -0.004162647 0.020897515 0.030739352 -0.027818099 0.0339185 
-0.01758394 0.06347368 -0.0587229 0.06054519 0.022167675 -0.053415433 -0.035103012 -0.038357355 -0.028415825 0.059246473 -0.06355601 -0.020799834 -0.049938433 -0.024491865 0.022274226 0.04433526 
-0.057934783 -0.04395107 0.043450907 -0.010607753 -0.056961242 -0.011078369 -0.031070631 -0.050695114 -0.0378891 -0.013668127 0.0518741 -0.061800104 -0.052409 -0.016952556 -0.028823782 0.029401653 
0.04059302 0.023190387 0.058648616 0.01295425 -0.03414096 -0.011442464 0.063926764 0.05710206 -0.0042287894 0.003180042 0.033353135 -0.046483465 -0.056736298 -0.0059978403 -0.04576612 0.0024936125 
-0.018745571 -0.050887518 -0.022069197 0.05815942 0.0277384 -0.04973121 -0.04860512 0.019406505 -0.025537744 -0.012780026 -0.039415367 -0.051270656 -0.01056857 -0.0065909624 -0.029466689 0.008842386 
0.05513507 -0.041388102 -0.01576059 -0.048364684 -0.045201227 0.01922308 0.043867536 0.046950385 -0.048581034 0.02860824 0.031891413 -0.06305325 0.0097048655 0.010408312 -0.029031113 -0.012964714 
-0.0010250881 -0.046594694 0.058630496 -0.010486446 -0.019014608 0.03438338 0.03424596 -0.05561076 0.0142341405 0.046495877 -0.04624241 0.05881738 0.0065431744 -0.062423676 0.05022745 0.02116879 
-0.013135023 -0.002784308 -0.05248833 -0.05520859 -0.026673771 0.043009013 -0.058817577 0.0468006 0.0005489066 -0.009269964 0.03677661 -0.020749956 -0.064005606 0.0597056 0.023414627 0.04569328 
0.050476402 -0.019440196 0.025307521 0.009085521 -0.05224294 -0.053219467 -0.059816446 0.005580619 -0.025182623 0.06204059 -0.020016365 -0.049640615 0.05350808 0.025081933 0.027711414 -0.009551138 
0.033925496 -0.06110485 0.005151242 0.021050245 -0.055497278 -0.0222782 0.014224999 -0.01225467 0.033224277 -0.03199911 -0.01801537 -0.05183269 0.014208674 0.03894142 0.039021596 0.011590347 
-0.03451621 -0.035389096 -0.02743636 -0.0026745386 -0.056704294 0.0078443885 0.015327267 0.021712497 0.0069972947 0.007982157 0.022176273 -0.046748146 -0.039787088 -0.032362826 -0.020650264 -0.015360411 
-0.054771297 0.064096846 0.010053277 -0.043768976 0.004731208 0.008745067 0.056704618 -0.008420587 0.03873352 0.0045509115 -0.040466078 0.010437414 0.05855371 -0.03617704 0.0145067945 -0.05641364 
-0.059794936 0.011758156 -0.019284934 -0.060589112 0.023611464 -0.051365912 -0.024664894 -0.015985657 0.014344752 0.016952828 -0.019945238 0.04033819 -0.055772882 -0.057881854 -0.06214384 0.007884353 
0.017552517 -0.05587581 -0.057273943 0.02288863 -0.030289263 -0.017061789 0.04832895 -0.04108473 -0.021551054 0.0508821 -0.0013922378 0.00092457235 -0.04986175 0.019475773 -0.016078781 0.0038870424 
-0.025912471 -0.010784462 0.03794297 -0.040392544 0.02982463 0.03255271 -0.005151272 0.027039051 -0.03023471 0.061233483 0.058686905 0.006217584 -0.0480433 -0.039663322 0.013273425 -0.02519758 
0.03487543 -0.020042721 0.0015198961 0.015711755 0.018018946 -0.040525146 0.0013860837 0.006262459 -0.015127335 0.061139725 -0.008762084 0.033036143 0.061648868 -0.057763122 -0.058086116 0.030206956 
-0.03334965 -0.0077829584 0.038377285 0.0067586675 0.015518434 0.037647374 0.011211567 0.03489787 -0.061727215 -0.010388255 0.03501653 0.05084996 -0.014167771 0.017880589 0.021915212 0.03553018 
0.037213564 -0.037490636 -0.008304909 -0.0032450147 -0.0059645027 -0.047726378 -0.047975272 0.03795278 0.026286937 0.055886947 -0.014579963 0.01495681 0.0001200214 0.046812624 -0.03417465 0.04195471 
-0.053593002 -0.010353215 0.0006039515 0.018770516 0.015909195 -0.0035464205 0.057711206 -0.062310055 0.04551103 0.00350409 -0.037288234 -0.025873628 -0.05319253 0.0122561455 0.035120867 -0.01860243 
-0.04592488 0.014218017 -0.06254959 -0.01245499 -0.049040407 0.0029964298 0.04754912 0.013096191 -0.0642002 -0.012918718 -0.015854482 -0.035912056 0.040899076 -0.026973248 0.0128068775 0.03933467 
-0.020256896 -0.06403456 -0.006847203 0.061418064 0.053735346 0.0485816 0.030145511 0.022656992 -0.009383388 -0.0117229 0.05563221 0.04475238 -0.01855915 -0.03568297 -0.02623947 0.04268048 
-0.021028582 -0.022981633 -0.056759864 0.038653575 0.022351384 -0.031129975 0.0014389381 -0.020987697 0.06191265 0.013144076 -0.009436455 0.055154383 -0.059448592 0.0007157773 -0.06312554 0.047285758 
-0.053202838 0.053058714 0.028371222 0.049163893 0.045220666 -0.055680923 -0.020401064 -0.0014115274 0.051882617 -0.052500315 0.03681846 -0.060355455 -0.04416793 -0.060477868 -0.018172089 0.05504392 
0.0030783862 0.031317115 -0.0437017 0.005207777 -0.029000998 0.050204724 0.040110193 0.044353858 0.052948162 -0.02081054 0.05085674 0.05393827 0.03314496 -0.04544072 -0.019718315 0.019819446 
-0.034543075 0.0029843077 -0.03990289 -0.052131675 0.056570254 0.015336566 -0.009230752 -0.009029679 0.03240314 -0.009947665 0.06224493 -0.05016166 0.054813564 0.022023171 -0.019262642 0.02971302 
-0.047501743 0.006989084 -0.042788886 -0.057242446 -0.031449195 -0.041035786 0.036457404 0.030940376 0.009674504 0.02069316 -0.030992188 -0.034607664 -0.00087590516 -0.022715278 0.04618465 -0.051840104 
-0.0044821315 0.01405625 0.05280309 0.03112074 -0.031265307 0.0010572448 -0.0076921806 -0.037449554 -0.04589605 0.046641394 -0.043432422 -0.051038347 -0.04432977 0.055183508 -0.023430094 0.00586237 
-0.033167865 0.028955981 0.027095735 0.04906109 -0.044082873 0.0050730407 -0.033352137 -0.05589611 0.045698017 -0.026893899 0.0038863271 -0.046204194 0.002316989 -0.017117925 -0.017620407 -0.05702327 
-0.0031143166 -0.041255884 -0.03410583 0.033625007 -0.0031970702 0.05466777 0.027571216 0.06227719 0.054247625 0.0052089244 0.04391072 0.015456125 0.015063375 0.029460795 0.060235575 -0.04197763 
-0.022653222 0.024935037 0.04138322 -0.03369818 -0.023614135 -0.016310893 -0.023510668 -0.041806784 -0.053780988 -0.020808332 -0.0064897835 0.025749385 -0.058359616 0.001008153 -0.060977865 -0.020460177 
0.015076198 0.0055770427 -0.03633528 -0.026588824 -0.03681062 -0.041469537 0.032081895 -0.009290922 0.03193158 0.024253897 -0.045859292 0.0038846657 -0.055916727 0.025496364 -0.05191106 0.021662943 
-0.022479322 -0.026890356 0.029830158 0.04798603 0.04062803 0.03857001 0.011284001 -0.03480696 0.033267602 0.042817622 0.006590627 0.040279746 -0.050858308 0.0031393096 0.005579114 -0.022524625 
0.040386915 0.03649214 0.053904302 -0.022882737 -0.034476306 -0.027245566 0.042492814 0.033582725 0.0016684532 -0.043792527 0.02590575 -0.06197428 0.061297543 -0.014872167 -0.052251466 0.050855547 
0.012183726 -0.0030108653 -0.02610701 -0.017537069 0.027448192 0.015611835 0.0044469982 0.045026757 -0.052038 -0.0050989985 0.04748562 0.0034759268 -0.013845205 0.03768772 0.04347901 0.0025921986 
0.0605362 -0.01936258 0.048517093 0.06222514 -0.017226517 0.02836062 0.058316827 -0.0102030635 0.036764912 0.045299076 0.05892147 0.053404137 0.043974295 0.047449812 0.021357268 0.044944018 
-0.023996871 -0.060454518 -0.060248844 0.029084474 0.049665943 -0.06135979 0.008209281 -0.012400404 0.009144343 -0.030787956 -0.04531201 0.034636676 -0.052984156 -0.04053777 0.0002169013 -0.053104512 
-0.042718757 0.0013744459 -0.04046244 -0.01533933 0.029463805 0.043738954 -0.01125709 0.0033987984 0.050709426 0.0101414025 -0.014899138 0.0057160407 -0.04505109 0.057461776 0.0039089695 0.044973828 
0.05864834 0.04963199 0.05243109 0.040992 -0.03939863 0.063851155 -0.052353706 0.00999745 -0.0040465556 -0.018073883 0.04876951 -0.05645804 -0.017795336 0.034368083 -0.0030303337 0.06256988 
0.0062134564 -0.019943044 -0.0081702955 -0.056758083 0.03155455 0.033751443 0.012629993 0.016186513 0.016538247 0.0063983276 0.054547638 0.049548917 0.043710507 -0.030015148 -0.021951005 -0.057354335 
-0.053629454 -0.050693043 -0.061592635 0.023263708 0.056669362 -0.013992917 0.034625217 0.033167683 -0.025592852 -0.028874993 0.0034394711 0.04238855 -0.030793004 0.0118175745 -0.017670512 -0.011858739 
-0.058295183 0.015140362 0.052490048 -0.057055656 0.00069161505 -0.051904157 0.028554067 0.003986366 0.030183986 -0.016999148 0.049883492 -0.035211816 0.04185462 0.022297867 -0.00093753636 0.044458427 
0.016726092 0.05149661 -0.021520905 0.033189207 -0.060676627 0.06328615 -0.061145414 -0.027726218 0.016192049 0.06350132 -0.024124961 -0.043366723 0.034867264 0.04961107 0.06206847 -0.008919615 
0.055950344 -0.013196439 -0.035742603 -0.047945417 -0.043135367 -0.037348356 -0.022194587 -0.02941968 -0.033451002 -0.05928144 0.020421453 -0.033370502 0.06146898 -0.04157581 -0.021631353 0.03535571 
0.046422742 -0.025414594 0.04254344 -0.0044930987 0.0109393895 -0.013551712 -0.034424037 -0.005530447 -0.050857067 -0.028801613 0.000115953386 -0.035777166 0.014929332 0.012150317 -0.056703802 -0.059221424 
-0.047640175 -0.059757378 -0.055728205 -0.054580547 -0.055992916 0.0010618493 0.026030809 0.006272368 0.056517385 0.008231312 -0.05608549 0.02112493 0.020571053 0.025099792 0.0047193766 0.031002663 
-0.03805794 0.053249463 -0.03547702 -0.012509562 -0.01845805 0.05414343 -0.0053316317 0.028075121 -0.06172516 0.048782587 -0.03098717 -0.03111362 0.014124721 0.03754466 0.06301833 0.003775388 
-0.020419553 -0.046384767 -0.020189729 0.064064614 -0.019630928 -0.008744195 -0.03429292 -0.021321706 -0.025162604 0.05395013 -0.012176473 -0.024016619 0.013593763 -0.032867637 0.027273186 -0.037656456 
0.044684373 -0.015950445 -0.0054014362 0.01676222 -0.013991367 0.04576488 0.005113803 0.018021643 -0.029117689 -0.05167892 0.056844212 -0.04813104 0.01618018 -0.051374104 -0.04156524 -0.06246053 
0.020067833 0.040311135 0.029686771 -0.020653486 0.045134462 0.005665563 0.014085628 -0.015946567 -0.022471834 -0.018043276 -0.00041651726 -0.039055105 0.0004170686 -0.029640619 0.035032056 0.00282377 
0.046617724 -0.039850295 -0.003800515 -0.0147206485 0.0014577657 0.061584286 -0.04002426 -0.047319375 0.04658757 -0.042132355 -0.054559916 -0.008819293 -0.04367344 0.012340583 0.0548591 -0.05018846 
0.010942116 -0.014139477 -0.03954941 0.03475114 -0.01062813 0.011627585 0.058384515 -0.051575545 -0.051616017 -0.041033007 -0.04675115 -0.037205845 0.00068342686 0.050293036 -0.05313871 0.02809541 
0.03305561 0.02311781 0.04085041 -0.0043543167 0.06169691 0.030640982 -0.047126647 0.037108883 0.058897182 -0.019038007 0.0347049 -0.063167885 0.005624786 -0.025147952 0.056621693 -0.0026259646 
0.006712809 0.059609465 0.029584713 0.032356367 -0.0035690516 0.028966464 -0.062316068 0.0037269965 0.062601216 -0.056777567 0.046998404 0.037695132 0.020286046 -0.05794922 -0.041846856 0.048459142 
0.0032393858 0.03285943 -0.037794117 0.042904764 -0.001239568 -0.010797244 0.02789697 0.008034445 0.03596305 -0.03226482 0.016719908 -0.031097572 0.029748902 -0.002480954 -0.04654867 0.014910765 
0.0074377507 -0.036757983 -0.0014629513 0.009428889 0.0330775 -0.031010121 0.01763507 0.052034132 -0.0269875 -0.030744553 -0.064124815 0.054707132 0.018181138 -0.033374965 0.05854156 -0.017026827 
0.03267023 0.022914186 -0.049333945 -0.03952738 0.06266595 0.019376896 -0.040181223 -0.010074452 -0.04853759 -0.007481888 0.035675697 0.013408296 0.046429537 -0.03264682 0.0001514405 0.0026270077 
0.036116965 0.03962805 -0.013709765 -0.01833763 0.046262205 0.053436466 0.03613157 -0.0021696314 0.029634148 -0.042843714 -0.020655267 -0.009641286 -0.048161753 -0.01657109 -0.016798858 0.01901137 
0.04166998 0.046751365 0.050865397 -0.020187013 -0.06142789 0.06362083 -0.029673912 -0.02772522 -0.023580182 0.052640922 0.0026434734 0.012400299 -0.035999395 -0.0433176 -0.0032194853 0.00730785 
-0.047337264 0.051571757 0.0046425313 0.058630943 -0.049146064 0.035518594 0.031678744 -0.054302275 -0.032058056 0.04199242 0.038834274 -0.051157475 -0.030197874 -0.045216203 0.06235581 0.021612823 
-0.029869277 -0.03214871 0.033498883 0.06199505 0.03035175 -0.007491093 -0.015588023 -0.009016041 0.029852293 -0.0149505325 0.06311936 0.035963252 0.011078596 -0.032053854 0.028113417 -0.0025991164 
0.045420416 -0.0010567084 0.03929475 -0.01378784 0.05207511 0.051875636 -0.03153129 0.026698932 -0.045236193 -0.029208452 0.06217221 0.027365096 -0.05244993 0.040661506 0.019887522 0.011317581 
-0.06409511 0.020951197 0.033571817 0.0025762543 -0.013165016 -0.023655128 0.04406245 0.00479348 0.03031125 0.013879098 -0.0051557794 -0.05651649 -0.0048875734 -0.055391543 0.04612293 0.036995307 
0.01502537 0.047366515 -0.048607837 0.017821878 0.01757314 0.027625754 0.04305634 0.030557245 0.0010923967 0.03955499 -0.0555457 -0.015960172 -0.022037517 -0.0520048 -0.02499085 0.0022075102 
0.043539934 0.024805598 -0.034409247 -0.06008205 -0.008516688 0.06014467 -0.06229404 -0.040252104 -0.015048508 0.029065385 0.01765494 0.02482143 -0.01329194 -0.041506186 -0.026913416 -0.03901612 
0.016257897 0.06281323 -0.011463452 0.033316225 -0.04087376 -0.014277466 0.04224447 0.042062305 0.022187933 0.01334624 0.0025211498 0.016115867 0.06408762 0.05563528 0.023532622 0.028982773 
0.05875124 0.03227347 0.0052181184 0.03523837 0.054395124 -0.021064404 -0.06355567 -0.06355024 0.016629532 -0.028113678 -0.008786969 -0.00714878 0.062504016 -0.041684076 0.022147149 -0.042888805 
0.01624529 -0.037914626 0.046080075 0.00897406 -0.0023180954 0.018427223 0.008027077 0.0523941 -0.029291406 0.015064679 -0.001025334 -0.027557869 0.0013710856 -0.028944522 0.03557346 0.057304613 
0.05937507 -0.009289879 -0.04050781 0.05230797 -0.046531364 -0.028720379 -0.04565305 0.059597068 0.007437058 0.012322836 0.04172337 0.042893976 0.032592982 0.056907102 0.0034843609 0.04299646 
-0.0085840225 -0.013211228 -0.0046456307 0.0018586069 -0.031101208 0.054501995 -0.025999002 -0.058825415 0.052894913 -0.04738602 0.054806307 0.032602005 -0.048244033 -0.053325024 -0.0138824545 -0.041208737 
0.033699207 0.046293885 0.0071311668 0.041570835 0.052062027 0.030383646 0.06386075 0.022466436 -0.03813485 -0.055003036 -0.028729122 -0.018014312 -0.011288386 -0.06160839 -0.048867393 -0.008263007 
0.008172646 -0.0040360168 -0.03351042 -0.009241212 -0.06253172 -0.023446891 -0.050778545 0.038064063 0.040969737 0.010301515 -0.03354729 -0.009284724 -0.052680675 0.023347735 0.03295441 -0.041377977 
0.032424532 -0.032081913 0.0008409545 0.034118272 -0.047657818 -0.016697586 0.0023707524 0.044104032 0.01652278 0.04436382 0.03866045 0.04695166 -0.014218584 -0.023862064 0.05705762 0.007865377 
-0.060239546 0.0616126 0.0015998334 0.026108436 -0.036532395 0.025182314 -0.058474727 0.0128482655 -0.027687278 -0.03783913 -0.0071804784 -0.0029723868 -0.04008147 -0.030763116 0.058348678 0.048310176 
0.040339187 0.0030955672 -0.04076026 0.007722497 0.01358439 0.05723218 -0.06116688 -0.017583262 0.05617944 0.04288704 -0.020952087 0.06313095 0.039120123 0.05463469 0.048113123 -0.04578088 
0.024478547 0.030565724 -0.061780203 -0.0139637515 -0.042906865 0.04325869 0.019553974 -0.03246927 -0.024888486 -0.002728127 -0.041366022 0.022221036 0.06309981 0.014662303 0.027100049 0.05728241 
-0.029062089 0.04862801 -0.02502546 -0.0071205683 0.055364154 -0.010375276 0.06009561 0.05319839 -0.055268206 0.058627196 -0.045104064 0.05899804 -0.043464467 -0.008649059 -0.0031315759 -0.049892038 
-0.05069249 -0.052116506 -0.017138176 0.0218881 -0.032690283 0.046481565 -0.009117786 -0.033603992 -0.006108351 0.06167569 0.05626458 -0.013989482 -0.045611426 -0.023817372 -0.034519847 0.03520999 
-0.00018723309 0.009880543 -0.036357097 0.04025154 -0.006901223 -0.013799652 -0.013237156 -0.03153594 0.020571142 0.04828216 0.050562255 -0.02893084 0.012332626 0.0063545257 0.05357468 0.025457442 
0.008893959 0.037037894 0.019410402 0.057631873 0.04294499 0.05008053 -0.043810293 0.027835451 -0.020004291 0.013980739 -0.04968173 0.06167773 -0.0068492144 0.030740567 0.043531895 -0.046994705 
-0.004229661 0.0361005 -0.031996842 0.007046081 0.02394706 -0.0040108413 -0.04813026 -0.009793371 -0.002118498 -0.054437883 0.019714877 0.051647283 0.02178482 0.035397165 0.03772428 0.042418696 
0.049853407 -0.010058358 0.017428525 0.0069792345 -0.03399679 -0.014965046 -0.060103416 -0.03279846 -0.011361722 -0.011852786 0.03975662 -0.018273652 0.022910707 0.027336746 -0.052617144 -0.040592343 
-0.02384451 -0.055437338 -0.053073384 -0.046797425 -0.001913745 0.047702387 -0.03135972 0.029910013 -0.015750311 0.015066072 -0.06029576 -0.008025575 -0.050174423 0.003353037 0.009644322 -0.041045055 
0.042346425 -0.030476928 -0.06334967 0.017430224 0.004060656 -0.019967515 -0.028010488 -0.04478222 0.033413872 0.033380933 0.004538618 0.045790173 0.063129775 0.027001046 -0.060627546 -0.04154367 
0.023480415 0.054413356 -0.015997607 -0.032128308 -0.00056440383 -0.0626344 0.029232956 0.013926104 -0.027284753 -0.041187517 0.055855945 -0.057505313 -0.0066549852 0.015324831 -0.0096923895 0.059716813 
0.018258803 0.053117126 -0.0145301 0.021166585 0.008703768 0.028452948 -0.020408075 0.00016214699 0.04334408 -0.024882812 -0.061536267 0.05003889 0.0069176406 -0.06347595 0.0045055076 -0.031005107 
-0.03105966 -0.040826984 0.044509254 -0.017608944 0.015722878 -0.01858244 0.054003187 0.028489083 -0.013972145 -0.0061723106 -0.056178693 0.024241455 -0.0438814 -0.04290639 -0.0018147081 0.039693132 
-0.035235323 -0.0319626 -0.038772017 -0.020376533 -0.03135251 0.056395292 0.039188705 0.041377835 0.048826307 0.049257062 -0.02219586 0.017067239 -0.0035472065 -0.05681043 0.033474475 -0.053342972 
0.033524767 0.052291892 0.063616 0.022598468 0.060860164 -0.053700395 0.026754275 0.015467495 0.031587914 0.027428001 -0.0244679 -0.004724335 0.012726404 0.038542435 0.04473465 0.041236952 
-0.03582445 0.021641001 -0.037421323 0.0067751855 -0.021691877 0.049596995 0.013535172 -0.041097216 -0.016399447 0.016973637 -0.047449827 -0.050798997 -0.01682181 -0.028357048 0.028585337 0.0044455975 
0.055762753 -0.053977456 0.02101206 0.06095638 -0.061048023 -0.060990676 -0.04896368 0.0063418075 0.008632779 -0.0365103 0.020915665 -0.004996609 -0.0065069646 -0.0061796904 -0.06290856 9.188056e-05 
0.040899 -0.05860699 0.048138514 0.03703604 0.0074719265 0.017811231 -0.032975383 -0.042546313 -0.052725382 0.04318431 -0.03530867 -0.022074308 -0.030264534 0.0141059905 0.034612052 -0.012237135 
-0.032751467 0.039354548 -0.008015957 -0.015486382 -0.040190566 0.044264525 0.013462946 -0.017842542 0.021043815 -0.05598049 -0.06280482 -0.014576681 0.02959676 -0.027320974 -0.027102966 -0.053852156 
-0.03934645 -0.048610646 -0.0384437 0.033578783 -0.028648455 0.020063773 0.02299834 -0.0010979027 0.04876466 -0.04459709 0.026199982 -0.006212812 -0.0529977 0.051365346 -0.041171715 0.026783496 
-0.022517215 -0.054286964 -0.033084895 0.04158917 -0.050413266 0.05517272 -0.046140738 0.06162832 0.05305565 0.011259191 -0.056567058 -0.063265465 0.006857373 0.062404625 -0.04826209 0.02887424 
-0.03335596 0.06161145 0.011306658 0.04525681 0.031802796 -0.054102585 0.0030820668 -0.036330845 -0.004581839 -0.04356255 0.052698933 -0.059813086 0.006990038 -0.0597834 -0.00075653195 -0.03005685 
0.027997985 0.04870922 -0.021893777 -0.029208235 -0.04368949 0.036403492 0.015998743 -0.0547844 0.0065571517 -0.027230132 -0.03920176 0.05550082 0.037235513 0.0020349324 -0.039409764 -0.008556362 
0.0017286241 -0.031063221 -0.034704212 0.055223666 0.06347772 -0.028042294 -0.052639466 0.031470552 0.021234348 -0.025129281 0.008705229 0.045205414 0.010612957 -0.016417518 0.034484036 -0.0028359033 
0.0575921 0.06433488 0.034991845 -0.002098892 0.019570678 0.02804716 -0.0017007813 0.059823334 -0.008107979 0.032820582 -0.012688987 -0.022068385 -0.034492433 -0.048905656 -0.022251524 -0.052620076 
0.016053222 0.0009874552 0.045012705 -0.030390982 0.05135528 0.03907507 0.011992462 0.0022210777 0.031396344 0.019717254 -0.038677603 0.027127877 0.05306539 -0.031300545 -0.031477932 -0.03733194 
0.029428177 -0.052139916 -0.023173653 -0.053543676 -0.048348527 -0.013029885 -0.021983836 0.029767945 0.051141396 -0.0034012422 0.042715706 0.012126811 0.024611793 -0.038397655 -0.055046715 0.029156134 
0.015250042 -0.026904669 0.0010415837 -0.010149859 -0.014661629 -0.048472032 -5.8203936e-05 -0.013494641 -0.042833913 -0.053676523 -0.031081416 0.057136185 -0.0070192628 -0.009762887 0.017318197 -0.023608983 
-0.0022828877 -0.0422137 0.021642908 0.04901842 -0.02453763 0.0101652 -0.04614364 0.048700906 -0.019751806 -0.049871128 0.04360769 0.038350835 0.014444739 -0.0026568472 -0.041134343 -0.043841314 
0.046049453 0.0612387 -0.04613319 -0.046817552 -0.03562737 0.021088324 0.0002577901 0.012960449 0.012294434 0.03677532 0.024057195 -0.032719664 -0.036755435 -0.01211331 0.02940584 -0.05601122 
0.01442004 -0.02647503 -0.057045314 0.029201716 0.053363636 -0.026987683 0.0008713603 -0.02677457 0.019348145 -0.059071794 -0.04315217 0.012088716 0.029727392 0.029093727 -0.041377082 -0.05629032 
0.04742244 0.024250656 -0.023483746 0.023925595 0.042135254 -0.058766715 0.041409567 0.01118432 -0.045910843 -0.023066457 -0.012086093 0.004614882 -0.049088977 -0.054435812 0.058389843 0.049919426 
0.011354096 0.025398716 0.060331166 -0.012600925 -0.029244397 0.0028320402 0.02146434 0.012161896 -0.0049092956 -0.056060776 -0.03918927 0.015628941 -0.012030248 0.042410046 -0.030160882 0.009351999 
0.02410882 -0.05835368 -0.036023837 0.02091048 -0.045375407 -0.008013472 -0.014476482 -0.017466418 0.044861697 0.04878159 0.020100959 0.012052953 0.026783422 -0.05236015 0.007900156 0.016105466 
0.044769615 0.05736153 -0.035922717 -0.009668965 -0.017106418 -0.030168016 0.019487359 -0.0511238 -0.021342002 -0.044233855 -0.007675685 -0.052664183 -0.032952692 -0.04524348 -0.048844334 0.0218798 
-0.028584339 0.00488963 0.04433833 0.023390278 0.04629813 0.048068598 0.04101158 0.04923643 0.04112979 0.011609554 -0.05679116 -0.045464434 0.030890748 0.050751098 -0.033889934 -0.0543933 
0.046149425 -0.016791616 0.040533535 -0.023330707 0.050434887 0.010498963 -0.043361925 -0.0074727423 -0.063870415 -0.05310462 -0.010073729 -0.032682277 0.046507813 -0.022971045 -0.05744904 0.041364826 
-0.04012826 0.055029362 -0.0080324635 0.008975886 0.056547545 0.055765256 0.038851686 0.011987917 -0.046291135 -0.05332396 0.041373543 -0.01920459 -0.04993145 -0.027473167 0.009694338 0.036957502 
0.00783699 -0.015071046 -0.05808877 -0.022938047 0.03170708 -0.004851289 -0.03187633 -0.035663456 -0.033966675 -0.030278094 -0.01508769 0.021231435 0.059793048 -0.032351904 0.033834383 -0.013214849 
0.03290859 0.016587384 -0.042854443 -0.059741545 0.058204755 -0.06338513 0.030808851 -0.046477634 0.010479756 -0.05609919 0.025435075 0.037043802 -0.053552084 -0.040881187 -0.043822918 -0.0429387 
-0.031083196 -0.04335887 -0.019858189 0.051191643 0.06383226 -0.056379706 -0.054152448 -0.0035262182 -0.010925058 -0.0027881004 -0.013511915 0.025292106 0.06377206 -0.012144547 0.031019054 -0.0032310076 
-0.036692455 -0.05780953 -0.061185855 -0.059029862 -0.03524603 0.027843826 0.052423067 0.060860746 -0.05845793 -0.02978307 0.0628644 0.060435236 0.03898999 -0.028118066 0.05272495 0.056596532 
0.051655494 0.0058125556 -0.020703886 0.012692332 0.014842324 -0.05101159 -0.030397289 0.038502716 0.003197439 0.03224569 -0.018900786 0.014716461 0.0410401 0.00055059046 0.016449906 -0.037401564 
0.030205235 0.026773773 0.05107572 -0.021057732 -0.019133247 0.04130961 0.028329529 0.036255255 0.0049546137 -0.032811377 0.03532496 0.057269618 -0.03742709 -0.02713535 0.030342393 0.011716947 
0.04221195 -0.04090997 0.023979984 -0.033621684 0.035939008 -0.030984286 -0.022787202 -0.04961481 0.0009934083 -0.02081513 0.05176772 -0.050649762 0.038831577 0.05723115 -0.03201071 -0.021092113 
0.046361066 0.03141222 -0.010061488 0.03776917 -0.03396993 0.017185152 0.053735495 -0.03627187 0.047779694 -0.009049561 0.013659798 -0.047222532 -0.019189738 -0.049074773 -0.021833882 -0.004734643 
-0.03102091 0.007267669 0.04318911 -0.04556936 -0.04751035 0.04880546 -0.051454145 0.052833468 0.034452908 -0.00071743876 -0.018707953 0.02005107 0.02756638 0.063398056 -0.028180126 -0.03339215 
-0.051545244 -0.02931979 0.01838275 0.063911684 -0.0018893965 0.04682476 0.012539327 0.009057172 0.039908566 0.008789517 -0.036099628 -0.03911135 -0.04651361 0.056784227 0.04761125 0.0112405345 
0.035371527 0.008592784 -0.02259555 -0.018604718 0.005152516 -0.043812685 0.011516109 -0.0267144 -0.019429501 0.04234665 -0.025805984 0.05616329 0.0475424 -0.022031903 -0.043451566 -0.045649506 
-0.011937335 -0.055530757 0.03191472 -0.024240993 0.033768915 0.035067953 0.048423365 0.03897375 0.028230846 -0.0019128695 -0.021261364 -0.04428275 -0.008269206 -0.019471295 -0.037597295 -0.04130967 
-0.04535997 -0.015507832 -0.016803477 -0.014482219 -0.015331369 0.038447514 0.054158308 0.016279012 0.060776137 -0.017439816 0.008256428 -0.018136818 -0.030856486 -0.045392267 0.033279173 -0.028328098 
0.031592026 -0.047133535 -0.048346043 0.020333976 0.062681444 0.019179426 0.051054716 -0.03957247 0.05346238 0.04494988 -0.008766733 0.0029816255 -0.0039089397 0.04266222 -0.023510683 -0.0018424168 
-0.05961588 -0.052368954 -0.0039563924 -0.03608212 -0.01226785 0.009879455 0.05484727 0.023971453 -0.04819896 -0.03285656 0.0110961795 0.024755567 0.040357545 -0.0585158 -0.027483705 0.06408665 
-0.0070099346 0.021269083 -0.043914188 0.0009185374 -0.023249257 -0.0036045238 0.019904166 0.053716518 -0.038727216 0.0058253333 -0.06263101 0.042802908 -0.05557506 0.05177743 -0.036327638 -0.014429625 
0.04854788 -0.019319072 -0.0013905987 0.051306523 -0.04947676 -0.02463102 0.03498508 0.053904332 -0.0032909922 -0.04935973 -0.06250376 -0.053504 -0.048208565 -0.06025001 -0.063273914 -0.03436604 
-0.058432415 -0.04987992 -0.0129274465 0.004068278 0.046427757 0.039015524 -0.010366224 -0.010768324 0.0013548508 0.05983033 -0.048883133 0.021392666 -0.06405456 0.04790722 -0.019610003 -0.022387147 
-0.021911882 -0.016065896 0.010901526 -0.057035804 -0.010222197 -0.03293195 0.015113652 -0.042079166 0.015943877 -0.016217321 0.011329286 0.020559452 0.040961824 0.007967629 0.019293003 -0.0075822696 
0.027354866 -0.031056378 -0.063507035 -0.043264702 0.010993347 0.04961837 -0.016692631 0.013137773 0.028339408 0.031109765 -0.027384613 -0.061173722 -0.010343596 -0.03228156 -0.05134236 0.04415188 
-0.019293007 0.049400344 -0.033360563 0.056869663 0.016738132 0.054148354 0.011439718 -0.06334044 -0.014917638 -0.04491714 0.043578632 -0.060420398 0.055414803 0.010392845 0.024470083 -0.06160374 
-0.021330483 -0.0096025765 -0.049068987 0.043156877 0.0005093664 -0.0015848726 0.04872206 -0.0317481 -0.00033293664 -0.061451826 -0.0426455 -0.0632233 -0.032323457 0.046373203 0.0583878 0.0360268 
-0.05104838 -0.04060667 0.014300205 0.026128322 0.027839966 -0.058004513 -0.03292049 0.052672222 -0.041535906 -0.016577274 0.04120265 -0.0387911 -0.0439281 -0.06255255 0.031209648 0.039354183 
0.003059961 -0.0625334 -0.025133055 0.047656357 0.016609095 -0.063770354 -0.0049013644 0.058762424 0.03597922 0.022573411 0.027380012 -0.025187563 0.062223338 0.008577302 0.0038636327 0.016073532 
-0.024035566 -0.044719044 0.054394267 0.03178288 -0.047222517 0.027558573 -0.04027076 -0.043674886 0.031139992 -0.028279204 -0.01885556 -0.030691102 -0.0016423315 0.023117945 -0.050215986 -0.019957758 
-0.021021556 -0.0034508891 0.03786184 0.037147224 0.029204905 0.0445501 -0.064243466 -0.02304788 0.015721485 -0.041667156 -0.038368292 -0.007992636 -0.0015198216 -0.025208674 0.0057394356 0.0034214184 
0.06017012 0.0235717 -0.042474434 0.027542837 -0.029723052 0.053798907 -0.010307174 -0.011762992 -0.038349543 0.05030147 0.019619003 0.029889464 -0.03856145 0.016691186 0.05844728 -0.043233387 
-0.0116685 0.0046363175 -0.018283118 -0.007067237 0.0072461143 -0.0579344 -0.042279206 -0.015276965 -0.0101735 0.05074142 -0.01769638 -0.008937594 -0.05902236 0.06345815 -0.03681142 0.023356803 
-0.01801775 0.024568424 -0.0057475828 0.06041906 -0.0031797476 -0.016372122 0.04336171 -0.03549649 -0.0030684434 -0.02270902 -0.051303193 0.060504735 -0.030181393 0.056028448 -0.024432737 0.039031297 
-0.058716074 0.043527156 -0.026024286 0.051016055 0.028838068 0.029343188 0.023024388 0.0046195015 0.011191778 -0.030874163 0.040482476 0.018847935 0.05706104 -0.02801828 0.019984819 -0.016263392 
-0.042568773 -0.004640352 -0.036312405 0.023945644 -0.041377313 0.0041064173 -0.008549307 0.0332053 0.035490945 -0.04978744 -0.0047473162 -0.022506077 0.027847402 -0.027497713 -0.034880094 -0.033334665 
0.016336575 -0.054014385 0.011530362 -0.034187447 -0.03411057 -0.06108535 0.008039184 -0.035562642 0.04224863 -0.013364676 -0.0605816 -0.01451505 0.0038185567 -0.024627581 -0.045353528 -0.0022184066 
-0.041314643 -0.012923505 -0.024262778 0.020728417 -0.046953775 0.056664914 0.013457172 0.01595226 0.030646853 0.038017467 -0.025305819 -0.030812688 0.05555843 -0.041750308 -0.023393702 -0.0059359223 
0.042764135 -0.035030395 -0.0029577203 -0.006061297 0.04751478 -0.059643127 0.057123296 -0.036093075 -0.05587552 0.04215411 0.06026557 0.00010549277 0.036519796 0.028308861 -0.047330465 0.03020218 
-0.03908206 -0.03933307 -0.017950289 -0.00019521266 -0.014267709 -0.022951636 0.040572383 0.025399357 -0.05113595 -0.060303323 -0.028863303 -0.04642544 0.006439626 -0.039778344 0.05188007 0.013880461 
0.05807381 0.056781895 0.024296917 0.04344219 0.0010113716 0.02913607 0.047250748 -0.016423717 -0.048589826 -0.02244971 0.049605757 0.034256086 0.054310896 -0.027155403 0.001477249 -0.043592542 
-0.030998126 0.05863361 0.052016765 0.032980956 0.022560403 0.0075730756 0.0109497085 0.04257839 0.05316881 -0.036633052 -0.011664908 -0.019433461 -0.023195114 0.002488546 0.04645574 0.06403657 
0.04606983 0.0021621883 -0.04174207 0.04141774 -0.04597888 -0.016699135 0.024238616 -0.06179846 0.034657866 -0.019404817 -0.038185906 -0.059433755 0.026377797 -0.02701955 -0.046939783 0.042669065 
0.0045289993 0.027661517 -0.0052607358 -0.033309318 0.039628223 0.01956661 0.049508445 0.048132315 -0.02722685 0.021427333 -0.05025299 0.017574027 0.045811653 0.0604235 0.010549791 0.006635867 
0.0029732287 -0.013353188 0.032118164 -0.01837267 -0.04449864 -0.0056004077 0.03205052 -0.054771513 -0.056315865 0.051908374 0.014001384 0.002846092 -0.011184078 -0.04122228 0.06276385 0.021683209 
-0.015665546 -0.01480196 -0.015019603 0.03747861 -0.024824787 0.04560785 -0.050397344 0.028304271 -0.014371067 0.048209623 -0.02669878 -0.04957205 0.048740543 0.053955257 -0.013282537 0.030112006 
0.03268134 -0.011428475 -0.004936021 0.044552416 -0.04119252 -0.039620705 0.01189734 0.04566233 0.003088206 0.056926094 0.027861685 -0.033678938 -0.025497656 -0.004510727 -0.0058291554 -0.0034079924 
0.041738912 0.050490163 0.04492814 0.0481871 -0.055046163 -0.016298939 -0.023372345 0.045001596 0.032044753 0.0027422085 -0.04438284 -0.051919498 0.039993756 -0.011097118 0.0212216 -0.039637916 
