-0.0426179 0.004080997 0.03876384 -0.052438866 -0.03534699 -0.0019615039 -0.03658219 0.0072804256 -0.026997933 0.03366862 -0.00161103 0.00273628 0.04027565 -7.510839e-05 -0.026662368 0.026325112 
0.07087159 -0.062213764 -0.02753311 0.04063346 0.044406265 0.019495508 -0.017011266 0.04582053 0.04565874 0.018101823 0.053794637 0.038667887 0.061509192 -0.01220122 -0.03313744 0.07138426 
0.019868778 0.024005044 -0.033337224 0.029228602 -0.06358968 -0.04162412 0.008737034 -0.0071488507 0.035494182 -0.024302019 0.065539256 0.0020881281 -0.0031687147 0.008231584 -0.024076568 -0.015719665 
-0.030166876 0.06973642 0.04213626 0.03389304 0.03858669 0.03399336 -0.0636895 -0.013171534 -0.026958227 0.016976068 0.024741212 0.0032086826 -0.023662204 0.021319456 -0.01993567 -0.046404965 
0.06673205 -0.0531569 -0.040320404 0.06396398 -0.010152715 0.0019369902 0.067903765 0.040395938 0.026749935 -0.0064539313 0.04129144 0.0012574643 -0.0278844 0.012473194 -0.040846564 0.013322052 
-0.008540492 0.0064780675 -0.0014382761 -0.038286634 0.014891963 0.032824513 0.009801782 -0.002179203 0.038096726 -0.0007469201 -0.041413974 0.005334032 -0.003430537 0.0025218164 -0.030564846 0.056381978 
-0.024989553 -0.033890367 -0.039133236 -0.03671348 -0.014540724 0.037204888 0.01565352 -0.006822902 -0.06498177 6.914466e-05 0.036174446 -0.016637826 -0.025356628 -0.015998092 -0.019779831 0.043370187 
0.023873618 0.024530046 -0.009837553 -0.0727208 0.037473973 0.04049964 0.06568711 -0.02140877 0.02502047 0.03170721 -0.03380191 -0.049673922 -0.0007806521 -0.008074186 -0.0022405423 0.0388699 
0.02839875 -0.03522029 -0.009671939 -0.040914547 0.031391386 0.038850017 -0.0007758108 -0.024669843 -0.020408252 0.043581374 -0.008171588 -0.02535207 -0.0056336075 0.0066189067 0.010100005 -0.028953256 
-0.028145524 -0.0038675428 -0.0062832995 0.018332146 -0.03504137 -0.034220796 -0.004020354 -0.025726885 -0.02055947 -0.029274447 -0.022342099 0.01022919 0.035557497 -0.020519279 0.017431198 -0.017882675 
0.0014892435 -0.021062825 0.041862898 -0.012338635 -0.008627324 -0.026061907 -0.013832773 -0.03353919 0.03155597 0.02626235 -0.010838673 -0.033109736 -0.030146146 0.017567014 0.0014202475 -0.037132073 
-0.003890499 0.002562735 0.028921144 0.03122477 -0.034251966 0.028942844 0.033480663 -0.020914102 -0.010590105 -0.018401053 0.017245235 0.039020598 -0.00290087 0.039480895 0.038220976 0.027524399 
-0.011180289 0.008994325 0.059001524 -0.05618723 -0.040092263 0.017738126 0.01176051 0.016329039 -0.022130195 0.0687584 -0.067821614 -0.019865377 -0.0051877364 0.013343172 -0.025141297 -0.067484364 
-0.027418941 -0.010411905 0.02743344 -0.003776205 -0.04396711 -0.02681989 -0.015238732 0.014835082 -0.009721315 -0.028214853 0.0060745343 0.03274245 -0.032454282 0.027254209 -0.058080122 0.033748146 
-0.0018515709 -0.027145902 -0.0061825886 0.03791894 0.030284686 -0.029822942 -0.037697833 0.0058650803 -0.019430641 0.04821234 0.030743577 0.04281723 0.0046000495 -0.008528407 0.036536608 -0.017760994 
0.005159033 0.012036167 -0.0034972841 0.039559588 -0.066834114 0.0048871604 0.021850817 -0.006885589 0.033289183 0.0021899645 0.07848061 0.0014191666 -0.018960293 0.0006459464 -0.040065367 0.023210775 
0.027493171 0.0052055405 0.035059687 0.011250632 0.03920406 -0.038507313 0.02441767 0.00606192 -0.006484026 -0.026578164 -0.030438479 0.017603436 0.008404075 0.0018980942 0.07407674 0.027827008 
-0.04387218 -0.0019379226 0.012490983 0.0040903133 0.029062921 -0.0057256036 -0.033710342 0.029597513 0.0228964 0.016541814 0.037365366 -0.0059318254 0.059364337 -0.0066185 0.02668482 0.013288373 
0.008521141 0.04104459 -0.021367365 -0.035815466 0.052738443 0.013781113 0.041737918 0.024100978 0.04947134 0.030725865 -0.008823647 0.0011398633 -0.03209169 -0.0062760836 0.061345555 0.02097221 
-0.018187767 -0.029547662 -0.006632346 0.005830935 -0.011300829 -0.01672682 0.035483014 -0.06981246 0.036976986 0.011698168 -0.016452631 -0.0010027965 0.037768904 0.013454603 0.043881267 -0.010923494 
0.019995503 0.03990189 -0.005985716 -0.004808309 0.006359746 0.013016018 0.01168523 -0.0061866776 0.028389847 -0.01710255 0.0017131947 -0.004270637 0.0014706155 0.00044502228 0.034725405 0.0059237448 
-0.03293529 0.008296248 -0.0041786795 -0.04349771 -0.009397292 0.010133426 0.0072904336 -0.010353822 -0.007570158 -0.009853425 -0.007616097 0.044558764 0.007980775 -0.012924087 0.04101021 -0.058019023 
0.015959557 -0.004381478 -0.034343455 0.027604593 -0.03017964 0.026179254 0.029142167 -0.03814836 -0.031604104 -0.023706056 0.007997895 0.0020069662 0.014105166 -0.012620199 0.0042124554 -0.010305066 
-0.0276198 0.03176999 -0.020890277 -0.014950079 0.018823666 0.001833056 -0.009107958 0.019297011 0.0046575004 0.035077192 -0.015318887 0.008010683 -0.024548564 0.006976199 0.03062652 0.021682603 
-0.017761292 -0.01943483 -0.006319245 0.005772973 -0.032925386 -0.003909339 -0.023046415 0.014836996 0.027241156 0.019611185 -0.0066861 0.043353647 0.043545913 0.008591066 -0.021677388 -0.008689905 
0.017369438 0.07152114 0.042695455 0.0067042857 0.0452164 -0.027822103 -0.059039753 -0.037043575 -0.049059153 0.034008186 0.050321825 0.061638 -0.03775733 0.01883551 -0.0039624623 0.024007231 
0.04667293 -0.0444543 -0.052498776 -0.014878463 -0.05413306 -0.027659914 0.044833 0.026363345 0.012833544 0.05151174 -0.012786818 0.06227929 0.034061145 0.033703912 0.047524735 -0.040491983 
-0.00052445143 -0.03635902 -0.0066915145 0.040402252 -0.040122826 -0.02595605 0.044660002 0.0757054 0.054750144 0.010579336 -0.043876518 0.009883672 -0.016176239 -0.0204606 0.07314929 -0.072610915 
-0.035032835 0.007908758 0.0186968 -0.013021628 0.021539874 0.056404196 -0.01067425 -0.0013593057 0.0105086425 0.00022677214 -0.03177018 0.044435624 -0.008741839 -0.042314034 0.016063515 -0.0016340531 
0.008378081 -0.024090897 -0.0053293933 -0.017872911 -0.032561757 -0.006597208 0.036927857 -0.013338772 0.024798514 0.020638565 0.033348124 0.013923049 -0.033583302 -0.039460093 -0.011059435 -0.037239946 
0.01119415 -0.012066602 0.042648226 0.02375416 0.019027678 0.05085148 -0.0024902273 -0.040039998 -0.01897342 0.018237054 -0.006546807 0.040471062 0.06450012 -0.04416451 -0.0024936607 0.033844028 
0.006006087 -0.039158285 -0.0018882876 0.04345091 0.003914933 -0.0011192787 -0.015470384 0.042111937 -0.0030202705 -0.0008032557 -0.015548164 0.019412048 -0.013737932 -0.032995388 -0.03134735 0.022519575 
-0.015212554 0.0025501482 -0.032986328 0.040411554 0.029590016 0.025808288 0.008744494 -0.0060267514 0.012064869 -0.008343326 -0.007746182 -0.0034908403 0.015163524 0.008717958 0.017742082 0.044211768 
0.0057909866 0.0007413277 -0.0058135577 0.033197507 -0.036541864 -0.003393449 0.005423317 0.029612452 -0.011731665 -0.018641554 0.0026507438 0.0015023468 0.0073017576 0.002246933 0.019650979 -0.026499651 
0.023298133 0.0030098213 0.0045201764 0.02595002 -0.012557577 -0.034014806 -0.023417842 0.06533894 0.002938542 0.012376864 -0.038344804 0.029140811 0.04557865 -0.024091307 0.031956326 0.010123147 
0.05643975 -0.04138636 0.041088127 0.032430004 -0.06150703 0.0076904157 0.050829597 -0.034173094 0.016883785 0.061148793 -0.050943714 0.057367288 0.018041562 0.035763506 -0.007963918 -0.008761404 
-0.033335477 -0.009627373 -0.018292796 0.0030634229 -0.009161579 -0.019000158 0.016991759 0.0038779674 0.029639432 -0.002355774 -0.00077964534 0.038037308 0.018577827 -0.006994834 0.013214384 -0.009825839 
-0.013585708 -0.024448028 0.042185307 0.019091597 0.0019696406 0.024363397 0.07542612 -0.006670138 -0.0049490877 -0.026084313 0.005253277 0.025921036 0.009771657 -0.0010523456 0.038229246 0.037554197 
0.0070586773 0.035455003 -0.053539455 0.008490584 -0.029702052 -0.016210122 0.055217806 0.022830058 0.005900274 0.0801758 0.08053255 0.028381193 -0.011898274 -0.023935106 0.00053901144 -0.00013985125 
0.02617272 0.017085642 0.042985886 0.038122993 -0.060078114 -0.0034467296 -0.022748347 -0.038533244 0.01893077 -0.071010984 0.014262334 -0.041664973 -0.02443392 0.01200376 -0.030570878 -0.027084766 
0.08059914 -0.062020168 -0.0320527 0.056335326 -0.048689794 0.01252159 0.05372924 -0.008479362 -0.0067002475 0.019038877 -0.073813304 -0.024842037 -0.067628704 -0.041354112 0.016160196 -0.0500369 
-0.03825087 0.04592053 -0.02965229 -0.03917234 0.025831064 0.00970477 -0.000770797 0.039128125 0.02222294 0.0174103 0.0047868616 0.043093883 -0.039811157 -0.020048793 -0.021331366 -0.014686264 
-0.0031195562 0.030033194 0.0021674954 -0.0037410161 0.033910498 0.026745388 -0.027610542 -0.021597378 0.008857931 -0.009500001 -0.035617746 -0.004340613 0.036066316 0.002047646 -0.007447433 -0.039252922 
0.043847088 -0.030335901 -0.009970175 -0.03919379 -0.040563006 0.009001579 0.015637608 -0.035469566 -0.013032634 -0.029953456 -0.006721292 0.00260132 -0.009374833 -0.039884053 0.012591896 0.028628824 
0.004262716 -0.044874683 0.027719624 -0.024396751 -0.035692703 -0.00044298437 -0.033763796 -0.006779807 -0.0012497122 0.02255837 0.018174497 0.029111061 0.0024954719 0.0018538415 0.0579946 -0.022229033 
0.039251804 0.074037254 -0.00056873297 -0.009031304 -0.0402244 0.029814648 -0.015996024 0.017098773 0.031991124 -0.0046849456 0.01576639 -0.012640441 0.050658625 -0.03434457 0.016364025 0.021789176 
0.04449591 -0.020096187 -0.021474 0.015701156 0.016356558 -0.010190757 -0.030136447 0.013861401 0.00075240637 0.003724178 -0.0032111385 0.034004826 -0.026386902 -0.0018041465 0.023717375 -0.013129471 
0.044277333 0.02750135 -0.022894027 0.03228264 -0.044244602 0.0069478536 -0.021075511 -0.021917563 0.07127278 0.025867052 -0.006504715 0.073730096 -0.013764277 0.02792856 0.034560952 -0.0035424137 
0.025191372 -0.015143371 0.0805153 0.033944048 0.0149172 0.036399573 0.07992757 -0.029972298 -0.04300578 0.022125633 0.039172947 -0.020469816 0.018330423 -0.041581936 0.0058179493 -0.023461431 
-0.0037675651 0.0068224524 0.03548041 -0.026373763 -0.0013860007 -0.037185058 -0.024422357 -0.015775269 -0.015727632 0.0068781865 0.0025440329 0.014335466 -0.017161634 0.00063781603 -0.022207746 -0.0073713227 
0.022862364 -0.030374538 -0.020582724 0.037327807 -0.043965075 0.0025614002 0.008039692 0.007997852 0.045415435 -0.003906323 -0.01065474 0.06591558 0.005915562 -0.011852105 0.0009516399 -0.02133935 
0.008346244 -0.034216538 -0.03844969 -0.0066721514 -0.044874817 -0.043905742 0.053899616 -0.020387635 0.037055444 0.012956431 0.072544 -0.020576015 0.06140551 -0.0077691516 0.014867936 0.038367596 
0.00488873 0.06450259 -0.044631023 0.018033022 -0.046248656 0.0024608455 -0.033210337 0.0113480715 -0.06746427 0.01420725 0.03798338 0.07945644 -0.04768218 0.046815112 -0.009362337 -0.029843539 
-0.042863213 0.025353227 0.003187987 -0.005697048 0.009803109 -0.024333386 0.027346294 0.025625912 -0.01055015 0.005434797 -0.02666295 -0.017809693 -0.028459813 0.0063468614 0.0043900507 -0.031118872 
-0.021178387 0.046020564 -0.01674966 0.07656877 0.046409853 0.074755885 -0.0063438565 -0.0062978067 0.035513476 0.07711074 -0.0060258224 0.05299217 -0.021824623 0.028556513 -0.031438757 0.024792617 
0.023230994 -0.009546643 -0.022926254 -0.02717437 0.04355607 -0.030709576 0.028889494 0.027838314 0.019493813 0.025782878 -0.0203073 -0.0067676376 -0.023601692 0.01550549 0.009235955 0.04505991 
0.026820563 0.057014484 -0.014673428 0.015575636 0.034303352 0.04067288 -0.05559868 -0.007945178 -0.05527911 -0.060069066 0.030741904 0.00016160017 0.016531782 0.01490132 -0.015999798 -0.007423867 
-0.034917526 0.0046807188 -0.009137314 0.018083801 0.022885961 -0.030024666 -0.029108822 0.029019864 -0.009942342 -0.030713301 0.077877305 0.029983077 -0.02756469 -0.009802627 0.031521846 -0.055761818 
0.010493839 -0.036844563 0.060091473 -0.055333093 0.026319912 0.004748327 0.0571751 0.024835 -0.0014030143 -0.0047346475 0.0058039273 -0.00059193233 -0.034363322 -0.005637244 -0.014406293 -0.04570292 
-0.0051009166 -0.0063753477 -0.010856168 -0.028087152 0.022005843 -0.0038657633 -0.03955324 -0.038588822 0.031905778 0.022849152 -0.033539582 0.0009884578 -0.035857603 -0.00035473896 0.02083863 0.013181956 
0.0024071338 -0.01889249 -0.021024961 -0.012347571 0.014757893 0.0068439487 -0.03656943 0.013470411 -0.0012805121 -0.0043436117 -0.0010064603 0.0010527817 -0.00022466994 -0.0015760682 0.02628782 -0.038388103 
-0.03152472 -0.0022995502 -0.030442143 -0.046423092 0.055812802 -0.04273146 -0.04304183 -0.005556929 0.036538754 0.049348004 0.002990206 -0.0035124563 -0.0058283014 0.03994763 0.020890947 0.041940752 
-0.024203546 0.010363377 -0.03262661 0.009719926 0.06130325 0.032848794 0.0038790964 -0.008924371 -0.019850388 0.0013940914 0.020248657 0.0020321894 -0.0063166223 0.035481703 -0.03426783 -0.0332086 
0.015771227 0.045247674 -0.06497993 0.015352436 -0.00829306 -0.01030147 0.044342842 0.045100562 0.021249551 -0.043922797 -0.0055281296 -0.03148903 0.04303401 0.040182408 -0.0035620008 -0.004832427 
-0.035572022 0.04700226 0.022368021 -0.010160428 0.00035867142 -0.024710521 0.07687027 -0.023122238 -0.016048029 0.02656099 0.021419033 -0.0428561 -0.027866572 0.03851916 -0.013414122 0.001588255 
-0.012397165 0.061817903 0.0046047196 0.0046696286 -0.02721021 -0.033495452 -0.0058643078 0.046765544 -0.039397962 0.070783116 -0.04007207 0.034976885 0.03324764 -0.010864732 -0.06709678 -0.005441642 
-0.040197734 0.0120273605 0.0277256 0.0058318027 0.002499771 0.016642928 -0.010857876 0.011502138 0.033779554 0.04069317 0.01850927 -0.006178869 0.0053841034 -0.006679075 -0.025578644 -0.013689403 
-0.018336708 -0.026640108 -0.0076092533 0.007005538 0.01789031 0.007574602 -0.0048265588 -0.032913778 0.042898167 0.03639841 -0.0056778975 0.017607456 -0.006610906 -0.014373523 -0.06655816 0.014520984 
-0.03278559 0.026519284 0.010479977 0.036659762 0.022201125 -0.0027926238 -0.028734157 0.024818966 0.026825292 -0.003228612 0.02230173 -0.009698801 -0.030144865 0.0012533816 -0.008272666 -0.01258035 
0.031187264 -0.037546795 -0.004187331 0.023154454 -0.025870252 0.0061896658 -0.024555778 0.024183292 0.004506326 0.014544254 0.0017501392 0.0061026188 -0.037308406 -0.010197744 0.0013163645 0.03342606 
-0.0036878115 0.020441923 0.018429337 -0.036204517 0.04309235 0.015722824 0.034293257 0.02878911 -0.04298805 -0.015787223 0.023082403 0.04873414 -0.03540064 0.008274098 -0.04033696 -0.020250227 
0.0145567525 0.033501513 -0.014407171 -0.033787075 0.0050441218 0.0118160965 -0.015654583 -0.013455139 -0.0229429 -0.005278767 0.029796949 0.020494487 0.0010970392 0.01030258 -0.0023846072 -0.053183377 
-0.0008690858 -0.021342136 -0.013912469 -0.0004752368 0.01627803 -0.012370516 -0.02024847 -0.019281873 0.022140078 -0.0015743539 -0.038512066 -0.006249373 -0.0009003115 -0.003494588 -0.0014597118 0.017826281 
0.005488823 0.04136812 -0.04369109 0.038862165 0.04002186 0.012138393 0.0031531455 -0.03172902 -0.015010283 -0.014324202 0.002984104 0.0119480835 -0.016244002 0.04287147 -0.004346693 0.055044185 
-0.0073273415 0.024719287 0.007740979 -0.0070659304 -0.022260956 0.011380486 -0.0059868093 -0.020638911 -0.021108685 -0.03553214 -0.023113675 0.026107026 0.01077027 -0.004194517 0.005624101 0.05767805 
-0.0054162396 -0.005685763 0.07878201 0.02076304 0.08109099 0.005926885 -0.04356106 -0.032989535 0.016934214 -0.051729288 -0.07022502 0.02095083 0.0034763122 -0.014442103 -0.029938165 0.06737295 
0.019463656 -0.02855702 -0.074584365 0.022976851 0.036948603 0.08192852 -0.019449258 0.035051327 0.01445435 0.020891285 -0.038010918 -0.00049922825 -0.030326225 -0.035852358 -0.042001575 -0.03103728 
-0.015862728 -0.057945654 0.03108207 0.0013830673 -0.035907615 0.027286656 -0.012524053 -0.014322722 -0.035232294 0.025025155 0.03926583 0.029662736 0.04019373 0.03770205 -0.024033347 -0.06939347 
-0.018106455 -0.043536346 -0.021572817 0.050205376 0.04084195 0.03233845 0.063678116 -0.01980151 0.05081877 0.019176913 -0.052277688 -0.0016702095 0.030677758 0.03190766 0.08025171 -0.054485556 
-0.04320993 0.019107843 0.023717964 -0.038616236 -0.014451257 -0.0062480397 -0.016283521 -0.021601073 0.042995684 0.008839021 -0.004984873 -0.044179764 0.023136022 0.030534005 0.0127184335 -0.027249848 
0.04834225 -0.032541793 0.0038954832 0.014972898 0.02987748 -0.030620156 0.030274104 0.015549295 0.007165329 0.054346208 0.0063261795 0.021843007 0.033913005 0.022665057 0.022227563 -0.02493834 
-0.042793877 0.017749213 -0.026346732 -0.056101713 0.039411906 0.015062301 0.020462727 0.01923743 0.05422543 -0.039392397 -0.046511263 0.043912936 -0.039189614 -0.0064778267 -0.04382361 -0.048718292 
0.015665198 0.040225927 -0.045066874 0.024759684 0.02115872 0.06821583 8.5346466e-05 -0.06860058 0.0077369176 -0.0062508066 -0.022169098 0.036044285 -0.03832245 0.0076291403 -0.0015879978 -0.037209734 
-0.0036129353 0.041927915 -0.06321388 -0.021980887 -0.01065555 0.04660273 -0.05315496 0.028054798 0.022541566 0.029103547 0.036654808 0.06315788 0.050824795 -0.016482083 0.010465259 0.017408788 
0.073771305 0.022624478 0.039965175 -0.031729024 0.0036846555 0.026947584 -0.040870357 -0.017330451 -0.003956525 -0.038052753 -0.04832059 0.019202888 0.017268877 -0.016541785 -0.010911205 -0.011431322 
0.026146213 0.0072499327 8.444751e-06 0.030391628 0.0044316985 -0.040270288 -0.012748617 -0.05202357 -0.006556723 -0.0044333097 -0.032249447 -0.0060509685 0.011645799 0.0022807945 -0.06612334 -0.025082542 
0.021349084 -0.0020284946 0.021826312 0.068567924 0.01435137 -0.020891478 -0.06468218 -0.0163617 -0.02010049 0.0024667208 -0.038754966 -0.01362795 -0.015037912 -0.04033054 0.060647953 0.031797882 
-0.03752101 0.024188643 -0.002007735 0.022685392 -0.009396824 -0.036464076 -0.02837193 -0.03517282 0.023923673 -0.03529352 -0.04330649 -0.03962745 0.041409157 -0.027698863 0.048202846 0.006585899 
-0.023326907 -0.0449611 -0.039962173 -0.03369683 -0.03148907 0.045201406 0.06420207 0.013734003 -0.014885225 -0.058235288 0.069652475 -0.048832145 0.012547954 -0.012953757 0.039956708 -0.02049145 
0.040176943 0.073718674 0.057037078 -0.0049147326 -0.020188523 0.0047699553 0.038464036 -0.02659664 0.031703644 0.029973302 -0.028504962 0.013506945 0.008654016 -0.0095361145 -0.027080664 0.020250572 
-0.0016914868 0.022947907 -0.0032418855 -0.007089818 0.010932101 -0.03241062 -0.023573013 -0.030999158 0.004758127 -0.029512525 0.016815148 -0.00023016616 -0.0015679586 0.041385006 0.028371897 0.04405057 
0.02016081 0.022467202 0.007215671 -0.004011414 0.0082399715 -0.03585431 -0.014723536 0.009119231 0.052086037 0.028060539 -0.02280683 0.05881331 -0.008159896 -0.023418358 0.022638062 -0.026240809 
0.0010032011 0.003548024 -0.008998679 -0.06824134 0.027607156 0.020931862 0.064202376 -0.04268271 0.024768269 0.013219256 0.060468365 0.03347757 0.0040801517 0.029597336 -0.020500543 0.026754702 
0.02422331 0.02918548 -0.05964939 -0.064684935 -0.061406717 -0.023526315 -0.014842846 0.02106771 0.021515213 0.018531466 0.017438691 -0.03803519 -0.07165378 -0.023994545 -0.04773376 -0.04635026 
-0.0082450295 -0.005110192 -0.010206482 0.017678544 0.0022148355 -0.001963263 0.029424746 -0.030818706 -0.015279776 0.03281556 0.045632787 0.027247371 -0.05902583 -0.026768317 -0.0032380112 0.016224302 
-0.014698492 -0.014499999 -0.0028801358 0.0017705032 -0.060229838 -0.016062003 0.06616173 0.030366905 -0.011552218 -0.041112006 0.077835776 -0.007266168 0.021148682 -0.018467784 0.018437864 0.037794806 
-0.019981565 -0.020036403 -0.02295253 0.009697637 0.028409908 0.046472896 -0.057499845 0.035934977 0.053290088 -0.026678352 -0.04417102 0.0022724986 0.051882308 -0.027511371 -0.035306904 -0.032988507 
-0.0051864306 0.046786506 0.05688618 -0.054274604 -0.00430963 0.042694822 -0.01699446 -0.066338345 -0.07515361 0.035888314 -0.01716297 -0.03237678 -0.04523956 -0.02019671 0.05252715 0.022171 
0.036492486 -0.01620398 0.011992138 0.02530459 0.042529143 -0.011803152 0.03282122 -0.0050230115 -0.03695731 -0.024136953 -0.057588216 0.03301985 0.014093559 0.0010717646 0.011075609 0.053722177 
0.02999724 -0.022953438 0.040296625 -0.07722791 -0.034459732 -0.03486556 -0.033542983 0.059135336 0.03719809 -0.009819631 -0.027179694 0.0029900214 0.01586286 -0.040861536 0.05606299 0.022399776 
-0.042081226 -0.011994235 0.016117156 0.033006027 -0.003930865 -0.039707623 0.042383786 0.0034220964 -0.057509493 0.036435947 0.023039438 -0.013141483 0.0048267785 0.034258973 -0.03739936 0.012753138 
-0.0013868841 -0.014768793 -0.04303007 0.005489924 0.0034003495 0.021975143 0.0043844236 0.012615057 0.004491778 -0.020334637 -0.00454731 0.022057336 -0.002770514 0.042916168 0.02105678 -0.033125706 
-0.0048301048 0.026541501 0.0056988806 -0.0053299977 0.029018084 -0.041669272 0.066130966 -0.0041038794 0.04411559 -0.04882005 -0.041296948 -0.029475816 0.026606668 0.023766844 -0.0060807527 0.007847387 
-0.0034027928 -0.038591135 0.02860175 0.00789792 0.039599 0.016398737 0.0137561625 0.020076387 -0.017350554 -0.05771697 0.013111691 -0.044068612 0.0068439734 -0.013287139 0.03604443 -0.031512324 
-0.009063233 -0.008653111 -0.0038435033 0.00020619889 0.010341648 -0.015186239 0.037378434 -0.021460705 -0.017832872 -0.015909106 -0.016000634 -0.01293098 0.032685734 0.001780947 0.07290649 -0.025764568 
0.032403663 -0.025629688 -0.029986227 0.0012203453 0.036619492 -0.0011899573 -0.016104354 0.02747221 -0.0007425352 -0.017124796 -0.038498938 0.03639937 -0.030446613 -0.03151906 0.020012073 0.012270117 
0.009869526 -0.03617454 0.0115482025 0.0019016492 0.03405795 0.0022394513 0.028571187 -0.041508615 -0.022374617 0.027923884 -0.0152682355 -0.041589487 -0.00030817537 0.03158127 0.000657268 0.02342551 
0.0047825333 -0.044557557 0.043591704 0.04402519 -0.025261275 -0.04040022 0.05252129 0.028311908 0.03472533 0.01464178 -0.017412927 0.022100827 5.2884603e-05 -0.00048375042 0.0021854923 -0.024544511 
0.05306838 -0.004047031 -0.0005600281 0.07292938 0.023007024 0.05446872 -0.06918619 0.06658858 0.07690395 -0.02573713 0.036424596 0.05295155 -0.043726362 -0.0050913095 0.0065791253 0.054426428 
-0.038261186 -0.041526422 0.016187431 0.0030658324 0.06350459 0.0253737 0.009616636 -0.01852309 0.03642665 -0.018342497 -0.015105376 0.005230051 -0.0011395474 -0.02457229 -0.031028831 0.010715276 
-0.015014498 0.010929965 0.023579536 0.008113745 -0.017584352 -0.02546731 0.00052719255 -0.036937922 -0.017217513 -0.039099876 -0.004369109 -0.04289815 -0.0052851504 -0.02264613 0.012970969 0.0035589715 
0.021578753 0.020487577 0.007326919 -0.013858771 -0.027873142 0.0018405298 -0.010143592 -0.018646952 -0.029940106 0.0009008202 0.03193418 -0.0017982377 0.008779835 0.037918024 -0.008869018 0.037645947 
-0.022608181 0.01193247 -0.027662773 -0.030673249 0.02608154 -0.00536284 0.020733278 0.028257784 0.0342447 0.018906197 -0.042209774 -0.02069266 -0.0013124378 0.01653015 0.032734577 0.010224474 
0.0055759717 0.032601684 0.011011209 -0.037917405 0.005972526 -0.0010372944 -0.04248913 -0.0045375344 -0.03470236 0.042090677 0.028346632 0.0044706124 0.0060729953 0.011779887 0.03989485 0.009373883 
-0.033306025 -0.018476173 0.03999531 0.035858862 0.049495548 -0.03874651 -0.027227074 0.032600336 -0.035040133 0.0044981726 -0.008165221 0.024205657 0.031044958 -0.04107073 0.030104684 0.004023771 
-0.028060924 0.0069322726 0.0037832356 -0.03056798 -0.0073076943 -0.037659638 -0.013643413 -0.006028344 -0.015405537 0.021307817 0.035139404 -0.031795382 0.037901275 0.005233075 0.008882672 0.01235324 
0.03195879 0.0005421454 -0.045374908 -0.0031575419 0.020012723 0.00017883879 -0.008393954 0.01466558 -0.04093917 -0.030880075 -0.0003351536 0.05971015 0.042144824 -0.015508243 -0.0100525 0.023937028 
0.012550805 -0.007092636 -0.05852875 -0.02301574 0.04080948 0.0023141464 -0.033332516 -0.03825875 0.0048351367 0.020216312 -0.0024136615 0.025841232 0.039763235 -0.03346078 -0.005781883 -0.015631607 
0.024695775 0.026790805 0.047507413 0.0073732394 0.07469483 -0.0349985 -0.016727028 0.028811682 -0.0018938769 -0.031429127 0.026085395 -0.022981383 0.02201892 -0.00881263 -0.002247985 -0.023865063 
0.017482197 -0.044302635 0.00053839013 0.017519008 -0.017290112 -0.007118873 0.00655755 -0.041748144 -0.01716972 -0.015503872 0.040790748 -0.022824414 -0.0050884793 0.0333563 0.022074103 -0.029341508 
0.004481361 0.008103182 0.0060952445 0.0077450834 -0.038412634 -0.008691639 -0.014345697 -0.047045678 -0.0102364095 0.036721505 -0.035228588 0.061529137 -0.013864844 0.00030673074 -0.033863753 0.028490981 
0.00019824768 -0.0022838663 -0.037078816 0.0005311245 -0.026270816 0.0619072 0.041180883 -0.03609206 -0.0069256476 0.041565035 -0.043786343 0.062454488 0.0524557 0.016389547 0.0038376097 0.029256284 
0.020238925 -0.03707976 0.016157968 0.0137076685 -0.00354631 0.0071616224 -0.007632315 0.0450966 0.0016413708 -0.012249988 -0.017355073 -0.022527395 -0.0036202031 -0.0050219526 -0.004831478 0.04444668 
0.04002151 0.016860707 0.024785789 0.025338583 -0.017057009 0.042468145 -0.023277877 -0.018311877 -0.03439705 0.035496637 -0.039677612 -0.016272398 -0.067125276 -0.020219421 0.0646971 -0.06086818 
0.0035366393 0.037212633 -0.02119957 -0.018500017 0.0053359787 -0.025369573 0.020441096 -0.011587381 -0.017530095 0.013253053 -0.008464975 0.025189426 -0.02294361 -0.040390976 -0.06013321 -0.031503595 
-0.008446511 0.0034000208 -0.059373524 -0.060909986 -0.037773512 0.034762874 0.04276356 -0.02272818 -0.024505056 -0.029493144 -0.03109665 0.011935427 0.04345367 -0.040821325 0.07530239 0.035119385 
-0.06567673 0.07240638 -0.009998411 0.008928669 0.016033644 -0.010587664 0.03317433 0.0237005 -0.022971075 -0.06705322 0.030055154 0.022924507 0.020683503 -0.027867425 0.00078544125 0.003995766 
0.03916902 0.028044006 0.004748446 -0.02405227 0.0045782938 0.008832832 -0.022187505 -0.037434563 -0.00055965537 -0.012562359 -0.017892236 -0.0048964103 0.005049421 0.01990749 -0.025956027 0.040404264 
-0.019340804 -0.019604119 0.015165565 -0.0073420606 0.0073284917 0.01096746 0.037696343 -0.06696341 -0.07008939 -0.07571774 0.013439465 -0.02864267 -0.006961952 0.030267462 0.054087378 0.0032343878 
0.0027863302 0.004977335 -0.014234515 0.0063548083 -0.037406325 0.005525086 -0.034487337 -0.009310596 -0.041170154 -0.0027428798 0.075961374 -0.012421453 -0.027512925 -0.030775616 0.009737602 -0.07325794 
0.03182765 -0.01148137 -0.06332922 -0.012778001 0.019767111 -0.018863674 -0.0035483197 0.03498687 -0.026302794 0.009328395 -0.066127285 -0.0052021765 -0.049676616 -0.041680265 0.026966147 0.08370315 
0.004916378 0.040088348 -0.01438412 -0.059960853 -0.024578935 -0.04311152 0.016881324 -0.04157951 -0.040128596 -0.033133466 -0.035260104 -0.03223122 -0.028273514 0.04391619 0.06650207 -0.022022348 
0.016310075 0.079466626 0.038479377 -0.05240514 0.03070402 -0.03981654 -0.025171159 -0.0007727924 0.03378886 0.029454885 0.009463881 0.054227225 -0.027988493 0.05866892 -0.031132912 -0.054824244 
0.01695712 0.043071948 -0.021366352 -0.016158188 -0.02378051 -0.028728602 0.006205411 0.024192832 0.042934563 -0.023480896 -0.0023411373 -0.024647018 0.018796131 0.029461594 -0.014402358 -0.028512178 
-0.035418425 -0.0253166 0.0035470852 0.030409468 -0.019989418 0.024239255 0.019537615 -0.03341119 -0.032750998 -0.019625029 -0.036409486 -0.036811095 -0.0058221733 0.015917929 0.012259472 0.032133427 
-0.026791105 0.0028336593 -0.00636678 0.039425224 0.020981774 0.0015864896 0.040624868 0.03418995 0.012831049 0.040317785 -0.03965671 -0.032716837 0.021862648 0.05462777 0.034173414 -0.07061247 
-0.04434926 -0.0027763257 0.018463053 -0.039288472 0.031606015 0.03224035 0.026013754 0.03758098 0.033922203 0.002580443 -0.041989386 -0.025360601 0.04112406 -0.02451346 0.025749898 0.021838171 
0.019306011 -0.03291229 0.0370193 -0.023006389 0.015726617 -0.004018575 -0.014451791 0.043233346 0.004004133 0.0036306977 0.01803744 0.022233076 -0.031590145 0.033402916 0.010124581 0.019451177 
-0.004116389 -0.0036042584 -0.002828877 -0.0006628075 -0.015194795 0.0058008432 -0.02612673 -0.021684457 -0.017415885 -0.005071692 -0.015927907 0.0040687 0.0013477373 -0.009931628 0.010458819 -0.03374583 
-0.010340115 0.023281012 -0.012784726 -0.058185864 0.018824484 -0.03754621 0.010580156 0.0019479878 -0.029631712 0.027323859 0.04958559 0.012481701 -0.0013022806 0.03667341 -0.012764957 0.020281576 
0.0069407206 -0.03897818 -0.009342899 5.6477857e-05 0.043649897 -0.016028162 -0.08385479 0.026599439 -0.06539014 0.04782651 -0.05976304 0.02468849 -0.017578812 -0.012341035 0.032551814 0.016218958 
0.028478438 0.03727854 0.005151552 0.018530274 0.011370396 0.011313417 0.0042014485 0.00888594 -0.011091676 0.0107150115 0.016195659 -0.0064155883 -0.00740292 -0.019934533 0.021576496 -0.03558192 
0.020252733 -0.013483772 0.029647138 0.015353289 0.028681282 -0.009691113 -0.0028525472 -0.010306972 -0.03833158 0.033442583 -0.027963039 -0.040621184 -0.0028931312 -0.014403557 0.027293766 0.013231109 
0.0067615807 -0.025140759 -0.030529162 -0.01757014 -0.016480176 -0.015329279 0.04020455 -0.0030131969 -0.029908637 -0.010303122 -0.020903429 -0.03638104 -0.00598933 -0.004478759 -0.006170146 0.028002301 
0.0016696657 0.04044276 -0.0051120897 0.024670938 -0.018746657 0.026050577 -0.034224868 -0.02352982 -0.015510213 0.013384661 -0.019351948 -0.013353157 -0.01131831 -0.044016697 -0.008388212 -0.0353003 
-0.012033986 -0.043606024 -0.027482798 -0.00013521638 0.013720623 -0.021188369 -0.02122951 0.029599281 0.017037243 -0.0054619275 -0.031950507 -0.0056376974 -0.03195057 -0.00338012 -0.04176107 0.0028661469 
-0.047180634 0.01569729 -0.008033998 0.024946734 0.023020364 0.011396925 0.037795793 -0.033984117 0.01637943 0.029096304 0.056603227 0.06908492 -0.008442469 -0.03940809 0.04339294 -0.03996762 
0.012772206 0.01718292 -0.042139027 0.01069531 -0.011679586 -0.035575252 -0.031306323 0.014162791 -0.026740285 0.05646702 -0.014301159 0.009301225 -0.0060686776 -0.0277968 0.020619519 0.046283156 
0.0052610557 0.044924024 -0.0060652527 0.033298854 0.00031008 0.04770547 0.014415452 0.070222184 -0.025915056 0.0010865575 -0.045898043 0.005108496 0.07510268 -0.02716215 0.044777516 -0.035050586 
-0.010632138 0.025387619 -0.013675335 -0.015432326 0.037235394 0.030845236 -0.03886693 0.020114046 -0.02111622 -0.023941113 0.06328312 -0.041409303 -0.023366483 -0.040766925 0.03765169 0.006072153 
0.007247924 0.008437844 -0.02570272 -0.023321507 0.05744089 0.013110173 -0.018359145 -0.044174746 -0.014066544 -0.014728572 -0.025166867 -0.029167434 -0.02597669 -0.004202268 0.0009161662 0.00229546 
-0.032463737 -0.00911605 -0.038197096 -0.026335642 -0.032636374 -0.0012907654 -0.003632631 -0.008829691 -0.025580958 -0.05920665 -0.026715394 -0.002591769 0.027208092 -0.0009536487 0.059413657 -0.055374548 
-0.04268812 -0.0049853264 0.061615165 0.00088261114 -0.025778051 0.012061351 0.0134949405 0.026474696 -0.0050091017 -0.021773681 0.025404774 -0.034510165 -0.005150737 -0.044524137 0.03987316 0.021806274 
-0.025136806 0.02630798 0.04359496 0.021250186 -0.02249629 0.03604472 0.012130176 -0.036114525 0.01729598 0.012275298 -0.00059982174 0.0055096573 0.0044642044 0.044386074 0.068273455 -0.023501491 
-0.025718642 0.03902431 -0.032218475 -0.032780584 0.035751373 -0.001030699 -0.029700868 -0.027734399 0.041906968 0.037069004 0.043694038 0.027615467 0.023403231 -0.035836164 -0.0395934 -0.06742201 
-0.030209245 -0.053990316 -0.004580769 0.030931804 -0.02108264 -0.037175387 0.054729085 -0.034884296 -0.03928882 -0.009363958 0.009991752 -0.062377516 -0.023543978 0.026537366 0.051399708 0.029298961 
0.042471103 -0.00720981 -0.040194605 0.009677249 -0.0078091878 -0.02725006 -0.05441054 0.05749295 -0.025019132 -0.01826503 -0.078885235 -0.035031423 -0.036128327 0.04203085 0.01615883 0.03442911 
0.015156777 0.011519289 0.045742832 -0.00049181486 0.045099158 0.017860748 0.02748207 0.013186474 -0.03116188 0.010953359 1.5459907e-05 -0.013981551 0.05273536 -0.027141824 -0.0016803837 0.036834132 
0.0003890472 0.005730523 0.031809688 0.008510399 -0.003689072 0.0034249434 -0.0051479023 0.02968521 -0.032981932 -0.021018008 -0.0026607064 0.0027980236 0.007294748 0.023298834 0.01675437 0.041315265 
0.0022778248 0.008149112 -0.011845758 -0.025727138 0.018554766 0.014917908 -0.042884696 0.01617087 -0.008777287 -0.021166926 0.01827279 -0.019227706 0.036269195 -0.014185832 0.028223556 0.03157689 
0.038785577 -0.016791563 0.004401978 -0.0161634 0.08091814 0.03311217 0.01048237 -0.03435168 -0.017432561 -0.02300908 0.008963888 0.0018122679 0.006697368 -0.0047749495 -0.040616382 -0.01124799 
0.0029747323 -0.038282186 -0.012945046 0.036405243 -0.0022359076 -0.025629325 0.016704863 0.046652924 -0.005764027 -0.041456167 -0.041008208 -0.01767882 -0.0052965367 0.009777016 0.00059384416 -0.06760387 
-0.014213788 0.036538616 0.03650925 0.032837566 0.0312354 -0.0065162885 -0.007382532 0.011038493 0.02193643 -0.018939601 0.015146918 0.026989186 0.04211167 -8.139806e-05 -0.016571304 -0.0064673545 
-0.0049976883 0.018867278 0.053920727 0.0043859794 0.055240538 -0.008974684 0.03563513 -0.03158356 -0.012080003 0.06768724 0.015391089 -0.008745749 0.020345159 -0.02781217 0.079243995 -0.020489452 
0.030331548 -0.032362096 0.014483782 0.0072684195 -0.008316571 -0.0059430744 -0.06549729 0.01784599 -0.053200565 -0.020246223 -0.010198965 -0.0041340785 0.0119732665 0.010591251 0.007636008 0.008203295 
-0.03406072 -0.006875506 -0.020449469 -0.029599406 -0.042036727 -0.0034046834 0.0075713336 0.008624418 -0.026300004 -0.0084750345 -0.018213108 0.040300384 -0.019418897 0.013965389 0.0056976685 -0.018379677 
0.03143548 -0.041275937 -0.03531812 0.018642582 -0.018422347 0.0025677448 0.014128299 -0.0073871217 -0.002646538 -0.02281031 -0.033488274 0.00040268418 -0.008785577 0.002381732 -0.005811948 -0.040241394 
-0.013792111 0.019706098 0.0056767925 -0.012654583 0.006309551 -0.034751046 0.03573352 0.017839085 -0.010066327 -0.033507124 0.015875364 -0.03525117 -0.0402314 -0.03870185 -0.008438456 -0.0018143823 
0.040325217 0.024924392 -0.0044402326 -0.047898307 0.0064204913 0.042675186 -0.0232575 -0.06804595 -0.036625832 0.068511106 -0.035616662 -0.01722091 -0.014807772 -0.00207655 -0.04029518 -0.025029523 
-0.007275095 -0.007282148 0.018175352 0.0062031955 0.019664794 0.024413116 0.011857708 0.026618589 0.006729331 0.03226944 -0.008541497 0.0037025323 -0.02178873 -0.018296337 0.0167418 0.0075794333 
0.018898215 0.024610162 -0.0030518724 -0.0152967125 0.0034154672 0.026815342 0.0018577517 0.044335127 0.01001587 -0.022801923 -0.014336396 0.0014952638 0.020567033 0.00392737 -0.0057758656 -0.03650477 
0.0048587327 -0.004978426 0.016419137 0.0059095765 -0.0029617136 0.04340279 0.03177433 0.036584847 -0.036572915 -0.041699607 -0.04049269 0.0056746686 0.0021666083 0.0014780251 -0.029109666 -0.004074659 
-0.0015769538 -0.060860984 -0.04199707 0.029554851 -0.018953832 -0.008291048 0.044127572 0.030744102 -0.012708422 -0.03730546 -0.008672724 -0.017533788 -0.008809753 0.039352432 0.082601674 -0.04737456 
-0.03690252 -0.008590446 -0.01249269 -0.07019905 0.02151622 0.011974885 0.037475392 -0.03666333 0.019076161 -0.025488984 -0.0384905 0.04633117 0.048081905 0.033734977 0.03029821 0.052346747 
0.0435683 0.08254325 0.04068673 0.074351296 -0.03805478 0.03182514 -0.029424362 -0.040691026 0.016645212 -0.012293173 -0.06124342 0.019941848 0.048291504 -0.039269503 -0.0101117715 0.061110694 
0.0024807046 0.00037382447 -0.009499648 0.018292876 -0.011214856 0.012541876 -0.016055048 0.043307997 0.013326133 -0.008733181 0.0077675893 -0.0015894361 0.005568658 0.016010065 0.00047785373 0.029206073 
-0.023532996 -0.033667404 -0.010747824 -0.0009401618 -0.0067189853 0.014851599 0.07555681 -0.033443555 0.034771316 -0.004497231 0.020892393 0.043540094 0.005237063 -0.00085006165 0.0019689535 0.012024181 
-0.02721038 0.0019804216 0.017561585 0.016178327 -0.026452046 -0.0066778697 -0.043467384 -0.044257395 0.03291278 -0.049239513 0.01760062 0.010482424 0.03139212 -0.041495983 0.041875307 0.0014546978 
-0.033374738 0.028400188 0.028478265 -0.020610712 0.012277585 -0.013706701 -0.007847314 0.04273073 0.025461363 0.014149669 -0.017188545 -0.009987445 0.039000455 -0.035077382 -0.0063557522 -0.04143107 
0.03285134 -0.006629256 0.00023075515 -0.01701565 -0.009092273 -0.018548902 -0.00042760538 0.010227903 -0.014065748 -0.027890924 0.0044092583 0.049638625 -0.011908018 0.009177011 0.06053438 -0.05112494 
-0.04190104 -0.010080151 -0.0335454 0.022852844 -0.0065199365 -0.0013039233 -0.007578509 0.0019793871 0.030500557 -0.027825542 -0.013351523 -0.016769504 0.0046514706 -0.006291557 0.005176403 0.004664443 
-0.013365426 0.0026506186 0.06258031 -0.03844738 -0.036778748 -0.02510426 -0.0185202 -0.0062919655 -0.014961531 -0.03530856 0.043724876 -0.06315745 0.0059391423 0.013869572 -0.018239232 -0.012045844 
-0.004811232 -0.04280128 -0.05080226 0.033544242 -0.03223236 -0.010814042 0.046256866 -0.02976391 0.025943048 0.05934009 -0.023243302 -0.0271465 -0.031456124 -0.04158371 0.02280868 -0.006458428 
-0.015362221 -0.04374604 -0.042155072 -0.04276022 0.03738376 0.014873717 0.04710556 0.08159907 0.042379435 -0.029307375 -0.01815479 -0.03374105 0.037709992 0.00062099553 0.073602505 -0.009616235 
-0.008046786 0.0053120255 0.032781117 0.027562896 -0.015060158 0.0094487015 -0.0011012133 3.7683607e-05 0.022374628 -0.021149058 0.015124032 0.01706246 -0.014096199 -0.0123780435 0.005532493 -0.015944649 
-0.03346915 -0.02380124 -0.0056644813 -0.016178498 -0.042248275 0.0018396263 -0.0030033963 -0.020615727 0.00029255252 0.02794086 0.005760991 0.0004221878 0.02268304 0.026154855 -0.04294756 -0.005240596 
0.0044768853 0.027089847 -0.0051046074 -0.017576672 0.04612293 -0.004564623 -0.04501683 0.00845182 0.037811637 0.0045083426 0.027600233 -0.007861744 -0.018137382 0.012789312 0.023354651 0.029862333 
0.00027655307 0.009206539 -0.07354076 -0.044044722 -0.04179088 -0.0014188304 -0.043367147 -0.03119213 0.018685255 0.027123265 -0.0019221711 -0.05344407 0.022230046 0.0040391735 0.014224801 0.06470727 
-0.0118294805 0.042264972 -0.0502922 -0.0016796066 0.009109475 -0.023095435 0.019916087 0.05981735 -0.027694132 -0.028427046 -0.043377075 -0.025845755 -0.009473326 0.021836955 -0.004981599 -0.02389792 
-0.029804707 0.008547585 0.013271432 -0.029932156 0.005009643 -0.01681332 -0.03973712 0.034811907 -0.03532385 -0.03952873 0.04423933 0.028401187 -0.02029947 -0.0022414592 0.03799795 -0.033098646 
0.041632794 0.0044905497 0.0021771782 0.047313154 0.03832571 -0.0032044554 -0.0064828284 0.02937377 -0.03208989 0.07110762 -0.036097657 0.0056840014 0.024485407 0.037724797 0.028191464 0.03073103 
-0.03861297 0.03148236 -0.055840693 -0.03211864 0.06046553 -0.0076243347 -0.04316119 0.03932917 -0.04092614 -0.039163813 0.0053945384 -0.03717532 0.025870305 0.02153044 0.070467055 0.025789976 
-0.03811981 -0.00901061 0.014058785 -0.006129495 -0.018339027 -0.026200749 0.042520702 -0.036268476 -0.06557161 0.0718991 0.0027337135 -0.010807416 0.0138951335 -0.0006207771 0.04628203 -0.041418027 
-0.015985064 0.016884081 -0.006241674 -0.041033674 -0.014710806 -0.030798512 -0.031862047 -0.033064984 0.0025823787 -0.014313351 -0.013707994 0.003463472 -0.019010125 0.027735254 0.005816863 -0.009012658 
0.022149578 0.040912542 0.014921803 0.019415684 -0.009560237 -0.0012481267 -0.016390262 0.042195253 -0.016207416 0.03469928 0.06279655 -0.010232797 0.041783374 -0.033935376 0.040021736 0.0446813 
-0.040097836 0.031388097 -0.011463465 -0.06100317 0.021785887 -0.02504347 0.024023121 0.02292349 0.0010305655 -0.029112913 -0.016041359 -0.020039378 0.022769485 -0.02963522 0.017816031 0.04636293 
-0.027300352 -0.035582915 -0.04588052 -0.036050227 -0.023821564 -0.029883202 0.042437714 0.044732176 -0.03893231 -0.010758257 0.043872528 -0.0022718536 0.008355922 -0.011720478 -0.03130765 -0.025459252 
0.0057211374 -0.010356444 0.022052577 0.037955612 -0.007936672 0.044225153 -0.029326357 -0.01613896 -0.0091470815 -0.0071439864 0.04896803 0.0184078 -0.03848557 0.01623053 0.021533994 -0.048594933 
-0.039999645 -0.007099915 0.030477583 -0.039524846 -0.03447809 0.01979923 -0.0146745965 -0.005888157 0.0110292295 -0.007386571 -0.020191072 -0.017069433 0.026318068 0.004422242 -0.0025336482 0.04292692 
-0.025427155 -0.00017227135 -0.04399264 0.025227511 0.028804148 -0.001826661 -0.02613541 -0.003504577 0.023977567 0.03364878 -0.035974123 -0.021617386 0.026594106 -0.0024204873 0.018242534 -0.0019000081 
0.005599779 0.018682031 0.035655256 -0.007588191 0.034432564 0.010056641 0.0175869 0.05111654 0.028867507 -0.0056082676 -0.0334545 -0.032564063 -0.03694581 -0.04131922 -0.00913548 -0.014929492 
0.037097413 0.010881757 0.013086338 -0.022108445 -0.015376905 0.040734567 0.004923527 0.014396152 -0.0102520995 0.012833157 -0.0071523 -0.018525701 0.03503806 0.020916415 0.007848608 0.013971244 
-0.013588559 -0.0117445 0.026859194 0.053397156 0.027711213 0.042820342 -0.02667118 -0.026129758 0.024898335 -0.015332274 -0.07057377 0.013844959 -0.013525301 -0.0052861334 0.014974959 -0.018017126 
0.0031527665 0.062119823 0.0039712987 0.041857775 0.026391096 0.043185193 -0.038723834 -0.009963715 0.036922522 -0.014150011 0.035164945 -0.017921362 -0.034253832 0.011478468 -0.025578635 -0.05633273 
-0.009650918 0.031798903 0.02579888 0.0068836138 0.0010450234 0.040260926 0.030815955 -0.03403227 0.020846993 0.003956904 -0.009607733 -0.003933404 -0.040455185 0.009190667 -0.01284859 -0.026822798 
-0.04362707 0.06938743 -0.038541257 -0.025869075 0.030028097 0.045986474 -0.027819378 -0.011096703 -0.07108806 -0.0711812 -0.02043513 0.042678125 0.009641261 0.04684825 0.032552756 0.026927928 
0.035175923 0.001074787 0.017284656 0.016014945 0.03689722 -0.035468087 -0.04209718 -0.0058281235 0.025256202 0.008039225 -0.029341912 -0.013128805 0.01468102 -0.008054555 0.009089692 0.0022182264 
0.022179073 -0.018279761 -0.0075579123 0.038539622 0.03209521 -0.010607939 -0.0061837183 0.030279817 -0.018832413 0.007028314 -0.040402 0.018224342 0.010257639 0.03678298 -0.021716867 0.026450822 
0.008906266 0.0042789076 -0.007582352 -0.047446877 0.0072166445 -0.006901974 0.07135972 -0.057233937 -0.01377288 0.038483754 0.0060221804 -0.034162078 -0.061723426 -0.011559153 -0.03071688 0.00950859 
0.0028905992 -0.02009448 0.012894669 -0.008088579 0.02525742 0.016199162 -0.01688712 -0.003860076 0.038956296 0.04662933 0.023986224 0.0070620202 0.009639099 -0.02282749 -0.033970833 0.018483572 
0.033632364 -0.022919104 0.012777442 0.012577515 0.0065589165 -0.019275948 -0.01179735 -0.024017803 0.011446291 0.01269044 -0.015448212 0.0142544955 0.009458897 -0.005168548 -0.0019394788 0.025396831 
0.009491615 0.03508467 0.0464103 0.0146802375 -0.023680257 0.032143235 0.03535457 -0.03512716 0.046853796 0.044094987 -0.029944772 0.00093765 0.026878126 0.0020064428 -0.022541922 0.026815088 
-0.022549024 -0.044285208 0.0382276 -0.05215934 -0.0023360273 -0.045868136 -0.01859082 -0.0461331 -0.0639325 0.02850898 0.06823807 -0.06808007 -0.027228318 0.033091363 -0.05304552 -0.043441862 
-0.010399246 -0.02475189 0.0078071146 -0.010280493 -0.007443312 0.018831454 -0.037726827 -0.020132946 0.039079618 0.018820439 0.038851082 0.02726832 0.015223714 -0.012348222 -0.04264443 -0.007120177 
0.009333966 0.03668343 -0.033046972 0.021245383 0.006847449 0.025724692 -0.015631324 -0.014758684 0.024774784 -0.009583323 0.014818362 0.029227272 -0.01138429 0.009499734 -0.02632863 0.015232056 
-0.019235194 0.010269931 0.00154703 0.0050286404 0.0048439717 -0.021018922 -0.021320222 0.007844531 0.0039595496 0.036830593 -0.0074041 -0.019205267 0.026213588 0.0031135702 -0.0435088 0.016881686 
-0.0073203 -0.013876568 0.014261816 0.018646507 0.03349571 0.00212725 -0.00089637656 0.001223506 -0.006865812 0.040097557 -0.016691083 -0.01767639 0.0013698783 0.0029905494 -0.015592016 0.035015248 
-0.008769882 -0.013041384 0.017954797 0.008296463 0.07399366 0.04266533 0.01999462 -0.03464136 -0.017520886 0.004698017 -0.05800383 -0.03472143 0.00011479681 -0.0057498594 0.009991508 0.012231871 
-0.03101423 -0.038394444 0.0071897255 -0.008837782 -0.033750284 -0.0020374781 -0.015527395 -0.020004548 -0.019268528 -0.028246596 -0.04421608 0.055766087 -0.01230909 -0.00091669976 -0.040881112 0.021662492 
0.006670361 0.045144808 -0.0090406705 -0.015822224 0.013753797 -0.032829046 0.0022003658 0.031428758 0.018589886 0.03143163 0.044530075 0.017803818 -0.02581812 -0.0006964709 0.012728104 0.033961758 
0.000427766 -0.012552276 0.005537904 0.032587156 0.01606208 -0.04372228 0.033010777 0.02012068 0.022155715 -0.021419104 0.03276604 -0.013207585 0.03362102 -0.005999001 0.017575793 0.021779785 
0.039670996 0.018858993 -0.023533018 0.004574422 0.040265888 0.003314767 0.0065942956 -0.028268978 0.021508355 0.0021500457 0.04480803 -0.03568136 -0.011478406 0.031793408 0.020568194 -0.064604074 
-0.039553877 -0.0023312331 -0.00826886 -0.030459015 0.03882037 -0.010218336 0.029366234 -0.0029640105 -0.009805692 -0.015101932 -0.02354087 0.030307679 -0.010738144 0.028887376 0.022962386 -0.04404423 
0.03623518 -0.018529078 0.0057800813 -0.033099387 0.0029115502 -0.0062934733 -0.013853855 0.0085959025 -0.03323863 -0.003951403 -0.021225536 0.023103666 -0.0060259164 0.0058540558 -0.009394065 0.013241164 
0.052542597 -0.051727083 0.03190051 -0.02539039 -0.0033946752 0.024162212 0.011744052 -0.016845971 0.03440422 0.025814185 0.014984797 0.013400959 0.021806007 -0.003755859 -0.038981706 -0.021949021 
0.045107946 0.05337072 -0.016308494 -0.00906975 0.05573683 -0.0006219472 -0.0010512382 0.005883657 -0.04046563 0.037830688 0.024245765 0.025292203 -0.018558692 0.01819296 0.052483622 0.0019050426 
0.035924494 0.027911803 -0.025154384 0.032770462 -0.040971663 0.013387208 0.029992983 -0.04906385 -0.03702393 0.042957634 0.026432758 -0.007224171 -0.048687153 0.026621446 -0.043990143 0.0242159 
-0.035290577 -0.007923252 -0.033023536 -0.024670811 0.044033863 -0.014031237 -0.021047303 -0.033025317 0.009890597 -0.026035514 0.036991272 -0.04095065 -0.0063862973 -0.02513951 0.012185423 -0.034570124 
0.026754512 0.0034000305 -0.0058038826 -0.066122204 -0.011099702 -0.006379853 0.039623372 0.044231337 0.04523953 0.028612683 -0.020853002 0.03050097 0.0017580211 0.037695434 -0.048815526 0.03652985 
0.007598113 0.0036146597 -0.024825552 -0.037252124 -0.0416599 0.000578461 0.052451592 -0.0018569671 0.009878109 -0.010604446 -0.00080456433 -0.023039531 0.023122089 0.029224304 0.014918107 -2.0068227e-07 
-0.02721615 -0.008899505 -0.018302426 -0.050544612 0.01554366 -0.013165489 0.001057134 -0.013432058 -0.016867107 -0.017470328 -0.01982449 -0.0043375245 0.020564526 0.021198021 -0.038500164 0.030057514 
0.04113588 0.0302807 0.0501969 0.009298985 0.0035860904 0.0009841755 0.028978828 0.021451985 -0.029723395 -0.048691157 0.0023165657 0.019900167 -0.015984219 0.01385076 0.011808335 -0.009030189 
0.019403702 -0.08352657 -0.029700136 -0.02786067 0.039240707 -0.0054383134 -0.00012139172 -0.03197317 -0.027078213 -0.046228882 0.065161966 0.028945565 -0.021750674 -0.0024765239 0.024843385 -0.021875594 
0.026407043 0.043620136 -0.04151186 -0.031196382 -0.0495468 -0.012327883 0.03851239 0.011209342 0.029836075 0.037871893 -0.028689733 0.03310178 -0.03574911 -0.014727745 0.011888186 0.035798643 
0.023387803 -0.023249703 -0.034403227 -0.04258713 0.006748504 -0.0005880801 0.06324014 -0.0672579 0.053027514 -0.0294971 -0.0031387198 0.0036287946 0.04308673 0.04382301 -0.02508649 -0.011780781 
0.035427213 0.03085178 -0.017121166 0.003496739 0.042304546 -0.012314679 0.0069033015 0.011166732 0.021181868 -0.04205896 0.010200609 -0.012274903 0.003144948 -0.0063355714 -0.013251273 0.0041569285 
-0.0036046067 -0.01956934 -0.014030687 0.027270075 0.014111417 -0.042066697 0.06477885 0.03602658 0.030556304 -0.03274333 0.02578974 -0.0052117305 -0.030081855 0.0002295819 0.041121192 -0.05680219 
0.0116532035 0.04979568 -0.031414766 -0.033014026 0.018821875 -0.038943388 -0.0024180461 0.036246397 -0.01673956 -0.02634198 -0.03320599 -0.018522635 -0.03422319 0.014870682 -0.025754785 -0.056465738 
0.042635895 -0.016346093 0.0563566 -0.028715257 0.025041949 0.04539122 0.059772335 -0.018283408 -0.047041424 0.02232059 -0.023911415 -0.01181368 0.00073159096 0.012039231 0.04984925 -0.049260426 
-0.043632142 0.023246476 0.047920436 0.04293869 -0.015986998 -0.032291077 0.009705078 0.02298664 -0.016458305 -0.017262602 0.0070408615 0.01566279 -0.038769692 0.008814148 -0.0021634384 0.0038030774 
-0.03590659 -0.010457783 -0.010069311 -0.0014384043 0.011387523 -0.028125385 -0.0028633608 0.03650734 0.009809655 -0.039288986 0.029180013 -0.03914656 0.0069141095 -0.02875064 -0.014579102 0.022455135 
0.020016342 -0.0049116854 0.035836443 -0.0040347674 0.01288548 -0.006355209 -0.029353896 -0.014694763 0.025115022 -0.008209868 -0.025099507 -0.003734541 0.014295447 0.036894042 -0.012032582 -0.01825309 
0.020671692 0.0050025242 -0.015573131 0.02919952 0.052668408 -0.0076186266 0.003933716 -0.0049995743 -0.033031806 0.0013281496 -0.042343955 -0.020569444 0.0017384485 -0.030506931 0.049738105 0.020385195 
-0.018923657 0.005635314 -0.005767231 0.006970167 0.021091472 0.0015570249 -0.01933464 -0.017857298 -0.04229608 0.035279877 0.006624711 0.023663083 0.00095998833 0.024633775 -0.022238873 0.049282067 
0.01942374 -0.032760743 -0.0442977 0.033005144 -0.05400722 0.028873455 0.016721366 -0.03171183 -0.017138353 0.0038718013 -0.044012185 0.02997194 0.0435413 -0.015626393 0.0010611153 0.007151074 
0.012527599 0.052115317 -0.030618304 -0.0049037063 -0.031844947 -0.015158796 -0.018295117 0.052787263 -0.00053425354 -0.004476713 0.013649642 0.02991746 -0.021487331 0.020031037 0.0057573947 -0.04848853 
0.03892354 -0.035248507 0.018080961 0.00063568115 0.031377487 0.0005011967 -0.012111075 -0.033322215 -0.040958535 -0.0022497517 0.016176034 0.0013539116 -0.033114966 0.006619013 0.0330777 0.013255247 
-0.010086247 0.056894377 0.04514871 -0.032692272 0.06799182 0.025775278 -0.055540215 0.033768073 -0.028517267 0.033516567 -0.013238366 0.016083054 0.036844533 0.0028697888 0.02244081 -0.004873436 
-0.008648013 0.06682696 -0.0055601713 0.025732895 -0.026564699 -0.027087899 -0.047306404 0.045282103 -0.030705202 -0.004846367 0.011913522 0.027333189 -0.03324334 -0.002341287 0.04897164 0.030051742 
-0.0022894635 0.04333868 -0.018780926 -0.022968438 -0.024212541 -0.04464573 0.037296094 -0.03932352 -0.013700901 0.012519375 -0.025488341 0.039970867 0.048230447 -0.0011992245 -0.06443615 0.020357573 
-0.03847416 -0.023807699 0.015608281 0.00032210271 -0.0017961012 -0.019589413 0.027182868 -0.05025322 -0.054945115 -0.022733439 -0.015942246 -0.018599765 0.025264366 -0.029360116 -0.020199805 0.007685921 
-0.044170815 0.015993284 -0.011389516 -0.00901047 0.01547785 0.020866225 0.004170821 -0.0002520414 0.018200133 0.01961795 0.01903098 0.019582426 0.011354545 0.034693535 -0.051964372 -0.042216584 
-0.0014021698 0.039040152 0.013651949 -0.06181343 -0.010157572 -0.029561315 0.011822463 -0.03891445 -0.02950961 0.016008526 0.025339305 -0.028070502 -0.014863218 -0.031236611 -0.039332077 -0.052170478 
0.022714915 -0.019731928 -0.041986592 -0.017354358 0.030319829 0.002808352 0.0089003965 0.025809819 -0.015386177 -0.027737943 0.031491302 0.005496708 -0.008981312 0.031970438 0.037632573 0.024325404 
-0.03346368 -0.017821245 -0.0019350238 -0.034077216 0.0060408185 -0.0056097135 0.0146618355 -0.010263523 0.023856018 0.03333111 0.03027123 -0.013525598 -0.004822382 -0.021211332 0.042474683 0.039348327 
-0.007382338 0.020396033 -0.019068 0.028301354 -0.0016753325 0.008206257 -0.021489805 -0.007257675 0.0013919852 0.023861924 0.016903881 -0.045424372 -0.039568547 0.027235748 0.053888053 0.016801719 
0.035629995 0.01021146 0.012223333 0.031573538 0.03265713 -0.040569995 0.038015842 -0.04401244 -0.030540857 -0.028667262 0.0597349 -0.032055132 0.0035242003 0.019352708 0.0033228735 0.028006934 
-0.015649296 0.029035252 -0.022531323 0.0015629802 -0.017955527 -0.039057672 -0.016471764 0.03846509 -0.017761119 -0.033709314 -0.037779316 0.0038079459 -0.02248238 -0.019198855 0.002439232 -0.03788714 
0.065557286 0.021228053 -0.03435806 -0.006504352 0.03356461 -0.038767807 -0.018499538 -0.03472226 -0.02224869 -0.038125455 0.001101142 0.032784667 0.015841786 0.039434638 0.00667376 0.0060010604 
0.024032949 0.0061371294 -0.01035919 0.028284939 -0.030009469 -0.03907473 -0.0011080909 -0.016678685 -0.028617436 -0.029548738 0.02081492 -0.006390116 -0.04374341 -0.00083602255 0.0038984586 -0.03817188 
-0.028290335 0.03306939 -0.029117584 0.019537818 -0.0031599437 -0.018471517 0.037885383 0.042367153 -0.04256927 0.03677139 -0.024510523 -0.026939433 -0.031700257 0.009516765 -0.0027693592 0.020321801 
0.020076023 9.440157e-05 -0.0013426585 -0.040609643 0.026271876 -0.0022280372 0.03631307 -0.03377301 0.0452285 -0.006988304 0.072827436 0.040786833 -0.03396782 0.015174308 -0.032227155 0.0070162895 
0.045909382 0.0042340923 0.013487906 0.016580239 -0.029806333 -0.004172692 -0.03824836 0.033419017 -0.033731762 -0.0071760924 0.0251643 0.061753746 0.04559525 0.023781689 -0.012148774 -0.024147213 
-0.0433628 0.010061488 -0.028533878 0.018233612 0.013855612 0.038226463 -0.013130695 0.02593596 -0.045274626 -0.06478607 -0.03934398 -0.035973154 0.006706208 -0.03213109 -0.03921464 0.070960626 
-0.04273212 -0.006098387 0.0135042695 0.022481607 -0.041843604 -0.016186731 0.038149353 -0.019736813 -0.00944904 -0.007124222 -0.033084705 -0.0058660693 0.0021529205 0.0027086434 -0.0022548297 0.013031435 
-0.02263663 -0.03444812 -0.030461458 -0.018589089 -0.037713062 0.0028321277 -0.01831889 0.027016997 -0.040170707 0.0054537095 -0.013542403 0.004653038 -0.0042777047 0.006329151 0.016008154 0.041322377 
0.007813173 -8.6334185e-05 -0.000979129 0.020560946 0.012201879 -0.0005595998 0.028380381 -0.022709819 0.05191041 0.036173902 -0.028439675 0.029201718 0.0100665325 -0.01881431 0.01349721 0.030959157 
0.009738772 -0.07430378 -0.005680416 -0.0012011392 -0.030001901 -0.061530966 0.037984964 0.028925188 -0.031519897 0.0112181725 -0.015353165 0.010888971 0.009636149 -0.031007642 0.033966523 -0.016463948 
0.03185522 0.0053075873 -0.03383222 0.0195351 -0.018424792 -0.0037472926 -0.0048866104 -0.03665223 0.0062225615 -0.0037102047 -0.020283312 0.006249037 -0.021096 0.04345276 0.002895993 -0.0008814452 
0.020790981 -0.019252988 0.020703945 -0.022558233 -0.011715311 -0.011984214 0.021149123 0.00435821 0.004489451 0.03468963 0.055761546 0.022744969 0.022944037 -0.02201588 0.011057773 -0.0061372397 
-0.033185873 0.041686483 0.003069742 0.0059031374 0.024349483 0.040522683 -0.02432673 0.012471457 0.04283434 0.0095497975 0.03044969 0.013194112 0.001121292 0.029365383 0.031951737 -0.032810047 
0.026826551 0.008420553 -0.000436683 -0.008535503 0.008936314 0.024923163 -0.016791912 0.00067519856 -0.018786158 -0.042453 -0.0073268586 -0.0046923365 0.001476395 0.0032515428 -0.019976033 -0.041810457 
-0.0085346745 -0.036030967 -0.017555995 -0.023969524 0.008404082 -0.008584582 0.034496095 0.03405167 0.034909133 -0.025437895 0.0014979169 0.03240703 0.003908711 -0.023460032 0.000104050945 0.008692591 
0.01809518 -0.03221487 -0.040833578 0.03006046 0.03424661 0.010300698 0.041601308 -0.008040007 0.04347549 -0.016036449 -0.021862552 -0.021067629 0.044958834 0.027953029 0.036745455 -0.033741646 
-0.025181014 0.038543697 -0.0097422805 -0.042593043 0.00960791 -0.009323117 0.007030695 -0.025127172 0.008562751 0.0057194917 0.04928918 -0.04093893 0.011659626 -0.022002008 0.012820127 -0.03859671 
-0.010302688 0.006131708 -0.014721256 0.006134493 -0.0060023847 -0.033407874 0.0046364316 0.036620017 0.02531728 -0.007830997 0.00059999584 0.003343669 -0.005396423 -0.021877952 0.006953949 0.0041673295 
-0.008811891 -0.0029047374 0.013520676 -0.0075051747 0.034812115 -0.011695651 -0.0132898055 0.035956163 0.0077939015 -0.030420613 -0.036685076 -0.013464273 0.002412581 0.022541631 -0.017723773 -0.028252363 
-0.0039060307 -0.041633334 -0.02655279 0.017678123 -0.028876072 0.027157268 -0.037133675 -0.0014559769 -0.0038266364 -0.029920693 0.04457817 0.007997055 0.014391477 0.03132907 -0.010794572 -0.022190366 
0.016404485 0.0645987 -0.0015196295 -0.028468655 -0.0045832517 0.0025136438 0.017760755 0.001841742 -0.006289681 0.0060680434 -0.019366262 0.019397615 -0.003678194 0.026029129 -0.029416837 -0.0059017427 
-0.016905028 0.028835887 0.02878088 -0.013011309 0.03843268 0.039425388 0.035370514 -0.0015232362 0.039963815 0.019691328 0.03372563 -0.014450947 -0.04356764 0.013651645 0.017801773 -0.013240829 
0.0057370523 -0.0070752157 -0.018768895 -0.01801691 -0.014232691 -0.0025561608 0.012977692 0.040550604 -0.025682813 0.044344295 0.011218976 -0.042161953 -0.03516624 0.009461822 -0.017300365 0.032266643 
-0.018242829 0.00824781 -0.007532026 0.03485253 -0.041503057 -0.0116131725 0.00092912314 0.03094631 -0.037242595 0.0289436 -0.020377664 0.022779394 0.030053321 0.018359922 0.034976617 0.045001373 
0.012887854 -0.005429898 0.04094327 0.023332367 0.016974814 0.0009418309 0.038417194 0.016857559 0.0060688374 -0.023871077 -0.03192511 0.0181267 -0.0135186445 -0.040953312 0.030222116 0.0035404826 
0.039989907 0.077165134 -0.043005615 -0.039091308 0.0021017662 0.05252886 -0.03510273 0.05061735 0.054998305 -0.019448165 0.014113837 0.01574114 -0.0038901186 -0.036819465 -0.01183579 0.012761643 
0.0018742412 -0.029234482 -0.056973286 -0.066221654 -0.025356755 0.04327307 0.069027536 0.022189477 0.029657051 -0.04161745 0.03631432 -0.01990439 0.04497448 -0.0051069516 -0.029600497 -0.02285268 
-0.005277366 -0.017130164 -0.022143371 0.03139763 -0.0122043835 0.02125976 -0.046947528 0.022699604 -0.022102341 -0.043225445 0.0211129 -0.032258295 0.033286184 0.003715105 0.030758604 -0.028414803 
0.007517609 0.018583296 -0.02722875 0.04126293 -0.007988276 0.034965515 -0.0145279635 0.023435332 0.004115136 -0.0014774032 0.035602506 0.02900878 0.00015254151 -0.014413647 -0.022728419 0.045272615 
-0.025997676 -0.039782416 -0.0305724 0.0017184395 -0.07479622 -0.03910111 -0.014780435 -0.0596499 -0.031029146 -0.040121198 -0.039867494 -0.009075835 0.03816532 -0.021728577 0.041298613 0.03961635 
-0.021006268 0.028144628 -0.036693424 0.018444993 -0.011454208 0.02899341 0.04533486 -0.030195918 0.03853905 -0.030869678 -0.016199453 -0.017882477 0.013007694 0.017363304 -0.016398707 -0.047571953 
0.0035368046 -0.027292976 0.004246774 -0.015280775 -0.0032475505 -0.013980368 -0.007868184 0.004797817 0.0223398 -0.04129312 0.037350774 0.02749793 -0.02786548 -0.00032012293 -0.01374317 0.034010578 
0.029103858 -0.022853414 0.006609192 0.02279711 -0.03600186 0.0013967121 -0.022219379 0.009311258 0.020743264 0.03775735 -0.024085024 -0.021303836 -0.029655969 0.0024162517 0.05482655 -0.024006452 
-0.017056463 0.04385972 -0.010233549 0.03902341 0.026611056 -0.0049802326 -0.04900658 0.03309035 -0.044552125 0.026132507 0.011804469 0.004081465 0.0034377826 0.0004110497 -0.022046167 -0.023812592 
-0.04346906 0.025210705 0.02273531 0.0037345004 0.068112776 -0.0051317015 0.03004394 -0.006841039 -0.036235623 -0.013553803 0.02156762 -0.07852035 0.0812793 -0.02477828 -0.06395453 0.01030684 
-0.012141062 -0.017202852 0.037689846 0.0024798345 -0.00719147 -0.021879224 0.008360914 0.0040252907 -0.0006195426 -0.025811171 0.009365116 0.03971051 0.0010444296 -0.024533242 -0.041937947 0.019325098 
-0.03182469 -0.004522895 0.002302406 -0.0042860843 0.015614376 -0.004244682 -0.041965537 0.004549464 -0.01076756 -0.029489364 0.023983132 -0.00037255138 0.032450814 0.020492531 0.011579147 0.030475084 
-0.029784033 -0.025448304 -0.016949976 0.015061688 0.010172734 0.001970398 0.06674011 0.0616393 -0.014701157 0.039832972 0.03291916 -0.005385143 -0.008813958 0.017928356 -0.017849486 0.05277013 
0.0030970115 0.022871392 0.023364611 0.0112379 0.059158254 -0.007246548 -0.06708514 0.03270842 -0.05940098 0.056548152 0.03607487 0.0103716245 -0.0027024362 -0.0036483153 -0.01822788 0.06257418 
-0.025442485 -0.011791862 -0.033920247 0.0056885215 0.061064325 -0.044366136 -0.008682521 0.051089093 -0.024621313 0.03138954 -0.03410094 0.00083402114 -0.027858566 0.029443417 -0.0323813 0.06504382 
-0.023838053 0.042146213 -0.026783047 -0.013335099 -0.024238216 -0.004418995 -0.011974479 -0.023078369 0.024006965 -0.0038965046 -0.042100187 0.0049602143 -0.02571456 0.03587642 -0.0074165137 0.022057408 
0.006864438 -0.014969118 -0.01740594 -0.0150140235 -0.029286105 -0.050790895 0.024783192 0.014908398 -0.03808968 0.054030214 0.00981511 -0.0052052024 -0.041811887 0.0040224306 0.013131338 -0.027052311 
-0.036625825 -0.021859933 -0.018722987 0.014074921 0.043723498 0.020522142 -0.03640744 0.022759788 -0.023739323 0.019751148 0.032689527 0.04174485 0.010122975 -0.0025312344 -0.0045863497 -0.03286907 
-0.03542436 0.036838353 -0.016104246 0.023922421 -0.023603356 -0.00044041208 -0.012878554 -0.033830836 -0.009233805 0.07316542 -0.043791614 -0.015096472 0.0045778877 0.01729005 -0.049039483 0.0598911 
-0.033590302 -0.03524737 0.017836973 -0.013371026 -0.008705276 0.029320315 -0.017099949 -0.03174346 0.015483955 0.02591223 0.031838678 0.012059904 0.025584139 -0.022346124 0.05269175 -0.0121160755 
0.009224231 0.030398501 0.025779516 0.023577994 0.013987315 0.018582266 -0.005112422 0.02489934 0.01592396 -0.014049301 0.011548028 -0.013986152 0.039672665 0.00563841 0.01644274 0.067642696 
0.0061133783 0.03757983 -0.035028458 0.0035396938 0.008894325 0.032581136 0.00912867 0.013035978 -0.026617605 0.019337 0.017374 0.008671789 -0.009761743 0.04181881 0.004606773 -0.0072660325 
0.038812667 -0.040955704 0.0075137373 -0.06852743 0.041707862 -0.034282975 0.018754136 -0.004266761 0.026810547 0.027349241 -0.010319365 0.05437285 0.021242827 0.035486918 -0.021272317 -0.068870336 
-0.0009788959 0.011258252 -0.0151079865 0.010460523 -0.0068724933 0.022239424 0.008563562 0.054887917 0.023857744 -0.022252433 -0.038995195 0.040785264 0.03289193 -0.0064495713 -0.021942984 -0.0024960635 
0.017866906 -0.017835235 -0.0016828845 -0.0010400813 0.006175589 -0.0023984492 -0.030297874 0.0016435902 -0.011168461 -0.0023626282 0.041045755 0.008255862 0.007926824 -0.03163024 0.01591907 0.026232019 
-0.009037515 0.03897694 0.0037253138 0.032992784 0.044669926 -0.019288713 -0.04312816 -0.015301549 0.042186502 0.046336256 0.025349103 -0.016082289 0.007983503 -0.0014184052 0.042918798 -0.035814147 
0.015800793 -0.0067547136 -0.0024209546 0.016254734 0.01745499 0.011704473 -0.02853521 -0.023319285 0.002416712 -0.0038282215 0.0038915637 0.019491963 -0.025096804 0.027242959 -0.00919895 0.03366644 
0.0633762 0.008065447 0.012347098 -0.021964494 0.040104505 0.033053514 -0.04936642 -0.025184365 -0.030347498 -0.0029750096 0.031806864 -0.03427531 0.018744612 -0.022712212 0.054256856 0.045391403 
0.0103947865 -0.014085334 -0.023827296 -0.013753719 0.023162011 0.005181287 -0.003968148 -0.02452768 0.031864583 -0.03304175 0.025810746 0.028434431 -0.007700708 0.03324566 -0.040888708 -0.03912472 
-0.040470146 -0.023821844 0.009775969 0.005150787 0.0019832517 1.666989e-05 -0.026704868 0.02630361 -0.035499185 -0.059396118 -0.018752448 0.029973675 0.07951364 0.0031748787 -0.0026610743 -0.025738627 
0.020606598 0.0009682335 -0.011548355 -0.031286612 0.038138088 0.03373062 -0.026646191 0.015850244 -0.020400215 0.0024011624 0.06317734 0.054096665 -0.0433978 0.007629983 0.03047222 0.04434039 
-0.07286522 0.009671725 -0.0113194315 -0.04335914 0.048934292 0.030156353 0.0030690045 0.018775685 -0.0029694692 -0.023817057 -0.00415293 0.039008092 -0.04334844 -0.033183493 0.06518806 0.027831824 
-0.016093405 -0.012107575 0.0008254474 -0.027650772 -0.023910608 -0.0018735743 0.039885525 0.029755095 -0.04029875 -0.021263536 0.032978058 -0.017918644 0.038963005 0.032472126 0.040582508 0.06781888 
-0.021151602 0.03932169 -0.04032516 0.033619873 0.028308615 0.0064077396 -0.0171149 0.00028146117 0.045373876 -0.001198105 0.035146162 0.078539886 0.024338773 -0.030243441 -0.04455269 -0.00031153782 
0.042952083 -0.030138396 -0.013527772 -0.015903018 0.026848234 0.013108421 0.040705595 0.02772964 -0.0057258476 -0.032349896 -0.040020633 -0.025995247 -0.011379117 0.033594374 0.008061175 -0.021171246 
-0.03075586 -0.042900413 -0.008984589 0.04272115 -0.011191144 0.041421067 -0.0081113065 0.029627116 -0.031598978 0.0284209 0.026303958 0.0334512 0.002947194 0.0055065723 -0.04822293 0.025309125 
0.016942134 0.05898205 -0.06654868 -0.0427643 0.02243659 0.037480853 -0.03871956 0.027459914 -0.024011781 0.038700223 -0.020710614 -0.036725793 -0.042701304 0.002127638 0.013465398 0.026967214 
0.021259647 -0.04179254 0.040825237 0.050397713 -0.00662574 0.018234259 0.044637296 -0.009637135 -0.020280888 0.038732182 -0.039216723 -0.036371958 -0.028012801 -0.0074227443 -0.034213606 -0.007655575 
-0.059951484 0.019529508 0.009100624 -0.018267885 0.057522103 0.013288573 -0.07832582 0.033649392 -0.063470796 0.03250858 -0.017271712 -0.030017903 0.006083409 0.0077330647 -0.028231414 0.03663599 
-0.0046732887 0.009561765 -0.04137918 -0.04618588 0.032281958 0.024926122 -0.025038881 -0.0012797358 0.015902642 0.022659758 0.033776503 0.010979952 -0.027636278 0.04342789 -0.00027165344 -0.01519114 
-0.01902187 0.018504294 0.014151203 -0.006193453 -0.01950049 -0.021990258 0.006214587 0.0373364 -0.02468571 -0.051865336 -0.017702587 -0.011080381 -0.017032748 0.0024467206 -0.007663123 0.007527872 
0.03061 -0.01340343 -0.026019877 -0.004638987 0.031442665 0.008601608 0.067750216 0.04573084 -0.039961096 -0.05600669 -0.008866266 0.020087037 0.034147184 -0.017902913 0.022105008 -0.059343137 
-0.025203165 -0.013916182 -0.024949793 -0.021131659 -0.0037071607 -0.032596856 0.00734882 0.01615897 -0.0048657004 -0.0028626677 0.038835175 -0.026146773 0.0027420938 0.003005605 -0.042984553 0.012820333 
-0.005026339 -0.03647262 -0.040877804 -0.016865125 0.07133516 -0.021514332 -0.044246793 0.041891538 0.044037655 -0.006482593 -0.0026683619 -0.015759299 0.026977329 0.034409344 -0.0021778152 -0.022312334 
-0.002241156 0.018862145 -0.024755597 -0.034741063 -0.041691277 0.037655212 -0.037619434 -0.030091107 -0.0012855607 0.037683394 -0.0011217612 0.027167002 0.037113518 -0.006275323 -0.043938346 0.02050391 
-0.0062249373 0.02301627 -0.0060136146 -0.036472194 -0.0018345246 0.025344081 0.029220246 -0.011106075 -0.014807869 -0.010259566 -0.0063266293 -0.032437842 -0.032929696 -0.0053946273 -0.022437854 -0.02666153 
0.015205495 -0.032164432 0.04261509 -0.024784971 0.02176779 -0.007276542 -0.009366849 -0.027152736 0.012225853 -0.026864592 -0.015644155 0.009585204 0.012453313 0.006648743 0.014852457 0.029720286 
-0.026326237 -0.036714952 0.028390562 -0.0023489504 0.039830163 -0.0072016446 0.031723 0.014684646 -0.015802233 -0.045923874 -0.049006477 -0.032359853 -0.010911339 0.011734412 0.029756725 -0.004774325 
-0.023794686 -0.07758702 0.06340027 -0.055371962 -0.03433398 -0.05179444 0.021630807 0.008014861 -0.034829073 -0.026858257 -0.05750588 0.044278093 0.0015686421 -0.021447394 -0.05438751 0.05114698 
0.004049378 -0.010152378 -0.04161772 0.040415928 0.023837201 0.007456582 0.0687866 -0.032858863 0.0068306155 -0.057253044 -0.007221517 0.00555478 0.02056885 0.004901629 -0.00071500894 -0.026162446 
0.043323915 0.044898912 -0.024113627 0.0041964343 -0.006535132 0.050862633 -0.020494448 0.0022802663 0.031735897 -0.0018839232 -0.03142732 0.0078178 0.00933162 -0.011219398 0.007960422 -0.010624652 
-0.04202259 0.018155 -0.0016544814 -0.05669588 -0.05380752 0.04391879 -0.017131876 -0.0062880423 0.031660695 -0.0370803 -0.037998073 -0.00562306 -0.008288051 0.044589154 -0.027467035 -0.03140848 
0.017568607 0.020498447 0.013571183 -0.003876988 0.010199365 -0.004902278 0.014801843 -0.02006525 0.021647794 -0.019517776 -0.042051803 -0.0338656 0.05349479 0.0022923073 -0.035571154 -0.045677654 
0.047633134 -0.0065630837 -0.03189769 0.033364065 -0.0051114857 0.023063978 0.029489676 -0.04451232 0.018545534 0.022911463 0.077051215 0.03991336 0.00365312 0.016812146 0.0794219 -0.008380481 
0.030128615 -0.01852575 -0.04251172 -0.007827163 0.0039863987 -0.04049401 0.029702978 -0.037449885 0.027857665 0.009134846 0.0012311613 -0.0076032816 0.00026933232 0.010601233 -0.02054507 -0.033014763 
-0.02412653 -0.06453495 0.080721095 0.030487591 0.069237694 -0.008186744 -0.008830425 -0.0037095665 0.005975648 0.03321968 -0.016586015 -0.030989947 0.005617573 0.005625427 0.015238702 -0.015795484 
-0.025510438 -0.043450754 -0.0059016645 -0.038003195 -0.016359882 0.01822763 0.010182886 0.020701243 0.022604022 -0.043039024 0.029104792 0.05001445 -0.04128678 0.0075820195 0.034809787 -0.016737686 
0.007402403 0.026184063 0.012718209 -0.056688942 -0.03200378 -0.03981042 -0.024852037 0.024827458 0.019389195 -0.003687069 0.039935883 -0.0014830201 0.005718859 -0.014201632 -0.056746606 0.014747008 
-0.0063377405 -0.018282427 -0.016683182 -0.01310476 -0.009623696 0.0036371949 0.015798407 -0.00071660586 0.0029290793 -0.017640645 0.0129305 -0.035672277 -0.021154402 0.034255438 -0.0033611413 0.010491552 
0.008874171 -0.014221303 0.0042127515 0.04963497 -0.033175875 -0.03756384 -0.00097565446 -0.0065957205 0.017122705 0.0032932167 0.038400378 0.072132945 -0.008408787 -0.0055768187 0.023523187 -0.04461218 
0.038581636 -0.034287352 -0.040469628 0.052409846 -0.0606977 0.016979093 -0.01531766 -0.034686618 -0.037584882 -0.0058647185 0.019325221 0.00077582075 -0.011153979 -0.005502551 -0.0034952923 -0.07341062 
0.010791355 -0.025871202 -0.04088321 -0.023980115 -0.0027588333 0.0053795027 0.032419555 0.020827556 -0.0028989525 -0.043246232 -0.036798026 0.02881024 0.0009332067 -0.016676703 0.034234375 0.059796177 
-0.014527083 -0.029060137 0.0074648364 0.0448746 -0.006897768 0.0025149917 -0.001548758 -0.010396741 0.035593025 0.039433893 -0.018570742 -0.029230043 -0.012911618 0.011991542 0.028835062 0.015642932 
-0.024711056 0.05764561 0.014236468 -0.0069144303 0.022182012 0.0074115307 0.041367996 -0.013799272 -0.025180116 -0.017695704 -0.005844415 0.024088392 0.076528564 -0.024860157 0.07524652 0.024440058 
0.0018254032 0.028828394 -0.044119235 -0.0063847583 -0.074420914 -0.0009654714 0.07325261 -0.032352842 -0.039688095 0.026334163 0.07179036 -0.034773074 -0.002323915 -0.027420957 0.04515353 -0.026433988 
0.02644732 0.02146636 -0.044041965 -0.0335917 -0.03896024 0.008840638 -0.01610642 0.047217026 0.05472403 -0.009295433 -0.0712354 -0.041212387 -0.03608654 -0.0056667975 0.00808438 -0.024360754 
-0.03047153 0.025048845 -0.028511347 0.046271723 0.017274043 0.012237858 0.0030187275 0.032041624 -0.025968384 -0.025800196 -0.023533734 0.01894014 -0.01740713 0.038477764 0.007124968 -0.015249572 
0.029679062 0.03297703 -0.00073676737 0.018556 -0.0015435696 0.022334812 0.0026606503 0.004068726 -0.003408663 0.03942106 0.008661166 -0.023158245 0.0028839614 0.011375832 -0.008593028 0.017225357 
0.0020526813 0.045091588 -0.041040864 0.040956642 0.0188991 -0.033911023 -0.015196077 -0.018678823 -0.008679923 0.042354517 -0.04488454 -0.0009244755 -0.03045412 -0.0052809394 0.0063304496 0.027197056 
-0.03819331 -0.024328507 0.023853585 0.0045374273 -0.037108764 -0.015805872 -0.011505167 -0.030959422 -0.018276377 0.0058163214 0.03220977 -0.042012565 -0.032727797 0.0014868691 -0.009262026 0.01446196 
0.059282526 0.043149687 0.04080903 0.032894924 -0.014151931 0.008527927 0.043999746 0.076705225 0.015769783 -0.016164707 0.013651855 -0.026522107 -0.036770243 -0.011615672 -0.028184323 0.022480518 
0.00036777026 -0.031203264 -0.0030975768 0.03865262 0.008477561 -0.030046076 -0.02885358 0.00058794493 -0.0063195666 0.0063826763 -0.019718194 -0.031563994 0.005903954 0.005821781 -0.010023234 0.0017346973 
0.03553336 -0.021700513 0.0024781406 -0.028689062 -0.025412882 0.000403393 0.024195787 0.027795495 -0.033101883 0.037393264 0.012237856 -0.043308433 -0.0045228056 -0.0045832666 -0.009638002 0.006672026 
0.017631764 -0.02703991 0.03997849 -0.0221329 0.0007281078 0.014928988 0.01745747 -0.036359206 -0.0026910054 0.028327974 -0.026419275 0.04149358 -0.0018028005 -0.04268155 0.03161122 0.00772918 
-0.015210881 0.013947371 -0.032806538 -0.058714077 -0.04276948 0.024575602 -0.039766263 0.028193945 -0.015676646 0.009343184 0.054449033 -0.023420742 -0.044253785 0.04006362 0.04324338 0.029463626 
0.031045005 0.000221985 0.0067704227 -0.0096099805 -0.032489058 -0.033496596 -0.044333663 0.025316996 -0.005836697 0.043090522 -0.00034617167 -0.029749926 0.034191314 0.015834577 0.012501243 -0.025773948 
0.020226704 -0.04126883 -0.005801187 0.0040254267 -0.067264736 -0.028729402 0.011929953 -0.02405678 0.0154787 -0.0131016215 0.0019641288 -0.055697262 -0.003203802 0.026981851 0.03451905 -0.0057454375 
-0.0147429705 -0.015705872 -0.008841979 -0.016009873 -0.036836825 -0.0069652344 0.032706656 0.003099496 -0.012262407 -0.008894851 0.039979886 -0.02694955 -0.02022669 -0.012987995 -0.033033922 0.004167913 
-0.03502291 0.044383634 -0.006095087 -0.024088388 -0.007123818 -0.006504771 0.03769355 -0.0067903446 0.019321963 -0.0051549734 -0.020702643 0.012001458 0.03886429 -0.016687695 -0.001352458 -0.036598634 
-0.040070917 -0.0015021254 -0.0004526711 -0.040878907 0.005043504 -0.031692665 -0.005554897 0.0026405973 -0.0035939731 -0.000538682 -0.0010812526 0.020890385 -0.03603915 -0.03815065 -0.04238701 0.0039349934 
0.036833897 -0.03611866 -0.037508488 0.018460236 -0.01072378 0.0022189545 0.028879173 -0.02117795 -0.0021254418 0.06516222 -0.019246722 0.020518688 -0.032054275 0.00010026657 -0.035161134 0.023547422 
-0.006614915 0.008398632 0.01951982 -0.020755077 0.011912763 0.01318177 -0.012400901 0.008102071 -0.011283021 0.04185096 0.039135348 -0.008944076 -0.028398208 -0.020025931 0.009239129 -0.0054638595 
0.015624026 -0.001134903 0.017375365 -0.0024784408 0.037482403 -0.020965405 0.004762035 -0.0011966758 -0.028491568 0.061085656 -0.027997073 0.013612873 0.041888107 -0.038021274 -0.038306348 0.010925803 
-0.013568163 -0.02021453 0.01880167 0.021411618 -0.0020429308 0.018285764 0.030898936 0.015967174 -0.04193479 -0.024470268 0.018383717 0.03205281 0.0010288605 0.0010581322 0.0032553214 0.017099665 
0.024155771 -0.01820628 -0.018069038 -0.022212964 -0.010185323 -0.04859537 -0.06144256 0.028645942 0.008051856 0.041653078 0.004315453 0.034329735 -0.0013454857 0.028310344 -0.039862294 0.02714264 
-0.05695859 0.008163739 0.020537753 -0.0011777004 0.035877496 -0.021159882 0.038055345 -0.04259961 0.027687544 0.023498287 -0.020022513 -0.04213853 -0.03372392 0.009054829 0.05488657 0.0013867295 
-0.026167262 0.03415075 -0.074804865 0.007469374 -0.029074645 0.022783268 0.027601713 0.033062804 -0.044418033 -0.028316028 -0.035471704 -0.015979132 0.060829088 -0.007934842 -0.00029195112 0.059288617 
-0.0015333621 -0.044173155 -0.012848814 0.041985627 0.034336753 0.02928315 0.049681954 0.0032014456 -0.021262867 -0.025610339 0.044548947 0.029943803 0.00093360443 -0.01610349 -0.0064042057 0.025709083 
-0.0014695814 -0.0033381206 -0.03701569 0.019070286 0.042188775 -0.011287657 -0.014288774 -0.0010740072 0.05941148 -0.004365068 -0.026122412 0.03605376 -0.04045652 0.00077450136 -0.043295145 0.027798569 
-0.03352711 0.07175806 0.011134249 0.06908014 0.02590592 -0.035968166 -0.010595546 0.017550118 0.0476897 -0.03286664 0.019348882 -0.0404215 -0.024562338 -0.040746026 0.0014511374 0.07500135 
-0.0024955168 0.012948536 -0.024101447 -0.011616119 -0.010299862 0.030546477 0.021345897 0.024707595 0.033407286 -0.0017940743 0.032490164 0.03427312 0.01365206 -0.025735857 -0.0001446324 0.0013096437 
-0.014870907 0.020698259 -0.022193786 -0.03265742 0.07498027 0.024215871 -0.022562902 0.010471588 0.013250422 -0.021925561 0.04278778 -0.030319842 0.0739437 0.005243771 -0.00031558127 0.0116126975 
-0.027594484 -0.005213116 -0.023153834 -0.037462458 -0.045942854 -0.02126653 0.055887572 0.011379274 0.020105239 0.0386681 -0.041252714 -0.015039361 -0.015896196 -0.0038362097 0.028167384 -0.032649055 
0.013738844 0.03329334 0.034886185 0.03843827 -0.011385965 -0.0026792416 -0.027227677 -0.018891256 -0.02620861 0.027200544 -0.023854915 -0.031170197 -0.02472236 0.03552096 -0.0036748042 0.025301794 
-0.013352486 0.011648703 0.008516683 0.030485122 -0.024177762 0.024427054 -0.013513831 -0.041915182 0.026574835 -0.008822832 -0.0146155115 -0.026328765 0.00015833575 0.0011048969 -0.033719946 -0.037161205 
0.016594483 -0.0215711 -0.049918536 0.016897231 0.016365502 0.07353484 0.047204524 0.08223989 0.05016846 0.024943294 0.03328416 0.0072336933 0.0332046 0.010658533 0.054423645 -0.022016168 
-0.0028175637 0.009688775 0.023068203 -0.0137781445 -0.007364355 0.0028181109 -0.0037512118 -0.024377571 -0.033916634 -0.0030775142 -0.02579661 0.045334365 -0.038726788 -0.004629332 -0.041408308 -0.029488394 
-0.0004663015 0.02541325 -0.016758813 -0.04223158 -0.016963655 -0.021778239 0.015357159 0.009982001 0.012641334 0.007339084 -0.026128933 0.023618517 -0.03611595 0.022816826 -0.032330375 0.005566157 
-0.0029554677 -0.0071133072 0.010117621 0.030600771 0.021037545 0.021280158 0.03127643 -0.03867773 0.013720331 0.023757488 0.026505323 0.021115586 -0.03115046 -9.1300644e-05 0.025548892 -0.040693134 
0.0213967 0.056295566 0.035811584 -0.025906917 -0.038627744 -0.007425232 0.032990523 0.051906 -0.013257712 -0.024828445 0.044958893 -0.042206716 0.08116532 0.0003506688 -0.03280923 0.0325749 
-0.0069964286 -0.004752603 -0.0069086957 0.001977282 0.047381822 -0.0010647385 0.008368149 0.026114898 -0.056891717 -0.020461677 0.028989444 -0.012164918 0.0049825576 0.01889723 0.061351743 0.021945812 
0.041135836 0.00025855156 0.02880322 0.042700842 0.0008430906 0.009198027 0.04523649 -0.026032925 0.018051159 0.026060918 0.039102133 0.043604575 0.024780584 0.027877176 0.034473382 0.02589484 
-0.005543356 -0.042002097 -0.041410796 0.009836177 0.06957899 -0.041528247 -0.0094361715 -0.024319613 -0.0031892066 -0.011109539 -0.0645522 0.016557705 -0.03319087 -0.020937711 0.019997511 -0.033196323 
-0.023098107 -0.010808404 -0.020903582 0.0023188596 0.010358684 0.02413827 0.00788785 -0.013395333 0.0309749 -0.0060654874 -0.011671838 0.0146927945 -0.025435757 0.03774405 -0.0033958417 0.025359329 
0.038833037 0.029946612 0.0329145 0.021504862 -0.019646602 0.044209864 -0.03255545 -0.009667301 -0.011168535 0.0012867462 0.030050656 -0.036582317 0.0009001042 0.014936672 -0.020280177 0.043654118 
-0.007984546 -0.0011454206 0.006345587 -0.03705078 0.047523305 0.014308214 -0.006937851 0.008290755 -0.00063609023 0.026026506 0.034745496 0.029890496 0.024115795 -0.010673006 -0.0024478992 -0.03749225 
-0.033806402 -0.055692405 -0.042167965 0.03266432 0.076290786 0.005571731 0.014844182 0.015958982 -0.033632547 -0.011292819 -0.016129397 0.023880757 -0.011338276 -0.0035455804 0.00208046 0.005900733 
-0.038519267 0.0343195 0.033295263 -0.037364174 0.019376194 -0.032185454 0.008827454 0.02377452 0.011399396 0.0008943614 0.0303234 -0.015444756 0.022964729 0.0038358318 0.016746303 0.034489438 
-0.0016784014 0.031816885 -0.0025895166 0.013411477 -0.041500438 0.04363978 -0.041273955 -0.010077968 -0.001872835 0.045010924 -0.0042499094 -0.023731906 0.015835285 0.029998597 0.042361114 -0.01593918 
0.036327016 0.004478057 -0.01626151 -0.02826576 -0.023937045 -0.017771916 -0.0024996053 -0.009948739 -0.01389708 -0.03957314 0.016820665 -0.014001612 0.0417575 -0.021983555 -0.0019452196 0.01617108 
0.02701957 -0.031118836 0.04194347 -0.0052831215 0.030922543 -0.018035373 -0.014851149 -0.024986502 -0.059740864 -0.042456597 -0.019010711 -0.016590264 -0.0019410095 -0.0039340733 -0.061561055 -0.039291237 
-0.027896332 -0.040133536 -0.061600033 -0.034936532 -0.036113385 -0.0051195454 0.007693087 0.02525444 0.07642232 -0.0050562257 -0.059077248 0.039690368 0.040451497 0.006607146 -0.0055486443 0.050916363 
-0.018578546 0.037480433 -0.051897727 -0.02987916 0.0010226673 0.039430063 0.013906126 0.009493135 -0.074591845 0.06873337 -0.0113525335 -0.044505894 -0.0048503783 0.018173706 0.044436265 0.023728564 
-0.030739993 -0.026708458 -0.020516532 0.044439204 -0.038616717 0.010877642 -0.014332614 -0.021889405 -0.04329927 0.034125786 0.007724732 -0.004269979 0.009706242 -0.013414641 0.047192886 -0.0552605 
0.02798143 0.0023232154 0.004925482 -0.0016215418 0.005155363 0.026142014 0.024777208 0.0024930506 -0.04180001 -0.0317476 0.03766114 -0.028470166 -0.002889445 -0.031663757 -0.02171743 -0.08180297 
0.014681425 0.037864074 0.0146693 -0.0017970667 0.065025695 0.022338975 0.033451203 0.003717677 -0.0025057085 -0.03251033 -0.01518532 -0.019117545 -0.01350795 -0.031148717 0.01595148 0.020106377 
0.026986225 -0.020231804 0.0032780473 0.0031531814 -0.0039471746 0.041846715 -0.020405823 -0.027704695 0.02692488 -0.022551166 -0.034887306 0.008438297 -0.024073519 -0.004976009 0.03516064 -0.030524675 
0.02984786 0.0041262163 -0.02249845 0.026063558 0.008551042 -0.003637459 0.07711342 -0.031830743 -0.03189959 -0.02146626 -0.026934978 -0.017501794 0.0010701474 0.030625334 -0.033266395 0.011115886 
0.01372108 0.041626498 0.022255454 -0.009878645 0.047859684 0.013041979 -0.058401845 0.054416753 0.039510816 -0.022075903 0.053965397 -0.06564276 0.025049524 -0.006119623 0.07389573 0.016978595 
-0.0094208205 0.07950423 0.024566261 0.014566419 0.016267205 0.011488979 -0.07517433 0.018817898 0.044301536 -0.03876417 0.029545771 0.024270613 0.0017024035 -0.038250424 -0.022132682 0.032597538 
0.02306885 0.016119992 -0.01904554 0.046021506 -0.019036066 0.008964802 0.042289656 -0.010510901 0.017181957 -0.012639941 -0.0020178293 -0.011231499 0.01099088 -0.0044747107 -0.026672209 -0.0015990726 
0.027194867 -0.01715202 0.00058795034 -0.009436357 0.013355154 -0.038525343 0.036431663 0.03267384 -0.029282099 -0.011385553 -0.044144575 0.03616118 0.0006825304 -0.01618387 0.039061278 0.0029087868 
0.013503072 0.042702254 -0.029677369 -0.020477934 0.045370035 0.035420854 -0.020889899 0.0068195625 -0.028633507 0.010097124 0.017720489 0.032964934 0.041093163 -0.013253069 -0.009378162 -0.010019071 
0.03491156 0.023964982 -0.024676282 -0.030920802 0.026883144 0.034268357 0.052972358 -0.012591856 0.049265295 -0.02295127 -0.00080950337 0.006655607 -0.028922308 0.002347709 0.0026790546 0.035010863 
0.021880887 0.026826294 0.031196108 -0.0016366096 -0.04150449 0.047190253 -0.0099464925 -0.046633735 -0.026996028 0.0357821 -0.017012412 0.03198781 -0.01649683 -0.023702078 -0.020106895 -0.009901834 
-0.053746767 0.032930125 0.022796864 0.038946867 -0.068902105 0.016091714 0.051495 -0.034478106 -0.012620445 0.02291241 0.058518294 -0.031370535 -0.010750966 -0.025530012 0.042658843 0.0047415905 
-0.010737339 -0.019945374 0.014064861 0.042288348 0.049972083 -0.020582128 0.0036607839 -0.013859524 0.010668193 -0.018485585 0.04345988 0.03387659 -0.005675229 -0.012654761 0.009370614 0.017060783 
0.025774425 -0.0001247006 0.019972283 -0.018070163 0.032624085 0.0322533 -0.011748442 0.0075003156 -0.025566177 -0.009458284 0.043255527 0.008422955 -0.032768425 0.021099864 0.00030651203 0.021119757 
-0.044269696 0.04086136 0.014434232 0.01668691 0.0064986306 -0.0040150085 0.02432349 0.024685975 0.011393529 -0.002862282 0.014642398 -0.03660678 -0.009917301 -0.03551721 0.028416298 0.018898634 
-0.0037473089 0.027653832 -0.02895763 -0.0006307291 0.037344687 0.0099170925 0.037405834 0.0122070545 -0.017726758 0.020954588 -0.036030307 0.0039013766 -0.0028701094 -0.03232363 -0.0052033905 0.021628061 
0.024907071 0.01748742 -0.046232894 -0.07671287 0.010667143 0.043453783 -0.042406745 -0.02030892 -0.011412029 0.02688004 0.0108842375 0.010198287 0.0060846913 -0.021818368 -0.0084938975 -0.019433677 
0.036157053 0.05600291 -0.027027696 0.015182403 -0.051060446 0.0056122597 0.062051237 0.029884819 0.018341754 0.032398254 -0.0071490034 0.03457736 0.054376002 0.036463458 0.020291848 0.010909082 
0.039069224 0.014927778 -0.0059013856 0.015974503 0.034584645 -0.0021687967 -0.043807726 -0.04377629 -0.0012557595 -0.03517715 0.010935555 0.005678752 0.042830896 -0.021997191 0.010447576 -0.023707204 
-0.0033912605 -0.01837721 0.030370828 0.024430608 0.017561026 0.010828319 -0.011883989 0.07224394 -0.00933657 -0.0031174012 0.0076169344 -0.007613292 0.02067953 -0.010368142 0.05529388 0.07720635 
0.05805679 0.010172204 -0.055945683 0.0326656 -0.026675887 -0.008782573 -0.04916431 0.07955831 0.02646346 0.00034355905 0.024879653 0.03802934 0.051730353 0.037712883 0.022122735 0.062618814 
-0.026532197 0.0053739566 0.012972587 -0.0008770409 -0.050835934 0.03480593 -0.006113375 -0.039102606 0.0332993 -0.031884976 0.052760225 0.01286831 -0.028597107 -0.033637147 0.0033340843 -0.021639615 
0.014537937 0.03242272 -0.008928706 0.021941204 0.032725822 0.011122803 0.044014294 0.041153993 -0.01831687 -0.03527385 -0.009466695 0.0015008836 0.0055716 -0.041847397 -0.029189225 0.010921058 
0.009463058 -0.00421871 -0.033324666 0.0083057815 -0.042589623 -0.006783803 -0.031002024 0.057909664 0.060483124 -0.007791626 -0.05304819 0.010465664 -0.032989707 0.0051701525 0.013605976 -0.021427175 
0.015506338 -0.012694946 -0.015015144 0.014557364 -0.06278368 0.0021809465 0.021765998 0.062265486 0.036246523 0.025620967 0.033009697 0.06641001 0.0049748044 -0.0046102703 0.074418046 0.027790962 
-0.040611926 0.041866314 0.01905756 0.009378164 -0.016611028 0.007259826 -0.038840048 -0.004534985 -0.027062302 -0.018377557 -0.027024282 0.016644038 -0.020471804 -0.011370043 0.039608613 0.06757363 
0.020559326 -0.013046301 -0.021197248 0.015468195 0.033419482 0.03836016 -0.04137611 0.0011715025 0.036808614 0.023356397 -0.038253598 0.082208976 0.019595679 0.034938972 0.028346468 -0.026382541 
0.006372677 0.011644729 -0.043031212 0.0038524866 -0.023352263 0.023699524 0.0022897199 -0.013031712 -0.0050698305 -0.015398737 -0.021705663 0.015365336 0.043376744 -0.0030358636 0.021995435 0.038792666 
-0.03383103 0.0670324 -0.0055777524 -0.011755175 0.07473736 0.008770831 0.040204648 0.07247681 -0.03562376 0.03949964 -0.027182285 0.042056244 -0.023788894 0.010767287 0.007285152 -0.05446564 
-0.0309875 -0.03237653 0.0013288803 0.0036434005 -0.013092977 0.026869332 0.009592678 -0.0141054755 0.006689873 0.041943654 0.03669597 0.0049860734 -0.025990155 -0.0047344705 -0.015077938 0.016444104 
-0.0031446833 -0.0076546595 -0.016864408 0.020717373 0.009322318 0.0035414635 -0.00579592 -0.012020381 0.0017621095 0.028646596 0.030955281 -0.009630132 -0.0049809227 -0.002933695 0.03399636 0.0072328346 
0.0039761676 0.056926522 0.0041346904 0.038497906 0.062729485 0.030438015 -0.06138937 0.04740454 -0.030804608 0.03375175 -0.030632017 0.042878937 -0.007956904 0.011737322 0.06308775 -0.027082596 
0.014981665 0.016308086 -0.012806196 -0.011246398 0.006686847 -0.011326895 -0.028169822 -0.028082134 -0.019398153 -0.03454824 0.03942259 0.032122213 0.0043507447 0.015813824 0.019601751 0.062349405 
0.030061323 0.008965934 0.036472578 -0.006642386 -0.014295709 0.0041953195 -0.04045848 -0.037339073 -0.012899069 -0.024156688 0.03131551 -0.022798661 0.0043776613 0.009361248 -0.033099595 -0.046637252 
-0.0045809736 -0.035933573 -0.065297306 -0.06250766 0.01797781 0.027978048 -0.013900283 0.042457283 0.0036671036 -0.0046863174 -0.040899616 0.011508986 -0.030575993 0.018854631 -0.009221173 -0.021146666 
0.022896849 -0.010726953 -0.043603443 0.0074433447 0.023526868 -0.00046460665 -0.00964063 -0.024927648 0.017978312 0.013976272 -0.012215991 0.026538335 0.04626361 0.0078217685 -0.040824033 -0.02172029 
0.037803054 0.035742003 -0.027139518 -0.012606111 -0.015093431 -0.04278999 0.03976123 -0.0028042113 -0.007750393 -0.021399684 0.036171094 -0.037710972 -0.009495816 -0.003094385 0.008368001 0.039952077 
-0.00022343436 0.048347536 -0.021494629 0.0033296314 -0.0074055083 0.0129099125 -0.000721796 -0.0014509021 0.024501247 -0.029843856 -0.04156354 0.030654503 -0.0050377734 -0.043595392 0.022425931 -0.04797707 
-0.042059 -0.021299353 0.024974193 -0.02501821 -0.004002094 -0.021236842 0.07383405 0.0096381605 -0.0013866381 -0.015227527 -0.03656361 0.0049306373 -0.024296403 -0.023247939 -0.018383905 0.021453554 
-0.015764195 -0.012565852 -0.019238254 -0.0015670548 -0.011971906 0.036686916 0.020217981 0.0220273 0.029244334 0.029601147 -0.0026757948 -0.001952439 0.0030028464 -0.03709257 0.015791964 -0.033591162 
0.014090156 0.032985277 0.043868516 0.0037632522 0.041125696 -0.033988517 0.0072561195 0.02367699 0.012201309 0.008174848 -0.005122905 0.013388833 -0.0047312453 0.019294357 0.025122754 0.022196427 
-0.016036652 0.041562743 -0.046038646 -0.009715299 -0.002064401 0.04730643 -0.006344268 -0.021345053 -0.025448358 -0.0017501481 -0.027745025 -0.030965028 0.0031173136 -0.009198207 0.008876627 -0.011685099 
0.03605838 -0.03424688 0.0021206962 0.041248117 -0.041316252 -0.041256152 -0.029310325 -0.0056680017 -0.0064225933 -0.0170148 0.002593207 0.007586853 0.0057720933 0.00805858 -0.043182205 -0.007348215 
0.021334559 -0.03882353 0.028567716 0.017914873 -0.0015651406 -5.5728975e-05 -0.01318069 -0.022919506 -0.033016834 0.024450144 -0.015491104 -0.003305187 -0.01091161 -0.003616925 0.016202496 0.0065000583 
-0.034288324 0.021967655 -0.026884306 0.0022962524 -0.020366553 0.063289344 -0.0048164446 0.0020478214 0.0035942101 -0.036131535 -0.07311734 -0.024063887 0.010642182 -0.010530666 -0.0073391385 -0.03498993 
-0.019657599 -0.029272595 -0.01903895 0.014000107 -0.008746663 0.002014127 0.005590813 -0.0064817774 0.029515432 -0.054782163 0.011375981 0.013661543 -0.033207335 0.032026447 -0.02189141 0.009821128 
-0.003514756 -0.034561962 -0.013660475 0.022014998 -0.030747633 0.03547218 -0.026647668 0.04191162 0.033374187 -0.005586395 -0.036818128 -0.04351039 -0.005964658 0.04267211 -0.028587686 0.009733614 
-0.013925218 0.041873742 -0.005562288 0.025639275 0.012410197 -0.034409255 -0.0024994886 -0.01683864 0.00411661 -0.02396392 0.033015586 -0.040084805 -0.0060274103 -0.040055282 -0.0008520495 -0.0107134385 
0.008737843 0.029015679 -0.0031270438 -0.009825167 -0.023987714 0.0170507 0.0017757646 -0.03506586 -0.008117198 -0.007870103 -0.019693136 0.03576184 0.017843515 -0.0020137564 -0.019991005 0.009738346 
0.021140117 -0.034046147 -0.02360757 0.036150992 0.053920846 -0.008162891 -0.03539556 0.0513754 0.010954787 -0.039765287 0.0054251454 0.027383268 0.029133243 0.003143276 0.054386936 -0.018206453 
0.03789461 0.044918776 0.02233203 -0.017572587 0.039479934 0.00956046 0.017557494 0.04045401 -0.023956291 0.021799104 -0.015837433 -0.038301475 -0.023117283 -0.029105084 -0.030583551 -0.03276436 
-0.0017664792 -0.0062227305 0.02771383 -0.010789399 0.03366124 0.01967439 -0.005857297 0.0065997466 0.012504221 0.0026750234 -0.018835716 0.009451138 0.033378936 -0.011819736 -0.011684509 -0.044150844 
0.010151343 -0.03270447 -0.032364305 -0.033976167 -0.05094833 0.004530351 -0.027098885 0.04927824 0.071046636 -0.01489117 0.04025781 0.031882174 0.042896282 -0.018823527 -0.035518788 0.04909491 
-0.0023748092 -0.035770696 -0.012289127 -0.025821166 -0.02899178 -0.028774 0.016649082 -0.021140873 -0.04406088 -0.033751197 -0.011241519 0.03759144 -0.0258125 0.0050034835 0.0057782168 -0.0037340685 
-0.017347803 -0.045452025 0.002531412 0.029387396 -0.03816912 0.004368995 -0.026280902 0.02880281 -0.032908816 -0.062405743 0.041344434 0.024338298 -0.0025299182 -0.0018072574 -0.02168937 -0.023960903 
0.02640984 0.08095485 -0.026506547 -0.061250277 -0.038390797 0.002067612 -0.012459164 -0.004813882 -0.0056951162 0.0562843 0.042589832 -0.013110929 -0.017147426 0.0060981116 0.010096385 -0.075777 
-0.0035324574 -0.007575866 -0.037273034 0.0104179885 0.033881284 -0.0077519994 0.019152828 -0.0081433365 0.0005634066 -0.0393476 -0.023815317 0.014483598 0.010394131 0.009730226 -0.021802658 -0.03696569 
0.027879888 0.0084495 -0.028392835 0.0051190737 0.023494868 -0.03904424 0.021788549 -0.006705134 -0.02623909 -0.00593103 0.0034501827 0.0107338745 -0.029421868 -0.034736365 0.03863232 0.030494401 
0.030793065 0.045019053 0.042419612 -0.028683446 -0.032511037 0.022734767 0.002707029 0.03209132 -0.01082355 -0.06466811 -0.020477217 0.034607794 0.0073426235 0.040238447 -0.012647585 -0.009395507 
0.008040512 -0.059691638 -0.016441675 0.0036773132 -0.06414038 0.011622159 0.005461121 -0.036582354 0.025483537 0.031973887 0.039531354 -0.006197361 0.008644024 -0.032574266 0.025252564 -0.0018710139 
0.032721482 0.07688069 -0.047746558 0.008560117 0.0023301009 -0.010325648 -0.00017359393 -0.031441484 -0.03557413 -0.024317194 -0.027098449 -0.03279589 -0.013006132 -0.025599811 -0.02956761 0.01831246 
-0.04195923 -0.0075638234 0.025358628 0.004911454 0.026643168 0.02847099 0.060604334 0.031387765 0.02190765 -0.0062554376 -0.037068196 -0.026628647 0.011638666 0.031107495 -0.01443113 -0.066569306 
0.026586166 0.0023918217 0.020973677 -0.004135074 0.030747933 0.009988458 -0.023588588 0.010746995 -0.044188686 -0.03336682 0.0071822996 -0.012990552 0.026885428 -0.003812766 -0.037668254 0.022047753 
-0.020405527 0.03978475 0.00632979 0.028091714 0.03911261 0.036600735 0.019573605 0.005422967 -0.026396684 -0.03350976 0.02167875 0.0004079035 -0.030083757 -0.008286906 -0.0023914415 0.056684744 
0.0045022606 0.004650559 -0.038308762 -0.003890704 0.026832638 0.014130497 -0.040034376 -0.01583587 -0.014176416 -0.010829095 -0.033883426 0.018954815 0.04703965 -0.012910747 0.015103112 -0.017363884 
0.0141664315 0.035858303 -0.023178048 -0.040041648 0.04622256 -0.043595973 0.010955986 -0.026708527 -0.0061457283 -0.036300793 0.005802083 0.017538736 -0.033862595 -0.02130847 -0.023962852 -0.023104925 
-0.011508558 -0.023779139 -0.0045945747 0.031941824 0.044464413 -0.03663261 -0.0365482 0.009262686 -0.010999288 -0.006785812 0.0057927654 0.006962206 0.044028543 0.005043051 0.013405464 -0.008505316 
-0.04187083 -0.06297397 -0.04126763 -0.074861705 -0.037550557 0.0113819875 0.06969203 0.04206263 -0.074338935 -0.010502212 0.08252571 0.05059859 0.021524424 -0.010388544 0.071037084 0.075708635 
0.031979997 0.0023904738 -0.0018381326 -0.004753355 -0.0030562032 -0.03134113 -0.011043697 0.018973207 -0.0026240477 0.012841721 0.0005725275 0.0024079843 0.021473257 0.013486745 -0.0028383802 -0.018550618 
0.010744481 0.009463293 0.031891577 -0.002034531 -0.035053 0.022262787 0.047930162 0.016700832 -0.011613044 -0.03718257 0.054330125 0.037561107 -0.017763568 -0.0075926506 0.050162498 -0.0050092638 
0.023283157 -0.02136796 0.0065958803 -0.046151854 0.016258853 -0.012520252 -0.0039096004 -0.029858708 -0.01507694 -0.02385089 0.071528606 -0.06154404 0.019268828 0.037694994 -0.013662305 -0.0013861707 
0.026921129 0.013545735 0.009118569 0.01858744 -0.05043078 0.018394632 0.07248863 -0.018042289 0.028626228 -0.024012106 0.031687938 -0.027409159 0.00031198247 -0.029382879 -0.0019301394 -0.010356258 
-0.01126315 0.0034296229 0.026042826 -0.06165552 -0.027665408 0.06549512 -0.0637511 0.07263874 0.0523475 -0.004017406 -0.035962585 0.039731476 0.025159882 0.044005632 -0.035075523 -0.048914574 
-0.031723212 -0.009371063 0.001188709 0.04433085 0.017901238 0.027943773 -0.003877838 0.028834123 0.021038597 0.0016682694 -0.016184958 -0.019197848 -0.027272848 0.050579727 0.027740642 -0.0064136325 
0.017217746 0.002700877 -0.036890183 0.00015924232 0.024172394 -0.024121173 0.029032297 -0.009726187 -0.025082262 0.02418101 -0.023916552 0.06118974 0.028751204 -0.0031027407 -0.02399526 -0.029976396 
-0.02577557 -0.038474433 0.034522127 -0.03443991 0.014645067 0.017302897 0.06816711 0.02011338 0.009986653 -0.014828559 -0.001341508 -0.024912557 0.010307658 -7.963274e-05 -0.018226972 -0.054970775 
-0.025685204 0.0038506864 0.0018096012 0.0032686784 0.002823663 0.018918889 0.034380544 -0.002052301 0.041045386 0.001340322 0.011885394 0.0011183041 -0.011461221 -0.02567959 0.013850208 -0.0099022845 
0.013235988 -0.027923772 -0.028940845 0.0010399899 0.04338587 0.035905045 0.071036264 -0.019681906 0.0347214 0.029189397 0.010692121 -0.012577657 0.015957296 0.02583269 -0.003776891 -0.018552722 
-0.03971639 -0.03374407 -0.020719081 -0.01662066 -0.030199261 0.027351072 0.0731236 0.0051065306 -0.02895378 -0.013172503 -0.0054843007 0.04388342 0.022356752 -0.03869937 -0.007729094 0.046693347 
0.0060363393 0.002357163 -0.024311487 0.00043063218 -0.00419996 0.0030650853 0.0011102256 0.03402587 -0.019194156 -0.005289903 -0.042888235 0.02321336 -0.035871897 0.032100998 -0.016835492 0.0035251994 
0.028906288 0.00037116438 -0.010642216 0.03214017 -0.029634234 -0.0056689535 0.015263308 0.036443934 -0.020593226 -0.02952788 -0.042678747 -0.03366318 -0.028505238 -0.040487792 -0.043337613 -0.014536066 
-0.038689848 -0.030094152 0.004881937 -0.0019076698 0.026910534 0.019477975 -0.025641803 0.008265132 -0.006404777 0.04031306 -0.029244652 0.002784733 -0.04428661 0.028287202 9.3085415e-05 -0.002685373 
-0.0024269857 0.0034692213 -0.005716861 -0.061292708 -0.026227735 -0.01339671 -0.0043865154 -0.022206664 -0.0024995084 -0.03023229 0.03040944 0.03981491 0.021597194 0.0073279804 0.038408767 -0.023487935 
0.0085943155 -0.0117181605 -0.043811996 -0.04860479 0.00037605557 0.030174518 0.0032384468 -0.00546135 0.009397169 0.015436108 -0.008813719 -0.041661043 -0.0012212972 -0.012707014 -0.03211804 0.024327803 
-0.0005597858 0.029773097 -0.013929715 0.037214734 -0.002454511 0.034529313 0.029777462 -0.0435825 -0.017715191 -0.025234498 0.034241915 -0.040669605 0.035682812 0.00061084 0.04409597 -0.050564386 
-0.002413756 -0.0071813427 -0.029201897 0.02518069 0.020377541 -0.015179423 0.030473499 -0.012836945 -0.016462542 -0.041519023 -0.022758843 -0.06630616 -0.012917537 0.02674414 0.053944383 0.05587838 
-0.031220324 -0.02233854 -0.0031462626 0.0074265795 0.010209536 -0.038227182 -0.013477602 0.03445274 -0.043271855 -0.025437009 0.06055402 -0.018920556 -0.024127774 -0.042705808 0.011968746 0.023116834 
-0.0036307531 -0.042791106 -0.0062356 0.028011087 -0.0018960504 -0.044022147 0.0016120562 0.039278205 0.016548077 0.003899628 0.007920149 -0.005792651 0.042584077 -0.0061050016 0.012836932 0.026743447 
-0.0041529355 -0.025787096 0.03667928 0.05164585 -0.02724935 0.0472725 -0.054705556 -0.023688477 0.050791185 -0.032010887 -0.03611077 -0.010819531 0.018228736 0.0042230943 -0.030540084 3.285051e-05 
-0.0020715275 -0.018547809 0.019106647 0.018242909 0.00959272 0.02516452 -0.04467 -0.028375687 -0.003348662 -0.048884254 -0.018830033 0.0047033043 0.017413832 -0.0057740044 0.025355771 -0.014442407 
0.040695988 0.015678525 -0.023106912 0.04739577 -0.009970172 0.034307122 -0.010421328 0.0072684097 -0.019409759 0.031031542 0.0020653876 0.049284484 -0.01949543 -0.0008900639 0.03873836 -0.023265235 
0.005369882 -0.0142115895 0.0011196822 0.0075561497 0.02587694 -0.038196605 -0.022696158 0.002866963 0.0060475743 0.031050915 0.0011498717 0.006341122 -0.039298445 0.043718245 -0.017341545 0.0045688716 
0.0016840529 0.044405054 -0.021729194 0.040653702 0.009136606 0.0019749154 0.023403665 -0.016233534 -0.0059913774 -0.03776402 -0.031685106 0.080403864 -0.01044348 0.07495933 -0.039171517 0.022374501 
-0.038987514 0.025959231 -0.00682966 0.031383894 0.012297488 0.010092379 0.0033726897 0.007550911 -0.0049037356 -0.011461049 0.021655053 0.004090613 0.037354752 -0.008588255 0.009106048 -0.00060551555 
-0.022734657 -0.01828445 -0.01713044 0.041947026 -0.02323806 0.0041250847 0.0010960347 0.017017564 0.016077174 -0.03036702 0.013463175 -0.0032518709 0.009367229 -0.008241865 -0.015583577 -0.04742295 
-0.0023478488 -0.034321662 0.018356292 -0.014779575 -0.014260079 -0.041300923 0.0035960702 -0.016066534 0.022706775 0.0025841966 -0.040981572 0.0044124434 -0.0032976498 -0.005500443 -0.025759822 0.015797466 
-0.021744104 -0.029222604 -0.005155051 0.0017202571 -0.027294403 0.03704671 -0.0033857583 -0.0030374853 0.011240686 0.018940425 -0.008050816 -0.011133254 0.03585537 -0.022178264 -0.004103731 -0.014199388 
0.028841171 -0.015676659 -0.022259895 -0.02089962 0.028438298 -0.04023268 0.05321897 -0.044799395 -0.037073217 0.025554238 0.078757785 -0.01279529 0.017316883 0.009248912 -0.030672627 0.01297939 
-0.05715758 -0.019364815 0.0019682064 -0.0072572404 0.005714443 -0.041185215 0.020619756 0.045371644 -0.0694163 -0.040315226 -0.04845541 -0.06467476 -0.0098092165 -0.01996086 0.07188277 0.033883486 
0.038387645 0.037178073 0.005085478 0.0245331 -0.018158859 0.009926005 0.03850711 0.0003079697 -0.029119749 -0.002775375 0.043369 0.014605643 0.034643702 -0.007889416 0.020950695 -0.023815574 
-0.011111071 0.0474004 0.040167812 0.013798704 0.042353842 0.027523356 0.02888401 0.06253378 0.07022372 -0.017042752 -0.018680697 -0.00037560103 -0.0043596164 -0.008626935 0.0663919 0.046270624 
0.027378688 -0.013488954 -0.021983352 0.021853575 -0.026801592 0.0016571514 0.043050386 -0.041991763 0.015413266 0.00011507504 -0.018311441 -0.039610106 0.0074525997 -0.0076012807 -0.027021058 0.0257243 
-0.005400833 0.008179005 0.0047951965 -0.013775566 0.020234412 0.00080553186 0.03153713 0.028770585 -0.0076465653 0.0028177043 -0.030396895 -0.0011111657 0.026409104 0.040727176 0.027310995 -0.009448883 
