-0.10466654 0.037255123 0.09792897 -0.08146515 -0.09143174 -0.035783283 -0.09463848 0.0438336 -0.07798493 0.08797647 -0.03601595 0.03490989 0.10033606 -0.031547673 -0.07707919 0.074387655 
0.09208 -0.094443224 -0.01923503 0.0987048 0.09794672 0.05043429 -0.06107248 0.090633616 0.043221384 -0.003059797 0.10104783 0.09169741 0.06984612 -0.0003900081 -0.024786294 0.08853619 
0.060088098 0.011858277 -0.052019756 0.080937 -0.100495614 -0.102867916 0.016618133 0.017659768 0.08979325 -0.07383202 0.076964706 0.02980797 0.02075757 0.045727894 -0.02289915 -0.05691348 
-0.071330965 0.084018216 0.10151447 0.08913417 0.032682076 0.08831036 -0.095715344 -0.055466376 -0.020642258 0.04403703 0.008565709 0.018439889 -0.072754 0.031103626 -0.059844214 -0.092316344 
0.07852706 -0.06466919 -0.040581547 0.07378796 0.015726298 -0.03011237 0.080307156 0.099605754 0.01135242 0.01571329 0.0895451 -0.031148352 -0.019871801 0.051554516 -0.101604685 0.05366461 
-0.046599485 -0.018573478 0.0056531206 -0.09713386 -0.008184902 0.08752872 0.049442366 -0.036738873 0.096881345 0.029503807 -0.037980586 -0.023862556 0.024264723 -0.026483804 -0.08442116 0.093269005 
-0.031765044 -0.09019165 -0.057281405 -0.050582245 -0.05752122 0.09474921 0.059609413 -0.0447689 -0.08512716 0.012584873 0.028457955 -0.00013995916 -0.075637974 -0.059992068 -0.06609984 0.0907463 
0.007781215 0.07335694 -0.049465485 -0.10639577 0.09530063 0.10003322 0.088540256 -0.0077150613 0.0745147 0.06355642 -0.09003675 -0.07547166 0.029081166 -0.045741256 0.028030738 0.032521173 
0.08042361 -0.05066606 0.00077341497 -0.09430205 0.081748545 0.09809403 0.030895501 -0.07451083 -0.067097254 0.099712506 -0.045228638 -0.07513705 -0.041800633 -0.009574026 -0.016217321 -0.0808546 
-0.080081195 0.012719177 0.016888797 0.06239219 -0.0915564 -0.0902635 4.157424e-05 -0.07615851 -0.06627993 -0.0823396 -0.07077277 0.049160883 0.09259963 -0.06710631 0.03132297 -0.06280336 
-0.005571753 -0.06817533 0.10317923 -0.015900426 -0.0049770996 -0.07655487 -0.056183077 -0.089199185 0.08576219 0.07659665 -0.05117675 -0.0884638 -0.083483025 0.062103137 0.013989404 -0.09535557 
-0.00048402697 -0.016815707 0.08144985 0.0851962 -0.032549843 0.08148238 0.078551024 -0.06788162 0.012878656 -0.063990355 0.031252548 0.0984952 0.019982561 0.099228084 0.08994466 0.0783793 
-0.051092498 0.04479751 0.06563185 -0.076855056 -0.03503021 -0.0034596547 -0.011055812 0.0531058 -0.010381252 0.08718437 -0.100292 -0.064438656 -0.04144633 -0.010535173 -0.07550748 -0.08199985 
-0.07910241 0.0073821545 0.07899317 0.02510655 -0.10699719 -0.038884804 -0.05885294 0.05722934 0.011235498 -0.08003337 -0.023102589 0.07272945 -0.0873695 0.078567654 -0.0723346 0.089368865 
-0.034875534 -0.07847886 0.01636199 0.096481845 0.08375046 -0.082917444 -0.0964948 0.042777747 -0.065387584 0.09920086 0.01853031 0.09156476 0.03701204 -0.046295524 0.09296478 0.0034648702 
0.034698606 0.05341333 0.022612497 0.09955886 -0.08703803 0.0401832 0.0031251013 0.020691305 0.08815552 0.03120412 0.09805827 0.022226468 -0.022253178 -0.03129366 -0.09671187 0.067217395 
0.07897757 0.039701 0.0912783 0.05138278 0.09707411 -0.09766828 0.007909685 0.041882485 0.01957339 -0.036971055 -0.08444047 0.054745466 -0.012248829 0.033314243 0.09113459 0.07694182 
-0.10677975 -0.036632672 0.05018516 -0.024099134 0.018715367 -0.04279887 -0.025748849 0.016670346 0.07010797 0.02074942 0.095779926 0.02183947 0.06615941 -0.043491222 0.011935763 -0.009754434 
0.024157673 0.035641834 -0.027205877 -0.09261889 0.05587469 0.049044833 0.05930108 0.00730893 0.09891647 0.08395651 -0.04797285 -0.03029336 -0.08665867 0.013180435 0.07079382 0.0020253584 
-0.0012077987 -0.017493635 -0.044507362 0.041713268 -0.0070429966 -0.006249167 0.026080295 -0.085941814 0.09401648 0.048927277 -0.06037393 0.0225313 0.035195947 -0.0070356205 0.040769607 0.012500241 
0.066260874 0.09992361 0.01736404 0.02112621 -0.014051437 0.054335296 0.052045003 0.012403369 0.08049445 -0.061331935 -0.0039534047 0.02246873 -0.028440334 0.032115415 0.09119588 -0.017628968 
-0.088382944 -0.01946783 -0.0025924295 -0.04634347 -0.045830414 0.047309652 0.036297187 -0.050652612 -0.010665104 -0.049741138 -0.046122678 0.106539845 0.045623988 -0.05483601 0.10191047 -0.08466046 
-0.0055020526 -0.039283715 -0.09066258 0.02571167 -0.083622985 0.07509543 0.08069973 -0.046021797 -0.085989065 -0.0725627 0.046325624 -0.029263422 0.055859223 -0.053414386 0.03757851 -0.050062455 
-0.07904873 0.05845666 -0.025131136 -0.05771921 -0.001805231 -0.023673184 -0.039879195 -0.00061021 0.036951825 0.08951734 -0.057606395 0.045514673 -0.07418681 -0.019546188 0.020274356 0.043522283 
-0.06264399 -0.065734096 0.016449682 -0.018129863 -0.08832103 -0.038440578 -0.07080662 0.057241306 0.021573111 0.06553143 -0.043299764 0.10541955 0.10599753 0.046514362 -0.069136396 0.013618879 
0.057176903 0.086869106 0.099426895 0.01453115 0.04398279 -0.07979353 -0.0686048 -0.09556498 -0.06831169 0.077744424 0.051115558 0.07046075 -0.09657656 -0.0011465847 -0.038739316 0.063616335 
0.045705855 -0.105398715 -0.06882621 -0.0007044077 -0.07859645 -0.079764605 0.04279928 0.05122927 -0.010044046 0.05693844 -0.012701258 0.07177293 0.07915352 0.08765285 0.047070995 -0.040503107 
-0.033446357 -0.092672646 0.016683973 0.03716995 -0.100041814 -0.07692028 0.04148422 0.09346907 0.1033514 0.044314027 -0.05812907 -0.015735015 -0.058245685 -0.021789536 0.09326358 -0.09652136 
-0.091893576 0.046591207 0.063567445 -0.009750113 0.06791268 0.06323129 -0.051167134 0.030741915 -0.014121935 -0.032860234 -0.02693665 0.04496239 0.01100187 -0.10398696 0.05726503 0.026250958 
-0.017355554 -0.07342854 -0.040789865 -0.007129252 -0.08766018 0.0025956929 0.09508552 -0.05533917 0.074153036 0.066361636 0.08440748 -0.009388506 -0.08928601 -0.09926439 0.013756067 -0.054882724 
-0.014088951 -0.053363867 0.10253863 0.02015455 -0.001438126 0.05246319 0.028404504 -0.10053397 -0.065138 0.06293763 0.020548001 0.03759201 0.0746727 -0.10716927 0.0049829558 0.023351103 
-0.011635765 -0.09874784 0.027609646 0.10587311 0.036618456 0.026103929 -0.05859279 0.103646606 0.025638372 -0.031693496 0.0041710287 0.004087344 -0.05559544 -0.088306665 -0.08546935 0.07027233 
-0.05794468 -0.026938245 -0.08851475 0.10070293 0.07249892 0.07604192 0.042643666 -0.0035323575 -0.010931969 -0.034823604 -0.04577424 -0.037593223 0.057718262 0.04691142 0.06240669 0.10698886 
-0.020892747 0.02730149 0.01806505 0.08859545 -0.094259836 0.02447033 -0.019389696 0.08256166 -0.052134603 -0.064092785 0.032345206 -0.029406182 -0.0037769824 -0.02688472 0.06583089 -0.07735163 
0.071192965 -0.028111182 0.036498338 0.075861365 -0.05418353 -0.09032953 -0.07226776 0.07668817 -0.026190542 -0.0017901957 -0.056317486 0.079939425 0.04351531 -0.07330339 0.08606337 -0.015483111 
0.06222348 -0.102442116 0.099241436 0.08168399 -0.09382311 -0.01937507 0.05235122 -0.03371229 -0.004994862 0.10747284 -0.07918057 0.06292713 0.06178385 0.093035996 -0.0025413185 0.01196482 
-0.08879422 -0.048487756 -0.06297955 -0.024591543 0.008380398 -0.06480403 -0.004748024 0.038290337 0.08266634 0.0244741 -0.03230381 0.09678118 0.06373578 -0.04392636 -0.009557597 0.016604327 
0.005824603 -0.07428911 0.102277786 0.062194586 0.033256114 0.073261276 0.094689086 -0.042843558 0.022488296 -0.076798774 -0.02455473 0.011551358 0.046302155 -0.0017782897 0.096073166 0.030798912 
-0.02145686 0.08885874 -0.06075515 0.043846533 -0.021866076 -0.056275886 0.062816754 0.070140496 -0.020272918 0.100881994 0.10148214 0.07717498 -0.009753406 -0.009361386 0.03302838 -0.03127137 
0.011549048 0.033839792 0.10312684 0.09424038 -0.08657925 0.011314295 -0.07149155 -0.053305533 0.060003877 -0.10480671 -0.008291878 -0.066281654 -0.037354305 0.045947805 -0.041393295 -0.03095641 
0.101765424 -0.084009886 -0.023810059 0.061480284 -0.0514577 -0.012172602 0.056582242 0.018139943 -0.044549294 -0.0009296462 -0.09254127 -0.07501125 -0.09232812 -0.058440074 0.032878056 -0.055179693 
-0.09727112 0.10081659 -0.0408163 -0.04165987 0.068404675 0.0383756 -0.03431888 0.09417081 0.0663396 0.040836126 -0.023798719 0.04036559 -0.045118958 -0.06641151 -0.0679333 -0.0045458227 
0.0045839474 0.083315685 -0.0270463 0.022258937 0.08932817 0.07752453 -0.07900359 -0.06923342 0.04709658 -0.04889129 -0.09284806 0.022356898 0.09345622 0.03508851 -0.045363173 -0.0990425 
0.10630296 -0.04479248 -0.04908185 -0.098892584 -0.10040959 0.047401458 -0.006632805 -0.09246147 -0.05432226 -0.08325997 0.0060531124 0.036602303 0.0044469684 -0.09990165 0.029303998 0.07905701 
0.037688166 -0.10767363 0.07805231 -0.016964309 -0.03108868 0.010568105 -0.08946173 0.004822761 0.02253449 0.06259696 -0.0026914105 0.07541086 0.012823872 0.031115294 0.10314265 -0.022011228 
0.092680514 0.091515675 0.027156308 0.013771415 -0.10034616 0.01674693 -0.059752174 -0.004520625 0.021441221 -0.041277036 0.04708773 0.0060931146 0.05156213 -0.09006644 0.056728378 0.0031872913 
0.10756296 -0.0666503 -0.06888829 0.058920115 -0.0045633316 -0.049527753 -0.08082686 0.05339493 -0.008299641 0.03669308 -0.03670206 0.0899844 -0.07710516 0.0067778006 0.070656925 -0.055143673 
0.04212199 0.01440265 -0.011642933 0.08703478 -0.10730802 0.037368372 -0.017166175 -0.06819386 0.08729875 0.07402448 -0.04380843 0.09351033 0.0023172572 0.07171647 0.08734907 0.020049453 
0.06463291 0.0064097494 0.10152003 0.02405566 -0.006944835 0.08686347 0.10102996 -0.035749912 -0.10436931 0.06904124 0.095286354 -0.06769495 0.0019232407 -0.10287807 -0.018130638 -0.023976788 
-0.03818672 -0.02065964 0.09246959 -0.07716596 0.021407574 -0.09534439 -0.07361846 -0.05909093 -0.05903252 0.04369533 0.00069348514 0.05657339 -0.061432768 -0.030061364 -0.07007229 -0.003233157 
0.0686799 -0.0840356 -0.0073818713 0.04065834 -0.10703093 -0.0052608997 0.046134323 0.017156743 0.042787686 0.023782298 -0.04326231 0.07924548 0.04173559 -0.0524889 -0.028686687 -0.06891607 
0.043385893 -0.024041936 -0.0970347 -0.041747257 -0.04257687 -0.106876545 0.056906253 -0.003352575 0.09538987 0.054160193 0.08804497 -0.0027903914 0.06955919 -0.045913868 -0.0083824545 0.09745304 
0.01472564 0.07740983 -0.10679013 0.059083328 -0.107492514 -0.026958324 -0.08846858 0.035611674 -0.09222623 0.0506787 0.032322273 0.10387343 -0.072446 0.09731081 -0.0033142641 -0.0235224 
-0.1049042 0.075354576 -0.02491638 -0.041919746 -0.013487376 -0.07362635 0.07864782 0.07573785 -0.050265405 -0.02231691 -0.0775489 -0.06271582 -0.08061278 -0.013714232 0.038520485 -0.08507479 
-0.06822746 0.043697253 0.0037596077 0.094889686 0.08399996 0.092340976 -0.03772483 -0.043551773 0.026109368 0.09781015 0.0207192 0.055379555 -0.06999421 0.08102079 -0.08611553 0.049194127 
0.07122463 -0.048105948 -0.0718035 -0.07513387 0.08786467 -0.08454624 0.080074504 0.0795418 0.06254153 0.06545825 -0.022559866 -0.044501856 -0.021284655 0.058022574 -0.017778598 0.10399273 
0.061291784 0.062850535 0.0016700551 0.057954326 0.024436101 0.100851655 -0.07179512 -0.04660162 -0.07686395 -0.0944188 0.058987573 -0.0331128 0.044264838 0.029600754 -0.060016133 0.00978446 
-0.09176801 0.03467901 0.015105523 0.05880098 0.056118548 -0.033772245 -0.081726946 0.07984507 0.0154840425 -0.08295372 0.09743695 0.07708274 -0.043779477 -0.0070520937 0.060462594 -0.080562934 
0.049522042 -0.092677504 0.06757054 -0.07345821 0.07704103 0.034659863 0.06280154 0.07093407 0.026202723 0.02073574 -0.022990443 0.0077857673 -0.09064739 0.0033901632 -0.014705099 -0.070038326 
-0.041780062 -0.0005870983 -0.0077188686 -0.018713571 0.069093555 -0.037452668 -0.09967991 -0.09463743 0.08392875 0.006527707 -0.05209262 0.008130707 -0.09283333 -0.03139647 0.060243666 0.039193004 
0.035732538 -0.06438348 -0.06801125 -0.05318578 0.057323486 0.04363528 -0.09430632 0.055115774 -0.033669285 0.022293001 -0.033162117 -0.029258922 -0.03170149 0.02823186 0.07693741 -0.097372495 
-0.022315703 -0.03533481 -0.08412948 -0.050415136 0.06431411 -0.10217065 -0.10301811 -0.006329924 0.091443375 0.05091451 -0.027345173 0.023758441 -0.042359553 0.0994847 0.0031425282 0.038381413 
-0.07371227 -0.015619963 -0.08765357 0.048792318 0.07547189 0.08752823 0.03873752 -0.04808281 -0.00275103 -0.02943223 0.067130655 -0.029812366 0.013344482 0.09243941 -0.09074421 -0.08700065 
0.05869089 0.04240644 -0.10278866 0.05694066 0.017015234 -0.050256304 0.10692829 0.042993024 0.0669608 -0.09742857 -0.042337805 -0.08612731 0.040511236 0.046733305 -0.0379159 0.024051756 
-0.09291853 0.100408465 0.06932841 0.0119283125 0.030118868 -0.07478201 0.09890382 -0.007760234 -0.00020171702 0.071869224 0.060526997 -0.10519153 -0.04214167 0.09688231 -0.055725683 0.032962874 
-0.0512176 0.073863134 0.033104658 0.038182244 -0.030393139 -0.088910036 -0.041530915 0.046024784 -0.09864495 0.085227564 -0.09932365 0.085961476 0.022791937 -0.010454625 -0.097518675 -0.04213161 
-0.10055572 -0.012968637 0.07916291 0.03565818 -0.029036075 0.056325972 -0.04866068 0.02964215 0.023444086 0.09250839 0.063086495 -0.043335453 -0.023913331 0.0146488175 -0.07580362 -0.056308668 
-0.063971154 -0.07766991 0.0005363226 0.04173872 0.035962507 0.026723132 0.022802055 -0.08688162 0.03867185 0.084793374 0.000747785 -0.0037676767 -0.005191721 -0.056735493 -0.10237622 0.03697583 
-0.08799064 0.07736032 0.039156526 0.09431805 0.0695173 0.0056193173 -0.0811744 0.0745399 0.07783514 0.024280772 0.068526596 -0.048981763 -0.08356583 -0.029777609 -0.046865806 -0.0008716211 
0.085066855 -0.09622843 0.02148293 0.07163292 -0.075638644 -0.01907684 -0.07419458 0.07185726 -0.002332352 0.033409238 -0.030272871 -0.022393137 -0.09559557 -0.04966144 0.031517386 0.08634201 
-0.038772866 0.001725845 0.061288208 -0.093804196 0.040294528 -0.0039653555 0.090764865 0.014943086 -0.10537748 -0.00558687 0.07180163 0.048450455 -0.09260583 0.018705547 -0.100592226 -0.06719251 
0.05599822 0.024829403 -0.056927644 -0.08970265 0.04105887 -0.0101998225 -0.05721006 -0.055668607 -0.071055695 0.010271236 0.08078879 0.0018526167 -0.0030737072 -0.012750313 0.027830929 -0.07899824 
-0.003370367 -0.06841445 -0.05619624 -0.032212228 -0.00566148 -0.03436163 -0.06681658 -0.06505668 0.06971881 -0.004394524 -0.097442985 0.015914544 0.0032083988 0.024269506 -0.016253598 0.06203413 
-0.019184284 0.10239379 -0.10657284 0.09796366 0.033750758 0.049948588 0.01704298 -0.086167336 -0.0016784593 0.00010546297 0.037827283 -0.009514511 -0.0599968 0.104930446 0.021291077 0.09661859 
-0.0005265027 0.05911787 0.040532514 -0.044085264 -0.07042189 0.05124925 0.022579566 -0.06765939 -0.06861807 -0.09264362 -0.009800322 0.07096648 0.050465986 0.022483617 0.022381574 0.06479074 
0.019188806 0.010672972 0.09881939 0.0024082214 0.10245828 0.038535237 -0.10628561 -0.03900402 0.05892983 -0.08166972 -0.08500255 0.011893399 0.036106914 -0.056770585 -0.036477618 0.07975471 
-0.000747703 -0.07858558 -0.10046371 0.071349114 0.028408155 0.103821084 -0.008793853 0.025256366 -0.006561257 0.067784056 -0.036102362 -0.031839497 -0.080477625 -0.09297028 -0.10349725 -0.084927276 
-0.0075688288 -0.091708004 0.08428019 0.029449835 -0.029227868 0.074519515 -0.053437937 0.007150717 -0.03612429 0.07201065 0.03355673 0.082901895 0.10002464 0.095767826 -0.07373222 -0.09192682 
-0.06369147 -0.06375563 -0.007891841 0.051211923 0.09772965 0.021495506 0.07343936 -0.0039419085 0.05315791 -0.00046626478 -0.06545767 -0.03618466 0.08331038 0.085887 0.10317759 -0.06949686 
-0.10555102 0.06255789 0.07279444 -0.097784206 -0.05722315 -0.042883664 -0.060394753 -0.06917596 0.10485853 -0.015288286 0.000380449 -0.10730432 0.07160325 0.08393173 0.053348318 -0.07490799 
0.10621928 -0.08740704 0.03804159 0.05727218 0.081429005 -0.08401364 0.017367736 0.05849488 -0.018169329 0.10520497 0.017976224 0.04446 0.08767666 0.070335865 0.06980462 -0.07406888 
-0.10333197 -0.0036660507 -0.01666145 -0.07350392 0.07407534 0.04017207 0.052185193 -0.0004402697 0.10017903 -0.04209423 -0.07549071 0.040346354 -0.09842146 -0.006018631 -0.10652278 -0.052712034 
-0.0069954097 0.09679058 -0.106837235 0.06079541 0.06802079 0.08207983 -0.033176534 -0.0854329 -0.01969096 -0.042842552 -0.02322682 0.02716647 -0.04134254 0.044145867 0.010900684 -0.033381 
-0.03932593 0.039455295 -0.09161414 -0.0036546066 -0.051000357 0.047416344 -0.07593399 0.015835203 0.068925366 0.01654756 0.09295517 0.07278894 0.106224865 -0.06020564 -0.015689045 0.041422784 
0.09252654 0.07020083 0.09972374 -0.08627555 0.039375395 0.0769667 -0.101825945 -0.0016147494 0.0074235424 -0.0970428 -0.063382104 0.05971518 0.061411783 -0.060374495 -0.051017195 0.014021821 
0.07682969 0.04446411 -0.03236194 0.0798486 -0.026020393 -0.04750281 -0.05463558 -0.06032907 0.019412577 0.022307292 -0.021680243 -0.04238359 0.05119644 -0.01031325 -0.084415704 -0.075307846 
0.0037342831 0.025756255 0.066658005 0.10615905 -0.009373702 -0.067971274 -0.10278292 -0.06074301 -0.026120327 0.02645941 -0.042088732 -0.012684651 -0.057899818 -0.10047391 0.071557984 0.019960776 
-0.0960598 0.04714319 -0.03253568 0.06868149 0.011479683 -0.09437322 -0.08094816 -0.09115883 0.068994164 -0.05336063 -0.10599731 -0.09961388 0.10192366 -0.07945355 0.09425135 0.042855993 
-0.035247758 -0.107043654 -0.09763905 -0.08680328 -0.046769474 0.054452688 0.07445741 -0.008718729 -0.008698598 -0.07611799 0.08833045 -0.059871186 -0.006762713 -0.01290524 0.035005495 -0.011394843 
0.09825167 0.092523664 0.062323928 0.0195321 -0.0075272024 -0.02501259 0.031190693 -0.077324145 0.0820656 0.06817584 -0.08032422 0.035109207 0.03706263 -0.0483986 -0.07839324 0.059331104 
0.028188184 0.0713065 0.0063129514 -0.0019401535 -0.014545418 -0.087297775 -0.07223429 -0.085092425 -0.012109101 -0.08248612 0.061273217 0.028276563 0.028418615 0.10240914 0.014803208 0.105970204 
0.066008 0.006204538 0.040955484 0.02230239 -0.0035625175 -0.09312824 -0.05644467 -0.016302392 0.054513127 0.07929452 -0.042831935 0.065245256 -0.04641057 -0.07210117 0.070716366 -0.07715549 
0.01966314 0.004168026 0.012173988 -0.09954789 0.07547112 0.06769952 0.076576024 -0.10238769 0.06754823 0.033649698 0.068734914 0.06336902 0.036251783 0.082340166 -0.067527294 0.072905734 
0.008267425 0.054414615 -0.073482275 -0.10014494 -0.072684646 -0.07145332 -0.05822782 0.06405166 0.0026195273 -0.0018590912 0.04781291 -0.09562912 -0.094292514 -0.025753506 -0.06957607 -0.052372824 
-0.04710367 0.00755772 -0.005999863 0.060966626 0.013637058 -0.034959942 0.016176187 -0.019730762 -0.05883777 0.08139062 0.10601868 0.012735322 -0.09980735 -0.077891886 -0.03454993 0.03910005 
0.0033951253 -0.056863036 0.025779039 0.034923106 -0.09330366 -0.059864398 0.07897955 0.083190426 0.009778954 -0.04211197 0.098308384 0.020242095 0.06698136 -0.06367511 -0.0025525242 0.0951004 
-0.06667915 -0.06698028 -0.071313515 0.046425253 0.016479634 0.045126423 -0.08745792 0.026769146 0.09660517 -0.07715709 -0.060065597 0.007091947 0.1019166 -0.07934385 -0.09203277 -0.03300444 
0.005423926 0.10570757 0.10717441 -0.066088066 -0.036754042 0.10241836 -0.06181941 -0.1020075 -0.10701663 0.073130056 -0.06209391 -0.08682673 -0.05943901 -0.06687824 0.10602641 0.0039469227 
0.02861768 -0.05997757 0.048138335 0.072031155 0.03806442 -0.05227099 0.026372507 -0.041720904 -0.095096834 -0.067555726 -0.08884177 0.023671046 -0.009585239 0.013548717 0.047379166 0.101231515 
0.07840571 -0.0203847 0.09064266 -0.102299586 -0.053472515 -0.0351642 -0.045633532 0.06719534 0.09308533 -0.04678598 -0.07905541 0.034310013 -0.005181484 -0.10175645 0.061947912 0.004951358 
-0.055158198 -0.052577443 0.059649006 0.08827065 0.003317453 -0.09953272 0.09896673 0.029811308 -0.08292184 0.028348193 0.067533255 -0.05473546 0.0038345233 0.090289876 -0.09592238 0.053105876 
-0.025274463 -0.057342157 -0.10519279 0.041561767 -0.027380727 0.069232985 0.040265247 -0.005308695 -0.02251999 -0.0668377 0.02450943 0.06723717 0.025805205 0.10500097 0.06727414 -0.08856797 
-0.039816022 0.07745735 -0.010707088 0.017086267 0.0817768 -0.1029155 0.07748617 -0.039104983 0.10670881 -0.05463977 -0.10238674 -0.017847575 0.07618086 0.07205957 -0.04357946 0.04367508 
0.025577813 -0.0972542 0.080182225 0.0452289 0.08802982 0.05771576 -0.009245925 0.06562823 -0.0004005283 -0.07640316 -0.008504674 -0.10709494 -0.02123928 -0.05540938 0.078945845 -0.03505697 
-0.04718095 -0.047276977 -0.039105855 -0.032030158 0.049858168 -0.058110557 0.029288024 -0.0685305 0.0016492009 0.0040485263 -0.059752587 0.010570474 0.087772906 -0.029886618 0.08892256 -0.013618417 
0.087392405 -0.07572022 -0.08296624 0.0044766665 0.09061742 0.00319881 -0.059149727 0.07853487 0.030913785 -0.022044107 -0.09700197 0.09401257 -0.08398189 -0.085794754 0.0013782755 -0.0038780198 
0.0049228743 -0.09376843 0.051231787 0.017568707 0.08929631 -0.026899964 0.081049666 -0.10285221 -0.07083058 0.07952407 -0.054257423 -0.10295882 0.031133547 0.08584939 -0.031392902 0.00619819 
0.040148064 -0.10769629 0.10589823 0.10512234 -0.07549514 -0.100763224 0.05700609 0.07991752 0.08965273 0.056660548 0.0040177777 0.0043599457 0.0018299669 0.028017268 -0.028458439 -0.07213125 
0.05623208 -0.04027383 0.02775243 0.08877519 0.005097136 0.057864875 -0.08249483 0.08427678 0.0954054 -0.07613435 0.09439756 0.05537775 -0.10673465 -0.040785857 0.042986423 0.05770895 
-0.09710779 -0.102709934 0.05827351 -0.026456475 0.07425247 0.075389266 0.049002945 -0.005871445 0.093913734 -0.0068718717 -0.058130533 -0.022882827 0.029075414 -0.07420583 -0.08485249 -0.013695002 
-0.05775793 0.03238438 0.07234813 0.046153814 -0.06251334 -0.07554784 -0.030268602 -0.0949807 -0.061654642 -0.09857212 0.02168645 -0.10503228 0.01980701 -0.070863545 0.054422677 -0.025808707 
0.0066796467 0.06674823 0.04448147 0.0046068057 -0.017943397 0.033788264 -0.050303712 -0.06358413 -0.08320737 -0.03172499 0.020301178 0.029040933 0.04701595 0.0965772 0.004636243 0.09526089 
-0.07085113 0.04588829 -0.073716305 -0.08437018 0.013757192 0.019517481 0.067992896 0.05623941 0.08706173 0.06380536 -0.1037415 -0.06777874 -0.0010211468 0.06012103 0.072600976 -0.016071059 
-0.018902093 0.08761148 0.050882176 -0.09657494 0.04174474 0.029289052 -0.10423079 0.012654036 -0.091157004 0.103610784 0.08042136 0.039442524 -0.016957618 0.052208155 0.099867925 -0.0023854896 
-0.08882268 -0.06396946 0.0996256 0.093138605 0.052050814 -0.09797026 -0.012713142 0.049686223 -0.09206619 0.038723245 0.01935628 0.07243998 0.05905594 -0.101900704 0.019402906 -0.02653803 
-0.08002977 0.01442641 -0.023602895 -0.08259189 -0.0448974 -0.09613153 -0.05577373 -0.0021073967 -0.010102816 0.038587913 0.061665386 -0.045978475 0.09655397 -0.02111765 0.042038962 -0.011456519 
0.0865259 0.0041995943 -0.106502675 0.0061828867 0.06631081 -0.030938387 0.01893866 -0.008539483 -0.10199367 -0.084799856 0.030874297 0.106158376 0.03888391 -0.058607854 -0.049236875 0.0067699403 
0.052913472 -0.04428909 -0.09286837 -0.070850484 0.100812435 -0.026700199 -0.0886489 -0.09671454 -0.02099941 0.066556096 0.028058842 0.013055742 0.09968996 -0.08905568 0.0027111545 -0.059184127 
0.07473807 0.012602255 0.04610139 -0.02051343 0.09169376 -0.09178467 0.005291626 0.017095633 0.025283694 -0.08611525 0.07520747 -0.071699664 0.06752092 -0.008555606 -0.037278384 -0.028467946 
-0.0029287338 -0.10720344 -0.030252226 0.059066713 0.0006198287 0.013955466 -0.02168873 -0.10312431 -0.06171218 -0.058987092 0.05179681 -0.071278214 -0.039211497 0.08892852 0.068303645 -0.044415064 
0.03810437 0.045622125 0.041598603 -0.014556423 -0.097526625 -0.007869959 -0.057174712 -0.046390314 0.0024360642 0.09369776 -0.04514364 0.078356534 -0.055424985 -0.031756274 -0.056760047 0.07619937 
-0.032522693 -0.036894 -0.049341694 0.015235253 -0.07742385 0.07305555 0.036288723 -0.090906054 -0.043117255 0.08298974 -0.050222598 0.07632567 0.1022169 0.059232354 0.037476167 0.07372069 
0.01022283 -0.09548813 0.05600992 0.05430475 -0.039241754 -0.020872973 0.020503089 0.0424771 -0.028539546 -0.05045483 -0.056805473 -0.070985585 -0.03931523 0.020362362 -0.04064764 0.104841545 
0.034122974 -0.004407324 0.05025147 0.0332558 -0.061374076 0.09565626 -0.07137881 -0.0018819496 -0.09099984 0.08490832 -0.038384758 -0.060603824 -0.09665011 -0.027508788 0.07597153 -0.0816328 
0.025041178 0.09528813 -0.06850065 -0.001470007 0.041661695 -0.075335965 0.00092849135 -0.05151061 -0.062158108 0.018254295 -0.044831067 0.0129502565 -0.06560545 -0.100850455 -0.094258755 -0.08598472 
-0.042744115 0.017864928 -0.08983649 -0.09740918 -0.044186845 0.080073506 0.058692843 -0.025259525 -0.012136735 -0.025175482 -0.08414015 0.02890028 0.103720665 -0.101708785 0.09269805 0.08687949 
-0.08024439 0.08818644 -0.050200284 0.01572527 0.0336293 -0.05074568 0.08708817 0.006471634 -0.012104675 -0.09989509 0.060663164 0.066710144 0.063216016 -0.07971902 -0.03215032 -0.025669105 
0.09873362 0.079974234 0.03993681 -0.073278755 -0.022959411 0.047108114 -0.069985986 -0.09578831 -0.03241708 -0.053696368 -0.06328366 -0.039687246 -0.020478904 0.06606302 -0.07666637 0.10025564 
-0.022666916 -0.06573633 0.051978514 -0.021240048 0.016402528 0.04403235 0.029709712 -0.08248111 -0.08553047 -0.10414611 0.03543949 -0.08119505 0.005395852 0.08342579 0.058637515 0.038014114 
-0.00794737 -0.019624911 -0.056487348 -0.01875884 -0.0942104 -0.021731637 -0.0910953 -0.047113825 -0.1017555 0.026444986 0.095623955 0.010256767 -0.07916203 -0.084630795 -0.016576558 -0.10358189 
0.08438976 -0.018829726 -0.082019985 0.007475272 -0.00013885647 -0.008863889 -0.037438326 0.089403346 -0.018039316 -0.017037548 -0.09672094 0.01427038 -0.069745004 -0.10303277 0.0151902065 0.10692863 
-0.023025028 0.09773728 -0.056763336 -0.07521886 -0.009707384 -0.105360664 -0.0048665702 -0.101026766 -0.0981002 -0.028116629 -0.09174593 -0.08618754 -0.08058715 0.10509889 0.08059633 -0.019418672 
0.037618294 0.10072404 0.08899112 -0.05986329 0.019066095 -0.058894616 -0.037401736 -0.03331624 0.07729466 0.018868625 -0.016506784 0.059424326 -0.07759127 0.0709915 -0.032791592 -0.08569182 
0.060959533 0.08469096 -0.02320712 -0.009138361 -0.043160677 -0.08116443 -0.021658935 0.060645416 0.10413757 -0.01313778 -0.036980413 -0.07283753 0.06297693 0.08011395 -0.05615094 -0.024871081 
-0.0926057 -0.033854283 0.03694339 0.08071309 -0.01857268 0.07351521 -0.00054869056 -0.08828705 -0.087950125 -0.065715015 -0.094399005 -0.033475354 0.018158764 0.05936332 -0.011724152 0.07251477 
-0.018973127 0.031884283 -0.043898925 0.09386253 0.06434332 0.012513764 0.03561504 0.08458534 0.05127035 0.096150994 -0.099485695 -0.087933645 0.060203552 0.09743132 0.02400273 -0.09355874 
-0.10705792 -0.03710688 0.061474085 -0.0405256 0.021051526 0.08447206 0.010132179 0.094858795 0.08824514 0.015124597 -0.063857675 -0.037125207 0.09952302 -0.07401921 0.051602468 0.004033871 
0.06511149 -0.0883967 0.0948156 -0.07145882 0.057346582 -0.039001063 0.0072772577 0.10526447 -0.023959845 -0.025594518 0.06299473 0.0073715076 -0.08589528 0.088694826 0.04901865 0.062856734 
0.022834644 0.0068728477 -0.036497183 0.009803742 -0.010248974 -0.019304834 -0.07688249 -0.06915028 -0.060139462 0.013135366 -0.05930774 0.039400533 0.033706486 -0.04904123 -0.01504451 -0.089435846 
-0.05009066 0.07171692 0.0018826202 -0.08431564 0.06414768 -0.09602347 0.025622234 -0.029897489 -0.08264156 0.013282239 0.050612867 -0.01051949 -0.031696633 0.09453055 -0.007913053 0.0008690506 
0.042744577 -0.09836279 -0.048492927 0.03283322 0.039657295 0.0020485744 -0.10739201 0.011270791 -0.08219833 0.046651796 -0.0938045 0.073085964 -0.0051009655 -0.053574428 0.021102577 -0.006311387 
0.080383584 0.09539187 -0.02086097 0.063838676 -0.01184123 -0.011636458 0.039590552 -0.01781559 -0.051599205 0.035410374 0.058876365 -0.043491714 0.00996121 -0.0660968 0.0640942 -0.09283629 
0.0648227 -0.055794995 0.016483821 0.056880295 0.017756134 0.004563667 -0.011986978 -0.05055047 -0.09197173 0.088930905 -0.080020875 -0.035144687 -0.03661336 -0.05701832 0.06416474 -0.01103463 
0.04396178 -0.07514073 -0.08346367 -0.06208239 -0.060933467 -0.058492213 0.10054731 -0.03686297 -0.083180554 0.007854432 -0.06538491 -0.09415117 0.017439932 -0.039458998 0.021347433 0.07988678 
0.00016937405 0.10076338 0.020020172 0.073160976 -0.06408109 0.07653569 -0.09056641 -0.07226381 -0.058643896 -0.010072686 -0.06554508 -0.054976434 -0.051412247 -0.10685402 0.010819875 -0.092211835 
-0.05264591 -0.10616259 -0.07896001 0.0019944534 0.055545256 -0.06828894 -0.06835884 0.082539394 0.061220467 0.0101339 -0.08651192 0.010550648 -0.08651202 -0.037491284 -0.10305565 7.920712e-05 
-0.05684504 -0.0068074986 -0.04576141 0.07400693 0.0053547174 0.0478947 0.030766979 -0.051659957 0.06041141 0.08154678 0.061570078 0.08577126 -0.047283687 -0.099279895 0.03937374 -0.041821145 
0.05325371 -0.003288202 -0.10375301 -0.014625192 -0.052736893 -0.0926483 -0.019389726 -0.009425014 -0.029704131 0.061967805 0.008829847 -0.017163627 0.0042130426 -0.079511985 0.00237675 0.04487793 
-0.023803249 0.042204753 0.017741188 0.08881797 -0.032747373 0.048356384 0.057052717 0.08458169 -0.07539271 -0.029407933 -0.098668344 0.020952284 0.09367402 -0.07855321 0.10684985 -0.09191266 
0.004237339 0.07015006 -0.05339068 0.005425416 0.09346166 0.07360566 -0.09680303 0.057999462 -0.02431234 -0.073076785 0.07270326 -0.039721206 -0.033099458 -0.10144128 0.07826905 -0.023250602 
0.043700993 -0.016849667 -0.0751787 -0.07209479 0.06333418 0.054497078 -0.06355795 -0.10646046 -0.0133669 -0.057628997 -0.011809662 -0.082033224 -0.07641056 -0.039467074 0.034251645 0.02373746 
-0.087595336 0.003324449 -0.032819174 -0.018646799 -0.023951843 -0.03544297 -0.039149486 0.016344585 -0.07606094 -0.09164216 -0.07347548 -0.036303923 0.077527046 0.022233099 0.06626777 -0.06606045 
-0.038681187 -0.04130532 0.07010314 0.029829368 -0.07648602 0.05266355 0.055771425 0.072682604 -0.040206835 -0.069503985 0.069838926 -0.090902716 0.01835896 -0.10772961 0.06820266 0.037893012 
-0.014249243 0.029965311 0.10548459 0.06683706 -0.0053937435 0.093323395 -0.013078801 -0.04785248 0.059519425 0.04770398 -0.03326585 0.041053176 -0.02510599 0.10735653 0.08125083 -0.016286917 
-0.07577426 0.09754948 -0.037429452 -0.05235295 0.093025655 0.027994588 -0.08301786 -0.037909754 0.09810516 0.08665708 0.08634488 0.0130154565 0.070552796 -0.09307114 -0.099578455 -0.0993263 
-0.02438996 -0.05721343 -0.041010894 0.08423698 -0.012861788 -0.090001315 0.05825594 -0.091214955 -0.092995994 0.01137571 -0.016737342 -0.09736622 -0.07246649 0.07540426 0.09273504 0.07891263 
0.10412583 0.016805835 -0.10043126 -0.017011687 -0.046441168 -0.07858689 -0.06531799 0.06308927 -0.07481769 -0.062757365 -0.09900869 -0.09167325 -0.09356656 0.10361223 0.058687866 0.024314016 
-0.0066598207 0.032253474 0.10694045 0.027054325 0.04281448 -0.003270328 0.05340606 -0.011349641 -0.082508974 0.036287233 0.014854543 0.0008725226 0.059494227 -0.07844024 0.024737984 0.09035446 
0.031775504 0.020393386 0.08625004 0.046546698 -0.039302327 -0.016317435 0.02451177 0.08214578 -0.02467554 -0.06804076 0.02781555 0.033270866 -0.014401779 0.07174887 -0.0044935793 0.1016542 
0.009396195 0.041295424 -0.05237213 -0.07601966 0.054785237 0.057671547 -0.099048354 0.021975264 0.018044695 -0.06829359 0.06360799 -0.06520669 0.09378931 -0.05650596 0.015359141 0.08493273 
0.097469494 -0.059974074 -0.022151165 -0.059823543 0.10231529 0.08856155 -0.014622003 -0.03879395 -0.05773515 -0.07010335 0.048297733 0.010248408 -0.014984995 0.020264283 -0.10124208 0.007967733 
0.0023194477 -0.097520836 -0.05421333 0.09364675 0.025402784 -0.07600873 0.058889657 0.04567258 -0.009933703 -0.102603264 -0.1019487 -0.06272024 0.0037409663 -0.016431019 0.033969566 -0.10563612 
-0.0012353361 0.09450601 0.094145074 0.08797763 0.08498813 -0.042529337 -0.045338903 0.0501339 0.06833853 -0.003557168 -0.0070960373 0.07807124 0.10369879 0.028332308 -0.06108441 0.019620463 
0.020620793 0.038312048 0.057934776 -0.023344591 0.059522003 -0.047387887 0.092212245 -0.08594161 0.007189259 0.08014299 0.058407426 0.012544304 0.066855595 -0.07951728 0.099610075 -0.06766188 
0.08375639 -0.08736716 0.054460034 0.04429835 -0.04706716 0.017546058 -0.09915032 0.062503695 -0.079785354 -0.067250386 -0.04974209 -0.038928874 0.052518725 0.05015658 -0.02037321 -0.019401498 
-0.090254016 -0.044600762 -0.06712703 -0.033261843 -0.10356379 -0.037675105 0.0456641 -0.015968278 -0.07705497 -0.04712933 -0.06380178 0.09993826 -0.06539944 -0.00045651942 0.0413889 -0.013542034 
0.08534911 -0.102258295 -0.092509724 0.060725838 -0.064050235 0.034318388 -0.0062318146 -0.039738588 -0.027858637 -0.07119247 -0.045240156 -0.03224784 -0.020599991 0.036081225 0.022528931 -0.10030061 
-0.0020907074 0.00074961036 -0.0185607 -0.053910807 -0.022760168 -0.091183074 0.09260529 0.037128344 0.010714829 -0.08958827 0.059882373 -0.092149206 -0.10048355 -0.09790483 -0.046317015 -0.036392264 
0.034734547 0.074845016 -0.038258575 -0.05001114 0.041485712 0.10324828 -0.07060149 -0.09299185 -0.0370697 0.08165011 -0.09260027 0.0011854097 0.0024591237 -0.02328109 -0.038857423 -0.06845808 
-0.044369765 -0.04483778 0.037221134 -0.018476501 0.06305538 0.073510244 0.052918628 0.07628335 0.043424383 0.08599928 -0.045496374 0.035947517 -0.069308825 -0.06337462 0.03904961 0.0423342 
-0.00072839856 0.07217133 0.023743987 -0.057915628 0.036514327 0.077830434 -0.029228456 0.106938854 -0.014134198 -0.071330115 0.008635558 0.012667887 0.06670752 0.03844762 -0.042396165 -0.045388445 
-0.0089297 0.022188783 0.060164988 -0.010964185 0.026018396 0.1058204 0.08611126 0.094291 -0.094328634 -0.102992326 -0.1009655 -0.011462145 0.035294697 -0.02845952 -0.08174757 -0.03885272 
0.00375022 -0.08497502 -0.10371758 0.08250037 -0.0034108832 -0.046913423 0.041879 0.08477642 -0.053712383 -0.09360957 -0.048001107 -0.062157642 -0.047659867 0.09877753 0.10500115 -0.052997433 
-0.09519625 -0.030917741 0.0059926957 -0.09052255 0.0033225492 -0.011526421 0.03144993 -0.09485668 -0.000837557 -0.03285926 -0.096779175 0.091903225 0.058453158 0.089132115 0.082172334 0.09139994 
0.08024362 0.105108485 0.098593324 0.09276371 -0.09689078 0.020009056 -0.02243448 -0.10136405 -0.0054045618 -0.05338359 -0.07463889 0.0004201904 0.047515586 -0.09890444 -0.05014655 0.06920017 
0.029139638 0.0058075115 -0.0069287196 0.06298742 -0.05164728 0.05338168 0.0006651506 0.10556215 0.055205226 0.013487302 0.0432546 -0.035611413 0.041390255 0.059301436 0.029816657 0.08132167 
-0.032460965 -0.08961652 -0.05032189 -0.033994168 -0.044698358 0.05522865 0.09512982 -0.028849497 0.088857666 0.020487279 0.06738874 0.040085927 0.019143403 -0.034061402 -0.028944448 -0.011386052 
-0.07426353 0.03551902 0.02448909 0.05756238 -0.01167497 0.016074792 -0.106197484 -0.10746544 0.08810821 -0.074283704 -0.002126731 -0.0107547045 0.085345045 -0.10262203 0.10309915 0.017373085 
-0.08909121 0.07965562 0.08046149 -0.06723966 -0.011644661 -0.055602044 -0.03883948 0.046283185 0.07545012 0.05372791 -0.061318953 -0.049652033 0.09818269 -0.091870666 0.012295723 -0.10276775 
0.031426072 -0.043419443 0.0272872 0.0012617633 -0.009216309 -0.06320692 0.032351702 -0.013190098 -0.053903226 -0.039513014 0.012843616 0.050114304 -0.052508056 -0.014777467 0.06896368 -0.075944945 
-0.1032914 -0.049492914 -0.08924595 0.07125905 -0.04312615 0.028768286 0.009761937 -0.010205038 0.08403671 -0.07953991 0.008296043 -0.06088007 0.039764404 0.0155647695 -0.009530917 -0.024177238 
0.004872307 -0.026053533 0.07203527 -0.09741592 -0.0425198 -0.07515384 -0.06429911 -0.04359679 -0.017354779 -0.09031009 0.10396336 -0.0730257 0.0061036795 0.055674165 -0.063806385 -0.00741712 
-0.041253462 -0.10505712 -0.07754509 0.06858079 -0.045400865 -0.051341236 0.09677403 -0.077345535 0.07115133 0.09586914 -0.0143132135 -0.078710675 -0.086027816 -0.10269142 0.050795242 -0.04094752 
-0.058832914 -0.10656803 -0.10278223 -0.10472608 0.07172011 -0.008277662 0.10318717 0.103411645 0.077692285 -0.08204593 -0.006240733 -0.0895348 0.074634254 0.031955495 0.09205139 0.008732565 
-0.045694645 0.04005173 0.08784567 0.078854576 -0.057918124 0.047979817 0.028747305 0.030014798 0.070227236 -0.06834102 -0.0045622736 0.061007723 -0.056189504 -0.05347676 -0.007967114 -0.016356073 
-0.089075886 -0.072724104 0.018603355 -0.05974711 -0.103897475 -0.0041448325 0.026489973 -0.06734018 -0.0021431819 0.079734996 -0.018260673 -0.030474663 0.07082714 0.076712266 -0.10507949 -0.041056603 
0.011673249 0.054633632 0.019454509 -0.054546755 0.046083808 -0.04011654 -0.042580448 -0.016648002 0.09553872 0.02273114 0.075824216 -0.045489408 -0.025105603 -0.008723408 0.0064715818 0.07950044 
-0.03268127 0.034798205 -0.09644259 -0.04351534 -0.041529857 0.021205813 -0.10528935 -0.021889575 0.002432257 0.012126632 -0.035936847 -0.07423399 0.06706877 0.03892401 0.055225655 0.07888985 
-0.05311801 0.03810455 -0.059612393 0.028026372 -0.018190593 -0.072117954 0.06490502 0.06678766 -0.07953882 -0.080557354 -0.040165827 -0.07634714 -0.049350202 0.068944424 0.023098782 -0.07277766 
-0.08288662 0.043543056 0.05506912 -0.08308276 -0.023770288 -0.06148424 -0.099670574 0.0915848 -0.09182908 -0.09948223 0.106739864 0.08051363 -0.0667779 -0.035565756 0.055755764 -0.02814576 
0.10133456 -0.024549946 0.034805268 0.051214084 0.09430309 0.019821823 -0.044056237 0.027258739 -0.032495625 0.08667697 -0.040121347 0.03665927 0.07285108 0.09608096 0.01424516 0.07298742 
-0.0979664 0.07755321 -0.08761875 -0.044615418 0.06979321 -0.04566629 -0.067117125 0.035272717 -0.10201324 -0.09896732 0.03945601 -0.059575036 0.073063 0.068090454 0.084977254 0.010516249 
-0.09716435 -0.0032252893 -0.0091644 0.01838839 -0.02387701 -0.07628878 0.041935727 -0.031252608 -0.10369897 0.08830167 0.033114687 -0.051178444 0.053209275 0.02797544 0.08278978 -0.047283687 
-0.059457496 0.016182482 0.01658468 -0.10190839 -0.057408076 -0.08460097 -0.08594143 -0.08843477 0.035028383 -0.055045567 -0.05573108 0.03262101 -0.06458381 0.07936953 0.042248562 0.016566142 
0.0058345273 0.035633266 0.053264886 0.06200427 -0.049349073 0.02897583 -0.0070293695 0.03765385 -0.060506616 0.08808304 0.071942076 -0.050558515 0.041548878 -0.09018033 0.0960661 0.07840258 
-0.10048034 0.07382393 -0.05189224 -0.10082042 0.06855819 -0.07481477 0.071498185 0.07005684 -0.029625952 -0.08176266 -0.060105883 -0.06657098 0.068685934 -0.082826614 0.061465055 0.10754652 
-0.07899826 -0.09249255 -0.065051466 -0.030217826 -0.011395454 -0.038707152 0.0377492 0.10754959 -0.09326967 -0.051409703 0.04019326 0.017336443 0.043036357 -0.05194276 -0.019215263 -0.015174754 
-0.018404566 -0.014858738 0.06975688 0.0965419 0.0032532364 0.10720497 -0.081935115 -0.059643295 -0.048011314 0.008187935 0.050928056 0.041816548 -0.09761923 -0.0015139431 0.068356246 -0.05230287 
-0.10009627 -0.033622622 0.08402377 -0.040574014 -0.060286414 0.06563182 -0.015690178 -0.042228743 0.049360454 -0.045506965 -0.067047715 -0.016157366 0.07685809 -0.007723473 -0.03696753 0.10410011 
-0.07546708 -0.03086555 -0.10681353 0.07482381 0.079695344 -0.030900411 -0.047551733 0.023904726 0.071937636 0.08544634 -0.093574196 -0.03686107 0.077423155 0.026839316 0.056390956 -0.036052175 
0.008998342 -0.0015602708 0.092174664 -0.04515429 0.089415714 -0.015619144 0.06223847 0.054609865 0.08129248 0.012457021 -0.025001407 -0.087846205 -0.09527075 -0.10237918 0.009107478 -0.0065248236 
0.095196605 0.0506586 0.05445613 -0.06978218 -0.058921687 0.10091606 0.038908765 0.055739745 0.010045126 0.053790867 0.018986955 -0.06375869 0.091715485 0.067828044 0.045643687 0.054721683 
-0.05597172 -0.051257785 0.07526848 0.07011671 0.0155017 0.104554966 -0.07746442 -0.076250345 0.008861959 -0.05841218 -0.10358811 -0.009942904 -0.02249685 -0.04112003 0.05780305 -0.063321784 
0.035462067 0.070939496 -0.026250161 0.10074018 0.01454246 0.1021253 -0.04304476 -0.04995337 0.09046902 -0.055609398 0.025629848 -0.01900123 -0.09071434 -0.011040486 -0.07288623 -0.08368251 
0.0164847 0.08544688 0.07454103 -0.014437616 0.032627136 0.10043973 0.075718164 -0.049384885 0.06784715 0.037966296 0.0131763965 0.0251908 -0.10087665 -0.013986677 -0.05362942 -0.07784306 
-0.10584048 0.08312461 -0.05661813 -0.07592157 0.08005352 0.044112876 -0.026514836 -0.052090894 -0.1032741 -0.10268636 -0.067692116 0.038600385 0.04474455 0.046805754 0.061573267 0.072921455 
0.0912559 -0.023476735 0.061010778 0.058962047 0.09389724 -0.09256865 -0.1036891 0.012069225 0.07426201 0.036568195 -0.08214807 -0.0551482 0.056196645 0.006219372 0.043964714 0.029351652 
0.06948982 -0.06354006 0.01306358 0.09695934 0.07882753 -0.041729905 -0.043644354 0.08373523 -0.063188665 0.037543446 -0.10078104 -0.0021146983 -0.010145776 0.09462947 -0.06821952 0.036778286 
0.046763092 0.03959641 -0.04608882 -0.05152452 0.04062225 0.020951644 0.08619122 -0.068642154 0.00029355288 0.03184502 -0.023340605 -0.045949835 -0.08103542 0.010991693 -0.02378057 -0.017004594 
-0.008099213 -0.06670884 0.051403448 0.013018131 0.07427247 0.05978915 -0.056599364 -0.0019429326 0.09768632 0.04834427 0.008802645 0.042905435 0.048508093 -0.07107228 -0.09015483 0.06309107 
0.08912492 -0.07126597 0.05352463 0.050539345 0.042603925 -0.06499354 -0.052877575 -0.03045196 0.05038619 0.050916106 -0.059051905 0.05314745 0.047723055 0.019811943 -0.03604035 0.011618793 
-0.015636958 0.02613701 0.10658631 0.053903297 -0.071118295 0.068028316 0.03005889 -0.09036464 0.10291503 0.08758639 -0.08336432 -0.02973979 0.012709565 -0.029216118 -0.0100630745 0.067376226 
-0.07110357 -0.107228525 0.09697801 -0.058985446 0.027244672 -0.0732639 -0.06376509 -0.05525222 -0.09717862 0.017424911 0.08087538 -0.090171 -0.037388444 0.088390395 -0.107555375 -0.041886292 
0.009521298 -0.074213035 0.04042372 0.015194915 -0.045936596 -0.001431495 -0.043148674 -0.06713931 0.08891916 -0.001669921 0.09555264 0.07682048 0.035593703 -0.05364721 -0.10481925 -0.04531674 
0.047651693 0.0689031 -0.086240456 0.06665389 0.019818202 0.07454117 -0.0035923123 -0.057767596 0.07429196 0.016361833 -0.008386515 0.07092753 -0.051657178 0.047295764 -0.07700003 0.05435756 
-0.0650395 -0.015825406 0.034160376 -0.013061859 0.0048436895 -0.06800099 -0.06864483 -0.017136768 0.03827028 0.094746724 0.014897741 -0.06520116 0.076811716 0.01153218 -0.10597982 0.059907943 
-0.0433907 -0.05581281 0.056473464 0.063989714 0.030152172 -0.024585992 0.019843206 0.033615395 -0.04390134 0.100222394 -0.03583961 -0.062758215 0.03383565 0.036789343 -0.058442 0.09177521 
0.013347104 -0.05464671 -0.0021888167 -0.018316723 0.09060922 0.10464139 0.031580314 -0.039312534 -0.008384481 0.039689586 -0.065347865 -0.09136993 0.031497255 -0.042336076 0.049428955 0.049810708 
-0.08491753 -0.09731758 -0.013444133 -0.046321232 -0.089897454 0.025186002 -0.05907139 -0.066302836 -0.014412627 -0.08018105 -0.041447774 0.062029377 -0.05311955 -0.033013947 -0.10162762 0.066678375 
0.043068156 0.10770662 0.0009705499 -0.0128258765 0.036653653 -0.08804602 0.036974236 0.034455806 0.063188195 0.08567464 0.107453555 0.062142044 -0.076146424 0.029946357 0.021246448 0.084627375 
-0.030788705 -0.05416726 -0.020176634 0.08738354 0.037421197 -0.10641884 0.08854473 0.0025204122 0.06857307 -0.06837059 0.08787286 -0.054899357 0.089328766 0.015939504 -0.0026847497 0.04752551 
0.09883931 0.04649338 -0.069006845 -0.02360449 0.10025695 0.034870878 -0.021917596 -0.079970434 0.06829767 -0.0046223104 0.10749385 -0.093069755 -0.04665417 0.08596845 0.06655325 -0.093020596 
-0.09941523 0.0044435486 0.012691878 -0.084085524 0.095764786 -0.04960776 0.082133666 0.022715688 0.016134463 -0.0038706213 -0.07178651 0.01797384 -0.026497968 0.08111183 0.0057136416 -0.060349505 
0.09378594 -0.06376445 -0.018190436 -0.0883984 -0.027771637 0.015546821 -0.055635005 -0.01070372 -0.08868677 -0.03851583 -0.06796284 0.07060753 0.011708029 -0.017909251 -0.04830535 0.0027367845 
0.058657214 -0.07831414 0.08489145 -0.0757249 0.026482701 0.007317908 -0.013250209 0.0027268082 0.09074445 0.010864332 0.057667866 -0.010877058 0.06842834 0.024516508 -0.09859878 -0.06882539 
0.10555793 0.05618146 -0.018245071 0.009339228 0.062705144 0.026038542 -0.003398776 0.039027333 -0.049175046 0.081905365 0.010153182 0.07459934 -0.020755328 -0.0022612885 0.054498628 -0.03005609 
0.060455486 0.016610928 -0.069019854 0.025032312 -0.10058639 0.042383596 0.016950503 -0.07176563 -0.09518944 0.104618445 0.07553297 -0.0454438 -0.0857176 0.076515436 -0.10696153 0.06719199 
-0.092133835 0.01587724 -0.08832368 -0.07410866 0.046987385 -0.056028154 -0.0028306246 -0.08838579 0.04869534 -0.07637422 0.0952553 -0.101716295 -0.04292927 -0.07500784 -0.012603588 -0.091123655 
0.016049154 -0.027176596 0.018342525 -0.08884571 -0.0508534 -0.042977788 0.073219344 0.040699214 0.09268573 0.06363043 -0.023816667 0.01856324 0.013208374 0.083354995 -0.062233176 0.08437039 
-0.018515013 0.03725843 -0.074460514 -0.033073805 -0.10148103 -0.012884751 0.05581723 -0.034993187 0.0490084 -0.050920554 -0.03465146 -0.021645077 0.07157214 0.081821024 0.055877566 0.021705344 
-0.07857485 -0.04636553 -0.06378733 -0.07936801 0.05070527 -0.008880854 -0.03157518 0.00506068 -0.008781098 -0.022054188 -0.06594913 -0.039466426 0.06622861 0.06797269 -0.097874776 0.018006384 
0.10111636 0.08331229 0.05086215 0.04814899 -0.025904164 -0.029073276 0.017236084 0.06671052 -0.08274084 -0.054139417 0.0369056 0.0009021908 -0.05956488 -0.005449116 0.052506894 -0.00651899 
0.061529875 -0.10652831 -0.082709864 -0.07957649 0.09482935 0.010080993 -0.033673964 -0.086585134 -0.07837352 -0.051328305 0.075717166 0.07839255 -0.06925808 -0.036893904 0.01341179 -0.009035878 
0.010979481 0.043351874 -0.054045707 -0.061396416 -0.0599859 -0.017090105 0.031728253 0.025330052 0.07862227 0.075462505 -0.041418515 0.08550501 -0.092656605 -0.057886988 -0.012272507 0.092388555 
0.0065336153 -0.03335411 -0.02610369 -0.10469639 0.031187534 -0.034244165 0.07271312 -0.105554335 0.056166902 -0.08287675 0.024703205 -0.026905388 0.10147552 0.10506648 -0.07531172 0.007842556 
0.09195538 0.08443175 -0.061371014 0.033661857 0.10349101 -0.053347208 -0.016139522 0.051197186 0.06741072 -0.10355132 -0.015457995 -0.050911095 -0.0226826 -0.0427455 -0.054891724 -0.024850003 
-0.004886575 -0.02630248 0.0051390156 0.071601436 0.056124687 -0.10368077 0.07552542 0.09343773 0.08369535 -0.04439915 0.07456057 -0.042011112 -0.08307939 0.030794516 0.09372562 -0.07482144 
-0.012790419 0.08786264 -0.03046862 -0.026757479 0.061815843 -0.09761794 0.013335742 0.087053075 -0.0018372387 -0.02779416 -0.089118436 -0.06363171 -0.090395704 -0.0069980547 -0.01134792 -0.083347306 
0.102575704 -0.017859586 0.099373475 -0.080039725 0.04937756 0.08268434 0.069466814 -0.063560575 -0.06696069 0.069371864 -0.03888478 -0.05257932 -0.005854763 -0.011375971 0.050162792 -0.059684176 
-0.1063412 0.07201944 0.09347774 0.10422118 -0.05999554 -0.08727199 0.025514051 0.07151577 -0.059850205 -0.061947007 0.030675143 -0.0043924376 -0.098015636 -0.007951923 0.028240725 0.018318132 
-0.09313588 -0.04965221 -0.048921425 0.02500981 -0.014152452 -0.080098905 -0.037252292 0.09288712 0.04884568 -0.09829186 0.022510394 -0.046289302 -0.011285372 -0.08112723 -0.054852232 0.06955938 
0.06629634 -0.04106298 0.093000576 0.024703488 0.054087922 0.013897002 -0.021596797 -0.05721536 0.0749239 0.0064594746 -0.07514076 -0.038425483 -0.0035315081 0.09470008 -0.03522691 -0.009914495 
0.065584466 -0.022177026 -0.05871884 0.081417814 0.05826959 -0.0104950145 0.039910346 -0.040847562 -0.024959676 0.004359275 -0.10398691 -0.06767592 0.03451188 -0.08413504 0.050174773 0.0623796 
-0.06461486 -0.023295946 0.004885748 0.04393068 0.0021885335 0.0108326 -0.06403481 -0.06319746 -0.104251154 0.0915782 0.008210376 0.008313477 0.018069059 0.073665604 -0.07032779 0.049689278 
0.06326839 -0.087087035 -0.10740525 0.08800399 -0.088698626 0.08131033 -0.0049494877 -0.035322472 0.00018052757 0.037474036 -0.10692022 0.017360672 0.105102494 -0.058870215 -0.03152001 0.044344828 
-0.005159043 0.054248273 -0.083499685 0.022574186 -0.08654524 -0.058170717 -0.03109596 0.06148845 0.012318112 0.02075407 0.02884145 0.018404081 -0.06879687 0.0024117157 0.041707054 -0.06486823 
0.09822121 -0.09222965 0.06302968 0.032610238 0.08560373 0.03222063 -0.05326234 -0.08885928 -0.10172851 0.018028393 -0.004610941 -0.0025459155 -0.08853172 0.043101475 0.08843194 0.054283544 
0.0072907284 0.06645203 0.042832866 -0.08274167 0.08072613 0.072806224 -0.061225783 0.07706112 -0.018086798 0.06940019 -0.05491139 0.04816611 0.094576165 -0.02796024 0.005389191 -0.041015156 
0.0072248653 0.079111904 0.018954083 0.07607362 -0.077874765 -0.07854068 -0.09749765 0.043764517 -0.03616561 -0.04113581 0.052946374 0.019757986 -0.08885435 0.0012011379 0.053558275 0.017165765 
0.0048385486 0.103283376 -0.006291695 -0.012221374 -0.073140025 -0.10415467 0.08234672 -0.09855798 -0.05636088 -0.011143863 -0.07614939 0.089795515 0.049081907 0.028720394 -0.09822093 0.0006905049 
-0.036471806 -0.036107995 0.055088863 0.03278987 0.023911864 -0.004921615 0.013818331 -0.09467541 -0.064646125 -0.070721015 -0.0596977 -0.012529343 0.07046196 -0.082387395 -0.025414117 0.020931304 
-0.10730129 -0.005874917 0.0101156235 0.013881758 -0.0067847446 0.06720406 0.0038652718 -0.033606112 0.062992305 0.056704253 0.03460048 0.06371023 -0.013864532 0.09124154 -0.05861834 -0.10404224 
-0.033868454 0.09651838 0.053407833 -0.094680905 -0.016781308 -0.0825099 0.05044602 -0.098409094 -0.08195594 -0.005060576 0.009195358 -0.07949419 -0.05770003 -0.08553399 -0.09910916 -0.07798112 
0.07088123 -0.06551443 -0.103573896 -0.01586181 0.08310446 0.024080038 0.04674597 0.07631217 -0.058540083 -0.027764775 0.019643366 -0.01915919 -0.047540575 0.086502016 0.06254184 0.07160215 
-0.08909707 -0.06263157 -0.03531275 -0.03383133 0.041602984 -0.041798674 0.027519017 -0.049838345 0.07251172 0.08373022 0.017946377 0.004867114 0.023054749 -0.068330765 0.10354748 0.09809148 
-0.04468689 0.06491798 -0.06334701 0.079912126 -0.03587939 -0.014178492 -0.0053391084 -0.04481914 0.03543821 0.07293089 0.060712293 -0.06875987 -0.09936191 0.07799277 0.059126765 0.05816701 
0.08679071 0.045638397 0.052647844 0.07982494 0.085985035 -0.10116982 0.03463444 -0.107009046 -0.0424638 -0.08131925 0.074322835 -0.08698019 -0.025188312 0.064955905 -0.0271307 0.07010098 
-0.058964133 0.064001516 -0.07085565 0.033746794 -0.06301142 -0.09850666 0.0035992786 0.09698212 -0.026645824 -0.089611664 -0.09651897 0.029163748 -0.070512794 -0.065053 -0.027924635 -0.095485605 
0.07697879 0.046617687 -0.08875598 0.018899158 0.023039892 -0.09800713 -0.06411484 -0.04752903 -0.01867146 -0.09691968 0.021721661 0.08630493 0.05873692 0.09901714 0.043933764 0.04309936 
0.07276501 -0.022956304 -0.049461268 0.080163926 -0.08358977 -0.098577105 0.031229079 -0.061195523 -0.020802505 -0.08283664 0.067714944 0.018504545 -0.1063939 0.014712736 -0.026546508 -0.09731197 
-0.08059702 0.087421 -0.0817495 0.064170346 -0.037528925 -0.06381713 0.03165379 0.103897706 -0.10440703 0.09450722 -0.07397093 -0.078287706 -0.085529104 -0.012118533 0.0017547384 0.06539671 
0.062498003 -0.033173867 -0.034932896 -0.038213097 0.060425654 -0.0003132969 0.069530904 -0.08973705 0.10663207 0.012738928 0.09187761 0.0960062 -0.08966077 -0.0076285526 -0.08730793 0.037556633 
0.107812315 -0.026030011 0.05323164 0.05953023 -0.08297575 -0.039953902 -0.031266645 0.024472103 -0.08978619 0.015965141 0.058358803 0.07023935 0.105681285 0.008431323 0.008642912 -0.014250144 
-0.04464344 0.04528761 -0.080979094 0.038243562 0.05489093 0.034022346 -0.055133723 0.051250145 -0.053118423 -0.08720707 -0.09911206 -0.032267377 -0.021290034 -0.0868059 -0.09822334 0.08682439 
-0.10467189 0.016951397 0.05412492 0.07050994 -0.10341568 -0.059277657 0.09697132 -0.0658367 0.010454521 0.014136404 -0.038343728 -0.042257637 0.035125747 -0.026182875 0.026872069 0.05031176 
-0.07074837 -0.0908071 -0.08399652 -0.06399435 -0.096231796 0.03650306 -0.063406296 0.07819015 -0.1003992 0.041787058 -0.055487536 -0.0047466382 0.022451788 -0.015153676 0.05951166 0.10208677 
-0.019902803 0.028132364 0.027211502 0.066892356 -0.011413351 0.0019135475 0.07997264 -0.07097672 0.056609824 0.09246592 -0.049173452 0.08086915 0.048574656 -0.06430139 0.055285975 0.024969608 
0.046634316 -0.095775895 -0.042941637 -0.03357961 -0.08373469 -0.08342528 0.09689736 0.024094015 -0.046637535 0.052054077 -0.05798854 0.051289022 0.047642127 -0.084923804 0.07627651 -0.061001573 
0.086359516 -0.019740582 -0.089688666 0.065498084 -0.06364066 -0.038150392 0.020116344 -0.09444595 -0.01566372 -0.038175225 -0.06661089 -0.0053128377 -0.06813198 0.10590398 0.03668034 -0.032790765 
0.06446254 -0.056183 0.06736842 -0.06887968 0.011572234 -0.0061766133 0.06847279 -0.026066363 -0.020774148 0.08792174 0.060361385 0.07105017 0.07037915 -0.029688857 0.050896928 -0.03828501 
-0.088597715 0.102748364 -0.025170058 -0.019358002 0.021719068 0.10099797 -0.072104484 -0.010217018 0.1048632 0.048353225 0.08406344 0.05464129 0.033374906 0.08213316 0.022557199 -0.08818228 
0.07784942 -0.010258414 -0.032099776 -0.04664725 0.047285587 0.074625924 -0.060627963 0.032545865 -0.06420238 -0.104221 -0.044575237 0.020308837 0.034030423 -0.024779148 -0.066227764 -0.10317594 
-0.046589356 -0.09347609 -0.062105607 -0.073181935 -0.018287897 -0.046676226 0.091018125 0.08985166 0.09120703 -0.07551439 0.025780737 0.08706467 0.038439438 -0.07219961 0.02976571 -0.0144420415 
0.004046187 -0.08583008 -0.10153504 0.0823129 0.08969566 0.04895845 0.09951033 0.017623976 0.10592188 -0.059793774 -0.06942601 -0.06838113 0.10775374 0.07960524 0.09462856 -0.037923537 
-0.030766286 0.07269539 -0.049704812 -0.04968031 0.048929065 -0.04650878 -0.021362148 -0.011564083 0.045972735 0.041124508 0.10634212 -0.101247095 0.0354158 -0.0700355 0.052301347 -0.049881488 
0.008986801 -0.016653918 -0.057260733 0.04242015 0.009103678 -0.08897246 0.039164677 0.09427689 0.0751604 0.0061834827 0.029117167 -0.022181839 0.016855553 -0.069460355 -0.019389108 -0.023078188 
-0.004048139 0.027760401 0.008794755 0.008638158 0.09116724 -0.052062977 -0.055204887 0.092895135 0.044070065 -0.025480546 -0.09482701 -0.054843053 -0.028197564 0.07045765 -0.06270145 -0.04596513 
-0.038717337 -0.10306819 -0.07751962 0.062360108 -0.035015836 0.078379616 -0.095258415 -0.03463631 -0.005205624 -0.037828922 0.09219432 -0.01900383 0.056518197 0.08521202 -0.0512067 -0.011245318 
0.060096756 0.10068236 0.028011814 -0.04382447 0.021702617 -0.026337542 0.06064576 0.034388855 -0.0048353896 -0.015601277 -0.065323286 0.0001295507 0.023839682 0.016773954 -0.08219496 -0.04142628 
-0.061454184 0.07807344 0.079388216 0.0053917915 0.09533562 0.09902558 0.08297379 0.01692988 0.07521449 0.06331681 0.026106462 -0.052830886 -0.10616717 0.05512552 0.060784847 -0.055337805 
-0.022037968 -0.044905573 -0.028819032 -0.06236684 -0.056889184 0.0027193502 0.05459869 0.09979445 -0.07624816 0.10697557 0.03087458 -0.10391822 -0.09193962 0.04814528 -0.02663014 0.068793476 
-0.06342478 0.033653706 -0.0067617893 0.08997859 -0.1027485 0.0063698962 -0.027136877 0.08446072 -0.09509099 0.070846885 -0.06731306 0.06909096 0.08312276 0.06326507 0.0327885 0.10733481 
-0.0053391084 -0.041768596 0.10167377 0.071875855 -0.0037350804 0.03014572 0.096549645 0.060392335 0.04186614 -0.07278308 -0.08612278 0.05362983 -0.05528176 -0.10172565 0.07468863 0.03684704 
0.07229553 0.09598692 -0.10297998 -0.032998294 -0.029822364 0.055934235 -0.041485354 0.05149336 0.059402317 -0.06469459 0.04864116 -0.0070550814 -0.0007881969 -0.09432658 0.00579609 0.04393004 
-0.027603216 -0.08236387 -0.07545894 -0.082493186 -0.015137397 0.10205504 0.08237636 0.04592122 0.080098644 -0.102191426 0.02742441 -0.015087396 0.08272177 -0.03523968 -0.07856606 -0.033549987 
0.018679455 -0.061866306 -0.007826 0.084361 0.011642858 0.007815793 -0.04532145 0.065292075 -0.03125775 -0.07377685 0.0022390038 -0.08708642 0.02392742 -0.026968323 0.08492859 -0.019662939 
0.04444486 -0.0016426742 -0.028492935 0.101957604 0.01807873 0.09141983 0.008794211 0.0712551 0.038468257 0.02663523 0.08453086 0.08116536 -0.032318257 -0.057220113 -0.04356982 0.10751927 
-0.07252306 -0.038630977 -0.08372626 -0.030110285 -0.09458339 -0.09886256 -0.057754997 -0.08257654 -0.022211604 -0.03953749 -0.09917392 -0.019162275 0.032006577 -0.069367826 0.0360177 0.097243175 
-0.0106181875 0.079855055 -0.09444708 0.022499785 -0.0130421445 0.027021646 0.042624533 -0.043152504 0.097023696 -0.024163306 -0.054915942 0.0021615624 0.039734036 0.06141308 -0.060819704 -0.049874235 
0.03654076 -0.079082 0.037372887 0.0035291687 -0.03782761 -0.05613279 0.019728601 -0.024723254 0.07012211 -0.10207435 0.09439492 0.07770112 -0.07964393 0.02024895 -0.035154276 0.08799957 
0.019108728 -0.06768693 -0.015564896 0.0056524053 -0.093207814 -0.027316585 -0.06991266 0.044441164 0.06658378 0.09610279 -0.07263299 -0.06852238 -0.082136065 -0.0050354823 0.0621354 -0.0698678 
-0.060806517 0.040439636 -0.04974762 0.098520055 0.011468552 0.019937456 -0.09785835 0.023703575 -0.052752603 0.07446879 -0.007866569 -0.023015767 -0.006932497 0.030167729 -0.07011756 -0.073276445 
-0.056500047 0.07366471 0.004574567 0.034346282 0.08067867 0.018152565 0.017215252 0.00039733946 -0.03186371 0.008404665 0.0038438514 -0.107533135 0.10630828 -0.074660376 -0.08906118 -0.01622989 
-0.052830297 -0.06150311 0.096195444 -0.0043486804 0.019836217 -0.069462515 0.044350013 -0.023047544 -0.031655416 -0.076130256 0.048032805 0.099601135 0.0011591315 -0.073978156 -0.10343527 0.06529038 
-0.086299434 -0.039535612 0.035542056 0.022585273 0.058598757 -0.039074898 -0.06397491 0.025801554 -0.05046131 -0.08235359 0.07325205 0.030569479 0.087356746 0.067089036 0.048066407 0.043152988 
-0.02566532 -0.07526647 -0.060665604 -0.007005073 0.05025679 -0.029466271 0.07941845 0.07002714 0.0071212053 0.09718788 0.06520638 -0.039923437 0.008304708 0.06289458 -0.06311506 0.056037813 
0.0338957 0.0507738 0.014865369 0.049411654 0.065982014 -0.04040592 -0.08737848 0.077848285 -0.080881804 0.061829045 0.09355438 0.048964947 -0.03658665 0.018505633 -0.0639689 0.07172763 
-0.07562895 -0.05282415 -0.08988781 0.04118544 0.06954424 -0.107522696 0.018867627 0.05437343 -0.07125543 0.08495067 -0.090037 -0.03112223 -0.0797217 0.08187565 -0.08765148 0.07602346 
-0.07300444 0.10360004 -0.042819135 -0.038329177 -0.073542 0.0068019703 -0.052064802 -0.071606725 0.07260831 -0.039741933 -0.10380651 -0.022027656 -0.076070406 0.09309739 -0.045348596 0.06581102 
0.04337257 -0.05848977 -0.06259753 0.0066092312 -0.08251383 -0.06446817 0.074614 -0.0074734464 -0.034658194 0.057034522 -0.016927287 0.020944446 -0.09241393 -0.024677053 -0.011483721 -0.07882807 
-0.094385505 -0.06965327 -0.00598336 -0.008137599 0.040110633 0.066447735 -0.09433092 0.010065436 -0.07246254 0.06383158 0.08745088 0.10077731 -0.0011470243 0.025345579 0.004058942 -0.08834525 
-0.09256174 0.09460537 -0.059899617 0.07083778 -0.012950897 0.028890073 -0.05489401 -0.05209028 0.012293279 0.08943273 -0.10685094 -0.0046220794 0.036455125 0.061868176 -0.056995336 0.09876406 
-0.028079093 -0.09244257 0.061144084 -0.0123446435 0.008152202 0.07274066 -0.019155435 -0.08629799 0.003815189 0.070730165 0.07114972 0.041512117 0.011568844 -0.0705782 0.058854327 -0.05150197 
0.033517927 0.055903018 0.07423656 0.07162838 -0.009750135 0.048669606 0.02291222 0.008608691 -0.0066807494 -0.017470084 0.04023005 -0.055722624 0.09920606 -0.022801228 -0.005730763 0.08120754 
0.022807911 0.069434255 -0.05132288 0.0003803149 -0.018381946 0.0768684 0.04555893 -0.011515029 -0.07760862 0.06468886 0.06165281 -0.017977461 -0.049739007 0.10309678 0.014149569 -0.044862613 
0.03639336 -0.10128574 0.042603716 -0.09105134 0.03683667 -0.08864291 0.06468783 0.00048148632 0.011749782 0.07551761 -0.0050046593 0.05770512 0.0065001175 0.0805971 -0.0034090057 -0.098486245 
0.021109134 -0.014263101 -0.058032375 0.049949825 -0.04341893 0.06652014 -0.009783305 0.103988454 0.00676091 -0.07020654 -0.039313897 0.03775738 0.080919415 -0.041313514 -0.069676876 -0.036502115 
0.06263584 -0.062396817 -0.03382305 0.0071831346 0.004120052 0.025395036 -0.08373963 0.03393866 -0.013735622 -0.034933485 0.10169415 0.042798385 0.045307875 -0.08600226 0.057621494 0.07659711 
0.016621806 0.09831919 -0.023733757 0.0882674 0.04356116 -0.06498629 -0.10508195 -0.058453724 0.10233021 0.104557976 0.07560831 -0.05958941 0.04572068 -0.03443542 0.09861952 -0.09323797 
0.059229374 -0.043478705 0.027034804 0.0599671 -0.003804624 0.051714092 -0.08070125 -0.07211706 0.034864664 -0.037862934 0.039105833 0.06445047 -0.0748468 0.07855415 -0.047368243 0.08948004 
0.07491107 -0.01980552 0.053799853 -0.006485209 0.034536093 0.086911574 -0.07097983 -0.037722744 -0.023364209 -0.03844376 0.019877747 -0.03306105 0.06363572 -0.07098633 0.087708876 0.04278463 
0.049816832 -0.05639176 -0.0727683 -0.055737097 0.07145016 -0.02010858 -0.039361224 -0.03092584 0.08630882 -0.0885108 0.07593049 0.015957892 0.012345113 0.088673174 -0.101582244 -0.033369333 
-0.100281246 -0.012134574 -0.016364813 -0.02297867 0.036707893 -0.0018891469 -0.078130595 0.076402545 -0.026259467 -0.06666303 -0.06493271 0.08329889 0.10495384 -0.0057778656 0.026976913 -0.009693682 
0.0013058782 -0.03150463 -0.051732842 -0.045302965 0.09592861 0.023824155 -0.077622116 0.05925159 -0.014973603 0.032663614 0.072831035 0.097056866 -0.101884305 0.04203996 0.018343836 0.105419904 
-0.089206025 -0.016484775 -0.052369278 -0.10587889 0.04888715 0.083513305 0.0385101 -0.0014782622 -0.036863483 -0.07291274 0.023726687 0.09807202 -0.10580433 -0.08859371 0.07607818 0.015175447 
0.0007517189 -0.052985966 -0.03106971 -0.079053104 -0.07351521 0.02513586 0.08194251 0.08174713 -0.038858354 -0.005310364 0.088400066 -0.0633757 0.09827393 0.087340474 0.10107662 0.08079751 
-0.06870949 0.09580022 -0.05795725 0.027419284 0.06013535 0.01717554 -0.061475344 0.02673766 0.10758026 0.016356766 0.09191646 0.098416016 0.07312626 -0.08358622 -0.10783205 -0.03383328 
0.10500948 -0.0832937 -0.05532158 -0.024483748 0.07700373 0.054494083 0.100695655 0.07935603 0.01823388 -0.0873387 -0.10019674 -0.076561324 -0.0015699416 0.08927925 0.046142608 -0.06856009 
-0.08451744 -0.10501374 0.009242535 0.1041688 -0.05116577 0.10243595 -0.044902384 0.01792723 -0.08597423 0.016408935 0.076346576 0.08830388 0.035928175 -0.010235764 -0.058572475 0.07483952 
0.05836168 0.06568673 -0.09364554 -0.10472153 0.0046500713 0.0891318 -0.097364604 0.014025599 -0.07305408 0.097348094 -0.004727356 -0.09489499 -0.10497572 0.03420861 0.05500196 0.0229038 
0.0025040656 -0.06857343 0.100855336 0.060623497 0.018983692 0.06277411 0.042081267 -0.018636234 -0.06700671 0.09648354 -0.09797427 -0.09414227 -0.0769084 -0.044871666 -0.09068619 0.015775278 
-0.07505198 0.06362377 -0.017966844 -0.06352947 0.063114926 0.05486144 -0.10026829 0.023927763 -0.08874575 0.08672641 0.002646573 -0.034015357 -0.0126249045 -0.018211104 -0.080374196 0.028026342 
0.0055368915 0.017662928 -0.10224233 -0.06148118 0.08514771 0.07397121 -0.07535854 0.020642132 0.05920832 0.062159464 0.023847774 0.047990903 -0.031007469 0.105864495 -0.032839566 0.0063484088 
-0.064603806 0.06422 -0.009631231 0.012867756 -0.065115966 -0.06965107 0.019061953 0.09467152 -0.074226916 -0.0546173 0.0022004396 -0.05091004 -0.061254833 -0.026695162 0.019078285 -0.020513609 
0.018050134 -0.005935207 -0.026830882 0.0001469776 0.08481002 0.043815285 0.08015056 0.09587042 -0.09879103 -0.08376683 -0.046327658 0.04243329 0.087238535 -0.06298199 0.04503484 -0.077944435 
-0.07539268 -0.055703904 -0.07480861 -0.014569767 0.019459888 -0.08760333 -0.020412311 0.05989763 -0.0022497177 -0.03770963 0.06150794 -0.04558949 -0.0055410787 -0.007794991 -0.10510247 -0.009995505 
-0.038269892 -0.09457377 -0.04958313 -0.061678883 0.08652128 -0.06892337 -0.10644275 0.03685172 0.09377791 0.013189174 0.014999598 -0.05976048 0.077673286 0.07313803 -0.0007794574 -0.0693904 
-0.036421232 0.06329659 -0.07434197 -0.091208786 -0.102971084 0.09594534 -0.09626972 -0.083394125 -0.034785762 0.096162766 -0.03240387 0.022358999 0.09536107 0.012948483 -0.10671527 0.06750788 
0.016089417 0.07139261 0.011662938 -0.09414235 0.027717337 0.07533908 0.08189863 -0.051045965 -0.057409078 -0.049582873 0.013421841 -0.08733485 -0.08816526 -0.041082546 -0.07041098 -0.07757008 
-0.005369216 -0.08713871 0.10359737 -0.03317114 0.008798122 -0.004291199 -0.04849866 -0.07874541 -0.012715094 -0.07815482 -0.059049025 -0.016067669 0.052431285 0.04353653 0.057810143 0.017685324 
-0.077277586 -0.09470227 0.077235445 0.025901645 0.073866576 -0.045488402 0.021227866 -0.008889258 -0.02060619 -0.06441814 -0.075481 -0.084716715 -0.049534515 0.03705299 0.054011762 0.02004698 
-0.012781911 -0.097862594 0.07274912 -0.07151898 -0.08997435 -0.07772884 0.0029677078 -0.01911299 -0.08696726 -0.078440264 -0.069575325 0.10759717 -0.027976178 -0.06893185 -0.08506759 0.100938275 
-0.02322404 -0.0024234876 -0.10286249 0.10085359 0.072600335 -0.020224147 0.082441 -0.024929345 0.044178635 -0.064842135 -0.045592964 0.041717544 0.0013996437 0.03530635 -0.032305405 -0.010699354 
0.10420568 0.104918614 -0.020757824 -0.023040809 -0.04428968 0.05288768 -0.067128725 -0.02960191 0.020768985 0.023298442 -0.026850365 -0.01989656 -0.009316653 -0.051464077 -0.01731161 -0.050702464 
-0.10361544 0.06304094 0.028687641 -0.06831074 -0.05920796 0.106618285 -0.06124126 0.020072639 0.08543624 -0.0953241 -0.09714237 0.018756166 -0.046468932 0.107751355 -0.015927933 -0.085836716 
-0.003482975 0.0025495142 0.051898956 0.021652848 0.032257453 -0.041456357 -0.007880941 -0.06701489 0.06084551 -0.010045074 -0.10239229 -0.051964715 0.05688314 0.013476163 -0.04280018 -0.06590584 
0.097574085 0.0009390861 -0.033666916 0.08633435 0.023629218 0.009403601 0.01596421 -0.10645275 0.06266111 0.06777027 0.09574275 0.09560734 -0.0254018 0.039121717 0.10232298 0.015035287 
0.017614499 -0.06419122 -0.10385264 -0.04409419 -0.026428401 -0.10095118 0.016847946 -0.084290996 0.07866244 0.024377316 0.027597874 -0.046090312 0.030871406 0.034547865 -0.018004298 -0.02423095 
-0.072806835 -0.09377126 0.101864114 0.07872571 0.08377421 0.009092547 -0.048138212 0.022890314 0.029983386 0.088140994 -0.021147422 -0.08471224 0.00869333 0.037625775 0.049448445 -0.022609845 
-0.075773254 -0.105762996 0.017982677 -0.053116597 -0.05191237 0.060772806 0.04998216 0.065110385 0.0063265264 -0.10306033 0.01559215 0.09212384 -0.10227182 0.020434245 0.028463379 -0.007515125 
0.045123518 0.07600765 0.053490132 -0.084524795 -0.086846575 -0.09976948 -0.07493197 0.021638647 0.06543289 -0.03933403 0.034981042 0.029574499 -0.012848347 -0.056482077 -0.09100707 -0.007762447 
0.0135669485 -0.063864075 -0.060615983 -0.054572824 -0.04848349 -0.0017711967 0.058804497 0.011641212 -0.025521815 -0.062249992 0.052459806 -0.09288647 -0.06823122 0.09034839 -0.03705708 0.04943098 
0.04162298 -0.0024695098 0.037005305 0.053569898 -0.088249974 -0.09599918 -0.034886338 0.013984308 -0.004280582 -0.025243744 0.09764093 0.09001432 0.0025381 -0.041541584 0.011047304 -0.07565348 
0.03132665 -0.032072112 -0.100955345 0.054587662 -0.07782438 0.060973912 -0.059041955 -0.09061145 -0.096018486 0.017867416 0.064910606 0.03273344 0.008411631 0.010226481 0.01633016 -0.10404936 
0.05011159 -0.076401874 -0.10165613 -0.072998114 -0.038026474 0.040191457 0.08769588 0.06298672 0.024162427 -0.10435417 -0.029530257 0.043613866 0.032850668 -0.060615547 0.02810964 0.067643166 
0.0035215095 -0.08210392 0.03155677 0.10743968 -0.044723295 0.025944501 -0.017585956 -0.047888447 0.09228855 0.096199065 -0.06372154 -0.082125336 -0.05440705 -0.01268445 0.0785024 0.055855513 
-0.074782416 0.06432137 0.052431136 -0.04470455 0.005037926 -0.020949662 0.1027596 -0.05634075 -0.022312209 -0.025022097 0.019943014 0.0073008835 0.094791636 -0.03538546 0.09266803 0.0074834973 
0.03317319 0.07903102 -0.10702666 0.01622925 -0.098676294 -0.03419316 0.09122796 -0.02123154 -0.099244855 0.074192345 0.08712801 -0.052043617 0.026194856 -0.07898757 0.09129155 -0.07733541 
0.07589206 0.006754823 -0.05133728 -0.08896611 -0.09869033 -0.014687382 -0.0014901906 0.08034924 0.09658471 -0.008153714 -0.10482242 -0.0479538 -0.09389425 0.018205866 -0.018955082 -0.074289516 
-0.08372292 0.009098895 -0.03906451 0.05415374 0.050230935 0.049526602 0.036981806 0.024141893 -0.07669357 -0.02027721 -0.030706972 0.0011941195 -0.02581025 0.09661232 0.04165736 -0.058913022 
0.08214724 0.087915674 0.0026217103 0.062115148 0.026725397 0.07020752 -0.028438486 -0.021072708 0.024188444 0.09894398 -0.018082917 -0.0069755614 0.035019025 0.05151148 -0.046616197 0.056838945 
-0.029466294 0.10636605 -0.09840493 0.10145864 0.037147492 -0.08951094 -0.058823887 -0.06427735 -0.04761783 0.09928231 -0.106504016 -0.03485533 -0.083684355 -0.041042253 0.037326053 0.074294835 
-0.09708424 -0.07365103 0.072812885 -0.017775953 -0.09545283 -0.018564582 -0.052066628 -0.08495236 -0.06349268 -0.022904374 0.086928055 -0.10356155 -0.087824404 -0.028408252 -0.04830147 0.04926984 
0.06802377 0.038861305 0.098280445 0.021708086 -0.057211734 -0.019174717 0.10712531 0.09568882 -0.007086396 0.0053289533 0.05589153 -0.07789469 -0.095075876 -0.010050885 -0.076692596 0.0041786656 
-0.0314129 -0.085274786 -0.03698247 0.09746067 0.046482638 -0.0833371 -0.08145006 0.032520458 -0.04279489 -0.021416135 -0.06605032 -0.085916825 -0.01771029 -0.011044808 -0.049378816 0.014817625 
0.09239262 -0.06935613 -0.026410818 -0.08104714 -0.075745985 0.032213077 0.073511034 0.07867713 -0.08140969 0.047940284 0.053442046 -0.10566152 0.016262926 0.017441735 -0.048648905 -0.021725625 
-0.0017177984 -0.07808108 0.098250076 -0.017572664 -0.03186374 0.057617962 0.057387695 -0.09318976 0.02385287 0.07791549 -0.07749075 0.098563254 0.010964721 -0.10460651 0.08416867 0.035473615 
-0.022011027 -0.004665807 -0.08795735 -0.09251582 -0.04469859 0.07207237 -0.09856358 0.07842612 0.0009198263 -0.015534148 0.061628416 -0.034771748 -0.107257426 0.100051686 0.039237082 0.076570526 
0.084585845 -0.03257692 0.042409092 0.015225068 -0.087546125 -0.089182556 -0.10023744 0.009351723 -0.04219979 0.10396455 -0.033542432 -0.083185285 0.0896662 0.042031065 0.046437413 -0.016005322 
0.05685067 -0.10239648 0.0086321905 0.035274953 -0.09299959 -0.037332706 0.023837537 -0.020535767 0.055675596 -0.05362253 -0.030189268 -0.08685866 0.023810193 0.065256104 0.06539047 0.019422531 
-0.057840556 -0.05930329 -0.045976497 -0.0044818595 -0.095022246 0.013145238 0.025684685 0.03638473 0.011725724 0.013376102 0.0371619 -0.07833823 -0.066673234 -0.05423202 -0.03460469 -0.025740214 
-0.091783024 0.10741031 0.01684679 -0.073345885 0.007928319 0.014654554 0.09502278 -0.014110804 0.064907715 0.0076261833 -0.06781105 0.017490506 0.098121405 -0.060623698 0.02430977 -0.09453519 
-0.1002014 0.019703746 -0.032316737 -0.101532236 0.03956692 -0.08607645 -0.041332208 -0.026787974 0.024038225 0.028408721 -0.033423245 0.06759673 -0.09346144 -0.09699555 -0.10413757 0.013212211 
0.02941364 -0.09363392 -0.09597684 0.038355634 -0.050757248 -0.028591305 0.08098726 -0.06884775 -0.036114186 0.08526571 -0.002333045 0.0015493482 -0.08355586 0.03263654 -0.026944026 0.006513715 
-0.04342284 -0.018072069 0.06358294 -0.067687824 0.049978644 0.05455023 -0.008632243 0.045310706 -0.050665826 0.10261203 0.09834461 0.010419123 -0.08050858 -0.06646584 0.022242948 -0.04222486 
0.058442518 -0.0335866 0.0025469735 0.02632898 0.030195251 -0.06791003 0.0023227334 0.010494322 -0.02534964 0.102454916 -0.014683068 0.055360332 0.10330811 -0.09679658 -0.097337835 0.05061932 
-0.055885695 -0.0130422935 0.064310744 0.011325836 0.026005015 0.0630876 0.018787786 0.05848013 -0.103439406 -0.017408125 0.05867897 0.08521184 -0.023741648 0.029963404 0.03672442 0.05953972 
0.062360644 -0.06282496 -0.013916954 -0.005437836 -0.009995021 -0.079977505 -0.08039459 0.06359939 0.04405035 0.09365259 -0.024432383 0.025063872 0.00020112097 0.078446284 -0.05726819 0.07030563 
-0.089808494 -0.017349407 0.001012072 0.031454712 0.026659831 -0.0059429184 0.09670958 -0.10441611 0.07626513 0.005871989 -0.062485773 -0.043357745 -0.089137405 0.02053824 0.05885382 -0.031173036 
-0.07695864 0.02382584 -0.10481751 -0.020871453 -0.08217949 0.0050212666 0.07968046 0.021945953 -0.10758352 -0.021648549 -0.02656816 -0.060179643 0.06853664 -0.04520043 0.02146113 0.06591509 
-0.0339455 -0.10730594 -0.011474207 0.10292134 0.09004703 0.08141065 0.050516352 0.037967473 -0.01572422 -0.019644655 0.0932257 0.074993834 -0.031100504 -0.059795752 -0.04397081 0.07152183 
-0.035238653 -0.038511485 -0.09511537 0.06477375 0.037455335 -0.05216607 0.002411306 -0.035170138 0.103750154 0.022026196 -0.015813142 0.09242499 -0.099621005 0.001199469 -0.10578266 0.07923913 
-0.08915468 0.08891317 0.047543094 0.08238642 0.07577856 -0.09330733 -0.034187093 -0.0023653582 0.086942315 -0.087977424 0.061698556 -0.101140685 -0.074014425 -0.10134582 -0.030451886 0.09223989 
0.005158603 0.05247967 -0.07323315 0.008726932 -0.048598435 0.084130585 0.06721467 0.07432601 0.08872791 -0.034873277 0.08522321 0.09038709 0.055542678 -0.0761473 -0.033042975 0.033212453 
-0.057885576 0.0050009564 -0.066867284 -0.08735968 0.094797626 0.025700256 -0.0154684335 -0.015131488 0.054299578 -0.016669802 0.104306966 -0.08405843 0.09185386 0.03690535 -0.032279387 0.049791604 
-0.079601064 0.0117119625 -0.07170349 -0.09592406 -0.052701004 -0.068765745 0.06109351 0.051848352 0.016212054 0.034676567 -0.051935174 -0.05799381 -0.0014677942 -0.038065143 0.07739395 -0.08687108 
-0.0075109303 0.023554772 0.08848481 0.052150592 -0.05239285 0.001771681 -0.012890175 -0.062756106 -0.07691033 0.07815935 -0.0727819 -0.08552753 -0.07428564 0.09247379 -0.039262988 0.009823874 
-0.055581067 0.04852301 0.0454057 0.08221415 -0.073871896 0.00850115 -0.055889864 -0.09366793 0.07657847 -0.045067467 0.006512508 -0.0774267 0.0038826987 -0.028685376 -0.029527403 -0.09555677 
-0.005218819 -0.06913456 -0.05715286 0.05634713 -0.005357489 0.09160954 0.04620248 0.10436104 0.09090549 0.008728862 0.07358341 0.025900617 0.025242463 0.049368948 0.100939795 -0.07034404 
-0.037961148 0.041784897 0.06934795 -0.056469735 -0.039571397 -0.027332984 -0.039398015 -0.070057735 -0.09012352 -0.034869574 -0.010875255 0.043149546 -0.09779616 0.0016894117 -0.102183685 -0.03428615 
0.02526395 0.009345733 -0.060888864 -0.044556238 -0.061685413 -0.06949259 0.05376126 -0.015569262 0.053509355 0.040643483 -0.07684873 0.006509736 -0.09370249 0.04272555 -0.086989984 0.036301687 
-0.037669733 -0.04506153 0.049987897 0.08041261 0.06808244 0.06463371 0.018909171 -0.058327775 0.05574821 0.071751654 0.0110442415 0.0674988 -0.085225835 0.0052606985 0.009349197 -0.037745655 
0.06767839 0.061151713 0.09033017 -0.03834576 -0.057773687 -0.045656774 0.07120736 0.056276277 0.0027959198 -0.07338534 0.043411583 -0.103853434 0.1027194 -0.024922043 -0.08756042 0.0852212 
0.020416886 -0.0050454587 -0.043748833 -0.02938775 0.045996323 0.026161537 0.007452056 0.07545361 -0.087202705 -0.008544654 0.07957405 0.005824782 -0.023201108 0.06315522 0.07285997 0.0043438748 
0.101443574 -0.032446854 0.08130254 0.10427381 -0.028867342 0.04752533 0.09772445 -0.017097786 0.06160882 0.07590996 0.09873769 0.08949202 0.07368995 0.07951404 0.03578946 0.07531497 
-0.040212773 -0.10130669 -0.10096203 0.048738316 0.083227724 -0.1028237 0.013756707 -0.020779982 0.015323639 -0.05159293 -0.07593162 0.058042422 -0.088788226 -0.06793119 0.00036347657 -0.08898991 
-0.071585976 0.0023032203 -0.067804955 -0.02570489 0.049373984 0.07329558 -0.018864073 0.005695544 0.084976345 0.016994461 -0.024967238 0.009578653 -0.075494386 0.0962916 0.0065504536 0.07536492 
0.09827998 0.08317083 0.08786143 0.06869237 -0.06602227 0.10699861 -0.08773175 0.016753234 -0.0067810193 -0.030287318 0.08172554 -0.09460959 -0.029820539 0.057592332 -0.0050780848 0.1048515 
0.010412201 -0.033419564 -0.013691381 -0.09511238 0.052877545 0.056558996 0.02116473 0.027124554 0.02771397 0.010722004 0.09140824 0.083031625 0.07324791 -0.0502979 -0.036784403 -0.09611155 
-0.08986958 -0.0849489 -0.103213884 0.03898418 0.094963714 -0.023448639 0.05802323 0.055580765 -0.042887233 -0.048387285 0.005763702 0.07103263 -0.05160139 0.019803315 -0.029611371 -0.019872285 
-0.097688176 0.025371462 0.08796023 -0.09561104 0.0011589751 -0.08697841 0.04784949 0.0066801608 0.05058083 -0.028486334 0.083592296 -0.059006218 0.0701379 0.03736566 -0.0015710741 0.07450123 
0.028028756 0.08629547 -0.03606367 0.055616826 -0.101678886 0.10605179 -0.10246446 -0.046462223 0.027133837 0.106412366 -0.040427417 -0.072671816 0.05842884 0.08313577 0.10401127 -0.014947049 
0.09375882 -0.022113934 -0.059895683 -0.08034456 -0.07228412 -0.06258653 -0.03719259 -0.049300045 -0.05605553 -0.0993409 0.03422126 -0.055920634 0.103006676 -0.069670685 -0.03624875 0.059247345 
0.07779293 -0.042588517 0.07129219 -0.007529311 0.018331677 -0.022709288 -0.057686094 -0.009267651 -0.08522375 -0.048264317 0.00019431114 -0.059953608 0.025017828 0.020360902 -0.09502143 -0.099240325 
-0.079833046 -0.100138456 -0.09338657 -0.09146339 -0.09383016 0.0017793924 0.043621138 0.010510929 0.09470904 0.013793625 -0.09398529 0.035400108 0.03447196 0.042060986 0.007908501 0.051952735 
-0.063775614 0.08923282 -0.05945063 -0.020962901 -0.030931085 0.090730876 -0.008934483 0.0470469 -0.10343596 0.08174744 -0.051926766 -0.052138664 0.023669511 0.062915474 0.10560301 0.0063266084 
-0.034218073 -0.0777293 -0.033832945 0.10735631 -0.032896534 -0.014653087 -0.057466384 -0.035729863 -0.04216624 0.090406954 -0.020404726 -0.04024586 0.022779763 -0.055077963 0.045703053 -0.06310283 
0.074879855 -0.026728973 -0.009051457 0.0280893 -0.023446038 0.07669051 0.008569464 0.030199781 -0.048793983 -0.086600974 0.095256716 -0.08065561 0.027113944 -0.086090185 -0.069652975 -0.10466827 
0.033628687 0.067551404 0.049747616 -0.034610093 0.07563409 0.009494074 0.023604006 -0.026722468 -0.037657186 -0.030236028 -0.0006979853 -0.065446615 0.00069890916 -0.049670283 0.058704987 0.004731931 
0.078119665 -0.06677915 -0.006368719 -0.024668135 0.0024428517 0.1031999 -0.06707068 -0.079295464 0.07806915 -0.07060331 -0.0914288 -0.014778934 -0.073185794 0.020679742 0.091930166 -0.08410334 
0.018336266 -0.02369424 -0.06627494 0.058234245 -0.017810091 0.019484922 0.09783788 -0.08642775 -0.08649556 -0.06876109 -0.078343265 -0.062347714 0.0011452511 0.08427857 -0.08904722 0.04708089 
0.05539295 0.03873968 0.0684551 -0.0072967485 0.10338864 0.05134663 -0.0789725 0.062185228 0.09869699 -0.031902947 0.05815676 -0.10585362 0.009425737 -0.04214169 0.09488383 -0.004400462 
0.011248991 0.09989059 0.049576595 0.054221198 -0.005980842 0.048540562 -0.10442618 0.0062455162 0.10490401 -0.09514504 0.0787576 0.06316763 0.033994347 -0.09710843 -0.070124894 0.08120543 
0.005428396 0.0550642 -0.06333351 0.07189767 -0.0020772144 -0.01809349 0.04674837 0.013463721 0.06026511 -0.05406779 0.0280184 -0.05211177 0.049851745 -0.004157454 -0.07800396 0.024986729 
0.012463808 -0.061597206 -0.002451539 0.015800469 0.055429637 -0.05196523 0.029551983 0.08719623 -0.045224316 -0.0515202 -0.10745718 0.091675505 0.030467048 -0.05592812 0.09810105 -0.028532714 
0.054747164 0.03839846 -0.08267138 -0.06623802 0.10501249 0.032470837 -0.067333706 -0.01688227 -0.081336886 -0.012537777 0.059783563 0.022468954 0.07780433 -0.054707926 0.00025377423 0.004402213 
0.06052302 0.06640673 -0.022974148 -0.030729294 0.0775239 0.08954619 0.0605475 -0.0036357641 0.04965943 -0.07179538 -0.034613073 -0.01615639 -0.08070709 -0.027769014 -0.028150693 0.03185831 
0.06982848 0.07834363 0.08523771 -0.0338284 -0.10293782 0.10661264 -0.049726073 -0.04646055 -0.039514504 0.08821306 0.004429795 0.020779803 -0.060326006 -0.07258949 -0.005395055 0.012246132 
-0.07932544 0.0864214 0.007779725 0.09825082 -0.08235654 0.059520304 0.05308567 -0.09099707 -0.053721305 0.07036883 0.06507656 -0.08572717 -0.050604098 -0.07577107 0.10449277 0.03621769 
-0.050053455 -0.053873222 0.056135774 0.10388824 0.05086197 -0.0125532 -0.026121639 -0.01510863 0.050025 -0.02505336 0.1057723 0.060265437 0.01856497 -0.05371426 0.04711108 -0.004355468 
0.07611328 -0.0017707795 0.06584819 -0.02310498 0.087264895 0.08693062 -0.052838575 0.04474075 -0.07580458 -0.04894608 0.104185104 0.045857072 -0.087892994 0.06813854 0.03332652 0.018965438 
-0.10740741 0.035108984 0.056257993 0.0043171644 -0.022061288 -0.0396401 0.07383768 0.00803268 0.050794095 0.023257896 -0.008639805 -0.09470754 -0.008190349 -0.0928224 0.07729052 0.06199491 
0.025178775 0.07937446 -0.081454605 0.029865026 0.029448196 0.046293885 0.07215169 0.05120632 0.0018305853 0.0662843 -0.09308073 -0.026745267 -0.036929376 -0.08714707 -0.041878425 0.003699243 
0.072962075 0.04156798 -0.057661314 -0.10068252 -0.014271848 0.10078746 -0.104389265 -0.06745248 -0.02521754 0.048706338 0.029585272 0.04159452 -0.02227398 -0.069554016 -0.045100167 -0.06538129 
0.02724418 0.1052593 -0.019209892 0.055829674 -0.06849422 -0.023925468 0.0707912 0.07048592 0.037181437 0.02236496 0.0042248145 0.027006164 0.107394874 0.09323084 0.039434806 0.04856789 
0.09845242 0.05408229 0.008744262 0.059050724 0.09115265 -0.03529869 -0.10650345 -0.106494345 0.027866945 -0.04711151 -0.014724769 -0.0119795725 0.10474113 -0.06985211 0.0371131 -0.07187094 
0.02722305 -0.06353546 0.07721871 0.015038289 -0.003884554 0.030879438 0.0134513825 0.087799445 -0.049085088 0.025244638 -0.0017182082 -0.046180114 0.0022975951 -0.0485038 0.059612244 0.09602822 
0.09949781 -0.015567519 -0.06788098 0.08765511 -0.07797495 -0.048128188 -0.07650312 0.09986982 0.012462653 0.02065 0.06991796 0.07187961 0.054617718 0.0953621 0.005838923 0.07205135 
-0.0143846795 -0.022138722 -0.007784918 0.0031145588 -0.052117866 0.09133175 -0.043567836 -0.09857672 0.08863868 -0.07940714 0.0918417 0.054632828 -0.08084496 -0.08935943 -0.023263529 -0.06905556 
0.056471452 0.077576995 0.011950061 0.06966235 0.08724296 0.05091542 0.10701467 0.03764814 -0.063904494 -0.09217137 -0.048142843 -0.030187495 -0.018916517 -0.10324029 -0.08188956 -0.01384674 
0.0136953145 -0.006763354 -0.056155104 -0.015485965 -0.10478756 -0.039291143 -0.08509217 0.063785866 0.06865506 0.017262772 -0.056216884 -0.015558876 -0.088279665 0.03912498 0.055223376 -0.069339156 
0.05433543 -0.05376128 0.0014092326 0.057173714 -0.07986261 -0.02798099 0.0039727837 0.073907346 0.027688056 0.07434268 0.06478527 0.07867926 -0.023826793 -0.039986864 0.09561433 0.013180405 
-0.10094645 0.10324733 0.00268092 0.043751225 -0.061219174 0.042199284 -0.09798905 0.021530494 -0.04639697 -0.06340894 -0.012032688 -0.0049809813 -0.06716654 -0.05155131 0.09777783 0.0809558 
0.0675984 0.0051873997 -0.068304025 0.012940973 0.022764057 0.09590685 -0.102500424 -0.029465161 0.094142735 0.07186799 -0.035110474 0.10579173 0.06555557 0.091554105 0.08062558 -0.07671733 
0.041019946 0.051220536 -0.10352821 -0.023399763 -0.0719012 0.07249077 0.03276758 -0.05441039 -0.041706897 -0.0045716614 -0.06931913 0.037236914 0.10573955 0.02457036 0.045412928 0.09599103 
-0.04870081 0.081488416 -0.041936427 -0.011932291 0.09277651 -0.017386377 0.10070525 0.089147225 -0.09261572 0.09824455 -0.07558316 0.098866 -0.07283561 -0.014493667 -0.005247742 -0.08360661 
-0.084947966 -0.08733426 -0.028719306 0.036679 -0.054780763 0.0778915 -0.015279137 -0.056311905 -0.01023607 0.10335308 0.0942854 -0.02344288 -0.076433375 -0.03991197 -0.05784665 0.05900316 
-0.00031375885 0.016557328 -0.06092542 0.06745154 -0.011564732 -0.023124777 -0.022182167 -0.052846365 0.034472108 0.08090885 0.084729716 -0.04848087 0.020666406 0.010648601 0.0897778 0.042660326 
0.0149040595 0.062066272 0.032526985 0.09657663 0.07196508 0.083922476 -0.073415115 0.04664527 -0.033522196 0.023428231 -0.08325419 0.103356495 -0.011477575 0.051513523 0.072948605 -0.0787514 
-0.0070878565 0.060495436 -0.053618725 0.011807479 0.04012929 -0.0067211688 -0.0806543 -0.016411245 -0.003550075 -0.09122431 0.033037215 0.086547956 0.036505923 0.059316814 0.06321648 0.07108316 
0.08354187 -0.0168553 0.029205859 0.0116954595 -0.05697014 -0.025077686 -0.100718334 -0.05496204 -0.019039407 -0.019862317 0.06662217 -0.03062208 0.038392633 0.045809567 -0.0881732 -0.06802264 
-0.03995745 -0.09289914 -0.088937744 -0.0784208 -0.0032069534 0.079937294 -0.05255107 0.05012171 -0.026393592 0.025246978 -0.101040654 -0.013448864 -0.08407982 0.0056188554 0.016161479 -0.06878127 
0.07096204 -0.051071726 -0.10615825 0.029208705 0.006804645 -0.033460572 -0.04693859 -0.07504383 0.05599332 0.055938125 0.00760559 0.0767329 0.10578975 0.04524702 -0.10159664 -0.069616824 
0.03934732 0.0911832 -0.026808001 -0.053839028 -0.0009457916 -0.10495963 0.048987135 0.023336679 -0.045722436 -0.06902 0.09360063 -0.09636456 -0.011152096 0.025680587 -0.016242027 0.10007048 
0.030597195 0.08901104 -0.024348825 0.03546992 0.014585346 0.04768005 -0.034198843 0.00027172267 0.07263386 -0.041697383 -0.10311943 0.08385269 0.011592239 -0.10636986 0.007550113 -0.05195682 
-0.052048244 -0.068415835 0.07458641 -0.029508203 0.026347622 -0.031139538 0.09049587 0.047740594 -0.02341383 -0.010343254 -0.094141476 0.04062262 -0.07353428 -0.0719004 -0.0030410066 0.06651579 
-0.059045605 -0.05356134 -0.06497222 -0.03414598 -0.052538984 0.09450443 0.06567049 0.06933893 0.08182071 0.08254255 -0.03719473 0.028600425 -0.0059442297 -0.09520011 0.05609487 -0.08938952 
0.056179136 0.08762817 0.10660453 0.037869394 0.10198645 -0.08998846 0.04483348 0.02591966 0.05293347 0.045962483 -0.041002102 -0.007916808 0.021326274 0.0645875 0.074964106 0.06910284 
-0.060032845 0.036264926 -0.062708795 0.011353523 -0.036350176 0.083112195 0.022681579 -0.06886868 -0.027481377 0.028443575 -0.07951407 -0.085126445 -0.02818916 -0.047519337 0.0479019 0.0074497163 
0.09344447 -0.090452746 0.035210967 0.1021477 -0.102301255 -0.10220516 -0.08205091 0.010627292 0.01446639 -0.061182156 0.03504944 -0.008373067 -0.010904051 -0.010355622 -0.105419055 0.0001539737 
0.06853652 -0.09821069 0.08066814 0.062063158 0.012521088 0.029847175 -0.055258516 -0.071297005 -0.08835459 0.07236613 -0.05916852 -0.03699103 -0.050715808 0.023638114 0.05800116 -0.020506382 
-0.05488329 0.06594841 -0.013432741 -0.025951311 -0.06734936 0.0741763 0.022560537 -0.02989965 0.03526418 -0.09380934 -0.10524521 -0.024426877 0.049596786 -0.045783136 -0.045417804 -0.09024278 
-0.06593484 -0.08145931 -0.06442204 0.05626966 -0.048007663 0.033621877 0.038539484 -0.0018398091 0.08171742 -0.0747336 0.043904632 -0.010411121 -0.08881092 0.0860755 -0.06899352 0.04488246 
-0.037733234 -0.09097141 -0.05544203 0.06969307 -0.08448006 0.092455715 -0.07732037 0.10327369 0.08890803 0.018867597 -0.09479228 -0.10601713 0.011491254 0.104574576 -0.080875225 0.048386022 
-0.055896264 0.10324544 0.01894714 0.07583912 0.053293556 -0.090662435 0.0051647723 -0.060881432 -0.007678017 -0.07299997 0.08831026 -0.10023181 0.011713557 -0.100182064 -0.0012677535 -0.05036778 
0.046917632 0.08162449 -0.036688507 -0.048945718 -0.07321268 0.061003163 0.026809901 -0.09180498 0.010988146 -0.04563091 -0.065692365 0.09300554 0.062397435 0.0034100339 -0.06604093 -0.014338329 
0.0028967485 -0.052054208 -0.0581556 0.0925411 0.10637282 -0.046991885 -0.08821061 0.05273679 0.035583466 -0.042110406 0.01458779 0.075753 0.01778467 -0.027511664 0.057786644 -0.004752271 
0.09650999 0.1078092 0.058637604 -0.003517218 0.03279558 0.047000036 -0.0028500855 0.10024898 -0.013586946 0.054999113 -0.021263577 -0.036981106 -0.057800706 -0.081953675 -0.037288003 -0.08817811 
0.0269012 0.0016547292 0.075430065 -0.050927702 0.08605863 0.06548007 0.020096377 0.0037219673 0.05261244 0.03304121 -0.06481401 0.045459554 0.08892435 -0.052451905 -0.052749157 -0.062559016 
0.04931429 -0.08737349 -0.03883326 -0.089725845 -0.08102007 -0.021834835 -0.036839426 0.04988365 0.08570023 -0.0056996346 0.07158086 0.020321503 0.041243225 -0.06434489 -0.09224456 0.048858404 
0.025555268 -0.045085512 0.0017454326 -0.017008632 -0.024569228 -0.081227034 -9.7543e-05 -0.022613652 -0.07177895 -0.08994846 -0.0520847 0.095745996 -0.011762537 -0.016360164 0.02902098 -0.03956276 
-0.0038255528 -0.07073963 0.036268115 0.082142636 -0.04111895 0.017034337 -0.077325225 0.08161056 -0.0330991 -0.08357157 0.07307561 0.06426643 0.024205774 -0.0044522136 -0.068930894 -0.073467106 
0.07716739 0.102620766 -0.077307716 -0.07845454 -0.059702583 0.035338774 0.0004319921 0.021718472 0.020602405 0.061626256 0.040313855 -0.054829996 -0.061592937 -0.020298883 0.04927686 -0.09386083 
0.024164379 -0.044365548 -0.09559371 0.048934788 0.08942415 -0.04522463 0.0014601871 -0.0448675 0.03242266 -0.09898958 -0.072312266 0.020257667 0.0498157 0.048753828 -0.069337666 -0.09432854 
0.079468176 0.04063806 -0.039352894 0.040093333 0.07060817 -0.098478355 0.0693921 0.01874213 -0.07693511 -0.038653627 -0.020253278 0.007733397 -0.08226088 -0.09122084 0.097846806 0.0836525 
0.019026637 0.042561904 0.10109998 -0.021116003 -0.049006317 0.004745789 0.035968885 0.020380303 -0.00822676 -0.09394387 -0.065671444 0.026190206 -0.020159692 0.07106866 -0.050542112 0.015671618 
0.04040037 -0.09778621 -0.060366962 0.03504075 -0.076037854 -0.013428576 -0.024258971 -0.02926936 0.075177 0.08174577 0.033684194 0.02019775 0.044882327 -0.087742545 0.013238691 0.02698873 
0.0750227 0.096123606 -0.060197514 -0.01620277 -0.028666094 -0.05055407 0.032655954 -0.08567074 -0.035763875 -0.0741249 -0.012862533 -0.08825203 -0.055220492 -0.07581678 -0.081850916 0.036665082 
-0.047900222 0.008193798 0.074299976 0.039196268 0.07758412 0.08055098 0.06872517 0.08250797 0.068923265 0.019454718 -0.095167816 -0.076187044 0.05176519 0.08504617 -0.05679108 -0.0911496 
0.077334926 -0.028138563 0.0679241 -0.039096445 0.08451629 0.017593652 -0.07266377 -0.012522452 -0.107030876 -0.08899009 -0.016881056 -0.05476734 0.07793549 -0.038493745 -0.096270256 0.06931713 
-0.067244954 0.09221548 -0.013460405 0.015041351 0.09475958 0.093448654 0.065105736 0.020088762 -0.0775724 -0.08935766 0.069331735 -0.032182097 -0.08367266 -0.046038173 0.01624529 0.06193155 
0.01313284 -0.025255308 -0.09734228 -0.03843844 0.053133145 -0.008129552 -0.053416777 -0.05976305 -0.056919675 -0.050738532 -0.025283203 0.03557858 0.10019824 -0.054213718 0.05669798 -0.022144787 
0.055146575 0.027796313 -0.07181335 -0.100111924 0.09753665 -0.10621766 0.05162795 -0.07788492 0.01756145 -0.094008245 0.042622834 0.062076166 -0.08973993 -0.068506666 -0.073436275 -0.07195455 
-0.052087683 -0.07265864 -0.03327737 0.08578442 0.10696694 -0.09447832 -0.090745986 -0.005909063 -0.018307671 -0.004672155 -0.022642598 0.042383254 0.10686605 -0.020351231 0.051980197 -0.0054143593 
-0.061487403 -0.09687435 -0.10253223 -0.098919325 -0.05906355 0.046659306 0.08784798 0.10198742 -0.097960904 -0.049908996 0.105345055 0.10127437 0.06533751 -0.047118865 0.08835386 0.094841674 
0.086561725 0.009740397 -0.034694545 0.021269187 0.024872035 -0.085482694 -0.050938267 0.064520955 0.0053581074 0.054035723 -0.031673007 0.024661109 0.06877297 0.00092265755 0.027565941 -0.062675685 
0.050616443 0.04486616 0.08559017 -0.035287507 -0.032062553 0.069224596 0.047473222 0.06075476 0.0083027035 -0.054983683 0.05919583 0.09596959 -0.062718466 -0.045472078 0.05084628 0.019634679 
0.07073669 -0.06855489 0.040184468 -0.056341548 0.060224816 -0.051921934 -0.038185664 -0.08314204 0.0016647056 -0.034880966 0.08674978 -0.084876366 0.06507203 0.09590514 -0.053641967 -0.035345122 
0.07768957 0.052639037 -0.016860545 0.06329171 -0.056925125 0.028798029 0.090047285 -0.060782604 0.080066845 -0.015164807 0.022890404 -0.07913318 -0.032157212 -0.08223707 -0.03658814 -0.007934079 
-0.0519833 0.012178794 0.07237418 -0.07636288 -0.07961549 0.08178577 -0.08622431 0.08853571 0.057734475 -0.001202248 -0.03134986 0.033600584 0.04619439 0.106239334 -0.04722286 -0.05595691 
-0.08637697 -0.049132653 0.030804902 0.10710004 -0.003166154 0.078466624 0.021012783 0.015177555 0.0668768 0.01472903 -0.06049397 -0.065540865 -0.07794521 0.09515619 0.07978459 0.018836334 
0.059273854 0.014399365 -0.037864506 -0.031176865 0.008634329 -0.07341913 0.019298121 -0.044766665 -0.032559 0.07096243 -0.04324439 0.09411566 0.07966919 -0.036919974 -0.07281399 -0.07649718 
-0.020003997 -0.09305569 0.053481102 -0.040621854 0.056588277 0.058765143 0.08114548 0.06531027 0.04730785 -0.003205493 -0.035628743 -0.074206844 -0.013857126 -0.032629028 -0.06300369 -0.0692247 
-0.07601199 -0.025987253 -0.028158434 -0.024268582 -0.025691546 0.06442845 0.090755805 0.027279556 0.10184564 -0.029224783 0.013835713 -0.03039278 -0.051707774 -0.076066114 0.05576758 -0.047470827 
0.052940354 -0.078984044 -0.08101591 0.034074664 0.10503845 0.032139942 0.08555497 -0.06631358 0.08958961 0.07532479 -0.014690854 0.004996456 -0.0065504014 0.07149124 -0.039398044 -0.0030874312 
-0.09990134 -0.087757304 -0.0066299215 -0.06046463 -0.02055785 0.016555503 0.09191033 0.040170178 -0.08076943 -0.0550594 0.018594429 0.041484147 0.06762919 -0.09805788 -0.046055835 0.10739325 
-0.011746906 0.03564167 -0.07358922 0.0015392452 -0.038959958 -0.0060402825 0.033354416 0.090015486 -0.06489715 0.00976181 -0.104953945 0.07172699 -0.09312994 0.08676605 -0.06087606 -0.024180457 
0.08135414 -0.032373942 -0.0023302957 0.08597693 -0.08291071 -0.04127544 0.058626264 0.09033021 -0.0055148825 -0.0827146 -0.10474071 -0.08965936 -0.08078553 -0.10096399 -0.1060313 -0.057588916 
-0.09791815 -0.0835863 -0.021663174 0.006817423 0.07780133 0.06538029 -0.017371207 -0.018045023 0.002270393 0.100260705 -0.08191594 0.035848767 -0.107339464 0.08028054 -0.03286147 -0.037515268 
-0.036718845 -0.026922435 0.018268228 -0.09557778 -0.017129846 -0.055185735 0.025326699 -0.07051418 0.02671796 -0.027176186 0.018985063 0.034452513 0.0686418 0.013351761 0.03233026 -0.012705989 
0.04583992 -0.05204274 -0.10642195 -0.07250084 0.018422097 0.083148 -0.027972683 0.022015631 0.047489777 0.052132204 -0.045889776 -0.10251189 -0.017333284 -0.05409584 -0.08603699 0.07398754 
-0.03233026 0.082782656 -0.055903975 0.09529936 0.028048933 0.09073913 0.01917012 -0.106142774 -0.02499824 -0.07526992 0.07302691 -0.101249516 0.092861384 0.017415807 0.041005746 -0.1032325 
-0.035744563 -0.016091526 -0.08222738 0.07232016 0.00085357577 -0.0026558489 0.08164601 -0.0532019 -0.0005579218 -0.102977924 -0.07146321 -0.10594648 -0.054166052 0.07770991 0.09784338 0.06037192 
-0.08554435 -0.06804665 0.02396357 0.043784544 0.04665284 -0.09720109 -0.055166528 0.08826551 -0.069603816 -0.027779378 0.06904535 -0.06500421 -0.07361254 -0.10482247 0.052299574 0.065947786 
0.005127728 -0.10479038 -0.042116724 0.079860166 0.027832702 -0.1068632 -0.008213468 0.09847115 0.0602922 0.037827402 0.04588206 -0.042208076 0.1042708 0.014373422 0.0064744875 0.026935235 
-0.040277608 -0.07493796 0.09115122 0.053260177 -0.07913316 0.04618129 -0.067483746 -0.07318821 0.052182853 -0.04738889 -0.031597212 -0.051430628 -0.0027521327 0.038739905 -0.084149465 -0.033444226 
-0.03522688 -0.0057828277 0.063447 0.06224948 0.048940137 0.07465485 -0.107656024 -0.03862249 0.026345283 -0.06982376 -0.06429568 -0.013393663 -0.0025468469 -0.04224345 0.009617865 0.005733438 
0.10083012 0.03950028 -0.07117656 0.046154916 -0.04980842 0.090153545 -0.017272249 -0.019711837 -0.06426427 0.08429271 0.032876566 0.050087288 -0.06461936 0.02797027 0.09794307 -0.07244837 
-0.01955349 0.007769309 -0.030637942 -0.011842929 0.012142673 -0.0970836 -0.070849404 -0.025600381 -0.017048247 0.08502996 -0.029654719 -0.0149771795 -0.09890675 0.106340036 -0.06168675 0.03914018 
-0.030193254 0.041170552 -0.009631515 0.10124728 -0.005328469 -0.027435593 0.07266341 -0.059483256 -0.0051419437 -0.038054653 -0.085971355 0.10139084 -0.050576486 0.0938897 -0.040943176 0.06540671 
-0.098393485 0.07294065 -0.043610208 0.08549018 0.048325405 0.049171865 0.03858313 0.007741131 0.018754631 -0.051737394 0.067838535 0.03158444 0.095620066 -0.04695165 0.03348957 -0.02725339 
-0.071334645 -0.007776074 -0.06085053 0.040126935 -0.06933805 0.006881334 -0.014326505 0.055643797 0.059473976 -0.08343132 -0.00795532 -0.03771457 0.046665296 -0.046079308 -0.05845033 -0.05586058 
0.027376026 -0.09051463 0.019322008 -0.057289634 -0.057160802 -0.10236381 0.01347167 -0.059594113 0.07079817 -0.022395864 -0.101519644 -0.024323605 0.0063989535 -0.041269682 -0.0760012 -0.0037174895 
-0.06923303 -0.021656565 -0.040658362 0.03473565 -0.07868281 0.09495625 0.022550866 0.026731998 0.05135648 0.063707784 -0.04240624 -0.051634375 0.09310207 -0.0699631 -0.039202005 -0.009947121 
0.07166202 -0.058702204 -0.004956402 -0.01015722 0.079622924 -0.099947 0.095724404 -0.06048299 -0.09363343 0.070639774 0.10099006 0.00017677993 0.06119807 0.04743859 -0.07931405 0.050611317 
-0.06549178 -0.06591241 -0.030080207 -0.0003271252 -0.023909114 -0.038461216 0.067989185 0.04256299 -0.085691094 -0.10105333 -0.048367694 -0.07779746 0.010791212 -0.06665858 0.08693805 0.023260191 
0.09731722 0.09515229 0.040715575 0.07279828 0.0016948134 0.048824787 0.079180464 -0.02752205 -0.08142443 -0.037620112 0.08312687 0.057404652 0.09101151 -0.04550568 0.0024755 -0.07305023 
-0.051945124 0.09825531 0.087167114 0.055267856 0.037805602 0.012690589 0.018348992 0.07135077 0.089097664 -0.061387856 -0.019547477 -0.03256563 -0.038869224 0.0041701794 0.077848226 0.10730931 
0.077201545 0.0036232919 -0.0699493 0.069405794 -0.077049136 -0.027983584 0.04061787 -0.1035588 0.05807793 -0.032517634 -0.06399006 -0.09959614 0.044202596 -0.045278028 -0.07865936 0.0715027 
0.0075894743 0.046353802 -0.008815683 -0.055818107 0.06640701 0.03278877 0.082963794 0.08065775 -0.045625407 0.035906866 -0.08421147 0.029449686 0.076768905 0.1012547 0.017678827 0.011120059 
