0.6818767 -0.8190465 0.626132 1.2137702 -1.0078777 -1.130034 1.2558229 1.4933541 -0.8103284 1.415917 0.6509642 -1.117473 0.8249238 -0.889623 -1.012311 -0.88102317 
0.16145355 -0.065113224 0.17916693 -0.058562625 0.28478026 0.16817868 -0.06069067 -0.17997724 -0.055231232 -0.054457787 0.19272308 0.15464847 0.13042372 0.2346684 0.2912169 0.24759221 
-0.15596975 0.61848813 -0.16546728 0.047386687 -0.20496973 0.3526563 0.054248568 0.5150487 0.57289606 0.04450629 -0.18197775 0.29004925 -0.12188872 -0.16797027 -0.20717767 -0.17751147 
0.007084975 0.36189437 0.005698107 -0.03106961 0.034790475 0.28222054 -0.028646354 0.22512336 0.34488985 -0.029595794 0.008345717 0.24358048 0.007523243 0.031537633 0.03721891 0.03681306 
-0.00025791596 0.11992161 0.0012721417 0.05595787 -0.041936673 0.03680265 0.055623233 0.14983822 0.11209177 0.05283151 0.0020142226 0.029140951 0.0017898404 -0.033334643 -0.039588034 -0.031882405 
-0.30516827 1.043269 -0.3000556 -0.2277847 -0.32099992 0.5361023 -0.22468618 0.66776836 0.98050463 -0.21560155 -0.34818426 0.4455882 -0.27369496 -0.26414782 -0.32603374 -0.278659 
0.31318736 -0.31814483 0.2902744 0.5537945 -0.06949737 -0.49560374 0.54614216 0.1626212 -0.30893034 0.52786046 0.3335653 -0.43059248 0.28833276 -0.06087047 -0.07095968 -0.055292234 
0.011572926 0.30974668 0.009060258 0.07671047 -0.013962791 0.21866909 0.076575495 0.28423414 0.2922847 0.072335064 0.0114681665 0.19026664 0.010970246 -0.007497579 -0.01323697 -0.0077113523 
0.41749418 -0.41428357 0.37378794 0.8453439 -0.022508848 -0.4917915 0.93705744 0.54120886 -0.39966878 0.9559959 0.45832554 -0.38013548 0.4005437 -0.0041638166 -0.015044424 -0.004663101 
0.073305294 0.19087468 0.07871004 0.050887704 0.054226827 0.14421692 0.053551733 0.18008173 0.18156764 0.050121784 0.083911404 0.12550819 0.06318502 0.049044017 0.054259166 0.054605104 
0.19882521 -0.007327381 0.21316248 -0.081060454 0.34915593 0.2716754 -0.08291875 -0.1279966 -0.006411757 -0.074603915 0.23711635 0.24558724 0.1637917 0.27548677 0.3523732 0.29426387 
0.10747707 0.021809943 0.11660587 -0.0722271 0.18676989 0.21150495 -0.07402012 -0.07571094 0.024403382 -0.06708251 0.12640882 0.18879703 0.08124226 0.15807879 0.18316643 0.16042963 
0.02329105 0.15503295 0.0037148718 0.18589929 -0.06966642 0.039765287 0.18327682 0.27166858 0.14525121 0.17175905 0.014829484 0.032586034 0.028035594 -0.057212897 -0.071072005 -0.054105204 
0.21196644 0.13755338 0.21916418 0.09604977 0.25904605 0.17606159 0.09252952 0.16309662 0.12967938 0.094868936 0.24375927 0.15751137 0.177001 0.21132284 0.26342356 0.22749867 
0.05638082 0.12444344 0.025964005 0.38903794 -0.13673484 -0.038870573 0.39230615 0.3872168 0.113836415 0.36419874 0.04378453 -0.03885369 0.06557272 -0.11560639 -0.13808875 -0.11682964 
0.3587591 0.089209706 0.31214595 0.9605152 -0.103761375 -0.3408463 0.9483305 0.8735976 0.04338977 0.9033342 0.37414646 -0.30247524 0.33959174 -0.08983802 -0.10703784 -0.08642414 
0.32923672 0.049677216 0.35388115 -0.059176058 0.52305555 0.42847744 -0.060178697 -0.19154179 0.053662233 -0.05361357 0.386628 0.36786363 0.27383786 0.42621216 0.5329897 0.45153782 
-0.114794634 0.7839265 -0.111367784 -0.1458888 -0.07351817 0.5640553 -0.14049143 0.49789846 0.73196137 -0.14031139 -0.13110077 0.4559036 -0.100274935 -0.059665147 -0.07579907 -0.06050592 
-0.031402305 0.35610497 -0.044378143 0.11288256 -0.045659184 0.2609175 0.113726184 0.3585164 0.3375674 0.10360065 -0.043717533 0.22680497 -0.021341735 -0.039790127 -0.046194088 -0.04284539 
0.051214196 0.00071238435 0.04061773 0.17583501 -0.0019065113 0.0037485207 0.1755551 0.09731787 0.000895955 0.16772152 0.051291004 0.00121716 0.055501238 -0.003426307 -0.00043770747 -0.0031789765 
-0.06356766 0.32908422 -0.06007108 -0.10757881 -0.021439806 0.2830465 -0.103992425 0.15235189 0.31286463 -0.100138694 -0.06758092 0.24146083 -0.05824447 -0.014700648 -0.023008658 -0.017227402 
-0.004206849 0.13879648 -0.028614054 0.34388396 -0.12774003 -0.020071017 0.33039242 0.37995246 0.12963533 0.3093613 -0.022374136 -0.019118974 0.011273677 -0.10249457 -0.13030767 -0.10844913 
0.07650411 0.15327115 0.061566044 0.19080153 -0.0053770533 0.07065179 0.1901344 0.24633367 0.1440961 0.18111905 0.0752099 0.068877414 0.07994805 -0.006397238 -0.0067235185 -0.005409628 
-0.15295345 0.22455016 -0.1757108 0.15772505 -0.19709125 0.039632577 0.15722916 0.34283176 0.21119294 0.13974784 -0.18568921 0.029857233 -0.12161719 -0.163261 -0.20144169 -0.17735185 
0.076072395 -0.05801346 0.055895086 0.3458534 -0.047130745 -0.085684784 0.34000736 0.22461165 -0.05612708 0.31447235 0.071953714 -0.07704604 0.07907501 -0.037580904 -0.046785515 -0.038660895 
0.27864456 -0.13497876 0.21955562 0.9852699 -0.2594975 -0.40377694 0.9673315 0.7046947 -0.12790827 1.0006286 0.31120947 -0.33838362 0.28599018 -0.21412945 -0.25886148 -0.2244323 
0.24425022 -0.2413997 0.2456643 0.20623511 0.17912821 -0.11266899 0.20432511 -0.08093663 -0.22888085 0.19718316 0.27476552 -0.09526405 0.21843502 0.14536081 0.18044102 0.15663788 
-0.20136586 0.29748815 -0.22362727 0.13569988 -0.256744 0.08232745 0.13855815 0.3681997 0.27889258 0.1277355 -0.23893371 0.0613562 -0.16868407 -0.2195146 -0.26030317 -0.23210469 
0.18049349 -0.11699297 0.19420345 -0.06835444 0.36368242 0.16966006 -0.07204782 -0.20506652 -0.10565688 -0.062360324 0.21304609 0.15911053 0.1445316 0.3013741 0.36682764 0.31157193 
0.29335338 0.10372355 0.280202 0.45426548 0.29842988 0.3380528 0.42924407 0.3091171 0.0990938 0.41747046 0.32707602 0.30252242 0.26250356 0.24581444 0.29919797 0.25824237 
0.13321637 0.08122328 0.09011001 0.5819354 -0.24109104 -0.2857613 0.5697877 0.50656885 0.069579974 0.5434589 0.124519385 -0.2706477 0.13718997 -0.19838127 -0.23608859 -0.19862781 
0.3681661 -0.44794142 0.30395377 1.0682875 -0.3029193 -0.7080258 1.0169826 0.49972472 -0.4381236 0.9986891 0.39575055 -0.61300594 0.36177972 -0.2435035 -0.29865065 -0.25794438 
0.28588536 0.170985 0.24587893 1.015966 -0.41675898 -0.34045225 1.0085014 1.1183723 0.1543626 0.9374457 0.34576178 -0.25673497 0.2871535 -0.3209353 -0.41595548 -0.3539847 
0.02752906 0.21031179 0.0023973128 0.5045433 -0.1351868 0.036449548 0.47861746 0.50665194 0.1941565 0.44978103 0.01564694 0.020921906 0.040043607 -0.111404195 -0.13787748 -0.11788929 
0.08219943 -0.08231059 0.08012682 0.095012575 0.051826406 -0.039293177 0.089078926 -0.022948705 -0.077337526 0.085133515 0.09180839 -0.032114156 0.07257834 0.04606292 0.053517953 0.046066772 
0.2979333 -0.16230696 0.30467716 0.052923415 0.38700074 0.14657266 0.056584533 -0.10203737 -0.15173665 0.05380131 0.3465392 0.13905755 0.25274754 0.30790895 0.3870383 0.32544738 
0.059697136 0.23749857 0.05449275 0.11786447 0.043549474 0.20505132 0.11818659 0.20457147 0.22158849 0.11085868 0.06345253 0.17699412 0.056379564 0.035405274 0.041915447 0.032404732 
0.052620567 0.25340262 0.055641357 0.05765014 0.07474879 0.26158124 0.058662634 0.18880986 0.23962282 0.05381992 0.061119325 0.2274516 0.045327347 0.06394482 0.075911745 0.06698662 
0.35802966 -0.17050655 0.33001965 0.7450752 0.11119634 -0.13632765 0.7436386 0.39156812 -0.16564786 0.7285705 0.39868432 -0.10836166 0.32918072 0.097745605 0.115532465 0.10303263 
-0.41465124 1.3220953 -0.42049453 -0.27430892 -0.42946604 0.7414016 -0.26758137 0.98594975 1.3360106 -0.2597529 -0.48321018 0.5797419 -0.3501081 -0.35046205 -0.43958977 -0.3643659 
0.1747765 -0.24099588 0.12948395 0.7392673 -0.20462102 -0.41907018 0.7273248 0.38254252 -0.23809014 0.6955039 0.1723951 -0.3585623 0.18133396 -0.1638146 -0.20623747 -0.17443594 
-0.09174335 0.47786188 -0.106216274 0.0859332 -0.15300527 0.22871003 0.085866116 0.42468286 0.4480122 0.0812314 -0.110515 0.19701256 -0.07064414 -0.12856942 -0.15565886 -0.13839193 
0.21880138 -0.086828835 0.20999396 0.24966057 0.16169967 0.023350578 0.24410366 0.070213936 -0.080404215 0.23606694 0.24119392 0.021789722 0.19575155 0.13471612 0.16510308 0.14325988 
0.030151125 0.17940246 0.012028602 0.24383122 -0.06418156 0.072654895 0.24074988 0.32098365 0.16813761 0.22688207 0.022949347 0.06450749 0.03474913 -0.05383461 -0.06568618 -0.052231222 
0.008977915 0.15303315 0.0125462115 -0.04150403 0.05135149 0.19136593 -0.040079013 0.055257123 0.14589584 -0.03938438 0.013777618 0.16416912 0.0048868223 0.045375105 0.051045254 0.046884783 
-0.10353295 0.19497967 -0.11288772 0.0043397574 -0.04731872 0.07280449 0.0071009104 0.19148116 0.18322834 0.0019289267 -0.120659545 0.060930982 -0.09259568 -0.044082977 -0.049572572 -0.051518127 
0.0337326 0.4261984 0.041410364 -0.16357319 0.13931103 0.38905492 -0.15760867 0.18117547 0.40374854 -0.15778528 0.04431833 0.32997578 0.024856046 0.117599025 0.13944152 0.12332767 
-0.055724215 0.18553169 -0.07154182 0.1315263 -0.025054105 0.055505306 0.13332085 0.2874343 0.17295592 0.12123996 -0.07041631 0.047243774 -0.046147507 -0.023142867 -0.0260738 -0.030045051 
-0.015165871 0.17217314 -0.02246081 0.202843 -0.047808923 0.07717009 0.19918999 0.3089055 0.15946694 0.18952139 -0.022097548 0.07162399 -0.00928399 -0.042044226 -0.04666592 -0.04176865 
0.14981699 0.31420848 0.13626744 0.2298195 0.09839287 0.35192335 0.22497842 0.31719035 0.30214727 0.21901092 0.16000448 0.2989968 0.13070735 0.081184894 0.09848107 0.08245258 
0.21799925 -0.24041419 0.21502253 0.17888474 0.1721457 -0.11985316 0.17510766 -0.095906176 -0.22726613 0.17187724 0.24298507 -0.09378018 0.19512525 0.14522122 0.17483518 0.15314461 
-0.09499749 0.14589278 -0.084688954 -0.1759746 0.05489643 0.22116391 -0.17251402 -0.014160804 0.13934359 -0.16854768 -0.09955255 0.19242616 -0.090273626 0.045569923 0.053166423 0.048144385 
0.31712875 -0.18111825 0.312341 0.37751645 0.13560452 -0.030808639 0.35573256 0.034404516 -0.16999024 0.35306433 0.36466107 -0.018832069 0.281421 0.11752419 0.13589586 0.120672435 
0.10765222 0.39360738 0.08571798 0.38405165 0.015631126 0.26832208 0.37516862 0.5541925 0.3724457 0.35600775 0.108746484 0.23493423 0.10509304 0.012107067 0.013014152 0.0049095578 
-0.025959158 0.35106966 -0.05416721 0.41728306 -0.20654455 0.0881685 0.4121992 0.64169544 0.32583168 0.37566912 -0.046516363 0.073873594 -0.004913881 -0.1712678 -0.20769592 -0.1803328 
0.02530782 0.30993327 0.015159077 0.19113332 -0.0853499 0.13702458 0.18741237 0.3757366 0.2895578 0.1799637 0.021602463 0.11656745 0.03498432 -0.0720596 -0.08887885 -0.079568446 
0.08816381 0.10601644 0.095405936 0.0020535542 0.16784155 0.25884312 0.002557711 0.03033063 0.10565103 0.002243353 0.1037659 0.22811759 0.08832586 0.14047779 0.16945615 0.14814225 
0.10774452 0.10408512 0.11553271 -0.05157267 0.20185703 0.25103548 -0.053432837 0.00088365556 0.10151506 -0.047861196 0.12657122 0.22100401 0.08569494 0.16868956 0.2029188 0.17641455 
0.1694359 -0.064028434 0.18599401 -0.0743434 0.26877385 0.13711101 -0.0749219 -0.14907263 -0.057375062 -0.06718726 0.20099643 0.12564687 0.13919781 0.22443329 0.27341112 0.2404309 
-0.1504583 0.35470214 -0.15419471 0.0127235465 -0.13339387 0.18446939 0.01535362 0.33323205 0.33080903 0.012016642 -0.17099333 0.15619712 -0.1268146 -0.1122071 -0.13698716 -0.121650785 
0.22514719 -0.17551108 0.19815353 0.6116051 0.028247712 -0.17008662 0.599895 0.25658104 -0.16930656 0.5964888 0.24987464 -0.13981454 0.21381591 0.024359267 0.028057424 0.024320712 
0.0501643 0.32629266 0.050703578 0.036583062 0.011805651 0.2014057 0.03492701 0.24850987 0.30203724 0.033315416 0.058553755 0.17474508 0.04632569 0.012717743 0.012785313 0.011098848 
0.104642354 0.05894978 0.097749665 0.23166665 0.06716242 0.08027353 0.2298231 0.22693376 0.0556459 0.21440402 0.11269662 0.071083345 0.0984306 0.06047401 0.06830244 0.06200813 
-0.0036266726 0.14401558 -0.01221069 0.119428426 -0.06547948 0.024655102 0.11851751 0.2068077 0.13930434 0.1132927 -0.009132412 0.018924307 -0.0008287604 -0.05308747 -0.06413783 -0.053942755 
0.018590737 0.10574067 0.019556882 0.08788562 0.062342595 0.09129987 0.08876296 0.20295386 0.102679096 0.08117773 0.020465221 0.08267677 0.016351663 0.05118617 0.061167363 0.051836826 
0.20677444 -0.101959564 0.18533455 0.35428998 0.082370505 -0.055735294 0.3504143 0.13445804 -0.09859565 0.3326229 0.22025006 -0.045528203 0.1917421 0.0677244 0.082639605 0.07174719 
0.11848912 -0.088067845 0.10427541 0.2531186 0.09148988 -0.006450864 0.2450082 0.07642232 -0.08432157 0.22473086 0.12515198 -0.002933574 0.109327085 0.074186094 0.09163958 0.07592327 
-0.01278285 0.31953472 -0.027187072 0.24125266 -0.021606578 0.20085211 0.23822033 0.41764233 0.2999433 0.22344644 -0.024479894 0.18046522 0.0028863493 -0.021956084 -0.021149404 -0.026707359 
0.083402924 0.082031466 0.08892266 0.039101075 0.124735564 0.16330723 0.037316386 0.035352055 0.08024696 0.03784754 0.09702929 0.14176123 0.06720944 0.10459573 0.12755565 0.110051416 
0.081577525 0.08198077 0.085607775 0.071069196 0.09407128 0.21080378 0.07018071 0.04394539 0.08014839 0.069497354 0.09459331 0.18313147 0.07758517 0.07443688 0.0922638 0.074885935 
0.08392895 0.5046319 0.11754999 -0.30085406 0.38871086 0.72550666 -0.2997344 0.007869465 0.48421293 -0.28615052 0.118216455 0.61706144 0.054512493 0.3163336 0.39813256 0.33603835 
0.2614815 -0.022750793 0.2629522 0.23024361 0.22850433 0.11836062 0.22404791 0.09610948 -0.01891661 0.21270704 0.29439756 0.11352302 0.22683576 0.19259024 0.23165162 0.20347542 
0.02097186 0.31343943 0.019066105 0.040361617 0.06758398 0.29945874 0.0420722 0.27804795 0.29709214 0.034517966 0.024424696 0.26187554 0.019799277 0.054957014 0.0652342 0.056723494 
0.06803018 0.102260664 0.076418124 -0.029053165 0.15215439 0.23472044 -0.029937811 0.07068262 0.10053245 -0.029345168 0.08190259 0.20855343 0.05358879 0.13685659 0.15889798 0.1434782 
0.089862995 0.03934739 0.07466383 0.27212605 0.030870643 -0.03047113 0.26581475 0.23475122 0.03514145 0.2564889 0.09270662 -0.022144273 0.08502492 0.023857223 0.030757533 0.024889447 
0.16963819 -0.10433039 0.18338446 -0.03885476 0.28719133 0.09827358 -0.041547075 -0.11532228 -0.09522714 -0.03609755 0.19955954 0.091842696 0.1409874 0.24137484 0.29187962 0.25313154 
0.088492036 0.10298415 0.092719086 0.06180419 0.07518315 0.13016273 0.06279664 0.12192704 0.09913006 0.057511814 0.101581104 0.11280953 0.079501756 0.062801674 0.07104394 0.06418783 
0.043992005 0.089206755 0.021664545 0.1798002 -0.105003186 -0.0589091 0.17989299 0.23412547 0.08338022 0.16760625 0.03531318 -0.05206805 0.05150279 -0.08446129 -0.10295391 -0.08533562 
0.14474785 0.014564469 0.13214862 0.26217845 0.121673055 0.09821142 0.25950086 0.18150204 0.017428411 0.24789433 0.15442146 0.08664461 0.13278891 0.1000379 0.12093837 0.10051589 
0.17306946 -0.16763993 0.17475261 0.06871226 0.16349158 -0.031304505 0.06473358 -0.10157626 -0.15787855 0.06696033 0.19494374 -0.026816966 0.14867578 0.13953117 0.16550286 0.14758164 
0.029538529 0.14693087 0.028172856 0.028914282 0.059110526 0.14743103 0.028375586 0.10417588 0.1387675 0.028944084 0.033132184 0.13002639 0.025327459 0.050952584 0.05872573 0.049903203 
0.019953769 0.26141465 0.009845275 0.08686504 -0.07406639 0.115041554 0.08325836 0.26399267 0.24529487 0.08253197 0.01761474 0.10005891 0.024987675 -0.05796726 -0.071076915 -0.06186072 
-0.0027777797 0.24552557 -0.018052349 0.20771664 -0.12923402 0.003043423 0.20615548 0.35847098 0.23000559 0.19909707 -0.010947406 -0.0011529744 0.008726181 -0.10857714 -0.12922378 -0.11021522 
0.11807458 0.24325913 0.12051161 0.044304345 0.112126105 0.28515393 0.044372573 0.1337747 0.23570602 0.043378573 0.13360219 0.24782084 0.10046267 0.09497584 0.11105901 0.10367428 
0.062399495 0.043633983 0.061029 0.09315857 0.072683856 0.07580178 0.092539094 0.08225381 0.042587914 0.089254506 0.07020127 0.06962455 0.055371165 0.06416422 0.07436835 0.06599577 
0.3451903 -0.27942738 0.37506667 -0.1358791 0.60761863 0.1848645 -0.13793431 -0.39644504 -0.2566738 -0.12478273 0.40966272 0.1802263 0.28023055 0.4761732 0.61195236 0.51334727 
0.18762888 -0.09610896 0.20680639 -0.057726454 0.40430662 0.24838455 -0.056501452 -0.24921449 -0.086822405 -0.047186356 0.22310923 0.22706781 0.15241459 0.3312356 0.4039865 0.3459345 
0.060946293 0.08370906 0.066933095 -0.0116561 0.11889396 0.13356307 -0.012165205 0.0011669608 0.079810105 -0.0070859813 0.07399661 0.118210614 0.054288384 0.09923162 0.12153684 0.10915491 
0.025981119 -0.0106367115 0.035818823 -0.06556038 0.120147005 0.08676194 -0.065959774 -0.07899899 -0.007345167 -0.061749212 0.037493758 0.079029694 0.013880365 0.10314395 0.12604927 0.103856295 
-0.2018135 1.2058629 -0.16226119 -0.6939722 0.20521806 1.0629398 -0.6773879 0.32006767 1.1750219 -0.6569604 -0.20189935 1.0693551 -0.19849534 0.16556147 0.2032453 0.17192647 
-0.16779363 0.54900247 -0.16914669 -0.09996787 -0.09937347 0.37682298 -0.095238216 0.3518009 0.51288366 -0.095178954 -0.19014238 0.30702555 -0.14845584 -0.08728124 -0.10249425 -0.09138184 
-0.0033590351 0.5043453 0.0045872317 -0.027786009 0.011281492 0.3358519 -0.02386484 0.30089265 0.47461745 -0.024828568 0.0059367456 0.28546312 -0.0018102586 0.013983267 0.0121960165 0.01596996 
0.20073284 -0.20547245 0.19528106 0.2662671 0.1483621 -0.11085291 0.23954953 -0.024679478 -0.19233613 0.23347823 0.22210164 -0.09362246 0.17770024 0.13205437 0.1511303 0.13051355 
0.092126496 -0.08638366 0.06265263 0.53239316 -0.06684312 -0.1125058 0.5329552 0.29246953 -0.08557419 0.5144855 0.08575319 -0.1000492 0.099754035 -0.051947035 -0.06780407 -0.056510426 
0.08733059 0.47753784 0.08605316 0.16209723 0.0222492 0.2838375 0.16020453 0.42435554 0.4376275 0.15204684 0.09800205 0.23857486 0.082271814 0.02923822 0.027325373 0.032420304 
0.14410454 0.1475804 0.15097232 0.08986267 0.23734671 0.17515035 0.088198625 0.14285976 0.14325804 0.084711514 0.16675791 0.1545357 0.12179112 0.19993174 0.23878941 0.20668212 
0.07100955 -0.028867677 0.07768503 0.00047121246 0.14754274 0.11872749 -0.00029355416 -0.04547853 -0.023315197 0.0014703643 0.08603946 0.107515916 0.05651369 0.12038551 0.1505788 0.12639837 
0.13279477 -0.00025051687 0.13616693 0.08919348 0.14242536 0.10914725 0.086807914 0.010552421 -0.0008573649 0.08501382 0.15144596 0.09953366 0.118080206 0.11836211 0.14027564 0.12551326 
-0.08184083 0.41974804 -0.09299904 0.13339302 -0.1675972 0.16882494 0.13392127 0.4431262 0.3892919 0.12456734 -0.09847855 0.13624363 -0.06281669 -0.1390496 -0.16904446 -0.14650545 
0.05193984 0.013553274 0.048529524 0.09883858 0.0097722495 0.0114094 0.095297195 0.072745115 0.012780153 0.091371715 0.05704545 0.010005185 0.041345373 0.010301434 0.009065666 0.011333523 
-0.03737838 0.48773947 -0.03866005 0.0048398543 -0.10024047 0.31639823 0.0057358267 0.35148916 0.46070522 0.0067423703 -0.043440845 0.2674213 -0.028828513 -0.082513824 -0.101956226 -0.084911816 
0.2640438 -0.18738227 0.2662127 0.16833772 0.28786 0.09167754 0.16572273 -0.08533849 -0.17241797 0.16251734 0.29718176 0.08778681 0.22837767 0.2344396 0.28916627 0.251457 
0.43182957 -0.3366286 0.4650326 -0.09964735 0.7069247 0.28692448 -0.09826756 -0.53906363 -0.3052495 -0.091013014 0.50793344 0.26857236 0.35495564 0.5714704 0.7159067 0.6055589 
0.2640338 -0.1559536 0.2945106 -0.19647017 0.5018547 0.2742064 -0.19230214 -0.36359975 -0.140673 -0.18243179 0.31473252 0.2551473 0.21250142 0.41078138 0.5061415 0.43204054 
-0.22184853 0.5831136 -0.22016284 -0.09759023 -0.1820483 0.3437108 -0.091497324 0.42128465 0.5350144 -0.09705473 -0.2491888 0.28856823 -0.18958081 -0.15541252 -0.18973033 -0.1719057 
0.027050605 0.1257733 0.027398227 0.072007544 0.062679574 0.12564325 0.07052866 0.14392829 0.119676515 0.06834674 0.031956457 0.113683 0.023984723 0.05575827 0.0647605 0.056360614 
-0.01565462 0.1797113 -0.0145487115 -0.03532283 0.10479001 0.22952797 -0.03407502 0.09631638 0.17265578 -0.032671146 -0.015683452 0.2112172 -0.015455289 0.08734861 0.10475169 0.08751358 
0.10125497 -0.059101067 0.09690618 0.14450502 0.07633461 0.005233878 0.14108512 0.016611025 -0.05462638 0.13620237 0.11113718 0.004966739 0.08811124 0.06785211 0.078352086 0.071211725 
-0.1357124 0.36199963 -0.13544968 -0.09940319 -0.11014777 0.2707901 -0.0953875 0.18367468 0.34036383 -0.091356516 -0.15200867 0.23100248 -0.115270756 -0.09478856 -0.11353259 -0.10023876 
-0.04492972 0.22470099 -0.051318478 0.020778123 -0.027159657 0.14574967 0.023325622 0.18393 0.21214512 0.018780997 -0.053755213 0.1299429 -0.040053535 -0.025697308 -0.033312023 -0.034607425 
0.0820589 -0.04582352 0.04106423 0.6310196 -0.10482728 -0.18695115 0.62036455 0.48177326 -0.04921774 0.58276004 0.06483488 -0.15928692 0.09390486 -0.089471765 -0.1058907 -0.09191133 
-0.25539482 0.71205235 -0.28140074 0.2495969 -0.36566362 0.07719902 0.2512788 0.8050174 0.65184164 0.23805504 -0.30262572 0.054365862 -0.2079464 -0.29928818 -0.3670675 -0.31256637 
0.07352221 0.010303493 0.08259486 -0.007386168 0.17255159 0.14067629 -0.007775463 -0.03877824 0.0130337095 -0.005731435 0.08840649 0.1274594 0.05828266 0.14456084 0.17390357 0.15084738 
0.010400918 0.06608157 0.00083799614 0.17333123 -0.069725215 -0.043809265 0.17159739 0.19072834 0.0612071 0.16158603 0.0044850223 -0.036361918 0.01692054 -0.05454784 -0.069357984 -0.060380593 
-0.006631639 0.30013433 -0.00670845 -0.006962622 -0.0060302434 0.18779936 -0.007132268 0.19274034 0.2823764 -0.0056518717 -0.007510854 0.16117558 -0.007182911 -0.003758172 -0.008738321 -0.0077554686 
-0.09197557 0.4612158 -0.096101485 -0.065522306 -0.077826306 0.2751634 -0.06187774 0.29276735 0.432301 -0.061783794 -0.105004065 0.23075417 -0.078962624 -0.0669585 -0.07741584 -0.06678785 
0.042543232 0.085049905 0.060042504 -0.12567033 0.23085168 0.26540884 -0.12383786 -0.07144252 0.08199415 -0.12024847 0.06087509 0.23838775 0.025675405 0.19373792 0.23351179 0.20184249 
0.08161575 0.04181375 0.08477365 0.054524314 0.105061986 0.08107006 0.05394798 0.04757952 0.036924545 0.054901127 0.09384685 0.073568456 0.070849165 0.088273376 0.10804988 0.094497934 
0.037755832 0.0039375876 0.048217773 -0.031191867 0.08034687 0.07325368 -0.03214394 -0.043635212 0.006864924 -0.029267782 0.05147558 0.06749624 0.034123622 0.0710069 0.081680655 0.070427656 
0.4430151 -0.4135496 0.4422704 0.46588078 0.4524087 -0.040692415 0.43563145 -0.1411175 -0.3895788 0.41969332 0.5118359 -0.0151676815 0.38065982 0.38166103 0.46023446 0.40225253 
0.015425521 0.101249255 0.020688435 -0.04669541 0.0885801 0.16586445 -0.044717904 -0.008693463 0.09855526 -0.043807812 0.022731313 0.14325377 0.01053273 0.07196137 0.08907701 0.07764193 
-0.16632023 0.58714473 -0.15698662 -0.15982708 -0.0927058 0.4432259 -0.15106657 0.31557316 0.54725134 -0.15148865 -0.18206297 0.36751446 -0.14206393 -0.08219738 -0.09833929 -0.094602324 
0.21549433 0.257228 0.21416113 0.15571825 0.2519947 0.28262496 0.15266988 0.29597354 0.23795079 0.14747463 0.23965861 0.25039676 0.18497165 0.20709836 0.2544454 0.21604306 
0.68252736 -0.35673654 0.7062664 0.03649458 0.8414582 0.40726835 0.025913527 -0.515879 -0.32723516 0.03812229 0.75706625 0.3864408 0.5620542 0.7120072 0.87325746 0.7579922 
0.017082542 0.11629327 0.024780251 -0.070058264 0.06582051 0.1367688 -0.06840555 0.01963086 0.111950584 -0.066647 0.025373278 0.123233594 0.006039094 0.056327555 0.066598356 0.057505976 
-0.113481954 0.16901895 -0.12496256 0.06071831 -0.091186285 0.121912874 0.063667856 0.14148293 0.16193603 0.055962972 -0.13250042 0.10250598 -0.08968528 -0.08070823 -0.09337708 -0.08917703 
-0.13950041 0.21028529 -0.14961755 0.013677782 -0.08566891 0.1743345 0.017407944 0.13717821 0.20129642 0.010796148 -0.16070874 0.14820072 -0.1117984 -0.07665185 -0.089067705 -0.084878765 
-0.20862779 0.33654964 -0.19824666 -0.18349239 -0.037372936 0.30202988 -0.17413501 0.09713648 0.32047525 -0.17961267 -0.22855036 0.2581691 -0.17681806 -0.031860396 -0.04021655 -0.040290643 
0.09020057 0.18726054 0.111294195 -0.127633 0.18185057 0.29920194 -0.12768637 -0.040177505 0.18095924 -0.11434219 0.11599403 0.26178092 0.07497615 0.15351199 0.182952 0.1615641 
0.090231284 -0.019201474 0.09628872 -0.01645437 0.15483922 0.09652248 -0.015356744 -0.052045666 -0.016711649 -0.008812211 0.10574786 0.087983966 0.074627995 0.12632145 0.15529086 0.13309917 
0.0040358724 0.16010125 0.0066250833 -0.07565468 0.084628396 0.220483 -0.07245451 0.04979563 0.1540438 -0.074403755 0.007829608 0.19093096 -0.00047135758 0.07161209 0.08437421 0.07520791 
0.05393062 0.27146167 0.07061125 -0.1508335 0.22194478 0.3988274 -0.15226434 0.046716195 0.26281148 -0.14160365 0.07325841 0.34193417 0.037492156 0.18143305 0.22290276 0.19039392 
-0.086122155 0.20967302 -0.10529759 0.2004923 -0.172923 0.058560364 0.19894789 0.2903787 0.19759873 0.18710631 -0.108269446 0.0423199 -0.059008587 -0.14711955 -0.17493452 -0.15548013 
-0.046163153 0.15546572 -0.05237781 0.004140211 -0.05941943 0.108149186 0.005547779 0.10345023 0.14819734 0.004736055 -0.05240794 0.09092195 -0.037246026 -0.04976912 -0.059390035 -0.052995864 
-0.06922973 0.16625619 -0.06604023 -0.06516919 -0.016592754 0.14337224 -0.06374069 0.07609964 0.15879714 -0.0626014 -0.07336462 0.12428274 -0.060807027 -0.014145287 -0.018755512 -0.0143590355 
0.12515529 -0.020719688 0.1400769 -0.09466185 0.26392537 0.13736124 -0.0950698 -0.07830398 -0.024204511 -0.08772023 0.1506832 0.12988742 0.10506631 0.21702614 0.2673321 0.22985289 
-0.11841817 0.30230123 -0.12059849 -0.042629056 -0.11125623 0.14885597 -0.040711626 0.21789531 0.28108573 -0.041673813 -0.13269055 0.12526858 -0.09957176 -0.09104415 -0.11222886 -0.09861129 
0.055378973 0.017217726 0.06795542 -0.09163079 0.14454858 0.14170758 -0.09181176 -0.10017141 0.018900845 -0.08700753 0.0702322 0.12695327 0.03789994 0.12005238 0.14567852 0.1264729 
-0.06796968 0.4207946 -0.0688147 -0.031784624 -0.029597135 0.3229058 -0.030789658 0.2922262 0.39543343 -0.03338276 -0.07565299 0.28378475 -0.055326264 -0.024442175 -0.025809107 -0.024371326 
-0.27562532 1.0385423 -0.296631 0.07575213 -0.3668663 0.44537538 0.07824591 0.9176009 0.9654514 0.07282692 -0.32166114 0.3538235 -0.22736394 -0.30046627 -0.36851805 -0.31764168 
-0.040325105 0.14183515 -0.048334666 0.08151506 -0.09383675 0.035110697 0.08248324 0.1777906 0.13285701 0.07671941 -0.046959367 0.02734723 -0.035917815 -0.07698191 -0.09384709 -0.0812295 
-0.14857122 0.46819833 -0.16054486 0.037609514 -0.21899232 0.13759832 0.037548512 0.41212967 0.43456787 0.035594404 -0.17633787 0.10995288 -0.11864268 -0.18218504 -0.2205752 -0.18536878 
0.33671457 -0.31591982 0.33426365 0.22141519 0.33680898 -0.05531081 0.2139644 -0.17455389 -0.29501918 0.2119761 0.3786518 -0.038130756 0.29567567 0.28270248 0.34048823 0.29419005 
-0.07910589 0.21337865 -0.074482605 -0.065341055 -0.034998048 0.14514603 -0.06672691 0.10465664 0.20191756 -0.062156834 -0.084535725 0.12385524 -0.06913153 -0.02782209 -0.034576476 -0.033994902 
0.023117868 0.19806059 0.04004451 -0.17128435 0.17722179 0.34150514 -0.16698873 0.03672793 0.19223876 -0.1628692 0.03858563 0.30132815 0.008910755 0.1524168 0.17997675 0.15973036 
-0.025709977 0.17921817 -0.025087565 -0.05816953 -0.021796219 0.13078977 -0.05708621 0.08622076 0.1693188 -0.052592635 -0.029311096 0.1115979 -0.03579631 -0.016905254 -0.022804651 -0.016843911 
0.22902103 -0.006633425 0.22057416 0.4384966 0.2671712 0.29451975 0.42577037 0.1588108 -0.0020399746 0.38961044 0.25551242 0.2586035 0.20332916 0.22457585 0.2669677 0.23608157 
-0.10233776 0.33092335 -0.107042946 0.0230588 -0.10327077 0.1764031 0.025999395 0.29525125 0.31259152 0.022455877 -0.11745935 0.1549533 -0.08488689 -0.089023575 -0.10898264 -0.09748067 
0.100850575 0.026778372 0.109986775 -0.07855983 0.23539008 0.23887904 -0.0752421 -0.07784036 0.028153216 -0.07418726 0.119868346 0.21232207 0.08431179 0.19373068 0.23489277 0.20383663 
0.0287009 0.6695665 0.0076283347 0.23617403 -0.026735587 0.5266828 0.23515369 0.5965923 0.6317432 0.224577 0.019025974 0.43317273 0.03261102 -0.023748953 -0.030247264 -0.029272247 
-0.025711669 0.1268699 -0.03289334 0.080666624 -0.035261165 0.0644382 0.08116823 0.15666649 0.11991898 0.07697748 -0.032639306 0.05369522 -0.02034036 -0.029125687 -0.033823993 -0.030305997 
0.18067148 -0.15195753 0.19600384 0.009907814 0.27523836 0.07579088 0.010453764 -0.2078019 -0.14228311 0.010621288 0.21226017 0.073625 0.14870815 0.228648 0.27613813 0.24231628 
-0.047665566 0.15884231 -0.044690624 -0.04804386 -0.0331274 0.11819161 -0.04748036 0.08237565 0.15123257 -0.045196056 -0.050141998 0.104485035 -0.040346704 -0.02863334 -0.03580794 -0.025647694 
-0.0042678784 0.055322327 -0.016340565 0.13127382 -0.09201922 -0.025699671 0.13304129 0.13972525 0.05172482 0.128173 -0.012787707 -0.025378836 0.0015391614 -0.080675066 -0.095747404 -0.07912692 
0.0024496003 0.21488221 -0.008487904 0.11367905 -0.045533694 0.058107838 0.111105055 0.25696653 0.20124795 0.106750235 -0.004581166 0.049477838 0.0048838523 -0.039647985 -0.04847004 -0.043680407 
0.11825842 0.29861817 0.12360697 -0.015565689 0.14873965 0.29167378 -0.016629217 0.17018612 0.28358555 -0.013403968 0.13607621 0.26630425 0.10114141 0.12490767 0.14782093 0.12833345 
0.046487417 0.048480324 0.031541396 0.26660934 -0.048812672 0.013245889 0.26488227 0.20216365 0.046709467 0.2520578 0.043245707 0.009397379 0.052617747 -0.041965883 -0.046501756 -0.04400421 
0.1660568 0.0760048 0.15994447 0.094426155 0.12498917 0.18064071 0.09558096 0.10839135 0.07019467 0.08583781 0.17976019 0.157074 0.1501307 0.11014178 0.12612917 0.1140463 
-0.055216774 0.22151801 -0.047431942 -0.10719811 0.025260925 0.23198134 -0.10126745 0.043883197 0.21162215 -0.10115585 -0.056757897 0.19976102 -0.052105144 0.02067538 0.023597931 0.019026773 
-0.040036865 0.25051123 -0.077265896 0.4950854 -0.2629926 -0.085643984 0.49110538 0.6291894 0.23062924 0.46123406 -0.07124481 -0.08201604 -0.00915674 -0.21795993 -0.2682374 -0.23358546 
0.64956987 -0.52552795 0.71100426 -0.45068032 1.1440954 0.53467447 -0.45597884 -1.0457766 -0.47271502 -0.42868993 0.7726481 0.5142687 0.51703715 0.9901813 1.0649858 1.0427696 
0.10855164 -0.12285995 0.097087786 0.18793559 -0.017802004 -0.15519461 0.18557453 0.024989083 -0.11780586 0.18047722 0.1145764 -0.13731763 0.097961806 -0.012961689 -0.016946804 -0.011919833 
-0.3008162 1.1669298 -0.30327305 -0.06230033 -0.286796 0.85379875 -0.056619804 0.8165883 1.1045051 -0.060985167 -0.3395808 0.7460031 -0.2545729 -0.23986174 -0.2928856 -0.25457883 
-0.017669069 0.089460194 -0.0173365 -0.055878073 0.05054159 0.13948397 -0.052827798 0.022474462 0.0870059 -0.054468382 -0.01777333 0.12518184 -0.013515644 0.042399056 0.05164867 0.0427802 
0.17088673 -0.12049424 0.15973969 0.3016065 0.16125236 0.0025269517 0.2881659 0.09757154 -0.11465346 0.2839125 0.19376105 0.004336564 0.15473837 0.13187814 0.16057299 0.13505793 
0.100158334 -0.013867787 0.09677018 0.11461627 0.02594186 -0.010505093 0.11294517 0.034202002 -0.013123193 0.1088932 0.11036034 -0.006459083 0.09064595 0.024452403 0.026040595 0.02494732 
0.16612199 0.009104116 0.1778962 0.038236916 0.2393355 0.17417292 0.036274135 -0.031428117 0.0118462695 0.039871883 0.19718288 0.16396977 0.1409662 0.1956661 0.24010329 0.20734406 
0.055511847 -0.06880078 0.04677843 0.15135312 -0.024963474 -0.08772963 0.14773014 0.056666944 -0.06543515 0.14328109 0.05629854 -0.08170119 0.054003973 -0.019073034 -0.022337805 -0.024241365 
0.07055345 0.13426407 0.057946313 0.27912623 -0.009697317 0.06938889 0.26861486 0.28760865 0.12744056 0.24778517 0.0750016 0.05506638 0.07415074 -0.0041637425 -0.00730275 -0.0006031587 
0.47661984 -0.22671826 0.44928464 0.6947628 0.22222228 -0.0349815 0.6994728 0.23909208 -0.21553157 0.6739603 0.5335781 -0.024980104 0.42288184 0.18805332 0.22669885 0.20016289 
0.25072777 -0.23698898 0.26917154 -0.07790339 0.4118471 0.13768809 -0.081991054 -0.2891158 -0.21799931 -0.07165622 0.29341537 0.13075694 0.20699568 0.3423234 0.41962194 0.3615538 
0.22564298 -0.19350353 0.16884051 0.8910385 -0.12748055 -0.25992668 0.93319565 0.4731748 -0.1835262 0.84225243 0.2441987 -0.21038349 0.23076491 -0.10545456 -0.1276593 -0.1109331 
0.082229085 -0.040870484 0.074223265 0.2192001 0.04359462 -0.011624893 0.21484096 0.117852256 -0.040252533 0.21099839 0.088202156 -0.0048969174 0.07708911 0.037617635 0.04510537 0.039271638 
0.0952314 -0.083949566 0.08385472 0.21147573 0.008482628 -0.0834568 0.20326535 0.073610194 -0.080500476 0.19841406 0.09925617 -0.07241432 0.08749017 0.010075618 0.011649007 0.010579099 
0.2077558 0.047248803 0.21348648 0.106616184 0.17122905 0.059460618 0.10522541 0.08606483 0.044413418 0.10426842 0.23905477 0.05629129 0.18429565 0.14529596 0.17401655 0.15649311 
0.5752818 -0.49155825 0.5765201 0.32543334 0.5051858 -0.07835576 0.3066177 -0.23893383 -0.46514037 0.31264606 0.65549475 -0.04948815 0.4873498 0.41573042 0.5178245 0.44029453 
0.09637195 -0.07761071 0.10606715 -0.011946992 0.1448523 0.05710447 -0.012034676 -0.0857508 -0.071339056 -0.0105594965 0.11416431 0.050358217 0.080415905 0.12172536 0.14640932 0.12760527 
0.12466838 0.14070322 0.116486095 0.11513604 0.15187557 0.04485394 0.112047866 0.24547803 0.12030516 0.110062145 0.1335611 0.0429344 0.10223091 0.12582813 0.14910087 0.12524708 
0.16861655 0.0036059776 0.16110031 0.21842213 0.15454738 0.12767704 0.20635699 0.08994119 0.0050750244 0.1960587 0.18575613 0.11343099 0.1496544 0.13315426 0.1556204 0.13759075 
0.17156859 -0.12703249 0.14643407 0.43917206 -0.0018634531 -0.23381451 0.42804173 0.22597347 -0.12369157 0.41427928 0.17671014 -0.20776588 0.1641472 -0.0029207391 -0.0031435108 -0.0032916414 
-0.0040566553 0.3466796 -0.008395259 0.027855724 -0.0019673207 0.24446468 0.025537195 0.28183734 0.32149598 0.024367012 -0.005901287 0.2063744 -0.004728262 -0.0009920016 0.0015451898 0.00490186 
0.04195837 0.06330629 0.038110282 -0.0454143 0.11309281 0.134245 -0.04611619 0.011072366 0.061140463 -0.043181837 0.049954712 0.11910151 0.03193079 0.0977706 0.113345966 0.097262494 
0.044692833 0.080536105 0.050107814 -0.083501324 0.15227082 0.17763029 -0.08307868 -0.056630082 0.078658074 -0.07754362 0.05545944 0.15698999 0.03091279 0.12724406 0.15377228 0.13610053 
0.006147767 -8.319156e-05 -0.036806345 0.60243475 -0.2162702 -0.114031665 0.62273735 0.45382592 -0.007239482 0.5757939 -0.018862948 -0.10616437 0.029377246 -0.175036 -0.22260669 -0.19078405 
0.25292552 -0.3130666 0.1878924 0.986546 -0.26063517 -0.55891937 0.97420555 0.58784235 -0.305299 0.9086131 0.27501 -0.46597406 0.2610464 -0.21025214 -0.26296702 -0.22152603 
0.007052706 0.08290144 -0.022072356 0.35904646 -0.18506765 -0.08870752 0.3500171 0.34704086 0.078684196 0.33188015 -0.010580019 -0.08392006 0.018319685 -0.15956505 -0.18893175 -0.16218342 
0.020024832 0.084031455 0.022237295 -0.03653231 0.025424406 0.08969706 -0.03745298 0.033334706 0.079601586 -0.03451893 0.023493197 0.07978375 0.0046577565 0.023715489 0.022433445 0.024142392 
0.22008942 -0.21476427 0.19940084 0.43431234 -0.021713497 -0.24631754 0.43147302 0.11102538 -0.20407197 0.40862978 0.23502173 -0.21686426 0.20259331 -0.017947456 -0.020002108 -0.015817318 
0.06498192 0.016020186 0.07420357 -0.04760242 0.13865699 0.124135986 -0.047098603 -0.034391116 0.013924074 -0.044215914 0.07888188 0.1137897 0.052394822 0.11810384 0.13936323 0.11897339 
0.11970061 -0.053153865 0.11753668 0.10754698 0.038354594 -0.03172583 0.10411203 0.0029303003 -0.049388163 0.10314987 0.1319418 -0.025368907 0.105155095 0.034349337 0.038531642 0.03642588 
0.17844702 -0.10258028 0.1924342 -0.04608873 0.2681376 0.1558978 -0.049499124 -0.15895636 -0.094398335 -0.04109751 0.20783076 0.1469194 0.14833988 0.22666834 0.26908296 0.23575021 
0.053702444 0.3095728 0.046991356 0.11386602 0.013731051 0.21493748 0.10976045 0.25975898 0.2969586 0.109889396 0.056325562 0.18785033 0.0535267 0.01005263 0.010816226 0.009410036 
0.3373481 -0.23549843 0.3290732 0.35089362 0.28287375 0.01324436 0.34197837 0.02038753 -0.21924846 0.32905033 0.37981173 0.017340736 0.289367 0.23492342 0.28661522 0.24746183 
0.025909467 0.034053836 0.035784405 0.06876435 0.07154619 0.05680517 0.0680105 0.06343132 0.032120604 0.06554952 0.032552805 0.056480113 0.023005351 0.061455175 0.074878246 0.06132411 
0.080769435 -0.07247145 0.08239102 0.035700846 0.12503666 0.04942094 0.035298802 -0.045591287 -0.066190355 0.034940597 0.091929264 0.044870906 0.0688751 0.10278374 0.1257178 0.10771246 
-0.043641783 0.53599125 -0.044813562 0.04174128 -0.09944895 0.22799507 0.04023376 0.39837167 0.49621952 0.04162533 -0.0459153 0.18679418 -0.03175577 -0.07971494 -0.098142736 -0.08294839 
-0.19201012 1.1503001 -0.18053848 -0.16123231 0.03750203 0.8005631 -0.14954478 1.1188878 1.2005658 -0.16634609 -0.20053193 0.688012 -0.17853193 0.030647187 0.041172195 0.03882608 
-0.044737104 0.18033734 -0.06447561 0.18710594 -0.18597823 -0.06730055 0.1861661 0.2966336 0.16605286 0.17835127 -0.06279037 -0.06409495 -0.022807367 -0.15367147 -0.18765879 -0.1621806 
0.1646205 -0.16190718 0.1691146 0.03140564 0.19800176 0.040600892 0.027024606 -0.14991428 -0.14962617 0.031373788 0.18824334 0.039904084 0.13978353 0.16957593 0.2011298 0.1750645 
-0.025476798 0.13263915 -0.04179269 0.20941013 -0.0879047 -0.020004958 0.20883659 0.26228997 0.12363532 0.20023343 -0.038666446 -0.021898028 -0.006982134 -0.07683569 -0.08811329 -0.08397483 
-0.10730728 0.33444372 -0.1329961 0.30424997 -0.2981373 0.06107981 0.29404718 0.5519128 0.3124541 0.26165274 -0.14109728 0.048651937 -0.07466454 -0.24322405 -0.30254886 -0.25866887 
0.0952265 0.32946837 0.11731741 -0.118265755 0.21678895 0.43897304 -0.11545118 0.07797159 0.31581917 -0.10786774 0.12403529 0.37215596 0.070611276 0.1845898 0.21859345 0.19458148 
0.19280948 0.027071252 0.16930082 0.4122311 0.036768183 -0.110827476 0.40844265 0.32574034 0.01771276 0.38502744 0.2017758 -0.0966669 0.18242432 0.03531785 0.0417622 0.03899158 
-0.027396144 0.4381572 -0.023113323 -0.04077084 0.042426262 0.38256884 -0.03526272 0.19473489 0.41694635 -0.035755597 -0.027469737 0.3275725 -0.025966432 0.036927756 0.044224866 0.038865507 
0.0890813 0.26305807 0.08469448 0.17184094 0.0048199925 0.20996465 0.16492616 0.28648686 0.25111005 0.15477844 0.0970033 0.1879929 0.08173008 0.0055603106 0.0043451306 0.0047080005 
-0.39705056 0.80780625 -0.4074007 -0.0234946 -0.48580584 0.34892172 -0.0141014205 0.67851645 0.7526672 -0.022974778 -0.4540718 0.28175145 -0.33341217 -0.39750785 -0.49431872 -0.42140216 
-0.022499375 0.068529174 -0.016935356 -0.026048293 0.019381132 0.07481041 -0.024603516 0.035443168 0.06553729 -0.026856203 -0.016559798 0.065046504 -0.0061900276 0.015788652 0.019046672 0.014180466 
-0.0360737 0.2052255 -0.026761714 -0.04880748 0.092932604 0.236719 -0.046504144 0.1281624 0.19690096 -0.047605217 -0.031416494 0.21067731 -0.03105566 0.07776207 0.093388334 0.083905496 
-0.0585523 0.16809581 -0.06684665 0.05001654 -0.13884284 0.05209721 0.05053157 0.18496507 0.15954113 0.046520412 -0.07193009 0.045936722 -0.044670206 -0.1198692 -0.14072348 -0.12234202 
0.06547468 0.04709063 0.06676115 0.025428906 0.112374395 0.13400646 0.025865072 0.02342885 0.047035795 0.023954408 0.07696452 0.12008151 0.061576482 0.093969315 0.11262062 0.10465408 
-0.0023212796 0.13012744 0.009079118 -0.12877204 0.12068631 0.22162789 -0.12603515 -0.03170385 0.1257153 -0.12172648 0.0064158267 0.19409455 0.00097020785 0.10162061 0.120945975 0.10408907 
0.105844684 -0.038516585 0.11678011 -0.10786024 0.2713646 0.22521198 -0.103884906 -0.17420915 -0.03171979 -0.102868736 0.12654778 0.20527434 0.084466964 0.21960692 0.27088356 0.22982414 
0.13838059 -0.086422995 0.17508176 -0.30986843 0.5156772 0.4140402 -0.3076434 -0.45352387 -0.073389076 -0.29301664 0.18000944 0.37021223 0.11652806 0.41667184 0.52107394 0.43979782 
0.07631796 0.14598897 0.10225025 -0.09843425 0.30519494 0.42470422 -0.09181151 -0.20336072 0.14273347 -0.091391794 0.10059494 0.35542127 0.07480532 0.2564068 0.30831054 0.26877317 
-0.13092 0.44521782 -0.12824135 -0.09974837 -0.15836841 0.23488185 -0.09310466 0.29624513 0.417955 -0.094133206 -0.14548707 0.19376008 -0.111788124 -0.13486901 -0.1618443 -0.14457692 
-0.22813964 0.6010198 -0.23029529 -0.07739752 -0.24729776 0.28418648 -0.07164588 0.4210114 0.5587271 -0.07533163 -0.25796762 0.2342904 -0.19287162 -0.20977983 -0.24917154 -0.21818766 
0.053896524 0.29602724 0.048291724 0.10623792 0.018075563 0.14064008 0.1063997 0.28433797 0.27642038 0.100419484 0.05989886 0.11912414 0.051020764 0.018542685 0.01845025 0.013109684 
0.012762747 0.030811802 0.021489788 -0.09025519 0.13170269 0.1642552 -0.08831582 -0.07526066 0.031619594 -0.088416494 0.02095953 0.14998542 0.009566876 0.107748605 0.13238634 0.11142815 
0.09424979 0.046247117 0.10158224 -0.009927305 0.23196508 0.20822631 -0.0074429214 -0.09113886 0.046033014 -0.009245002 0.11171546 0.1839521 0.07856571 0.18223444 0.23552154 0.19291268 
0.35166115 -0.023791404 0.3908252 -0.17036468 0.72523844 0.43784267 -0.17000218 -0.29929158 -0.012735015 -0.15983959 0.42089957 0.38660765 0.27994224 0.5790715 0.7354563 0.6118205 
-0.028748633 0.22655897 -0.035369307 0.007852423 -0.06370707 0.09471209 0.007689754 0.18390663 0.21228786 0.007068828 -0.035796132 0.07923227 -0.023463888 -0.050343532 -0.060071997 -0.049854375 
-0.17173813 0.96159405 -0.1989459 -0.1302727 -0.1181839 0.65319467 -0.123293385 0.52600926 0.894502 -0.121922955 -0.2073846 0.52687323 -0.1373133 -0.09811168 -0.11404257 -0.09929219 
0.027652234 0.12673108 0.023063056 0.055740755 0.047533885 0.07146189 0.05678127 0.12250285 0.11998097 0.05467154 0.029306337 0.06956493 0.028166516 0.03779984 0.04803544 0.039841447 
-0.0024044965 0.18040065 -0.037268233 0.37482697 -0.23241022 -0.053379793 0.37070957 0.41088554 0.17038189 0.35412347 -0.024146596 -0.04966826 0.015120195 -0.1966863 -0.23427352 -0.20846924 
-0.120367154 0.4467172 -0.123269536 -0.024150265 -0.19055586 0.27457774 -0.018167326 0.34568018 0.41795135 -0.02039472 -0.13520356 0.22471137 -0.10215159 -0.15266402 -0.18952146 -0.16209686 
-0.011203299 0.13133687 -0.011346916 0.03440074 0.024432546 0.08311369 0.035527527 0.15866436 0.1253082 0.03174046 -0.013042075 0.07928362 -0.011457519 0.021066265 0.027813762 0.02359387 
-0.23208758 0.5915671 -0.23860782 -0.079366766 -0.366468 0.24539 -0.072930105 0.42935535 0.54956454 -0.0749336 -0.26543736 0.1996589 -0.19307515 -0.29786405 -0.36925873 -0.3150331 
-0.07267409 0.29876307 -0.06569901 -0.15730529 0.05069391 0.28844357 -0.15548843 0.11655197 0.2821822 -0.14793873 -0.07595082 0.24538504 -0.062871926 0.04106942 0.05041062 0.04254771 
0.32109112 -0.24608772 0.33919078 0.006612788 0.4776876 0.15775546 0.0063150646 -0.23019738 -0.22767434 0.0055193314 0.3725993 0.14664607 0.26874903 0.39055508 0.48303252 0.4116688 
-0.04719831 0.14562199 -0.036144983 -0.1060504 0.061859585 0.19546333 -0.10232519 -0.009546399 0.14117423 -0.10205091 -0.04292717 0.17193197 -0.042874057 0.05058889 0.060876556 0.050150093 
0.039016943 0.04363685 0.05652196 -0.13464709 0.22811827 0.21601868 -0.13021913 -0.1195654 0.044738967 -0.12845147 0.05633118 0.19395009 0.026532562 0.18825455 0.2318053 0.19798292 
0.15400168 0.17182195 0.12405619 0.43851155 0.013352689 0.16255672 0.433634 0.3717217 0.16547625 0.41586715 0.1525184 0.14093049 0.14794019 0.011590973 0.0117477095 0.008731103 
0.2736496 0.09259641 0.30734637 -0.1018854 0.4731502 0.352358 -0.100630276 -0.09207859 0.09195342 -0.09637141 0.32882515 0.30397713 0.21830836 0.37587175 0.48355693 0.40147763 
0.18143864 0.058338106 0.18782453 0.0147318235 0.16048555 0.071014106 0.01783304 0.0883095 0.05440451 0.016208317 0.20485361 0.0664741 0.1637627 0.1359077 0.15985203 0.14133704 
0.12226801 0.26242575 0.14791587 -0.22089484 0.39555055 0.5548231 -0.21975175 -0.025812084 0.25357816 -0.20607689 0.15373398 0.47564778 0.09212496 0.324529 0.4027098 0.34325337 
0.52077794 -0.31881604 0.5727402 -0.34632185 0.980821 0.44836462 -0.34476694 -0.5810331 -0.28860125 -0.32208526 0.62611526 0.42477545 0.40840092 0.81683195 0.9323636 0.8672296 
0.24128549 -0.29741585 0.21597235 0.53177947 0.03154354 -0.35655805 0.52126485 0.17408572 -0.28914768 0.50435495 0.25412858 -0.28715676 0.22848351 0.029688211 0.031536352 0.024614869 
0.20423424 -0.01582937 0.22419022 -0.014647585 0.35382456 0.26954347 -0.011682553 -0.144068 -0.014269568 -0.0104245525 0.24117048 0.23980236 0.16824913 0.29056743 0.35954526 0.30717513 
0.18646345 -0.13313414 0.18963629 0.21615206 0.1355025 -0.09650053 0.20979239 0.0074571073 -0.12768538 0.20648292 0.20639451 -0.07912025 0.16783614 0.11405304 0.13925944 0.120574564 
0.4611412 -0.36336535 0.50611025 -0.3903784 0.9217956 0.47579822 -0.3887359 -0.6799693 -0.32394484 -0.36478725 0.5496649 0.4446352 0.35306993 0.7950736 0.9492121 0.8493843 
0.27279022 0.07050899 0.2830085 0.0804618 0.29720023 0.21949938 0.078147754 0.026724832 0.06909721 0.078330114 0.31285536 0.19608682 0.23133808 0.24712579 0.3039792 0.26315954 
0.04245258 0.096177615 0.065928385 -0.21740471 0.21532391 0.2659238 -0.21422055 -0.11202167 0.09564132 -0.20448393 0.06249924 0.23877025 0.025651066 0.17795655 0.21821289 0.18945582 
0.053377263 -0.039339654 0.043963585 0.11578587 0.01882828 -0.061021693 0.11474914 0.04704416 -0.037224196 0.11047427 0.053525817 -0.05345873 0.0513815 0.0175852 0.018290259 0.017254777 
0.073470384 -0.022130871 0.08428023 -0.06379495 0.16332343 0.12262322 -0.06490094 -0.08932225 -0.018339304 -0.059927367 0.08990414 0.11097529 0.05558134 0.13692908 0.16449012 0.14149596 
0.33458412 -0.2837445 0.3750167 -0.29329762 0.7075146 0.3398802 -0.2940375 -0.5503611 -0.25896862 -0.2753964 0.40230834 0.32051998 0.26326233 0.5756347 0.7148718 0.6048926 
0.03860308 0.14519307 0.04997354 -0.06604848 0.08705532 0.18770817 -0.063088216 0.00094053464 0.14039275 -0.060217276 0.050493583 0.16356571 0.030435277 0.07365135 0.086952716 0.078090996 
-0.13441588 0.3804167 -0.13305613 -0.08504031 -0.13809237 0.22903422 -0.08290252 0.22303005 0.35893688 -0.078791775 -0.14857055 0.19426575 -0.11831391 -0.11150326 -0.13750084 -0.11600294 
-0.27877438 1.1120149 -0.26609814 -0.38774055 -0.14682223 0.87359583 -0.3747689 0.5114074 1.0542107 -0.36987808 -0.30396333 0.7276314 -0.24487625 -0.12085555 -0.14953145 -0.13068935 
0.339834 -0.16732728 0.3260202 0.3887776 0.24739629 0.06274724 0.38014504 0.061429605 -0.15299489 0.37260616 0.37621182 0.057995502 0.30480736 0.20385541 0.24704829 0.21878341 
-0.03826563 0.20209907 -0.049800213 0.12190651 -0.14921533 0.0015445292 0.12088426 0.25011352 0.1894354 0.118281 -0.05101098 -0.004456257 -0.024772003 -0.12534069 -0.15242986 -0.13489446 
0.15014714 0.0149371065 0.1582415 0.08376698 0.14329223 0.09759744 0.0800322 0.00794876 0.015601609 0.08175049 0.173026 0.087944426 0.12927261 0.12484491 0.14630799 0.13064042 
0.18629459 0.1852576 0.23285478 -0.49089208 0.5937828 0.69785094 -0.4904244 -0.30493867 0.1834774 -0.45980197 0.23935382 0.6089141 0.13042662 0.4712062 0.5958921 0.5045521 
0.046422515 0.17501839 0.044030834 0.04971235 0.0646419 0.19368646 0.047794104 0.16310316 0.16563973 0.044046536 0.04951654 0.17293404 0.040183906 0.056072775 0.06532429 0.06052446 
-0.092002906 0.36372966 -0.07297279 -0.2673263 0.18491247 0.5342508 -0.25929692 0.013524038 0.35135815 -0.25818136 -0.09339717 0.45968637 -0.08859712 0.15325175 0.18318002 0.15898624 
0.047322698 0.20231757 0.07101545 -0.2080665 0.25636914 0.3525847 -0.20165598 -0.055134766 0.1957473 -0.19830945 0.06889226 0.30897072 0.028989414 0.21616648 0.2573381 0.22987962 
0.02816846 0.012858871 0.03899746 -0.10241226 0.124981984 0.12499559 -0.10173811 -0.09469598 0.014381276 -0.09740059 0.038344387 0.11328517 0.021279171 0.103925794 0.12530379 0.10778558 
0.060517535 0.069710605 0.06597093 -0.11419961 0.14430317 0.17838274 -0.111308575 -0.0602741 0.0675731 -0.10447094 0.07149726 0.15934752 0.03705201 0.12270098 0.14688382 0.1279892 
-0.07254972 0.41848528 -0.07115174 -0.054177813 -0.05190335 0.27531067 -0.051598214 0.2658014 0.39348432 -0.04776872 -0.07827887 0.22876643 -0.059259627 -0.04224189 -0.052119114 -0.04303794 
-0.10198744 0.20294224 -0.108393155 -0.034852132 -0.071258545 0.13620791 -0.033708017 0.14510003 0.19315644 -0.031091543 -0.11765609 0.12024922 -0.084627494 -0.05898071 -0.0730221 -0.06840567 
-0.047157057 0.39303923 -0.05245859 0.0405045 -0.15288363 0.13262592 0.041366182 0.32540104 0.3645802 0.039943624 -0.056656867 0.11081431 -0.036426574 -0.123328276 -0.15313995 -0.12653156 
-0.0528511 0.19098136 -0.056050677 0.033173043 -0.06128807 0.06747967 0.035339426 0.16427986 0.18112807 0.031937752 -0.060608987 0.05493848 -0.04367677 -0.052104603 -0.06186248 -0.051662073 
0.4980723 -0.41913313 0.5329415 -0.11579548 0.786628 0.23303828 -0.115055665 -0.4778059 -0.38658237 -0.11064095 0.58248967 0.22207315 0.4103387 0.63351446 0.782245 0.6756731 
-0.022122342 0.21521099 -0.014273965 -0.07648672 0.03968392 0.18545818 -0.080636166 0.09122286 0.2049691 -0.07353901 -0.020086227 0.16308956 -0.0153306825 0.03635312 0.041452706 0.03268189 
-0.073372655 0.19938676 -0.06880602 -0.018282417 -0.025483858 0.11483676 -0.01634591 0.14090249 0.18983962 -0.011429242 -0.08103099 0.09827699 -0.057858042 -0.024697453 -0.029894806 -0.03141157 
0.13362558 -0.022898685 0.15955675 -0.22815475 0.38396618 0.2897503 -0.22607319 -0.23856252 -0.017241279 -0.21418978 0.16715272 0.26218748 0.10251107 0.30609438 0.3802931 0.32105455 
0.04774882 0.0070117884 0.059573233 -0.072810315 0.1894841 0.16626279 -0.07249342 -0.09096089 0.009568657 -0.06776539 0.061872706 0.14877404 0.04208077 0.15536927 0.18846646 0.16178948 
-0.03605455 0.22103953 -0.015988834 -0.21102342 0.16043039 0.3746848 -0.20938583 0.01480689 0.20600699 -0.19893624 -0.026712267 0.32968977 -0.033651672 0.13262098 0.15912648 0.13298969 
0.30121592 -0.13747017 0.27101213 0.62005913 0.077074155 0.041116014 0.6024067 0.24877474 -0.11874651 0.5778494 0.32533702 0.040398814 0.2818225 0.058149338 0.07318438 0.06528122 
-0.027081802 0.28584692 -0.024871735 -0.07054232 -0.0697345 0.20464422 -0.071826376 0.14756732 0.2700803 -0.0638118 -0.028323667 0.17682159 -0.028472852 -0.05359358 -0.070541754 -0.05698667 
-0.10579214 0.41224757 -0.09125159 -0.24205908 -0.019061152 0.3489961 -0.23779243 0.1513189 0.39326262 -0.2358108 -0.11107451 0.30043396 -0.099937014 -0.014542855 -0.021505905 -0.013943344 
-0.19826926 0.6326661 -0.22434783 -0.022424385 -0.23511216 0.3227777 -0.021015845 0.47393006 0.5894812 -0.022031719 -0.23781875 0.27247608 -0.15734516 -0.19616921 -0.23516035 -0.20363478 
-0.048306797 0.4045122 -0.051253155 -0.016882533 -0.12250202 0.2501975 -0.018676048 0.29220927 0.3787599 -0.015595489 -0.054842353 0.2127596 -0.036604658 -0.10314388 -0.1258298 -0.11413495 
0.19140548 -0.096259244 0.23598866 -0.43847194 0.6205585 0.4417068 -0.44294202 -0.49538922 -0.08653326 -0.4110629 0.24356848 0.39239997 0.14649153 0.49320084 0.6224129 0.52108747 
0.29433852 -0.19732013 0.27534866 0.48254904 0.15737213 0.025419978 0.46757415 0.12424748 -0.18037131 0.4589782 0.32481673 0.027637405 0.2678471 0.12730768 0.15592805 0.13765822 
0.012837926 0.10169683 0.018831022 -0.048391487 0.059755098 0.15426753 -0.045384698 -0.027885707 0.1005376 -0.04459688 0.019269546 0.13643408 0.0110070035 0.050618514 0.058778998 0.051777713 
0.031571552 0.17922711 0.04445079 -0.08597956 0.076226145 0.19631387 -0.08711896 0.04786852 0.17166245 -0.07782468 0.04373161 0.16921766 0.022798285 0.06467284 0.077221125 0.06792079 
0.05602217 -0.006590079 0.06144766 -0.06150887 0.12035192 0.08928197 -0.059555065 -0.07571272 -0.0045932764 -0.057795197 0.06712668 0.08188015 0.04899075 0.101931 0.1221372 0.10544701 
0.08454119 0.049317665 0.08586593 0.011688218 0.09696522 0.0732204 0.011083947 0.00907318 0.04781036 0.010374656 0.09472222 0.06343123 0.07347454 0.08124441 0.09661547 0.08255365 
0.12179562 -0.052474037 0.14030184 -0.077619635 0.23387735 0.13071571 -0.077524126 -0.1563697 -0.045754373 -0.07054103 0.1450886 0.11861851 0.103489555 0.19347669 0.23853524 0.20818165 
-0.063006505 0.27228582 -0.0699164 -0.014053522 -0.075458765 0.18224975 -0.0100597935 0.21873982 0.25946417 -0.011329554 -0.07306516 0.1565355 -0.060455963 -0.062092837 -0.07616642 -0.06495758 
-0.16933268 0.38195315 -0.1722638 -0.04980811 -0.13358106 0.18778369 -0.05753264 0.25551835 0.35859323 -0.048659317 -0.18995798 0.15790774 -0.13747013 -0.11225189 -0.13415073 -0.12279183 
0.2354691 -0.15970413 0.21559429 0.40059358 -0.01321055 -0.31446522 0.39609382 0.18230145 -0.15679814 0.38051888 0.2512357 -0.26903084 0.21731247 -0.00988585 -0.0139083015 -0.010032629 
-0.06556293 0.5274736 -0.06087281 -0.17549121 -0.0034772507 0.36647063 -0.17176421 0.26254165 0.4950254 -0.164781 -0.06986811 0.31272876 -0.059876148 -0.00086696976 -0.003498017 0.0011352804 
0.41192192 -0.35461596 0.43161678 0.017401097 0.62200606 0.23072344 -0.0014186308 -0.36437404 -0.3314873 0.016315738 0.47880384 0.20762262 0.34471032 0.5122387 0.6266499 0.53676033 
-0.029882232 0.3352235 -0.019682832 -0.11929268 0.10267988 0.30129284 -0.1181141 0.19515373 0.3140541 -0.11522934 -0.02521886 0.25673267 -0.03020553 0.08790551 0.10644379 0.09104272 
0.24722648 -0.37573865 0.17597097 1.105394 -0.35048762 -0.53795797 1.0493512 0.8272875 -0.34925798 1.0240598 0.2715413 -0.43671894 0.2683198 -0.27110618 -0.35986194 -0.29730472 
0.21140712 -0.1664042 0.16071695 0.8571022 -0.17595388 -0.13455991 0.8310369 0.42499125 -0.14465965 0.8065726 0.2067847 -0.11531823 0.21495038 -0.14884055 -0.17925969 -0.15492584 
0.1388759 -0.04663021 0.12005857 0.39777556 -0.054431774 -0.028188596 0.38521057 0.23240796 -0.03664397 0.36407664 0.14452504 -0.030393273 0.12625009 -0.038210683 -0.052178584 -0.040779404 
0.031925242 0.18496944 0.04093003 -0.03432522 0.119072616 0.21647584 -0.033275742 0.085060224 0.17715284 -0.034556866 0.041960407 0.19635059 0.023572078 0.09852237 0.12147054 0.104889534 
-0.07523256 0.70166576 -0.079319246 -0.042133722 -0.05174829 0.3241669 -0.049457077 0.46091333 0.6329581 -0.04048717 -0.084112614 0.26417863 -0.06316903 -0.045390926 -0.052491706 -0.049625643 
0.12487316 -0.09636934 0.13806859 -0.0787519 0.29133314 0.16033095 -0.0800724 -0.18203595 -0.08653054 -0.07574219 0.14925948 0.14694294 0.100292124 0.24709044 0.2908636 0.25228822 
0.05879637 -0.02280883 0.036416497 0.29662403 -0.11163253 -0.076632306 0.29847193 0.1984063 -0.020685969 0.2807038 0.05145732 -0.080106266 0.06069105 -0.09278283 -0.11214412 -0.098373406 
0.014208827 0.01828962 -0.008761047 0.2917062 -0.15275057 -0.10065131 0.28959736 0.23220798 0.017215827 0.27559766 -0.00010339457 -0.0953664 0.025982114 -0.12872836 -0.15196402 -0.13417289 
0.16560991 -0.07845237 0.17878391 0.016694376 0.25125748 0.105781406 0.015567479 -0.13085365 -0.07211704 0.01459954 0.19410436 0.10048339 0.13908835 0.20992267 0.25691783 0.22160286 
0.076741815 0.1666632 0.1008452 -0.17860506 0.28424466 0.3675695 -0.17457491 0.004675559 0.16048943 -0.17251457 0.0995044 0.3336315 0.05524933 0.2408831 0.2878228 0.25078812 
0.31999063 -0.17405544 0.3264512 0.11258929 0.25571257 -0.027034277 0.11050764 -0.07060367 -0.16420206 0.10963115 0.3610683 -0.018731976 0.28164604 0.2170541 0.2607183 0.22949362 
-0.017770732 0.35646147 -0.003974794 -0.08564179 0.060619652 0.29120895 -0.08371869 0.18441966 0.33858377 -0.08128141 -0.007817182 0.24248834 -0.021289837 0.05098211 0.0627778 0.055631094 
-0.011997473 0.16782248 -0.0063956385 -0.07222776 0.07382445 0.15908422 -0.0717652 0.0769508 0.15938285 -0.06698767 -0.008593468 0.13869116 -0.01703985 0.06056853 0.07608753 0.06849254 
0.04348509 0.017815951 0.030047407 0.19432938 -0.07670722 -0.06672684 0.19066201 0.1642455 0.016342929 0.18326035 0.03862321 -0.06354826 0.04087034 -0.06284407 -0.07866303 -0.066681534 
0.015107404 0.047275107 -0.004091136 0.31488448 -0.14796422 -0.08288227 0.31252593 0.24777861 0.04517148 0.29373777 0.0035392751 -0.080740996 0.02391673 -0.12552278 -0.14776765 -0.13104405 
-0.23563978 0.7168378 -0.23685093 -0.11113585 -0.22599919 0.3745581 -0.11097345 0.44124147 0.66238344 -0.10756113 -0.26423615 0.30919296 -0.20883888 -0.18312511 -0.22561473 -0.18700063 
0.17816919 0.07931997 0.19706096 -0.12007924 0.29798198 0.26267302 -0.12301466 -0.12117592 0.07962918 -0.11557633 0.21199058 0.23199189 0.14821841 0.24765065 0.30175117 0.25933886 
0.042487875 0.47990778 0.04776516 -0.038612828 0.081316836 0.384216 -0.041277107 0.2912267 0.4437437 -0.037391193 0.052402996 0.3293857 0.037307575 0.06987154 0.081898294 0.07557869 
0.1512726 -0.13811958 0.16661106 -0.05748732 0.27202746 0.09553813 -0.05794791 -0.22622843 -0.12688813 -0.05148806 0.18041933 0.09216362 0.1273399 0.22400309 0.274785 0.23772275 
0.042020895 0.048288282 0.040967267 0.007866743 0.10042726 0.12690867 0.007933635 0.042861313 0.0470879 0.0064123897 0.047462106 0.11335335 0.032785803 0.08421672 0.09938073 0.0877633 
0.06681038 -0.06873257 0.04245559 0.45130628 -0.02814833 -0.082306944 0.44546992 0.282112 -0.06812804 0.41884384 0.06083 -0.06989678 0.07275893 -0.021833327 -0.028561674 -0.02580163 
0.46047843 -0.21786965 0.47719952 0.11483807 0.5393961 0.14513871 0.109316595 -0.29905513 -0.20193484 0.11052275 0.5305978 0.14017399 0.39010388 0.43842942 0.55045897 0.46404126 
0.2540539 -0.26764458 0.24786732 0.26145956 0.1538622 -0.1394622 0.2562275 -0.06848611 -0.25480336 0.24952763 0.27950522 -0.11689743 0.22412612 0.13275973 0.15522946 0.13843161 
0.16346891 0.087800115 0.17360161 0.03350178 0.18308137 0.19878684 0.03287 -0.018908827 0.08571143 0.031389225 0.18935853 0.16698779 0.13662896 0.1587502 0.18690105 0.16919881 
-0.02570014 0.2883934 -0.033173807 0.07476373 -0.07730099 0.09959789 0.06830492 0.26151872 0.26780277 0.07133226 -0.032399543 0.079045355 -0.013400953 -0.0667644 -0.0789594 -0.07229343 
0.064717144 -0.07961053 0.06868419 0.15452988 0.0065920963 -0.099358454 0.15264367 0.049242046 -0.07743629 0.14765355 0.074050695 -0.08686809 0.054306656 0.0062357313 0.0057465234 0.00449155 
0.1964395 -0.18971473 0.18338707 0.28014877 0.06851141 -0.17388158 0.2746453 0.043577265 -0.18098871 0.26735228 0.2105637 -0.15239508 0.17838587 0.0581812 0.06993855 0.061965324 
0.14331976 -0.111709155 0.14168957 0.11248484 0.119658135 0.0040072445 0.10938527 -0.0077930833 -0.10590981 0.10716341 0.16065522 0.0065942276 0.12465303 0.10208696 0.12251948 0.109273374 
-0.0050123646 0.06646296 -0.022044681 0.1573086 -0.08316212 -0.022644076 0.15630962 0.19239838 0.06191935 0.14767632 -0.016342312 -0.020329917 0.0041413535 -0.064085536 -0.08179993 -0.07182838 
-0.055465072 0.26295498 -0.046462506 -0.15724382 0.034322828 0.22849472 -0.15553302 0.08400195 0.24867792 -0.15084957 -0.0548505 0.19966 -0.055004198 0.031812232 0.039188687 0.033783168 
0.05104963 0.14417739 0.052352745 -0.037642702 0.093530945 0.1409691 -0.04046978 0.045915395 0.13767034 -0.03416575 0.05651963 0.12350028 0.034342635 0.07974877 0.09422764 0.0880618 
-0.041157626 0.17349249 -0.008561505 -0.4023646 0.36744234 0.5045902 -0.3949507 -0.25959882 0.17538013 -0.38682172 -0.022368548 0.44767153 -0.059081767 0.3002752 0.37321395 0.3127153 
0.16011018 -0.13918772 0.1545055 0.14165449 0.052325115 -0.104907535 0.13803674 0.002028636 -0.13325004 0.13618961 0.17630649 -0.090000175 0.14340852 0.05157333 0.053911243 0.04662415 
0.043420184 0.11649473 0.060823474 -0.1443731 0.1969929 0.2709044 -0.14336509 -0.03277761 0.115147285 -0.13906728 0.060426734 0.24060345 0.027469488 0.17107438 0.20129128 0.17997825 
-0.068490304 0.18950218 -0.06604905 -0.045725916 -0.098333254 0.083526336 -0.04255865 0.13799414 0.17970037 -0.04539084 -0.07675364 0.07442935 -0.061070964 -0.08992115 -0.100894324 -0.097628765 
0.0421203 0.13588479 0.057998586 -0.12665911 0.1880111 0.22846185 -0.12340472 -0.038589757 0.13164468 -0.11957666 0.060421824 0.20312776 0.030361796 0.15662608 0.19064756 0.16368102 
0.26786333 -0.2123482 0.25008625 0.35298058 0.020272821 -0.32061005 0.34864283 0.09604671 -0.2068162 0.3374071 0.28753534 -0.27635866 0.24392408 0.018148419 0.022532256 0.027191218 
0.03201891 0.13925539 0.03680834 -0.057620257 0.047603067 0.18303245 -0.055679105 0.040362958 0.13304119 -0.0563889 0.038651183 0.1588459 0.023418292 0.04561971 0.04921497 0.04734979 
-0.08379859 0.28333262 -0.10076841 0.18756711 -0.212142 0.027726043 0.19031148 0.41372225 0.2645029 0.17505114 -0.105229095 0.016882364 -0.060654897 -0.17882015 -0.21541934 -0.1891203 
0.02099441 0.17457561 0.042730298 -0.18291065 0.15512109 0.3067852 -0.17909788 -0.08178822 0.16918984 -0.17500629 0.03796573 0.26794836 0.008306004 0.12882723 0.1535792 0.13193108 
0.19680957 -0.1950759 0.21213552 -0.024202459 0.29478934 0.049113043 -0.025207346 -0.25742576 -0.1819249 -0.023125693 0.22991262 0.049904417 0.16330959 0.24615863 0.3018973 0.25939998 
-0.07602709 0.32469845 -0.08476242 0.10230801 -0.13955626 0.09874176 0.102351226 0.32193294 0.30304176 0.100743644 -0.09077215 0.0816266 -0.057698738 -0.11734524 -0.14375825 -0.12914062 
-0.1596859 0.266473 -0.16679409 -0.0037874307 -0.1812851 0.09234068 -0.001979469 0.24006414 0.24985091 -0.0019483446 -0.18258354 0.07592157 -0.13391897 -0.14993475 -0.18084306 -0.15988526 
0.3716681 -0.3597555 0.39343143 0.00397932 0.5490396 0.09007741 -0.00090336014 -0.38243622 -0.33082664 0.0050890027 0.43477085 0.097725116 0.30749214 0.44676363 0.56364226 0.47169894 
0.2610747 0.23053609 0.30842155 -0.34749705 0.60800225 0.653972 -0.34244117 -0.17537627 0.22553457 -0.32073745 0.32549796 0.58280647 0.19862004 0.47283083 0.6197042 0.51300174 
0.025758458 0.0065959822 0.029723892 0.017988214 0.042472865 0.037706304 0.018383587 0.0047488953 0.0072770985 0.018012315 0.029975371 0.033545807 0.02178753 0.0320555 0.03952956 0.03542232 
0.27160412 -0.16636929 0.30277336 -0.13667157 0.4737807 0.23508528 -0.13671881 -0.28166968 -0.15126276 -0.13094768 0.3258729 0.21526937 0.21341668 0.37907675 0.4826568 0.39861056 
0.41350073 -0.26382342 0.45837495 -0.30599806 0.8194224 0.47391546 -0.30246368 -0.4837661 -0.23294471 -0.28431168 0.4985426 0.44384688 0.31185013 0.68262297 0.7921654 0.72931653 
0.041159242 0.030044178 0.040665608 0.049683087 0.037933003 0.05897631 0.049343698 0.055779554 0.03144971 0.0473536 0.04633363 0.049955346 0.033424016 0.033047225 0.037013527 0.033166178 
0.01877542 0.08187155 0.008357005 0.15413544 -0.019051172 0.03375685 0.1538195 0.15562311 0.07828593 0.14647152 0.015010461 0.031544466 0.026758347 -0.016945062 -0.020199113 -0.014264179 
-0.14722301 0.4012372 -0.14601408 -0.11043919 -0.11607838 0.2608583 -0.10638491 0.24494943 0.37529325 -0.10630539 -0.16310483 0.22129947 -0.12153092 -0.09831689 -0.11815045 -0.104780726 
-0.021483423 0.37485343 -0.023699122 -0.078055106 0.07278761 0.3067992 -0.077059306 0.17058243 0.35575864 -0.07415304 -0.023657177 0.26078686 -0.010515985 0.060426187 0.07856535 0.06769964 
0.21697205 -0.10476199 0.2387716 -0.050913848 0.34571084 0.15326169 -0.053020798 -0.23779713 -0.09656849 -0.05078291 0.2596771 0.14035214 0.1842784 0.28843665 0.34914297 0.30328104 
0.0522799 0.2955973 0.07408011 -0.18186139 0.20978455 0.37534785 -0.17743278 0.045808565 0.27979514 -0.17722414 0.07354865 0.32972988 0.03489671 0.17640722 0.21245806 0.18564929 
0.07809878 -0.04960492 0.08006921 0.09625135 0.03405868 -0.033965204 0.09354015 0.021330114 -0.04672388 0.09229935 0.08797687 -0.023947217 0.07098257 0.03139262 0.036172133 0.036000323 
0.1241956 -0.018523129 0.11634209 0.1546949 0.120765805 0.06649218 0.14603119 0.07075774 -0.015074782 0.1445541 0.13401745 0.058933515 0.11289527 0.100977965 0.122815885 0.104869455 
0.16150326 -0.13882911 0.13256069 0.5267001 -0.07435303 -0.16839951 0.51982373 0.24861094 -0.13327219 0.49576524 0.163923 -0.14272335 0.15950578 -0.0635258 -0.07320655 -0.06618238 
0.067260526 0.055122644 0.062046457 0.10162583 0.02886344 0.053692102 0.10153496 0.07045229 0.051873796 0.096394956 0.07264265 0.05271383 0.06363969 0.027813448 0.029667974 0.02874319 
-0.02561304 0.19312982 -0.04655248 0.20181243 -0.14602585 0.02892629 0.2031749 0.32606187 0.18102916 0.19121943 -0.045650717 0.015675245 -0.015941385 -0.125917 -0.14886446 -0.13352323 
0.012853989 0.103424765 -0.0056953644 0.17711121 -0.101574294 -0.07692532 0.17648715 0.24423131 0.09584158 0.16721058 0.0034634166 -0.074487254 0.022019176 -0.0884059 -0.10444498 -0.09422663 
0.080031276 -0.11526641 0.039555475 0.7207557 -0.1786307 -0.27772373 0.6775075 0.45338583 -0.11551422 0.691334 0.08431343 -0.2205082 0.096257605 -0.14544828 -0.18343446 -0.1536895 
0.7125919 -0.5723288 0.7684647 -0.46071467 1.0844514 0.58932203 -0.47265503 -0.94124216 -0.49910378 -0.41888157 0.82703 0.5808259 0.553786 1.0660815 1.1312242 1.087163 
0.034611676 0.36071056 0.038404454 -0.05266309 0.04403159 0.21374346 -0.055967975 0.20532875 0.33737072 -0.050016586 0.041381583 0.17770357 0.029023342 0.03676249 0.04405159 0.04182648 
0.0719427 0.19560458 0.044934064 0.18477677 -0.14996944 -0.09684934 0.18354063 0.34149826 0.17871472 0.17214435 0.06293486 -0.089630395 0.07805819 -0.121804774 -0.14915 -0.12712392 
0.027242564 0.0013375299 0.023970816 0.06172587 0.023461541 0.008837466 0.06112618 0.037510995 8.641166e-05 0.059905536 0.028278468 0.008126764 0.026516818 0.020169403 0.023013977 0.020718653 
0.11803384 -0.0010646194 0.124558575 0.009110152 0.19163778 0.040431026 0.01038811 -0.008083436 0.0018832986 0.0096028475 0.13672446 0.039538536 0.099059366 0.16508533 0.19650298 0.17370641 
0.116988756 0.13299526 0.13701133 -0.16231066 0.29899088 0.28591198 -0.16532217 -0.09094403 0.13007632 -0.15185945 0.14500001 0.25025922 0.090579405 0.25184172 0.30365792 0.27055508 
0.3295313 -0.168307 0.3077792 0.4195835 0.04067774 -0.28033653 0.41058072 0.15871151 -0.168973 0.39970735 0.3539125 -0.24507676 0.30198768 0.038351603 0.04642794 0.044115778 
0.18790695 -0.11988877 0.15033844 0.65027595 -0.06324125 -0.18846497 0.66456556 0.34366915 -0.11740494 0.62323916 0.19868787 -0.1571661 0.18824513 -0.054793194 -0.06280434 -0.05775445 
-0.025797281 0.22987708 -0.021552455 -0.10394596 0.066095024 0.25974348 -0.09922092 0.108378135 0.21984424 -0.10187447 -0.025961405 0.22692935 -0.028609382 0.054429516 0.066591695 0.0581804 
-0.010934489 0.18077734 0.0045015267 -0.11803699 0.087613516 0.19283533 -0.11556434 0.03755936 0.17294869 -0.11186752 0.0035143963 0.17023844 -0.010119797 0.075171016 0.08813854 0.07688961 
-0.03935462 0.24066333 -0.055268478 0.20038508 -0.16722713 0.05997476 0.19036621 0.31102 0.22412542 0.17816412 -0.05366735 0.052098222 -0.02278713 -0.14116438 -0.16911997 -0.14830698 
-0.17678024 0.7661929 -0.1822903 -0.10876084 -0.22855252 0.3415033 -0.101221144 0.5110921 0.7035723 -0.10119031 -0.19618493 0.2880313 -0.14670925 -0.18920103 -0.23204252 -0.19871216 
0.017148502 0.039460223 -0.0019321435 0.21305373 -0.10440532 -0.053630117 0.21120761 0.17674759 0.03698632 0.20358743 0.009308531 -0.052778635 0.025961109 -0.08705688 -0.101915814 -0.09061546 
0.21651639 -0.04694066 0.22399272 0.01670786 0.32850093 0.17718305 0.015963849 -0.07212904 -0.037191343 0.0183269 0.25178152 0.16219337 0.18273003 0.25737548 0.32470945 0.27199727 
-0.121151716 0.8795824 -0.11307685 -0.30754176 -0.111497074 0.71479195 -0.30132565 0.32910985 0.82541424 -0.29270434 -0.13217004 0.5782723 -0.10901368 -0.09845113 -0.11855567 -0.10769881 
0.06130537 0.05085075 0.07268982 -0.017337864 0.07305973 0.117379785 -0.018367967 0.018843995 0.049333774 -0.01781857 0.07698074 0.10509728 0.052886844 0.06044668 0.070135325 0.061263073 
-0.013484613 0.10427031 -0.012135926 -0.023464622 -0.0029029762 0.10153815 -0.021830242 0.05720051 0.10172241 -0.021071788 -0.0123101855 0.08756502 -0.014129906 -0.0032384775 -0.0064291405 0.0013140427 
0.23080774 -0.19232588 0.25694007 -0.053955205 0.41980478 0.153477 -0.05183348 -0.34197736 -0.1775766 -0.049576696 0.2757855 0.14426771 0.18618187 0.33554244 0.42557204 0.35679337 
0.17432304 0.01831181 0.1797606 0.033298075 0.30098638 0.27278182 0.031106545 -0.06841195 0.024331849 0.031098884 0.19894509 0.24427065 0.14724472 0.2502714 0.3037519 0.26167744 
0.08999058 0.02249475 0.071881324 0.26296937 -0.020457773 -0.03763292 0.2583175 0.19346847 0.022254182 0.24979697 0.08870559 -0.02754641 0.08808366 -0.01765315 -0.019321723 -0.020151643 
0.04079149 0.08520973 0.052217238 -0.07288084 0.06762808 0.13667539 -0.072001144 -0.011877885 0.08317635 -0.06825814 0.054229863 0.12057155 0.03453719 0.053732008 0.06655586 0.059356466 
0.17660482 -0.17810555 0.16269939 0.3004846 0.05606489 -0.085156225 0.29466736 0.053177375 -0.16457187 0.28274667 0.19134659 -0.06837239 0.16278717 0.046307385 0.056656502 0.05376592 
0.078965485 -0.0693398 0.0695803 0.2148611 -0.017753536 -0.10423561 0.21183626 0.09653832 -0.06849579 0.20476961 0.0821733 -0.09051756 0.07546949 -0.017333098 -0.01951148 -0.017600492 
0.026090205 0.007409663 0.034766264 -0.038057048 0.11818563 0.07141932 -0.038648803 -0.048203763 0.008099017 -0.035644867 0.034542646 0.06862547 0.01654871 0.09768018 0.11943391 0.10482393 
0.3100425 -0.23026796 0.3091825 0.16718414 0.14983803 -0.103932366 0.16026245 -0.13789019 -0.21336322 0.16347006 0.34669027 -0.07730288 0.2734684 0.13018686 0.15281802 0.14171386 
0.03702714 0.16556133 0.018357215 0.30292717 -0.19576964 -0.05963535 0.29947108 0.32889232 0.15573327 0.2893415 0.02918109 -0.058490273 0.050436202 -0.16398004 -0.19865204 -0.17184375 
0.12479748 -0.0073938854 0.12506835 0.06223437 0.100304686 -0.019556545 0.060330644 0.026502974 -0.0074031544 0.060587857 0.1410237 -0.0067832144 0.10905507 0.08616226 0.10036936 0.09782677 
0.08743265 -0.1134577 0.07014535 0.28398713 -0.091715 -0.20592462 0.279631 0.13481699 -0.11102348 0.26994684 0.085650325 -0.17819613 0.08645947 -0.07632374 -0.08913854 -0.07822622 
0.086108476 -0.059858747 0.09363323 0.01069837 0.1434668 0.05048673 0.011206627 -0.09645955 -0.055545714 0.01320634 0.10168437 0.04853744 0.06958552 0.11837389 0.14744535 0.12471379 
0.15127304 -0.10663745 0.14836459 0.11704481 0.09210712 -0.051252622 0.111464255 -0.015261575 -0.100584246 0.1090239 0.1673292 -0.037605926 0.13352904 0.0782331 0.09151363 0.08338728 
0.05261651 0.016524546 0.057875033 -0.025851805 0.0872176 0.080136344 -0.026034335 -0.03592494 0.016725564 -0.027873838 0.06311169 0.07265898 0.040708 0.07290042 0.08669112 0.078978784 
0.0055149747 0.19278565 0.0059228544 -0.021670014 0.029291505 0.14554282 -0.022553932 0.11881958 0.18372576 -0.016433531 0.007517638 0.12788439 -0.0021086782 0.026189644 0.02970287 0.028176434 
0.0013112028 0.38245156 0.0057641505 0.04428535 0.09611763 0.39141324 0.049287017 0.34058973 0.3630117 0.039005153 0.0028316586 0.34394243 0.0013525077 0.08548684 0.095464654 0.08756667 
-0.46652913 1.1273903 -0.46918926 -0.31948268 -0.32380733 0.55210054 -0.30495548 0.83112854 1.0713763 -0.312717 -0.5299941 0.46372387 -0.40346482 -0.2725679 -0.32706243 -0.28664136 
0.059750352 0.22236593 0.08137826 -0.22495323 0.24684335 0.3594739 -0.22554652 -0.057402745 0.21436422 -0.21693683 0.08074756 0.30991265 0.036662146 0.20283781 0.2500347 0.21251842 
0.032887165 0.07078471 0.037618168 -0.04096306 0.07053302 0.09522124 -0.039083444 0.026058992 0.06758869 -0.035607617 0.041021332 0.08497124 0.027048135 0.062470853 0.07253229 0.064116836 
0.17005065 0.07015282 0.19599359 -0.106780484 0.35976803 0.3609274 -0.112192266 -0.06611111 0.07247256 -0.10284753 0.20916125 0.3229127 0.136698 0.30072173 0.3628927 0.31188658 
0.12148281 0.011369992 0.13326848 -0.11363097 0.25156906 0.21190263 -0.108915225 -0.10522116 0.01636334 -0.10552801 0.14266768 0.18927653 0.10218545 0.20512813 0.25274265 0.21764836 
-0.017264519 0.058579613 -0.03364505 0.20403448 -0.14943635 -0.07107086 0.2019643 0.21311352 0.05392877 0.19259189 -0.034782317 -0.06716184 -0.0069626 -0.1267893 -0.1514785 -0.12983546 
0.045677073 0.06718746 0.053949453 -0.07290031 0.14668712 0.16993207 -0.071995355 -0.06765052 0.06718394 -0.06951602 0.05655389 0.14852713 0.029596811 0.12334808 0.14983286 0.13030836 
0.038179446 0.722201 0.052552674 -0.036386207 0.11530384 0.44834706 -0.03215933 0.48178056 0.64520216 -0.044054013 0.05248548 0.3508936 0.028946368 0.090294085 0.12091919 0.10281047 
0.3748117 0.17642976 0.43132496 -0.6348705 0.7447225 0.80369663 -0.61522204 -0.4574109 0.17817484 -0.5879064 0.4528717 0.70464295 0.29304516 0.6007902 0.75032985 0.63580585 
0.095180176 -0.047504827 0.101422414 0.038319882 0.087726586 0.02699335 0.03601498 -0.045663502 -0.045339447 0.036627006 0.10999387 0.022660708 0.085011594 0.07532236 0.08879108 0.07777442 
0.067360155 -0.051061515 0.050141018 0.37081575 -0.027031591 -0.054514866 0.35556373 0.17797852 -0.049625617 0.3419318 0.0651238 -0.05106046 0.07114216 -0.018913474 -0.025862046 -0.02474027 
0.46197903 -0.5580222 0.4306597 0.6992282 0.039225504 -0.6932243 0.6869433 0.059901267 -0.5371889 0.66850156 0.4943282 -0.6000821 0.42342117 0.036606 0.04223372 0.043247916 
0.042749442 -0.006774879 0.051510952 -0.030651592 0.09770622 0.09602446 -0.029652188 -0.03194797 -0.0036294316 -0.031679776 0.052316207 0.08573823 0.03353935 0.080879614 0.099060975 0.08618959 
0.0890922 -0.07008313 0.079645835 0.22016029 0.029054763 -0.057005923 0.20853104 0.07701827 -0.06658683 0.20160244 0.09542676 -0.049173627 0.08394079 0.026421146 0.030593658 0.025757527 
-0.054544445 0.45498776 -0.046519786 -0.1465672 0.020145344 0.36770007 -0.14667329 0.22112295 0.4297133 -0.13785681 -0.054490432 0.31665242 -0.04873194 0.018573884 0.019545943 0.021892702 
0.10886311 -0.020531934 0.11965807 -0.01410215 0.15286161 0.13246916 -0.013015307 -0.011161133 -0.016967852 -0.0131353 0.12777835 0.12629096 0.08829877 0.1283314 0.15322806 0.13769776 
-0.19322132 0.8319097 -0.1953754 -0.17372355 -0.13046665 0.49914548 -0.17384982 0.51500446 0.7694878 -0.16673845 -0.21377568 0.41594455 -0.16714597 -0.11085073 -0.1340262 -0.11904197 
0.06490853 6.232847e-05 0.071895525 -0.025422655 0.14207041 0.109216884 -0.023898493 -0.07967295 0.003991191 -0.02417778 0.076587014 0.09970494 0.046092167 0.118989006 0.14243543 0.12506615 
-0.35785118 0.7932506 -0.36039528 -0.19294003 -0.29174772 0.35154203 -0.18476547 0.6049951 0.7350637 -0.1901793 -0.40577143 0.3048275 -0.3081854 -0.24010907 -0.2973341 -0.25666457 
0.110902056 0.048055492 0.12589736 -0.020700637 0.14612609 0.1525989 -0.021904333 -0.012636048 0.04794081 -0.01797353 0.13334869 0.13475902 0.09020962 0.12272726 0.14535697 0.12440903 
-0.07642701 0.2794466 -0.07793042 0.001432043 -0.09655378 0.11488003 0.0034732688 0.23002939 0.25969124 0.006271325 -0.08641173 0.09839558 -0.067018926 -0.083740145 -0.1008308 -0.09085366 
-0.08786445 0.27861887 -0.09096589 -0.048429742 -0.12419565 0.14876828 -0.04558614 0.18142667 0.26287547 -0.044891745 -0.09995021 0.124741785 -0.07850605 -0.09797965 -0.12255476 -0.10322941 
-0.071206175 0.59777296 -0.07999922 0.09563012 -0.17825364 0.2156671 0.0942395 0.5364682 0.5394178 0.093765385 -0.08364794 0.17981821 -0.056966644 -0.14971483 -0.18094933 -0.15525226 
0.09305484 0.021055015 0.09724909 -0.01876781 0.21214539 0.19077326 -0.01855428 -0.11336554 0.022276843 -0.016486507 0.109334126 0.17042762 0.07935672 0.17633809 0.2155032 0.18640387 
0.023635386 0.043013413 0.04063558 -0.056538634 0.08220421 0.09700158 -0.054975398 -0.008288308 0.041974463 -0.05435081 0.035205293 0.08636054 0.029579135 0.07048096 0.083282545 0.07260593 
0.15056606 -0.04820797 0.16975509 -0.05998953 0.28622848 0.17230645 -0.060758285 -0.16410844 -0.04422278 -0.054653306 0.18159856 0.15520325 0.12726128 0.23957597 0.2897588 0.25500065 
0.17554492 -0.15262055 0.19838585 -0.11498772 0.30509993 0.15486768 -0.117893524 -0.26499817 -0.14069408 -0.106855564 0.21098804 0.14977881 0.1436391 0.25582185 0.31025046 0.26847643 
-0.07888691 0.32438758 -0.06788683 -0.16874717 0.00042861112 0.28529352 -0.1643407 0.13202076 0.31008062 -0.15967092 -0.08112811 0.24823621 -0.07397286 -0.0035445078 -0.003445362 0.0016870797 
-0.02526501 0.3918105 -0.024120858 -0.008159868 -0.06519085 0.27206305 -0.009314279 0.28491625 0.37151977 -0.008564725 -0.02788361 0.23791468 -0.019230412 -0.05464607 -0.068446115 -0.05534441 
0.17320774 -0.16460922 0.19149186 -0.07045583 0.2983956 0.096127994 -0.07066951 -0.27086607 -0.15171544 -0.06580665 0.20552143 0.093123235 0.14058374 0.24531643 0.29795274 0.25785717 
0.17577827 -0.1953108 0.13722059 0.61172146 -0.22954006 -0.371749 0.5966691 0.31091523 -0.19179481 0.57428074 0.17813973 -0.32424977 0.1746324 -0.18626754 -0.23038602 -0.20246038 
0.07264115 -0.044243466 0.07102702 0.0856429 0.11312439 0.07012468 0.08014316 -0.007804806 -0.038084246 0.07869005 0.080350034 0.062171888 0.06435114 0.09638839 0.11470498 0.101326995 
0.30835706 -0.28719273 0.33277598 -0.08165339 0.48278677 0.14168286 -0.08146007 -0.41086417 -0.2646958 -0.07560524 0.36073923 0.13740113 0.2530821 0.4023042 0.48666272 0.42184827 
0.05537732 0.16098437 0.058722198 0.053405993 0.057201274 0.124339 0.05123178 0.12691087 0.15402256 0.05242369 0.06702838 0.11199737 0.050873157 0.046139996 0.053804446 0.049504153 
-0.23554106 0.40742347 -0.22633883 -0.13772269 -0.17913838 0.24910209 -0.12880175 0.22265448 0.3814868 -0.13811351 -0.2607051 0.20759591 -0.20623143 -0.1532973 -0.18642342 -0.166661 
0.26495674 -0.20780046 0.28615734 0.046999164 0.5075808 0.28698286 0.044147916 -0.11502378 -0.18673086 0.040950228 0.3108735 0.26413628 0.21877368 0.4214078 0.5105229 0.44148183 
-0.16349843 0.71963006 -0.17414705 0.0074033057 -0.25493383 0.22961558 0.00021436345 0.6132308 0.65086967 0.0037354988 -0.19186854 0.19072787 -0.13633057 -0.2106811 -0.25479522 -0.21754177 
0.20949404 0.010090736 0.2523401 -0.22901475 0.5328997 0.440117 -0.22913085 -0.19279869 0.018686134 -0.2170746 0.2629272 0.39776146 0.15924416 0.44218406 0.5374815 0.464013 
-0.028658569 0.078598596 -0.033249155 -0.019900579 0.0065887766 0.08329392 -0.018473955 0.054133233 0.07584425 -0.017980112 -0.03317116 0.071811326 -0.02471092 0.0071794386 0.0077709835 0.010989068 
0.49365774 -0.33972886 0.5384682 -0.20771006 0.860276 0.37328812 -0.20897724 -0.66231084 -0.3109957 -0.19641103 0.5835619 0.34798104 0.39318928 0.72351545 0.87596625 0.77269214 
0.03928929 -0.0078027053 0.04584389 -0.044970077 0.14491293 0.11050907 -0.043824825 -0.07308829 -0.00817004 -0.04291339 0.04842926 0.10235952 0.025788028 0.12152696 0.14781357 0.12510933 
0.103807606 -0.10057402 0.10306698 0.07439353 0.060794957 -0.059808113 0.072909765 -0.020762132 -0.09593069 0.07251758 0.11571123 -0.053625822 0.09165388 0.05058626 0.061599385 0.055709306 
0.23964566 -0.21764572 0.20776035 0.5272372 -0.044728015 -0.3392071 0.5189758 0.20664276 -0.21187715 0.4989016 0.24710117 -0.29039696 0.22773328 -0.033989158 -0.04410711 -0.038764894 
0.26238284 -0.20130241 0.28664875 -0.111440696 0.47255892 0.14810891 -0.109409384 -0.29417074 -0.18439099 -0.10164062 0.30980253 0.14316815 0.21118642 0.37200737 0.4713491 0.39221337 
-0.1587982 0.84385884 -0.16094176 -0.057899296 -0.20192419 0.3502154 -0.057210423 0.60201705 0.77020574 -0.05372263 -0.17313161 0.29185465 -0.13388647 -0.1677496 -0.20605184 -0.17617323 
0.07514679 -0.084789164 0.06827555 0.14259969 -0.008271441 -0.082881555 0.13977343 0.0272271 -0.08144868 0.13533525 0.079469875 -0.07281151 0.07038069 -0.0054593505 -0.008029061 -0.0048802025 
-0.015140357 0.24220774 -0.02710687 0.09010247 -0.09419304 0.042148266 0.084263094 0.24935946 0.22791348 0.085216455 -0.023966672 0.032377448 -0.0076592523 -0.07693209 -0.092695646 -0.07820447 
-0.06793859 0.23381905 -0.06868785 -0.054953977 -0.060674768 0.12557104 -0.053189874 0.16012327 0.2207861 -0.053391732 -0.07371106 0.106943 -0.06096026 -0.05126485 -0.06200532 -0.054305196 
-0.016000511 0.15894505 -0.0071745394 -0.10202093 0.035456352 0.15757838 -0.09892591 0.05822322 0.15172711 -0.09693344 -0.01380997 0.13759579 -0.018715011 0.02532405 0.033690732 0.031134604 
0.09206332 -0.095772505 0.083569966 0.16837488 0.09608587 0.019228956 0.16895354 0.04020622 -0.0912685 0.16287646 0.098222815 0.019010065 0.09121838 0.081857696 0.097385824 0.08600375 
0.041175935 0.29460466 0.04573608 -0.018844774 0.038636383 0.26256025 -0.018775852 0.19644046 0.28283414 -0.0182155 0.04885499 0.22665064 0.032318357 0.033858083 0.038913175 0.033872694 
-0.13682969 0.3651081 -0.13377748 -0.13929161 -0.14421573 0.19117887 -0.13634235 0.22822887 0.34500238 -0.13562302 -0.15399121 0.16537966 -0.11852351 -0.1221957 -0.13573354 -0.118647076 
0.029207202 0.18247934 0.030932214 -0.11286799 0.09605903 0.2033277 -0.10884302 0.04517068 0.17570591 -0.11058402 0.033997938 0.18502654 0.024583673 0.0773011 0.09643092 0.08131344 
-0.024012925 0.03130726 -0.037290204 0.123877324 -0.06625261 -0.049877807 0.12430905 0.13757998 0.028520187 0.11597631 -0.036004733 -0.047203206 -0.015011567 -0.052696053 -0.06970038 -0.05786914 
0.17964208 -0.12833205 0.1436017 0.55391943 -0.112616785 -0.30277884 0.5392323 0.30135986 -0.12737799 0.5192742 0.17798588 -0.26667005 0.17961204 -0.09167817 -0.112223 -0.097426124 
0.17915395 0.61538935 0.16816834 0.20973775 -0.09911041 0.03934636 0.20978503 0.690104 0.53084403 0.19683345 0.19767503 0.02455925 0.16312818 -0.082912795 -0.09877548 -0.07658447 
-0.19680472 0.49158856 -0.18882407 0.016433954 -0.121710725 0.09427103 0.019862685 0.4428205 0.43636692 0.011666323 -0.2146362 0.07535077 -0.17864251 -0.100748606 -0.121271454 -0.10510883 
-0.015173323 0.08173246 -0.023228167 0.0787202 -0.03778288 -0.016664792 0.07931583 0.14517578 0.07534139 0.07433661 -0.021729108 -0.012617816 -0.01302179 -0.031839617 -0.037561357 -0.032773726 
0.052421078 -0.030115692 0.03511942 0.28793114 -0.08317673 -0.12060996 0.28028432 0.19808151 -0.030499471 0.26775837 0.04871371 -0.10685247 0.054509595 -0.06577815 -0.08145613 -0.069108695 
0.2138201 -0.105627246 0.2131463 0.1605757 0.20632216 0.105278134 0.15958971 -0.035879064 -0.092998095 0.14957294 0.23729655 0.09610373 0.18594564 0.1725658 0.20719081 0.18200363 
0.052396514 0.16458462 0.0639287 -0.0987743 0.11472852 0.21715944 -0.09790574 0.02071711 0.15791942 -0.092715785 0.06685589 0.19435301 0.041027732 0.09658112 0.115801774 0.09990977 
0.11056275 0.13820541 0.07918816 0.41340187 -0.26002878 -0.23856789 0.4137659 0.4786115 0.117284276 0.3936196 0.10157833 -0.21521783 0.1173637 -0.21337835 -0.26399246 -0.22473894 
0.46868438 -0.31538966 0.49958816 -0.15552598 0.7828667 0.29375154 -0.15860148 -0.4531622 -0.28878218 -0.14460196 0.55155206 0.282076 0.3806362 0.63860184 0.79208845 0.6779247 
-0.021074232 0.23474711 -0.031144924 0.11845628 -0.08890601 0.07193236 0.11689938 0.28411156 0.21669587 0.11336221 -0.028171016 0.058873367 -0.009982707 -0.07394875 -0.09016162 -0.07717367 
0.6560671 -0.54624057 0.70122796 -0.30029455 1.0110828 0.4419418 -0.30202144 -0.8946728 -0.4989532 -0.2749996 0.76242465 0.44119883 0.5066975 0.9611603 1.0098908 1.012806 
-0.38402644 1.1769091 -0.3852682 -0.24733537 -0.42455024 0.6272593 -0.2343048 0.81927335 1.1232839 -0.23319502 -0.44150385 0.48717114 -0.32286376 -0.3524524 -0.4303384 -0.37460858 
-0.054657318 0.22295555 -0.052920222 -0.035349578 -0.08912512 0.114536986 -0.033633173 0.14447404 0.21029788 -0.032946356 -0.05931782 0.09768834 -0.042235844 -0.077611275 -0.09350035 -0.08221121 
0.11645473 0.107509404 0.15130314 -0.14265652 0.30281395 0.36028522 -0.13550462 -0.17110886 0.10680404 -0.1333084 0.15172328 0.31200835 0.0874673 0.252147 0.305637 0.26564208 
-0.19444193 1.0174196 -0.15871409 -0.62530243 0.13480327 0.8593891 -0.6034225 0.3410063 0.9546027 -0.6020246 -0.18772727 0.7207581 -0.20107406 0.11791194 0.13852626 0.12329024 
-0.11873066 0.35363817 -0.13423023 0.12006398 -0.17388333 -0.022735884 0.12289021 0.44927353 0.3256037 0.10961426 -0.14254642 -0.027042592 -0.09771812 -0.14110628 -0.1761903 -0.15126963 
-0.40879694 1.3302221 -0.40081668 -0.3813941 -0.34228975 0.9199858 -0.3775335 1.1397347 1.4968735 -0.3752022 -0.46673834 0.7533973 -0.36348793 -0.2846776 -0.34684286 -0.30306897 
0.066609494 0.2504469 0.07739169 -0.058108713 0.16106024 0.2520237 -0.066302806 0.08716579 0.23669861 -0.055724215 0.082151614 0.20963061 0.052602485 0.12991925 0.16187963 0.13737601 
-0.24268702 0.7038078 -0.24747136 -0.1477754 -0.20670848 0.32642058 -0.14239222 0.45584422 0.64424235 -0.14091381 -0.273678 0.27336323 -0.20569055 -0.17296678 -0.21091865 -0.18479496 
0.19149362 -0.09413361 0.18972886 0.09295625 0.15947518 -0.001201722 0.08777581 -0.042310923 -0.08857844 0.085799575 0.21334724 0.0037410546 0.159825 0.13386558 0.15651424 0.13461551 
0.030198028 0.048447855 0.03967572 -0.120919555 0.12613602 0.17267604 -0.118228145 -0.09120374 0.050604172 -0.10706809 0.040427465 0.15545963 0.017053362 0.106749065 0.1264933 0.10992136 
0.17572467 -0.14764585 0.18500356 0.031797715 0.22870576 0.05704495 0.03054896 -0.15098618 -0.1380804 0.03183578 0.20281862 0.05483473 0.14937842 0.19067116 0.23139459 0.2001591 
-0.03363601 0.21105812 -0.04416263 0.08401665 -0.11090952 -0.0060482686 0.08403232 0.256996 0.19554183 0.078413785 -0.043074798 -0.0071605034 -0.022861686 -0.09286332 -0.10887472 -0.09067028 
0.08588481 -0.09868428 0.07267328 0.23575997 -0.014402379 -0.09663506 0.22885947 0.07821982 -0.09487152 0.21577714 0.08765505 -0.08010402 0.08412544 -0.008291205 -0.011390921 -0.0128348395 
-0.25558564 0.9794333 -0.24778655 -0.15268914 -0.24162078 0.44481465 -0.14847681 0.68420804 0.90548563 -0.1477603 -0.28079423 0.34550825 -0.2209166 -0.20447734 -0.24129874 -0.20934615 
0.020151615 0.02263314 0.018836524 0.018321976 0.024164628 0.03500247 0.019139169 0.022736507 0.021161424 0.016920328 0.021616688 0.03415972 0.019055758 0.021279262 0.025454897 0.02292363 
0.1062937 0.09858167 0.10191486 0.081767626 0.028868966 0.06854162 0.081304014 0.106232695 0.093778 0.07997922 0.11684642 0.060569953 0.09796226 0.024146985 0.029806383 0.025434593 
-0.16354847 0.2587807 -0.16241346 -0.10471523 -0.049835987 0.15432045 -0.10330045 0.14640059 0.24559286 -0.101355605 -0.18013321 0.13162163 -0.14304814 -0.03970718 -0.049613435 -0.045136742 
-0.19799688 0.22163874 -0.1865893 -0.03104208 -0.09555902 0.066723764 -0.027463514 0.1939072 0.20786832 -0.03169432 -0.21415843 0.05840488 -0.17158026 -0.08352509 -0.09594233 -0.07654203 
0.0945149 -0.104497276 0.09316946 0.085558236 0.061482035 -0.040290833 0.0839276 -0.032033637 -0.09910985 0.08202535 0.104623556 -0.034349956 0.0839629 0.052663013 0.06360773 0.056691386 
0.19189279 -0.09174736 0.20409693 -0.0020468526 0.19099529 0.03670392 -0.004459502 -0.13517186 -0.084536 -0.00049317884 0.2221903 0.034633648 0.16603918 0.16199562 0.1938522 0.17107084 
0.25127852 -0.18628296 0.29839447 -0.53250545 0.7580294 0.5123246 -0.5392769 -0.69777197 -0.16447231 -0.5025532 0.3131491 0.46834 0.18355137 0.6155702 0.77616817 0.65222746 
-0.059241757 0.117722444 -0.05108095 0.006655691 0.00997449 0.11511514 0.009816745 0.08986821 0.11682759 0.005655375 -0.06559068 0.100888565 -0.054902382 0.0043832413 0.006777349 0.008223475 
-0.031071726 0.42253706 -0.02952204 -0.22234583 0.10324031 0.42359853 -0.2237508 0.1540577 0.3842036 -0.21245657 -0.035539914 0.3472638 -0.028180769 0.08464801 0.10467004 0.08960208 
0.12691139 -0.15002277 0.11166516 0.29881826 -0.025049469 -0.14585043 0.28738993 0.085455954 -0.14612788 0.2763552 0.13222975 -0.10240191 0.12052234 -0.018898673 -0.023839992 -0.01785299 
0.026337922 -0.008658299 0.027904773 0.017790984 0.05153185 0.026507454 0.017087841 -0.0030311754 -0.007664397 0.018660625 0.028892297 0.025547074 0.021517066 0.042120118 0.049196985 0.048132196 
0.13422866 -0.10504463 0.13973215 0.010302074 0.2298392 0.1334591 0.008582815 -0.10367548 -0.09763765 0.010165416 0.15465094 0.12731293 0.1120593 0.19082816 0.23203368 0.20097561 
0.07852731 -0.07263265 0.088082455 -0.05605058 0.14831895 0.062816076 -0.056679174 -0.13287495 -0.06676863 -0.053016845 0.094493456 0.059755757 0.063855864 0.12540005 0.14915337 0.13038862 
-0.31375533 1.019998 -0.30875316 0.04383397 -0.29630086 0.24042305 0.05214127 0.9756967 0.9856085 0.029414734 -0.35804474 0.19253936 -0.27240294 -0.24990104 -0.2978014 -0.2597389 
-0.32548794 1.0208626 -0.31763774 -0.3942616 -0.25560188 0.5790516 -0.384764 0.6725647 0.99070114 -0.3855738 -0.36008728 0.4950275 -0.29492146 -0.21124442 -0.25962153 -0.22151451 
0.06782128 0.0006944212 0.060450982 0.15823679 0.054089304 0.034679305 0.15453652 0.12071382 0.0023863662 0.1475151 0.07067696 0.03118533 0.06549665 0.047561344 0.054034173 0.050023664 
0.27528822 -0.22554958 0.30657083 -0.18086065 0.5424242 0.24195674 -0.18269244 -0.39274177 -0.20688458 -0.17050493 0.3295105 0.22609839 0.21996997 0.44544452 0.55628365 0.4709974 
0.1064351 -0.04684659 0.10601441 0.08834716 0.091012 0.0015732469 0.08754364 -0.017005377 -0.043919448 0.0844144 0.11908197 0.0021645674 0.09206789 0.07672294 0.092466615 0.08211722 
0.009964437 0.06252105 0.02221604 -0.1515879 0.1370684 0.17563753 -0.15125003 -0.09320784 0.061435644 -0.13856566 0.019364247 0.15744203 0.0005998946 0.11519532 0.13812326 0.120056145 
0.2097373 0.44369087 0.1980645 0.7688453 -0.27012548 -0.57286185 0.78185856 0.97901547 0.3198677 0.72650534 0.21119285 -0.47449753 0.19832467 -0.230157 -0.27128732 -0.23550905 
0.20562947 -0.13237692 0.18648739 0.35986337 -0.1323435 -0.32396173 0.3544467 0.18354593 -0.13208823 0.34146038 0.21439092 -0.2795968 0.19390732 -0.11678979 -0.13377783 -0.11410777 
0.38555437 -0.4026741 0.32975876 0.9447449 -0.19228858 -0.6295879 0.9360375 0.38954878 -0.38395083 0.90150756 0.39248538 -0.5447217 0.36804217 -0.16430043 -0.19415563 -0.16295789 
0.110007904 0.10712424 0.10560371 0.13814701 0.13065821 0.19970992 0.12319035 0.14300717 0.09954253 0.1063416 0.119402446 0.1797395 0.09923927 0.111913905 0.1321892 0.1232578 
0.13308896 -0.13602969 0.11795998 0.34400818 0.015067729 -0.11518113 0.33106786 0.13106623 -0.12814912 0.32219797 0.14016524 -0.09527894 0.1243245 0.01361662 0.0151970005 0.013185246 
-0.28294742 0.29548478 -0.28218564 0.10543031 -0.32164893 0.045574322 0.10997565 0.3919805 0.27388138 0.09697687 -0.316496 0.033459626 -0.23375204 -0.27176842 -0.3293408 -0.28918865 
-0.12983194 0.14343166 -0.11843511 -0.07366749 -0.070996575 0.08979836 -0.07112076 0.07663115 0.13602862 -0.07087758 -0.1412931 0.07859797 -0.11317547 -0.061337557 -0.07285793 -0.066449665 
-0.32332435 0.50930136 -0.30876657 -0.2760094 -0.20359716 0.32606816 -0.2656239 0.25868338 0.48023805 -0.2668178 -0.35642403 0.2808274 -0.2887922 -0.1914715 -0.20842355 -0.17735432 
0.11097641 -0.0060524694 0.11508542 -0.025887618 0.173571 0.08139474 -0.02638178 -0.021024339 -0.004856385 -0.022928203 0.12780567 0.07551167 0.095651165 0.14644288 0.17616531 0.15433788 
0.05982023 0.59512925 0.061412424 -0.014148125 -0.023041043 0.20469338 -0.011884675 0.4928011 0.5195844 -0.017175155 0.06728885 0.16794255 0.04748215 -0.01699987 -0.024977652 -0.015130955 
0.11475341 -0.13914105 0.10299967 0.23767613 0.014562978 -0.1042683 0.23615673 0.085964516 -0.13334358 0.22436698 0.12047411 -0.09096917 0.10756515 0.014679923 0.015370368 0.01534931 
-0.0015785664 0.20802265 0.0048800875 -0.0892515 0.07772583 0.22221366 -0.08706027 0.031599976 0.19912179 -0.08471815 0.004816313 0.19175859 -0.006851879 0.0667891 0.08126107 0.07508053 
0.048114542 -0.0879348 0.021300647 0.40665808 -0.05598977 -0.2462143 0.40005204 0.25839314 -0.08772193 0.3834545 0.034820057 -0.19669113 0.057067025 -0.045188602 -0.054681435 -0.046126 
0.018157974 -0.01859265 0.008815853 0.1901727 -0.054900642 -0.030062897 0.18792492 0.12309241 -0.020023748 0.18083902 0.013513371 -0.019862369 0.023923261 -0.041809157 -0.055755462 -0.049108747 
0.057267673 -0.04740188 0.057396457 0.031252146 0.048101228 0.038985632 0.03043135 -0.02686431 -0.045102045 0.030969312 0.06387203 0.04335852 0.05090521 0.040631894 0.049050745 0.043357592 
0.11998561 -0.115433715 0.12353975 0.047708675 0.14390591 0.031493925 0.04287379 -0.10480501 -0.10534818 0.04429669 0.13725773 0.027339466 0.10312458 0.12769543 0.14613384 0.13058019 
0.13875568 -0.051832285 0.16205622 -0.21812256 0.3317976 0.2045208 -0.21984433 -0.24541453 -0.049842328 -0.20523393 0.17065756 0.188937 0.11231922 0.2743468 0.33421984 0.28711835 
-0.18922235 0.60926765 -0.19056752 -0.12167709 -0.19601925 0.29514956 -0.123751916 0.39033347 0.5639196 -0.118714325 -0.21549144 0.24772236 -0.1595886 -0.16246915 -0.19728522 -0.16601117 
-0.14891528 0.38800257 -0.15034325 -0.10048598 -0.09083581 0.21296002 -0.095897146 0.23671225 0.3648779 -0.09508708 -0.16466053 0.18383566 -0.12519541 -0.073376134 -0.091822624 -0.07839057 
-0.4611994 1.4957559 -0.44647413 -0.42166606 -0.2074582 1.0021207 -0.40489006 1.1246005 1.4336984 -0.39834675 -0.5003888 0.80599594 -0.405046 -0.17015463 -0.20460288 -0.17747423 
0.5580638 -0.43939564 0.5079274 0.9689759 0.24235915 -0.19519515 0.9563663 0.16538182 -0.4009205 0.9204243 0.61284107 -0.15146479 0.50298303 0.2049559 0.24388574 0.21253344 
0.22199053 -0.18891655 0.22187409 -0.032650683 0.34354776 0.08829039 -0.02949225 -0.21351118 -0.17158465 -0.022017999 0.25300297 0.086072035 0.16658276 0.2482515 0.34409568 0.2980658 
-0.07378555 0.4257876 -0.085613616 -0.010662837 -0.19062547 0.15971896 -0.011237645 0.2923301 0.3554514 -0.0058800518 -0.0904776 0.11122806 -0.059820697 -0.15430157 -0.18817942 -0.15906477 
