-0.084756546 0.017366905 0.117653415 -0.06145294 -0.11135238 -0.054797027 -0.074957974 0.063753 -0.096204735 0.10798438 -0.016062576 0.016387962 0.11814092 -0.051415995 -0.09648414 0.054994207 
0.07589909 -0.1077728 4.4030694e-05 0.07951541 0.1179286 0.046529844 -0.06421792 0.07106571 0.023758573 0.01646234 0.084006995 0.110158265 0.059884246 0.018781388 -0.006050679 0.1077068 
0.041782137 0.031559706 -0.063754 0.06297839 -0.081070274 -0.08379377 0.014916804 0.035184935 0.07909624 -0.08162607 0.05754723 0.047883652 0.007506808 0.02680642 -0.0031201828 -0.03711993 
-0.079753 0.10390504 0.08595141 0.07111586 0.050310653 0.10560438 -0.07658063 -0.03613537 -0.00091140607 0.036269005 -0.0093434695 0.03745414 -0.053095687 0.023855936 -0.039910253 -0.072733685 
0.058963932 -0.044755876 -0.02183692 0.093121156 0.0018282833 -0.03575962 0.060821738 0.087951444 -0.005921307 0.034751434 0.07029025 -0.012439054 -0.01991214 0.031939257 -0.08174604 0.03411783 
-0.026872396 0.0014220616 -0.014185426 -0.11711335 -0.02808158 0.107493386 0.031259384 -0.017043458 0.116828695 0.010050785 -0.05365545 -0.026085835 0.005498782 -0.0131174885 -0.07809287 0.07342579 
-0.050279617 -0.07037665 -0.038979806 -0.030623628 -0.037666835 0.07484123 0.079087414 -0.024800444 -0.06531043 0.031928632 0.01356341 -0.019110702 -0.05586101 -0.040233687 -0.046440415 0.071626574 
-0.009127377 0.09252494 -0.056106046 -0.08750389 0.08998449 0.09319327 0.082681656 0.011014064 0.056499023 0.06345772 -0.09578092 -0.056376785 0.016204482 -0.025959164 0.04767535 0.050865605 
0.09990277 -0.06995253 0.020378115 -0.07429263 0.062042605 0.0783016 0.05082247 -0.054576635 -0.08013597 0.11972089 -0.025295729 -0.09232095 -0.022158524 -0.02926722 -0.035087407 -0.09927479 
-0.094505474 0.02926784 0.008072383 0.05741159 -0.07250195 -0.0711804 0.019583996 -0.056319695 -0.0471478 -0.06253351 -0.08631589 0.035003986 0.07544005 -0.04719979 0.051285878 -0.043236308 
0.014366575 -0.08593224 0.12187316 0.0038328813 0.01447311 -0.084649466 -0.039059922 -0.10715044 0.066489175 0.09656394 -0.031194244 -0.0698292 -0.06358394 0.052132577 0.03397041 -0.075446084 
-0.0041076187 0.0031176994 0.06760503 0.06811136 -0.012797099 0.100692265 0.097741604 -0.081050284 -0.004398551 -0.04402837 0.029091079 0.093871996 0.03844114 0.07994792 0.108338475 0.06787415 
-0.06364775 0.06332012 0.051344298 -0.05688014 -0.017424878 -0.015955485 0.0086043365 0.07075935 -0.012418016 0.106908426 -0.08312837 -0.06745062 -0.021866588 -0.014395722 -0.055965964 -0.068971306 
-0.08300459 0.027115416 0.0660972 0.007384984 -0.08704499 -0.019338299 -0.040196322 0.05098123 -0.003715381 -0.060093943 -0.029014606 0.07003776 -0.067794375 0.074487805 -0.052392095 0.0843753 
-0.048912562 -0.058656093 0.008615287 0.11646367 0.064499006 -0.10120451 -0.0766308 0.06271806 -0.046798408 0.11910096 0.0028136098 0.07251829 0.021487523 -0.026695458 0.07469732 -0.016078355 
0.015145636 0.050234973 0.00917506 0.119531415 -0.0841075 0.021176413 0.023059256 0.040691156 0.06849999 0.05119736 0.117062986 0.0030474465 -0.004608468 -0.012117329 -0.0767914 0.04860149 
0.06774458 0.057371784 0.10933158 0.03523832 0.116732925 -0.07823204 0.002225916 0.023327379 0.0029930184 -0.019973563 -0.06601155 0.07422691 0.0062610796 0.05184625 0.11104808 0.09636849 
-0.116478704 -0.016710961 0.03485046 -0.0435176 -0.0010737581 -0.02293468 -0.045281008 0.036597863 0.0899221 0.0009505529 0.077544644 0.018035788 0.046340406 -0.031302076 -0.008045343 0.009336861 
0.010034422 0.05547025 -0.009516665 -0.072808005 0.04506966 0.037976354 0.05876441 0.02695073 0.081163436 0.10338261 -0.059337392 -0.034099296 -0.0673214 0.005495926 0.06781879 0.020740679 
-0.008469082 -0.020728115 -0.024712827 0.061559103 -0.014509169 -0.023702169 0.045058575 -0.06609081 0.074276336 0.044708945 -0.041389793 0.03981738 0.018987218 0.008482022 0.027302017 -0.0040372508 
0.049018934 0.11970203 0.008441294 0.0015248184 0.005413983 0.07422028 0.0323968 0.004867889 0.06452096 -0.08013762 -0.02124182 0.042193722 -0.032431014 0.027910322 0.11105288 0.0023099594 
-0.091182806 -0.026681129 -0.005564057 -0.026347773 -0.06530044 0.028690703 0.055556722 -0.030715888 -0.026500884 -0.029745154 -0.027197354 0.08756716 0.033175565 -0.03516214 0.082490265 -0.10012498 
-0.018436724 -0.019346002 -0.0714645 0.04517455 -0.086258866 0.068539545 0.077322416 -0.026325617 -0.06626841 -0.052870885 0.03179883 -0.03767855 0.03722544 -0.033657365 0.024777228 -0.031223608 
-0.059957005 0.07833823 -0.005519908 -0.03772668 -0.021430576 -0.041990645 -0.020158783 0.01862313 0.028755227 0.10949817 -0.03775642 0.02774336 -0.055101644 -0.0036922258 0.0004208868 0.024447065 
-0.04291389 -0.04593568 0.014099463 0.0018608649 -0.06874212 -0.055986956 -0.05099934 0.07711801 0.003833985 0.08548954 -0.02371015 0.08643616 0.086607754 0.02692878 -0.08837045 -0.005438271 
0.07639915 0.06727701 0.11896357 0.0345386 0.024714328 -0.098528944 -0.049081746 -0.07595513 -0.076492354 0.09774663 0.070789754 0.051976614 -0.07671734 -0.015714731 -0.047409594 0.045445465 
0.06545792 -0.09884086 -0.048923343 -0.008159051 -0.058846463 -0.059812907 0.035800103 0.031627797 -0.029342284 0.076839685 0.00724715 0.08984137 0.07145114 0.06850141 0.06701834 -0.02077558 
-0.013905873 -0.072705686 0.008748581 0.026110874 -0.08135032 -0.05816928 0.035121057 0.07415136 0.084027074 0.0252456 -0.03960848 0.003393066 -0.061400153 -0.002225479 0.073535375 -0.07670434 
-0.072015814 0.029709877 0.08279821 0.0096399225 0.08747858 0.05635791 -0.03292842 0.011239386 -0.030368727 -0.012896972 -0.007059608 0.061108246 0.030828893 -0.08409556 0.07711897 0.04534035 
-0.00053526694 -0.05525838 -0.022606077 0.012812623 -0.06933917 -0.013419241 0.114753634 -0.06085213 0.054946885 0.086353034 0.1036431 -0.014908628 -0.069670625 -0.079343624 0.03296543 -0.037865095 
0.004526627 -0.03345253 0.09276581 0.040150102 -0.02126939 0.033791054 0.04797387 -0.08061139 -0.045231987 0.08293057 0.0026799655 0.01864294 0.057939574 -0.08728142 -0.014787702 0.0045684194 
0.008327847 -0.11811217 0.047345668 0.12587951 0.017600242 0.0072629265 -0.038889095 0.08614812 0.006339001 -0.011820913 0.024080414 -0.014957881 -0.035894796 -0.06843941 -0.10305749 0.05044343 
-0.03953884 -0.042994585 -0.06899597 0.12071436 0.05281069 0.0566421 0.062265128 0.016382197 -0.029284723 -0.014812794 -0.026480626 -0.054737724 0.053468734 0.027287686 0.043377656 0.087537885 
-0.036202107 0.04686779 0.0365972 0.10859416 -0.11220343 0.005746804 -0.0009010273 0.10188957 -0.059659343 -0.04409529 0.025546603 -0.046710476 -0.0056299223 -0.03410887 0.046108715 -0.09483241 
0.09052408 -0.046981927 0.056070518 0.09585991 -0.034447316 -0.108322315 -0.052481476 0.05764081 -0.04128539 0.018178744 -0.03647401 0.062396165 0.062143423 -0.053664114 0.066224515 -0.034879427 
0.08220642 -0.082569845 0.11922977 0.10153384 -0.07382103 -0.038058553 0.038442813 -0.053634968 -0.02115258 0.12719586 -0.0592001 0.08279312 0.08170234 0.11275574 0.017436005 0.031874318 
-0.06889139 -0.028555479 -0.04365006 -0.0057440638 0.005160791 -0.06813309 0.012333615 0.026703939 0.06851628 0.04315346 -0.04325722 0.09222629 0.05181851 -0.024198817 0.010407907 0.035609256 
-0.008467974 -0.05451142 0.0877387 0.08108163 0.02765705 0.06131332 0.086997315 -0.022977624 0.01102699 -0.0570804 -0.031753562 0.029947683 0.035411384 0.016920602 0.11389865 0.048884235 
-0.0021738946 0.06958923 -0.04166687 0.06385195 -0.0297008 -0.07451547 0.08247241 0.06610277 -0.03789418 0.12085348 0.12092883 0.062460423 0.009161375 0.009757279 0.023776246 -0.044657823 
-0.0033877708 0.053835712 0.08316927 0.07424557 -0.10646783 0.031296264 -0.051621728 -0.033471305 0.07996196 -0.11647596 -0.026768439 -0.04678919 -0.046905547 0.026081322 -0.059069034 -0.05069539 
0.0831936 -0.06531298 -0.0040099146 0.08148131 -0.06904208 -0.030600298 0.07637839 0.037690714 -0.059669383 0.019013196 -0.07262709 -0.09058606 -0.07242033 -0.03870046 0.013122679 -0.07474555 
-0.10420225 0.09745765 -0.033062473 -0.02204558 0.050037235 0.0285192 -0.015015113 0.08711098 0.055785023 0.059961256 -0.029388815 0.027532538 -0.02564629 -0.046620294 -0.04804854 -0.008504742 
0.002971166 0.06345166 -0.0075497553 0.04223178 0.08467754 0.05803209 -0.059139907 -0.04935952 0.027691545 -0.028912699 -0.07498622 0.0085613895 0.07916226 0.018288018 -0.028180819 -0.080174595 
0.08815729 -0.024945114 -0.030379588 -0.07896715 -0.082742624 0.029605918 0.012654273 -0.072572105 -0.042306393 -0.063283056 -0.007646154 0.024992164 0.02159526 -0.08000074 0.019691762 0.06118917 
0.024346441 -0.08770836 0.0640266 -0.036133982 -0.011225631 0.030436227 -0.09402248 -0.013493438 0.011136344 0.043197956 -0.018238341 0.09493252 0.00863894 0.037599046 0.12307502 -0.0020747164 
0.07320494 0.07739152 0.017371776 0.0336576 -0.08047454 0.0086004445 -0.06397511 0.015382643 0.00908561 -0.022284547 0.030620977 0.0023871276 0.033114918 -0.07025585 0.037286133 -0.014985069 
0.08801865 -0.04753625 -0.07584441 0.039383408 0.015280145 -0.02965501 -0.09724022 0.07334357 -0.015316656 0.01939265 -0.042946886 0.10956136 -0.057299744 0.026568815 0.09051653 -0.03562684 
0.023357969 0.012590998 0.0070895897 0.10701223 -0.08830133 0.019210411 0.00073524646 -0.04822297 0.06782532 0.093558475 -0.025372233 0.0757808 -0.0076058195 0.051959272 0.06915387 0.0017589072 
0.046599463 0.02631773 0.094940096 0.04378248 -0.026439464 0.07197543 0.11959805 -0.015788078 -0.08459987 0.08895984 0.08135394 -0.07570168 -0.015651304 -0.08298425 -0.035265036 -0.038372196 
-0.019576605 -0.0011359734 0.08673039 -0.059326537 0.041206155 -0.07575337 -0.055175625 -0.072910495 -0.04236403 0.040739585 -0.0027520359 0.07579583 -0.042004254 -0.01032197 -0.05028725 0.0163997 
0.064284906 -0.07495163 0.012479916 0.060630366 -0.0870702 -0.008793789 0.06584664 -0.0025163246 0.023272218 0.04375943 -0.02331927 0.06408823 0.039546285 -0.032688018 -0.008732816 -0.04925364 
0.049688563 -0.0041101114 -0.077147506 -0.061586928 -0.022613881 -0.086899236 0.037740022 -0.023066096 0.076956294 0.034246806 0.06920095 0.017039832 0.05322076 -0.02603471 0.0113100475 0.11707958 
0.03461334 0.05779955 -0.08730247 0.07908767 -0.08755705 -0.043666117 -0.069603056 0.018395346 -0.076671876 0.07067376 0.051998712 0.084845096 -0.052524917 0.0775755 0.015505018 -0.040262584 
-0.08616882 0.07120438 -0.028563697 -0.022144808 0.00520164 -0.07960508 0.09708795 0.09428101 -0.031678285 -0.0024462559 -0.05902541 -0.045058854 -0.061608363 0.0058657085 0.057974644 -0.06656231 
-0.048298623 0.06349328 0.0018570623 0.114884935 0.065502875 0.073952585 -0.018273115 -0.023628704 0.016038205 0.11779164 0.038433522 0.038931027 -0.07282833 0.06159683 -0.09786586 0.03174508 
0.054536466 -0.028915752 -0.0532942 -0.055805452 0.071969405 -0.09138523 0.07651124 0.07515515 0.05010281 0.08500929 -0.029398732 -0.05113393 -0.0026026354 0.039968006 0.0020324788 0.088570945 
0.044088498 0.05664374 -0.0061086016 0.043156993 0.044306163 0.11886541 -0.05469167 -0.062187523 -0.057692043 -0.074607804 0.040063173 -0.013447016 0.0342671 0.03617575 -0.04002591 0.029634114 
-0.07204882 0.015274188 0.03327137 0.04431773 0.0755649 -0.039369956 -0.06323095 0.06268421 -0.0007689708 -0.06299949 0.08177215 0.06721087 -0.02391319 0.012672458 0.07997052 -0.060656533 
0.06795642 -0.11212234 0.0830955 -0.078496404 0.09697202 0.053726364 0.046330627 0.05164502 0.007238573 0.039735198 -0.02302315 0.007623043 -0.07072715 0.023228649 0.0050438675 -0.05006926 
-0.044639874 0.018909734 -0.023325086 0.00035021524 0.050518516 -0.05170811 -0.08022752 -0.07468538 0.067895286 0.02594609 -0.05811257 0.0011787246 -0.074170366 -0.011765659 0.040403377 0.022592476 
0.05536156 -0.07955749 -0.04824063 -0.033178736 0.041406184 0.024943829 -0.074842766 0.051105626 -0.05007656 0.042294744 -0.013361932 -0.041088834 -0.012166816 0.01002474 0.062383305 -0.10768298 
-0.035531815 -0.015785558 -0.06598634 -0.030968951 0.04779052 -0.08304614 -0.083426245 0.013299059 0.07251166 0.04535482 -0.039147127 0.016047977 -0.02344267 0.07969978 0.022100216 0.028758531 
-0.053780116 0.0041941637 -0.06778312 0.06865773 0.070532426 0.06939134 0.05768743 -0.063026235 -0.010641445 -0.009454285 0.087034 -0.036370475 0.0078545995 0.073458366 -0.07076304 -0.090700716 
0.03911644 0.029663721 -0.0835702 0.07692836 -0.0023808463 -0.06765752 0.09902766 0.06277435 0.047610603 -0.07743623 -0.023149634 -0.10324101 0.023683943 0.027488418 -0.05106216 0.0052442458 
-0.073026896 0.119253665 0.063673206 0.0061865747 0.027104862 -0.05711251 0.08399835 0.011284285 -0.014265686 0.064663514 0.044928428 -0.08584892 -0.022438817 0.07702628 -0.035888694 0.049480364 
-0.061216313 0.09326039 0.029810576 0.05808564 -0.010681721 -0.09857565 -0.04564269 0.0656924 -0.112322494 0.104311585 -0.08179984 0.0702889 0.0055990717 0.0066519105 -0.11158875 -0.047635313 
-0.08116629 -0.027338712 0.09804403 0.055656627 -0.047513805 0.036662802 -0.02882639 0.045893304 0.004528821 0.112499855 0.08298369 -0.05645592 -0.005504766 -0.0036424296 -0.087574385 -0.06732546 
-0.045701507 -0.05827026 0.019497644 0.06163326 0.025867343 0.017675782 0.04237615 -0.06755391 0.021907775 0.10457058 -0.0011471435 -0.009909881 0.01100724 -0.03687008 -0.08247283 0.03833246 
-0.09825675 0.057819042 0.029090917 0.07966949 0.0884458 0.023978919 -0.06166124 0.054910973 0.058244623 0.043156195 0.056510307 -0.029329296 -0.063713886 -0.009931763 -0.027324969 0.016803298 
0.10184739 -0.07750314 0.040772814 0.06827303 -0.055690948 -0.0008787134 -0.077154644 0.055401757 0.0010119906 0.052976664 -0.010842817 -0.018730083 -0.076120965 -0.029975012 0.051498815 0.08319739 
-0.04963505 0.021370517 0.057674516 -0.11323429 0.059774775 0.015912404 0.07198975 0.003410389 -0.08694003 -0.024827458 0.05586899 0.068317674 -0.07319903 0.03825464 -0.08068384 -0.047296114 
0.048869953 0.007626553 -0.0378008 -0.06977381 0.06053811 -0.021845993 -0.037843198 -0.03598089 -0.054917485 0.030187834 0.09896148 -0.0006736483 0.016181357 0.0066209487 0.047534842 -0.059650972 
-0.015160604 -0.048814546 -0.036920298 -0.013029396 -0.010431775 -0.041982632 -0.04752098 -0.04509561 0.053469513 0.015377092 -0.10034444 0.005824638 0.0041835904 0.016356774 0.0025220881 0.07741384 
-0.027126474 0.082611 -0.088665664 0.11782474 0.04583158 0.030183803 0.036779385 -0.0662437 -0.0056059747 0.020028207 0.057740893 0.009197467 -0.040090617 0.08516059 0.041184783 0.08008423 
-0.010238894 0.042309918 0.03782201 -0.02414541 -0.052340586 0.034003817 0.04170158 -0.047772698 -0.049608726 -0.07269394 0.009114601 0.05386143 0.03648281 0.014887189 0.017148409 0.04849476 
0.03902861 -0.009177056 0.09542984 0.022004198 0.122051 0.01948792 -0.08651281 -0.05251765 0.039293844 -0.061684106 -0.06509746 0.008268726 0.053301774 -0.036887012 -0.01717842 0.07196866 
0.018847568 -0.05953497 -0.08092383 0.09033639 0.01447 0.08433199 0.010869245 0.04508183 -0.007902344 0.08776188 -0.01917969 -0.044626772 -0.060664237 -0.07306097 -0.08359782 -0.067396924 
-0.027071701 -0.07184132 0.06887075 0.04943663 -0.046578314 0.055181693 -0.033945903 0.02707388 -0.021830652 0.091986276 0.05345709 0.06398981 0.08079848 0.07592344 -0.05601802 -0.10149863 
-0.044265438 -0.044118047 0.011610541 0.07118516 0.1158938 0.003020865 0.07196839 0.01504633 0.035104614 0.01935031 -0.046354737 -0.017253242 0.06889175 0.067605585 0.104634285 -0.05012413 
-0.08562098 0.04270487 0.070638075 -0.077899806 -0.037250955 -0.04652817 -0.040447943 -0.0779025 0.08511247 0.004445159 0.020263327 -0.08743519 0.05792301 0.06488036 0.07256192 -0.055070154 
0.08740893 -0.069944724 0.03561098 0.03786556 0.072991855 -0.06405884 0.036572006 0.078392975 0.0010847492 0.08531337 0.009764004 0.031244818 0.06800578 0.05091678 0.056697246 -0.05433478 
-0.117111154 0.015969507 -0.026865982 -0.053834293 0.055331882 0.024273511 0.047954172 0.01943058 0.080846 -0.022193294 -0.0867577 0.024195276 -0.07939412 0.013387098 -0.086688586 -0.0348049 
-0.021987937 0.094686024 -0.087980226 0.08006362 0.05821076 0.06982707 -0.014217903 -0.065478496 -0.00025711177 -0.022873081 -0.029447114 0.015801247 -0.02292391 0.026847815 0.03025043 -0.03982987 
-0.04546443 0.03267461 -0.07320769 0.016268775 -0.031703826 0.029518392 -0.0561789 0.035460062 0.05059582 0.036528863 0.07683814 0.059840363 0.08731151 -0.040373534 0.0040206206 0.028011218 
0.07445597 0.051140506 0.08626862 -0.06634582 0.03772387 0.05921399 -0.081904925 0.01789658 -0.011393454 -0.07710483 -0.043791663 0.055507153 0.04771275 -0.040541273 -0.03186672 0.010557481 
0.09676135 0.024525754 -0.01325769 0.060372114 -0.00601907 -0.027548285 -0.035006203 -0.067752406 -7.893364e-05 0.040538933 -0.002550254 -0.02240135 0.06749225 0.009618518 -0.0647037 -0.05537706 
0.02320105 0.005936023 0.06574739 0.08651784 0.010414997 -0.048436087 -0.08284614 -0.08004048 -0.041413873 0.023827823 -0.022152686 0.006963845 -0.038125563 -0.08054663 0.09151243 0.039555043 
-0.07634869 0.031419586 -0.012848229 0.048966642 0.030348863 -0.07449147 -0.061093554 -0.103794046 0.04976182 -0.06948889 -0.12522659 -0.07970758 0.08238948 -0.05954805 0.11404608 0.06261153 
-0.015536809 -0.08728407 -0.0777472 -0.06704564 -0.026817163 0.050120626 0.054613426 -0.023485104 -0.02546538 -0.056409508 0.068918146 -0.040639356 0.012755795 0.006685248 0.054097433 0.008031109 
0.081567936 0.11244236 0.0489601 -0.00024902265 0.011531141 -0.005032649 0.011438707 -0.059911586 0.07797776 0.048350837 -0.09744499 0.05459413 0.019052304 -0.028640706 -0.05840456 0.079288445 
0.012643838 0.09128758 -7.678233e-05 -0.021488521 -0.025324069 -0.06740972 -0.09052213 -0.06529782 0.005328433 -0.102102764 0.0426685 0.047660206 0.009414767 0.082638904 0.03456481 0.124118485 
0.047359187 -0.0033135302 0.024464492 0.0038234761 0.01640363 -0.07314452 -0.036655754 0.0036602733 0.050522063 0.05935018 -0.058149632 0.08462406 -0.026724223 -0.052346095 0.05123522 -0.077723265 
0.014343858 -0.015674924 0.03148409 -0.07955631 0.058323782 0.049140375 0.09544626 -0.08246962 0.0477655 0.053641196 0.0879963 0.04515325 0.055985775 0.06254275 -0.0705584 0.05360005 
0.027625037 0.035466515 -0.053697396 -0.08014012 -0.092286944 -0.08773759 -0.039262474 0.0837778 -0.013320678 0.018142862 0.06707456 -0.10655376 -0.07437704 -0.027194139 -0.08485313 -0.07100158 
-0.06633041 0.027449757 -0.023406003 0.08093153 0.0059612812 -0.048231207 0.009708683 0.0002539503 -0.039390497 0.10126667 0.087462045 0.0021469428 -0.08349038 -0.058022086 -0.043923464 0.022319589 
-0.004052225 -0.039892178 0.04385899 0.05315151 -0.07340537 -0.041634183 0.07438462 0.08110291 -0.005929045 -0.023106536 0.08912473 0.039758563 0.057466332 -0.043752257 0.016289756 0.08075429 
-0.048413947 -0.071256004 -0.051635597 0.066407025 0.036379345 0.027037885 -0.068078846 0.013050932 0.07716584 -0.057165194 -0.04031558 -0.0056865006 0.089104496 -0.059500266 -0.07323958 -0.040891528 
-0.0026857792 0.08661689 0.08836355 -0.046132978 -0.040051557 0.083954774 -0.04199733 -0.08245988 -0.08716923 0.09287474 -0.04217562 -0.067265004 -0.039672535 -0.047101825 0.10300391 -0.007196846 
0.01002394 -0.04013484 0.030184774 0.09071351 0.020166231 -0.05651601 0.021803241 -0.021765752 -0.07523267 -0.048940238 -0.102585234 0.013016589 -0.022729326 0.0037621758 0.029034667 0.081829615 
0.062717855 -0.009189256 0.078026384 -0.08230261 -0.034627244 -0.053761385 -0.025888413 0.05396765 0.07349032 -0.026799312 -0.05940573 0.017779596 0.013497906 -0.08186828 0.049411558 -0.008385412 
-0.05876011 -0.033291537 0.04690896 0.10588533 -0.014579175 -0.114063084 0.096013814 0.049223844 -0.0629781 0.048311107 0.05024642 -0.037998613 -0.0140621755 0.07052057 -0.077421635 0.039243396 
-0.005317641 -0.0771679 -0.08543721 0.06149305 -0.0073921205 0.051553693 0.05973058 -0.016896442 -0.04089081 -0.04686023 0.044374578 0.05696123 0.045038093 0.086865924 0.086935446 -0.06867927 
-0.019848004 0.05752088 0.008867114 0.0075573935 0.10177459 -0.08395092 0.09657967 -0.04591439 0.08700051 -0.034683533 -0.08256987 0.0020332942 0.09300106 0.07091008 -0.023773767 0.06318212 
0.045454342 -0.11603676 0.09871166 0.027027715 0.10795859 0.05139149 -0.027845148 0.046116214 -0.019374445 -0.056498192 0.011207386 -0.08711863 -0.0013168472 -0.03554078 0.098762445 -0.015186296 
-0.029277226 -0.027481101 -0.019450003 -0.043762546 0.031102499 -0.039368547 0.024496475 -0.048808817 0.021257155 -0.01548869 -0.07369907 0.0059027453 0.06908369 -0.010967518 0.06902781 0.005541713 
0.06897056 -0.056512523 -0.06358327 0.024323052 0.07939587 -0.011393331 -0.03945059 0.07397246 0.013530172 -0.0020874143 -0.07875725 0.07797689 -0.06411105 -0.06591376 0.02056803 -0.0058282544 
-0.0005547536 -0.07400651 0.047679216 0.037462223 0.108506404 -0.030240599 0.099561594 -0.084828936 -0.051199157 0.099231 -0.034931395 -0.084932916 0.027527044 0.0667724 -0.0114799375 0.024870446 
0.033242565 -0.08787479 0.09514952 0.12510183 -0.05578145 -0.11861833 0.07571259 0.06942869 0.070131525 0.0766348 0.023680167 -0.00081622496 0.021125076 0.009367468 -0.033717565 -0.07532633 
0.03989109 -0.020350827 0.01192459 0.069217525 -0.005004667 0.07778936 -0.08729697 0.06544258 0.08770228 -0.095077746 0.07475818 0.07509229 -0.086841725 -0.02111569 0.044868067 0.0755261 
-0.078213856 -0.082749955 0.046219505 -0.0067415857 0.09051623 0.06739851 0.0673835 0.011592576 0.075076684 0.0128404265 -0.06390983 -0.007245623 0.014290991 -0.05433691 -0.06503872 0.0044271364 
-0.037959076 0.05170808 0.092214875 0.066121824 -0.08211165 -0.08974805 -0.010342811 -0.075268365 -0.042405628 -0.078596786 0.041629735 -0.08617167 0.01489365 -0.05119892 0.034489762 -0.043153036 
-0.009887746 0.08665221 0.025332795 0.024207242 -0.037781935 0.014895203 -0.030756406 -0.043619346 -0.06328307 -0.011935515 0.0025391525 0.009548294 0.028449917 0.07667462 -0.014640418 0.075414166 
-0.051321626 0.026258372 -0.054141205 -0.064520895 0.03372788 0.0075747455 0.06273102 0.03835202 0.067798555 0.083543286 -0.084371805 -0.048184298 0.01834149 0.043065634 0.09226148 0.003196907 
-0.027396988 0.07162245 0.041429017 -0.07661364 0.02508922 0.014087416 -0.0846134 0.03248241 -0.071288764 0.12323808 0.07706757 0.022496881 -0.01544879 0.032520235 0.081474975 -0.020246938 
-0.09691385 -0.044775642 0.08140814 0.07337784 0.03651409 -0.07832191 -0.019293997 0.06962686 -0.07216415 0.021608196 0.0036918763 0.06734546 0.03946023 -0.08204522 0.014078078 -0.006839529 
-0.083246715 0.034244813 -0.0052154404 -0.10241886 -0.025114797 -0.07654325 -0.06275862 0.017380144 0.009803878 0.018815557 0.042268623 -0.02604498 0.076958776 -0.0014548129 0.053848173 0.0082785925 
0.06748671 -0.0051343013 -0.08660889 0.024709476 0.06387753 -0.01453526 0.01639123 -0.012771382 -0.08213277 -0.06485298 0.048595436 0.09513587 0.03493577 -0.03873415 -0.02928888 0.026370814 
0.04940009 -0.06277105 -0.073056504 -0.07438854 0.11893597 -0.008444265 -0.06889869 -0.078497276 -0.038688485 0.058376774 0.04734103 0.010565231 0.09022658 -0.06915163 0.022690978 -0.039313007 
0.055807833 -0.003914419 0.042893182 -0.00085381616 0.07866415 -0.09779443 -6.796498e-05 0.0013348691 0.006678658 -0.06616527 0.062083643 -0.051996265 0.051306583 0.0105508035 -0.017429568 -0.008647069 
0.01686788 -0.12629594 -0.010880822 0.07907284 0.020531425 -0.003322032 -0.0022939502 -0.08321747 -0.07982422 -0.038986035 0.071561456 -0.076785006 -0.019263355 0.07344299 0.05914671 -0.060529478 
0.02343982 0.060308926 0.05924551 -0.03429205 -0.07787712 0.012043638 -0.074308835 -0.048161056 -0.005685803 0.07387104 -0.06070737 0.09797526 -0.035577785 -0.011921002 -0.03678162 0.096088596 
-0.0126355905 -0.017307239 -0.030508643 -0.0045407075 -0.05882854 0.0930294 0.021343369 -0.096467055 -0.023444507 0.06315805 -0.057656784 0.07054673 0.08336302 0.043143924 0.056854397 0.09267854 
0.030004622 -0.07570467 0.04292974 0.04810766 -0.020567158 -0.0021204115 0.038891118 0.024131272 -0.03592832 -0.030514723 -0.038868427 -0.051372435 -0.019531231 0.01663358 -0.020917648 0.09795989 
0.054110445 -0.020967733 0.06987134 0.05309338 -0.04143272 0.08695738 -0.052893966 -0.02100646 -0.096146904 0.104901746 -0.018415427 -0.041806635 -0.07704961 -0.008256728 0.09593693 -0.06250824 
0.0068796133 0.07574598 -0.048930842 -0.0070846626 0.030516721 -0.055637106 -0.0020801732 -0.03165291 -0.042292874 0.0036025392 -0.025281005 0.031878572 -0.045830783 -0.08094918 -0.07434014 -0.06610183 
-0.02382339 0.034736384 -0.06995431 -0.1111977 -0.024417283 0.09871207 0.043622084 -0.03278796 0.0074123177 -0.04464701 -0.06422142 0.048560843 0.083947994 -0.08180387 0.112583436 0.10579539 
-0.060679037 0.0684349 -0.030355716 -0.003684642 0.053033706 -0.03087374 0.06873008 -0.01291438 0.007529048 -0.11680206 0.080229 0.08621611 0.04378313 -0.05983156 -0.012180017 -0.0057430896 
0.078828305 0.09992597 0.020567626 -0.093069054 -0.03422117 0.06702099 -0.050331686 -0.07600216 -0.012593594 -0.07361171 -0.043340545 -0.019766131 -0.036208916 0.0462767 -0.058533084 0.119072475 
-0.034698956 -0.04602764 0.03955682 -0.041023705 0.03562801 0.064001426 0.010308104 -0.062571764 -0.06560795 -0.12384362 0.016980695 -0.0614424 -0.01332345 0.06387576 0.07837005 0.057906907 
0.010897365 -0.038968112 -0.03665181 -0.036922585 -0.0742398 -0.0018229748 -0.07139113 -0.04001548 -0.08253454 0.018075567 0.07595568 0.02971566 -0.059248682 -0.064699 0.003257111 -0.08371507 
0.06500687 0.000943016 -0.063579485 -0.011642347 0.01949063 0.010327217 -0.040855438 0.07289934 -0.021810772 -0.028540213 -0.077015705 0.032561507 -0.050210558 -0.08312705 0.03491734 0.12593375 
-0.033928942 0.07845278 -0.039819773 -0.08727955 0.010247979 -0.08559018 0.012197413 -0.08205701 -0.07835318 -0.008562494 -0.09606106 -0.06633803 -0.06115369 0.09519391 0.10040351 9.61903e-05 
0.027277157 0.08276827 0.07149717 -0.040047813 0.016783187 -0.03925317 -0.019031018 -0.013766678 0.05767322 -0.00059087336 -0.036157425 0.053874474 -0.057704758 0.051255167 -0.013174269 -0.06577395 
0.04335216 0.10310872 -0.004179342 -0.028655404 -0.024044296 -0.061230376 -0.035625774 0.041489378 0.08457148 -0.03202934 -0.05339768 -0.053100593 0.043251373 0.06057497 -0.036206238 -0.004957973 
-0.07401586 -0.01398353 0.019166945 0.060895037 0.0013097784 0.09238287 -0.018240793 -0.068372466 -0.06805937 -0.08121397 -0.1001261 -0.014112653 -0.00035743028 0.039884172 0.008059902 0.069327414 
0.0003534558 0.011957037 -0.02441115 0.07416281 0.08208284 0.011303949 0.04959929 0.06601616 0.031513277 0.114657074 -0.0795294 -0.06873745 0.07712606 0.07803141 0.04390446 -0.07365368 
-0.08917328 -0.01713805 0.042625666 -0.059021067 0.001695724 0.07903849 0.0046803285 0.07960937 0.07143124 -0.004495488 -0.08173944 -0.017413955 0.07992077 -0.05418944 0.031686988 0.016345724 
0.06378422 -0.0685253 0.088817455 -0.0910783 0.077279344 -0.019062938 -0.012498532 0.085340224 -0.037054975 -0.044771917 0.05707427 0.027324691 -0.065975934 0.07001548 0.06900277 0.08276778 
0.009610519 0.026839228 -0.042191368 -0.0063568125 0.00772559 0.0003468863 -0.057598483 -0.05118642 -0.04075339 0.0049333028 -0.071638376 0.057090897 0.015993183 -0.029215636 0.0048497696 -0.06949674 
-0.066044085 0.09162583 -0.008796587 -0.08736364 0.04472738 -0.07810479 0.04333513 -0.010282885 -0.06277691 0.0033357216 0.03294282 -0.013893469 -0.04302617 0.07487865 -0.005824265 -0.0026729149 
0.023728928 -0.07840669 -0.050407324 0.05271835 0.019975333 -0.015936326 -0.08746344 0.03101423 -0.062299397 0.06639378 -0.07500293 0.055483885 -0.01861811 -0.03397403 0.0018122622 -0.022522721 
0.063590795 0.115367725 -0.036392983 0.046251792 -0.03154534 0.006719191 0.020976348 0.0019044749 -0.03167027 0.015809974 0.040814634 -0.043650582 -0.009755243 -0.046513833 0.04411447 -0.096745275 
0.08467771 -0.075553946 0.036221586 0.07687378 0.03770064 -0.00818421 0.0074159615 -0.06416837 -0.07220626 0.10884742 -0.06004625 -0.038370118 -0.016858166 -0.037250508 0.08410684 0.0063942536 
0.02513399 -0.05526834 -0.063765235 -0.08156881 -0.041051187 -0.03854546 0.08074578 -0.01725371 -0.063318215 -0.012050979 -0.08056702 -0.0742411 -0.0014031016 -0.019714471 0.027842775 0.061108828 
-0.017631233 0.08194777 0.0023618517 0.053401634 -0.04409423 0.09646939 -0.10731626 -0.05243406 -0.038848147 -0.02948264 -0.082080714 -0.03500059 -0.031578105 -0.08691045 0.030791266 -0.07223102 
-0.033191707 -0.086205475 -0.08099033 -0.017764295 0.054292154 -0.048343886 -0.04864016 0.062955484 0.04257293 -0.00917376 -0.097900085 0.03007963 -0.066614024 -0.017696315 -0.08311968 0.019884594 
-0.037346713 -0.020761753 -0.026270028 0.09397995 0.0026472604 0.029070048 0.050525784 -0.032195844 0.041420966 0.10154358 0.08144889 0.07487298 -0.027677625 -0.07944151 0.05604888 -0.024160746 
0.039530724 0.016663464 -0.08675895 -0.022045316 -0.03350084 -0.07318719 -0.0012475377 0.009813801 -0.009885144 0.05520679 -0.0036366207 -0.020448996 -0.013114648 -0.059639264 0.021784741 0.04187467 
-0.003983327 0.037688624 0.037139665 0.069413535 -0.012778826 0.043711856 0.037220582 0.06465205 -0.08446707 -0.010646303 -0.07870047 0.04054403 0.11333202 -0.05860414 0.12681228 -0.07192735 
0.023381077 0.089242004 -0.056044426 -0.0066520837 0.11333076 0.09304839 -0.078926936 0.040402994 -0.006127364 -0.054895494 0.06988486 -0.020216705 -0.01446738 -0.0815967 0.098258 -0.0036947746 
0.025393335 0.0030544011 -0.05547055 -0.052397925 0.049018558 0.04535112 -0.043722305 -0.086506516 -0.021174232 -0.03774816 -0.016835531 -0.06307511 -0.056885526 -0.01965386 0.05408767 0.014020821 
-0.06839276 -0.016492078 -0.039622616 -0.034572672 -0.0039958972 -0.015726728 -0.02037709 -0.0033561867 -0.05931627 -0.07170603 -0.053763278 -0.016351705 0.06533007 0.009823369 0.08608323 -0.0461256 
-0.048327263 -0.021409944 0.05109091 0.0104440395 -0.056826655 0.051635437 0.03677548 0.053400192 -0.020441033 -0.05047855 0.05044067 -0.070993684 0.0007004203 -0.08782505 0.049338225 0.024670608 
0.0030709645 0.049111567 0.08580913 0.05317144 -0.01642044 0.073624544 0.0065739555 -0.028179742 0.039913915 0.038405426 -0.014385709 0.021324893 -0.02858627 0.08751467 0.061673373 -0.027391454 
-0.08587858 0.09547785 -0.03994749 -0.0332439 0.073607765 0.046476897 -0.06376602 -0.018095963 0.07856527 0.071205266 0.0693885 0.0012494302 0.051788058 -0.07322805 -0.10461889 -0.079668105 
-0.032714855 -0.039058622 -0.023322068 0.07429295 0.004971612 -0.07018312 0.07773747 -0.071344316 -0.07307635 0.029674627 -0.02781186 -0.07829078 -0.052923534 0.05624685 0.11235508 0.073226444 
0.08596224 0.0343789 -0.08122536 0.0029727118 -0.05570721 -0.09324362 -0.04580799 0.08276591 -0.05532227 -0.042802274 -0.07923758 -0.07398687 -0.07367876 0.08379299 0.0442737 0.011618688 
-0.019902367 0.012492718 0.09987381 0.04704065 0.06258891 -0.016549872 0.06435182 0.007650784 -0.08554883 0.056230105 0.034212355 -0.0054497365 0.07868332 -0.058589566 0.044501442 0.07257212 
0.021360636 0.040153217 0.06902837 0.026652131 -0.019456727 0.0035697978 0.004725064 0.06361931 -0.0056704534 -0.087965816 0.013004628 0.053221982 -0.028395388 0.052544773 0.015446994 0.12136959 
0.0027090106 0.060726427 -0.034421783 -0.05603631 0.03515735 0.039957218 -0.079330765 0.040548682 0.0033313602 -0.048402008 0.054580152 -0.076686345 0.07525102 -0.037007764 -0.0044877427 0.06650909 
0.11742497 -0.07961941 -0.0021986272 -0.06426659 0.12231956 0.10792692 -0.029899282 -0.057951134 -0.06755729 -0.050152443 0.068235315 0.03013437 0.0045861905 0.039194852 -0.08133192 0.027498432 
0.020882605 -0.07909135 -0.034389254 0.11360787 0.04536563 -0.09572605 0.0563282 0.026178006 -0.025798185 -0.08262157 -0.08216173 -0.042861696 0.023447098 0.003295073 0.051761463 -0.08622265 
0.017404951 0.11250868 0.1122142 0.1074234 0.10438806 -0.055096045 -0.02667938 0.034833718 0.06269691 0.016372679 0.011232268 0.070231855 0.08530152 0.025286175 -0.041129973 0.038486138 
0.040488698 0.05800542 0.07779167 -0.027242154 0.07934927 -0.02793481 0.07333547 -0.10414981 -0.00011731013 0.061103925 0.0763236 0.032389045 0.050938014 -0.059606038 0.11879741 -0.0477231 
0.07416922 -0.067517646 0.0735011 0.064290754 -0.02937467 -0.001353754 -0.08044122 0.04319168 -0.09626052 -0.047253486 -0.029786054 -0.04869957 0.07226736 0.033123963 -0.026421415 -0.03362142 
-0.070553996 -0.02540129 -0.04749907 -0.013588459 -0.084007025 -0.053334907 0.043622077 -0.0203167 -0.05995683 -0.027153675 -0.044028822 0.08162811 -0.04576826 0.018466301 0.061152935 0.005692951 
0.10361188 -0.112539545 -0.073103376 0.080537386 -0.044719566 0.025601465 0.013278229 -0.04711552 -0.043835435 -0.05120787 -0.025477689 -0.037889782 -0.001751136 0.055042133 0.042423412 -0.081421465 
0.017534597 -0.018998014 0.001101194 -0.033939 -0.028799554 -0.109914854 0.08516766 0.018093206 -0.00789512 -0.06960511 0.07972535 -0.07263373 -0.08056105 -0.0780771 -0.027209027 -0.053827796 
0.01762853 0.058809143 -0.018688586 -0.030009558 0.024496926 0.08399322 -0.051898047 -0.07301962 -0.01805328 0.10164389 -0.07367738 -0.01671419 -0.0075801383 -0.0035546005 -0.056027625 -0.07364584 
-0.024869012 -0.063507445 0.05667153 0.0015190676 0.059026346 0.054265738 0.0728179 0.06775229 0.024090322 0.10599586 -0.025530115 0.020501409 -0.04949349 -0.04346639 0.058639336 0.036555164 
0.019198174 0.052228164 0.04367525 -0.037945036 0.05649859 0.06205559 -0.010537435 0.08742332 -0.031402513 -0.051358145 0.028526213 0.030084161 0.08558124 0.03570305 -0.022601143 -0.025463484 
0.010854996 0.0023750248 0.07981891 0.009043473 0.006283415 0.086183414 0.105555445 0.08810884 -0.09637761 -0.08299434 -0.08104345 -0.027195413 0.05331409 -0.03072709 -0.097225994 -0.057847053 
-0.00084308046 -0.065267086 -0.08387734 0.10247265 -0.020025542 -0.0647672 0.061732795 0.102032945 -0.055809107 -0.07361284 -0.028220901 -0.074045 -0.028150527 0.079047255 0.08852204 -0.059139006 
-0.075261205 -0.01370749 0.024998639 -0.070591405 0.02153972 -0.025292873 0.05012901 -0.07519604 -0.016683677 -0.013031916 -0.076993294 0.07423718 0.04596974 0.06933527 0.07117164 0.071867615 
0.063715525 0.085931085 0.085301705 0.075177856 -0.0769043 0.016283015 -0.0039024502 -0.081404634 -0.0059677437 -0.033930376 -0.079512864 0.018094251 0.030199185 -0.07896403 -0.030752098 0.085166626 
0.049106613 -0.014048306 0.012849442 0.08297447 -0.031661656 0.035118148 0.01974309 0.086818695 0.036035135 0.03348999 0.06324958 -0.04789678 0.0608958 0.047340013 0.04978983 0.073577374 
-0.012814443 -0.07055727 -0.030463101 -0.035875726 -0.02476881 0.050582524 0.08018556 -0.035211943 0.06911627 0.04029574 0.050196335 0.059121605 0.03816607 -0.014210102 -0.009177234 0.008319418 
-0.054403294 0.032125402 0.004786866 0.07752943 -0.031397905 0.0048341295 -0.086967945 -0.11182068 0.06856816 -0.054816335 -0.008319547 -0.029806407 0.07935947 -0.0828152 0.12305649 -0.0012762984 
-0.069312856 0.070635416 0.07636758 -0.047241118 -0.026782023 -0.073506325 -0.020618988 0.065499276 0.056591097 0.07369052 -0.042612605 -0.029937241 0.07887464 -0.072035424 -0.002784615 -0.113809496 
0.020606723 -0.02466014 0.03942673 0.021258336 -0.027104752 -0.079143435 0.05171045 0.006712221 -0.057063617 -0.019653426 0.030127222 0.031830624 -0.033121232 0.004774049 0.051609784 -0.08588242 
-0.107040964 -0.029508399 -0.07058043 0.052314106 -0.049639314 0.04704807 0.0052170847 0.009050623 0.06728262 -0.09602485 -0.011159318 -0.04232204 0.030889288 0.0021012228 -0.02019216 -0.004455425 
0.023418464 -0.007560207 0.055887923 -0.07747609 -0.022660038 -0.0828041 -0.04505055 -0.02389747 -0.029226925 -0.070350826 0.08948682 -0.05397355 0.00017574492 0.037876055 -0.04394654 -0.011261461 
-0.044452805 -0.08517321 -0.05762429 0.048650634 -0.026572242 -0.031388313 0.07699246 -0.077564105 0.052331194 0.07602639 -0.03415159 -0.058788825 -0.06611219 -0.08278734 0.07055734 -0.020995867 
-0.040484615 -0.08671899 -0.08290281 -0.0847279 0.05177878 -0.025593473 0.1230628 0.123283215 0.058410533 -0.06204779 0.013748472 -0.10296724 0.056752622 0.012109908 0.07217646 -0.00905871 
-0.025808962 0.020149456 0.1074972 0.098863356 -0.07742832 0.028485553 0.048604473 0.049949985 0.050482657 -0.048334133 0.015358264 0.04159176 -0.03642485 -0.034281984 -0.02748652 -0.035394665 
-0.06980959 -0.05278439 0.020507297 -0.03976236 -0.1162966 -0.02369148 0.04636403 -0.04743359 -0.015246823 0.09966218 2.0477148e-05 -0.049410637 0.052132826 0.056966312 -0.1184724 -0.057458717 
0.0029765824 0.04221834 0.00894889 -0.03680811 0.06590065 -0.020345164 -0.023296906 -0.019134546 0.07583935 0.014841233 0.059739675 -0.025637435 -0.005423651 0.010444622 0.02641435 0.07644981 
-0.01270623 0.014968882 -0.07649642 -0.023550844 -0.02248786 0.0023936797 -0.08580702 -0.039665915 -0.015475467 0.032076858 -0.015956212 -0.05714653 0.059086047 0.020672204 0.07457567 0.0602671 
-0.033238746 0.018255046 -0.039680604 0.017037129 0.0017858506 -0.07957662 0.045690965 0.047244184 -0.06382897 -0.060714833 -0.020338636 -0.05652207 -0.029433355 0.0544233 0.043042608 -0.052925617 
-0.06293064 0.02376605 0.07371352 -0.06314108 -0.0038200442 -0.07946727 -0.07992674 0.07274824 -0.07192699 -0.07952344 0.12648448 0.06250808 -0.046930216 -0.016225075 0.07556047 -0.011146812 
0.09605598 -0.004652504 0.02748934 0.033135153 0.11427932 0.03937097 -0.024301386 0.0085731065 -0.013299163 0.06761965 -0.020292176 0.05563018 0.053469796 0.07689079 0.034226567 0.09264885 
-0.10373963 0.07675148 -0.06872366 -0.024931552 0.059001885 -0.050274402 -0.048149433 0.030823123 -0.08221564 -0.07948342 0.034532573 -0.041215286 0.059721112 0.048895817 0.10454057 0.029191088 
-0.07731099 -0.023172239 0.009653591 0.038363397 -0.0043668426 -0.084684 0.059040967 -0.034781896 -0.11419028 0.10821018 0.053064503 -0.05413703 0.072338134 0.046794396 0.10252559 -0.028637722 
-0.061429027 0.034630485 0.035450865 -0.08199402 -0.037500426 -0.065622516 -0.06602394 -0.068613105 0.01880504 -0.035118923 -0.037548065 0.01992809 -0.04489922 0.059679337 0.06172 0.0067217876 
0.025806423 0.0156928 0.05121774 0.079608254 -0.029529251 0.010056099 -0.02450975 0.019201463 -0.07445276 0.1079567 0.05366981 -0.030802457 0.06143169 -0.07027189 0.11494387 0.09830813 
-0.11550048 0.09340944 -0.057366487 -0.11617961 0.048831 -0.055071022 0.052953094 0.065193996 -0.010907849 -0.097362936 -0.07584612 -0.046677876 0.049713716 -0.0629935 0.042299367 0.08787574 
-0.098026864 -0.07273385 -0.07555926 -0.04943383 -0.023919513 -0.01930451 0.019440765 0.12755364 -0.07373194 -0.032118775 0.023768982 0.0022248533 0.024926612 -0.03203891 0.0007396067 -0.029558433 
-0.034097236 0.0049558845 0.05152341 0.11596004 -0.01663483 0.08740206 -0.06204374 -0.03967818 -0.028173996 0.027023124 0.033915486 0.02205115 -0.0778404 -0.021080852 0.04858688 -0.069887415 
-0.0801655 -0.05350127 0.10193469 -0.020582948 -0.04080944 0.04631912 0.004030727 -0.022454854 0.029770408 -0.025536342 -0.04708692 -0.032630946 0.060171444 0.011891869 -0.018619705 0.08641936 
-0.05652827 -0.010980617 -0.086983666 0.06111655 0.061342627 -0.011131634 -0.028215514 0.011513223 0.05283389 0.08246885 -0.074781686 -0.018070137 0.05813568 0.0146312 0.07623205 -0.0194709 
-0.007058042 -0.013319027 0.077587366 -0.025155962 0.06944751 -0.03387821 0.08166425 0.07458591 0.061799437 0.03243254 -0.04267164 -0.10179682 -0.075415775 -0.08254718 -0.010777164 -0.024258547 
0.076639704 0.070146255 0.03919546 -0.086030446 -0.039209224 0.1205477 0.024657756 0.04713516 -0.0071461266 0.035945166 0.0026745093 -0.04388846 0.07403798 0.06331294 0.06545275 0.074122995 
-0.071225196 -0.032122817 0.066627 0.09011384 0.03367532 0.08605352 -0.057795424 -0.056288827 -0.0075008376 -0.03844254 -0.08482115 -0.016733728 -0.004232271 -0.022362357 0.04113333 -0.08004925 
0.029465431 0.06796053 -0.045476172 0.08081274 0.033748705 0.121572405 -0.04937079 -0.030307401 0.07838511 -0.075208955 0.013353934 0.00092711305 -0.070858635 0.008350847 -0.053405825 -0.06371935 
0.0007293988 0.07065459 0.07185104 0.0053709857 0.025642145 0.08684764 0.07358988 -0.029635139 0.05004388 0.057873588 0.030443193 0.0070384042 -0.08126038 0.0033147244 -0.033684626 -0.05971967 
-0.12244372 0.10259631 -0.067120165 -0.0929198 0.060899265 0.063578084 -0.029375969 -0.03284006 -0.08333054 -0.11421665 -0.07323009 0.033624317 0.024981206 0.027122026 0.07587267 0.09205732 
0.07293973 -0.0044339807 0.04970326 0.039159194 0.11314385 -0.072597474 -0.083867356 -0.0019733515 0.05469067 0.016925808 -0.062286213 -0.03567903 0.037934612 0.022859477 0.06384163 0.049167655 
0.05253578 -0.043614347 0.0315399 0.080401435 0.07178252 -0.045506585 -0.024073455 0.074078344 -0.04360672 0.055089507 -0.1117343 -0.0058356877 0.009000477 0.07482279 -0.048510473 0.05268211 
0.028548578 0.059069872 -0.052859392 -0.0315822 0.021086356 0.0026831469 0.079259835 -0.048732333 0.018771138 0.051407497 -0.03349755 -0.052377436 -0.06117107 -0.006973459 -0.028729172 -0.019583255 
0.011755888 -0.046775494 0.0712712 0.03289135 0.09270548 0.045739602 -0.036674887 -0.02122314 0.07853764 0.036861185 0.02856078 0.060414698 0.034788765 -0.051225994 -0.07027686 0.04846173 
0.07195898 -0.051581528 0.07124269 0.031346995 0.06255173 -0.045182616 -0.06894448 -0.033782113 0.034982767 0.031200435 -0.04039065 0.07298839 0.028694814 0.038179096 -0.01607515 0.031351093 
0.0042794943 0.012893403 0.1265077 0.035860103 -0.051128734 0.050136857 0.024776306 -0.1101357 0.083642475 0.07119458 -0.0633998 -0.009832244 0.032623295 -0.00933702 0.009887304 0.08728634 
-0.05144981 -0.08745538 0.11688343 -0.07797314 0.047226086 -0.05327806 -0.06540761 -0.07474355 -0.07734949 -0.0024772945 0.100717455 -0.07019552 -0.01775314 0.07541033 -0.087947085 -0.02216339 
-0.009986779 -0.05581486 0.020782182 -0.004324784 -0.026635302 0.018235398 -0.047440868 -0.047298014 0.07062442 -0.02148633 0.07570496 0.0967998 0.016191049 -0.033994865 -0.08485028 -0.02533495 
0.02853324 0.088753566 -0.06721164 0.046685163 0.0012629792 0.09449568 0.014263768 -0.0379397 0.06961564 -0.003584934 -0.025164641 0.058268253 -0.07034838 0.027492728 -0.06410306 0.0345935 
-0.04603568 0.0040281964 0.01647434 -0.03301322 -0.014544091 -0.04822894 -0.0488253 0.0026373887 0.05816058 0.074801 -0.0045218365 -0.0453766 0.057016004 -0.007963693 -0.099474385 0.040550143 
-0.05911822 -0.035880692 0.040034723 0.08089758 0.026875416 -0.005255993 0.03886602 0.0534208 -0.024450935 0.08430875 -0.0473272 -0.043464195 0.014981858 0.017336147 -0.0418247 0.073205404 
0.03325817 -0.04029913 0.017666798 -0.03779332 0.1105533 0.12453485 0.012928153 -0.043380775 -0.015819589 0.020122994 -0.045406017 -0.07143907 0.024537003 -0.022478543 0.06939966 0.06959976 
-0.0843114 -0.07797973 -0.023298334 -0.06615125 -0.070105515 0.04502042 -0.077349074 -0.04644776 -0.023058712 -0.098642096 -0.061077874 0.081499994 -0.034457892 -0.013138102 -0.08162776 0.08642653 
0.06265422 0.087730035 -0.009520624 -0.032331705 0.056630857 -0.06825678 0.022485532 0.014603844 0.043988474 0.07711941 0.096622996 0.082092 -0.05619068 0.049730744 0.04120176 0.10434262 
-0.04692674 -0.03426754 -0.026952572 0.06769112 0.018363489 -0.08673353 0.06932383 0.022410871 0.049185086 -0.061175186 0.0683779 -0.035261728 0.06995604 0.008586674 -0.0051499894 0.028625589 
0.081675686 0.06648206 -0.06687377 -0.04357349 0.08191606 0.05470859 -0.04116337 -0.060210016 0.08824808 -0.024012262 0.087545976 -0.07329092 -0.026994456 0.06613461 0.07118454 -0.073060334 
-0.07960758 0.024294144 0.0103436895 -0.064291805 0.11462633 -0.030367136 0.1015885 0.0054908292 0.007870858 0.015915444 -0.05330676 0.017419487 -0.028271493 0.062023852 0.02566557 -0.040843595 
0.07503777 -0.043819565 -0.029067311 -0.06842465 -0.00853826 0.012380274 -0.03640249 0.008043418 -0.068796426 -0.018750407 -0.07563373 0.055903383 0.0028494732 0.0015100177 -0.028676758 -0.012494036 
0.03942778 -0.058330152 0.067484766 -0.09474178 0.04593108 0.027260369 -0.030318452 -0.017147088 0.072474204 -0.008325127 0.037822057 0.009018569 0.0487988 0.044233467 -0.078785196 -0.048853826 
0.08592416 0.05313787 6.971895e-05 -7.770529e-05 0.082409285 0.022705384 0.015987862 0.019539779 -0.029712213 0.068071425 0.030044293 0.0922606 -0.0009414542 0.01756189 0.07400175 -0.0102929445 
0.040995702 0.03659024 -0.08655194 0.0057195765 -0.108126596 0.062273033 -0.002399827 -0.051892728 -0.07524834 0.085210845 0.055574723 -0.025739815 -0.10143395 0.056749407 -0.08786507 0.086693175 
-0.10107299 0.0357498 -0.068734415 -0.09285294 0.041708406 -0.036091525 -0.021710634 -0.069501035 0.031800024 -0.09551872 0.07737876 -0.081860945 -0.049579997 -0.055112217 0.0072444202 -0.07126731 
0.035916552 -0.045804624 0.03755284 -0.06890813 -0.030898504 -0.04701226 0.054715563 0.021490147 0.07305645 0.08341746 -0.0040056063 0.015428752 0.033110023 0.06403717 -0.042922642 0.10165001 
-0.00054256717 0.021562634 -0.054561518 -0.05132402 -0.08170742 0.0062867706 0.03741577 -0.015201135 0.029897584 -0.06202101 -0.0151877785 -0.0017657062 0.05203044 0.062138114 0.075302996 0.041418448 
-0.05862752 -0.026569687 -0.043845195 -0.09879794 0.07067273 0.010175648 -0.050974976 -0.014821876 -0.025175126 -0.02931477 -0.045980796 -0.019487176 0.085948884 0.061308257 -0.07789221 0.03795823 
0.12008814 0.10199806 0.046673715 0.034981556 -0.006061398 -0.009547665 0.008744307 0.04753318 -0.064572304 -0.035437666 0.054144233 0.02048815 -0.03982021 0.014271675 0.07224914 0.013164329 
0.044740133 -0.08696497 -0.06645284 -0.09910687 0.11471775 0.030054754 -0.051412944 -0.06660344 -0.093104154 -0.06982682 0.05692693 0.09808035 -0.050328802 -0.016945893 0.03325723 0.010677346 
0.006738192 0.028886277 -0.034857485 -0.08093271 -0.039996095 0.0028209744 0.012058689 0.04494493 0.05940836 0.05554469 -0.05460593 0.10539572 -0.072726175 -0.03795098 0.007560052 0.11221088 
-0.0063542505 -0.013383278 -0.029307645 -0.12425456 0.05073139 -0.014266367 0.053044077 -0.08574071 0.04072531 -0.1024268 0.009478063 -0.006951357 0.08369766 0.088469125 -0.0553287 0.027643714 
0.111883074 0.06444635 -0.042179793 0.013996177 0.123496115 -0.033406425 -0.035624392 0.03164436 0.048045278 -0.08360901 0.003311905 -0.031001486 -0.0027856552 -0.022825608 -0.03528248 -0.0049061426 
0.014900368 -0.046188597 0.024859922 0.091599956 0.0364268 -0.08587188 0.09402416 0.073927015 0.06389526 -0.02503647 0.09436363 -0.023560952 -0.0631597 0.010950104 0.07618332 -0.07784893 
0.0071240417 0.06819082 -0.010728093 -0.04593676 0.08101433 -0.078056365 -0.0053691505 0.06780017 -0.019236088 -0.044956967 -0.069178276 -0.04373678 -0.07046877 0.012427798 0.008648541 -0.06337037 
0.083441705 0.0010150113 0.087856784 -0.06012856 0.04621769 0.075625844 0.06550958 -0.044112664 -0.04966413 0.08821252 -0.022169746 -0.03323603 0.011859965 0.00814483 0.0699017 -0.040565953 
-0.08641845 0.052033782 0.11226775 0.08441379 -0.04002212 -0.06727824 0.005729145 0.05200163 -0.07780437 -0.042141847 0.05065107 0.015373401 -0.07807947 0.01194351 0.04819606 0.03802503 
-0.09719033 -0.030569924 -0.034832638 0.009080012 0.0056104288 -0.060342986 -0.040213306 0.08401559 0.029847577 -0.08033144 0.014900443 -0.026635006 0.0067963996 -0.06119816 -0.035129033 0.08828226 
0.057206318 -0.021499181 0.08813674 0.0050261486 0.07379001 0.033327017 -0.038248636 -0.04112742 0.05545516 -0.012524639 -0.05575857 -0.018531067 0.014785325 0.07593052 -0.015256593 0.01002472 
0.04597804 -0.026983745 -0.03889725 0.10098925 0.038506463 -0.028603224 0.037358075 -0.02095396 -0.0057278774 0.02432561 -0.08405987 -0.077377155 0.016480476 -0.06428308 0.030722348 0.042843595 
-0.044694398 -0.03399429 0.00019536057 0.02437413 0.022176366 0.03077287 -0.047761295 -0.045418423 -0.08467804 0.0717643 -0.008826701 0.028029907 0.015287662 0.058615495 -0.050405726 0.06932312 
0.051803768 -0.10682897 -0.08788205 0.06818901 -0.06874836 0.10121339 -0.024726735 -0.020369072 -0.019276913 0.019038247 -0.087017074 0.037144624 0.12473117 -0.038969103 -0.011588396 0.06426583 
0.012885774 0.04860011 -0.06392224 0.0027607146 -0.066676445 -0.03845134 -0.049653932 0.047767673 0.03027511 0.00095240964 0.020601952 0.03830061 -0.048987526 0.021696148 0.06114801 -0.044914514 
0.0790292 -0.07228261 0.04511566 0.012880248 0.06647028 0.052182123 -0.058296174 -0.068952024 -0.081790335 -0.0014318579 -0.02392343 0.017316824 -0.06885659 0.02512251 0.09931891 0.07302045 
-0.009178237 0.08619809 0.026696851 -0.10230696 0.07320735 0.09280382 -0.07953727 0.09662474 0.0018198001 0.049605515 -0.07351711 0.06793086 0.07496926 -0.008070405 0.024429645 -0.021074232 
0.027161095 0.05967495 0.0378639 0.09599392 -0.058386844 -0.09671149 -0.07774632 0.02788613 -0.052086007 -0.021135535 0.07264596 0.004721878 -0.06894801 -0.002651748 0.07342007 0.0105100125 
0.02429341 0.08925038 -0.014501776 -0.015657717 -0.09133224 -0.10571822 0.07914087 -0.07861538 -0.036478147 0.008791004 -0.081229314 0.0718405 0.029428946 0.009571187 -0.08109199 0.017529013 
-0.017004535 -0.017619781 0.05001579 0.052609764 0.021002838 -0.020215677 0.033249017 -0.074772716 -0.045097124 -0.050784096 -0.0407653 0.0067484854 0.051405273 -0.062495623 -0.0066949525 0.012563858 
-0.087935634 -0.020961383 0.0038921272 -0.0057882145 0.013195094 0.08718926 -0.015387078 -0.051240087 0.04572033 0.037187938 0.027098216 0.083231345 0.0055635185 0.087561436 -0.038690574 -0.084097736 
-0.046232443 0.07962724 0.04133575 -0.07477439 -0.019974843 -0.093997225 0.06980796 -0.0787453 -0.06215042 0.014815921 -0.006952914 -0.08375137 -0.03798549 -0.06566157 -0.079180256 -0.059276644 
0.068416126 -0.045870963 -0.0840527 -0.034973405 0.10278286 0.04394106 0.02739401 0.05654223 -0.041852072 -0.04758097 0.03927767 0.0007863965 -0.027750866 0.06960948 0.082510024 0.09141133 
-0.100839786 -0.044020467 -0.016674453 -0.05350478 0.03866142 -0.02203196 0.0077655585 -0.030654587 0.053458665 0.06400929 0.015060867 0.024789691 0.042389955 -0.04844679 0.123521194 0.1179531 
-0.02482967 0.045062225 -0.043471508 0.060159005 -0.01591619 0.005698832 -0.022946304 -0.057973016 0.016470427 0.05308839 0.057687737 -0.0488028 -0.07943957 0.058727566 0.078688756 0.07792422 
0.06903035 0.025933417 0.039795484 0.05995384 0.105949424 -0.08120415 0.015305693 -0.08715484 -0.048763923 -0.09237234 0.054390993 -0.06704649 -0.0053864084 0.047186293 -0.0072210957 0.088689916 
-0.07453881 0.08361522 -0.07926137 0.014281613 -0.065649465 -0.07876874 -0.001677477 0.116469756 -0.0067871087 -0.10013745 -0.1115832 0.044890642 -0.075085014 -0.045229804 -0.008084737 -0.07573925 
0.07095747 0.032316193 -0.069520295 1.962749e-05 0.04206856 -0.078428365 -0.06773491 -0.05996605 -0.0006301499 -0.0784603 0.038120307 0.076792434 0.045854457 0.0798184 0.063647464 0.062966704 
0.05368824 -0.0029736115 -0.0683297 0.06047971 -0.06414125 -0.07859954 0.013489539 -0.041303642 -0.00089773524 -0.095518865 0.04926788 0.033112284 -0.0865835 -0.0039652516 -0.021169351 -0.07743722 
-0.060754288 0.06798832 -0.0629331 0.044270616 -0.018826364 -0.043953165 0.012403152 0.08436883 -0.084508546 0.07461134 -0.08043357 -0.0584637 -0.06580567 0.006949689 0.021092933 0.056915928 
0.082463264 -0.029578678 -0.014976695 -0.053976912 0.08041747 -0.005242491 0.051144846 -0.10959501 0.08729448 0.032607656 0.111821435 0.11500029 -0.06968414 0.012150568 -0.06750546 0.057544548 
0.08955905 -0.006575708 0.038325734 0.040250473 -0.06345139 -0.020203525 -0.014052444 0.04310151 -0.06987866 -0.00036553247 0.041322198 0.056041572 0.08596106 0.0124808 0.026615947 0.0055986904 
-0.026308732 0.064897306 -0.061828513 0.019293858 0.03906445 0.053431597 -0.055515856 0.03258693 -0.03330263 -0.06881361 -0.08090168 -0.012347666 -0.004407832 -0.066910595 -0.07843654 0.06993746 
-0.08473129 -0.0024289824 0.07391114 0.050770212 -0.08344263 -0.039360408 0.07711482 -0.08527875 -0.0076689557 -0.0057240273 -0.018407471 -0.022289691 0.05497896 -0.0062846355 0.04685549 0.07023859 
-0.050835747 -0.07095784 -0.06419758 -0.08342379 -0.07624735 0.056442983 -0.059586 0.05847208 -0.08083353 0.021922005 -0.07435914 0.014312323 0.037961464 0.0046140216 0.07942615 0.11872025 
-0.023134664 0.019640513 0.019666875 0.052848272 -0.02586278 -0.01763854 0.09983381 -0.073131174 0.03711514 0.072707 -0.054496624 0.061698828 0.035103828 -0.044459343 0.07420534 0.04478725 
0.06659041 -0.07644301 -0.022963287 -0.013584139 -0.06375273 -0.10314505 0.11685266 0.009036931 -0.062830135 0.072048545 -0.038006198 0.03237258 0.06708583 -0.064988166 0.09606579 -0.0691442 
0.06703421 7.053274e-05 -0.10008163 0.045705 -0.0739588 -0.018247807 0.0014940078 -0.074557245 0.0041731237 -0.043923736 -0.07359734 0.012383849 -0.04939873 0.08605379 0.045009 -0.013064605 
0.048738737 -0.038085952 0.059967786 -0.08855846 0.03147833 0.013812528 0.04862779 -0.007753565 -0.003161315 0.06804181 0.041335315 0.08896957 0.05636791 -0.009905014 0.07085118 -0.018396255 
-0.098052435 0.12268178 -0.026500426 -0.038589306 0.0022797848 0.08957842 -0.052156206 0.00948029 0.1245764 0.029801538 0.0641145 0.037405543 0.014061181 0.06236285 0.0035621931 -0.06834755 
0.060288083 0.00917829 -0.013390747 -0.062546484 0.027575316 0.093246385 -0.042283844 0.05244847 -0.044274222 -0.11636812 -0.0550759 0.0068326304 0.014999883 -0.0055240775 -0.08609284 -0.08357271 
-0.026634306 -0.073838726 -0.042129748 -0.093054146 0.0017076982 -0.026721578 0.07104635 0.07004182 0.071764536 -0.095360026 0.0457229 0.10700322 0.058348563 -0.05232471 0.049765654 0.005516463 
0.023981461 -0.09414887 -0.081694916 0.10230788 0.10957852 0.03003161 0.11932408 0.009637358 0.08625349 -0.039800502 -0.0494409 -0.07970557 0.09209074 0.060893152 0.1136886 -0.041432444 
-0.0130740795 0.05381183 -0.029989677 -0.06917219 0.06611651 -0.027534513 -0.0021960542 0.007649827 0.027280282 0.021336893 0.09606329 -0.08130008 0.016240511 -0.05025961 0.07204591 -0.029943148 
0.0005002675 0.0028967047 -0.03853194 0.022739898 0.029051043 -0.069034606 0.019650392 0.074850984 0.056035697 -0.013655524 0.01676694 -0.0022782984 -0.002604983 -0.04958182 0.0005173775 -0.003174086 
0.015770964 0.008043095 0.028370691 -0.009993343 0.11105737 -0.032389697 -0.035392504 0.073021166 0.024898801 -0.005835267 -0.07489111 -0.034981083 -0.008335362 0.051210288 -0.04276318 -0.026048057 
-0.049916793 -0.083417386 -0.058310132 0.080133386 -0.01725962 0.06541972 -0.076727815 -0.014739706 -0.02342048 -0.01816379 0.07325693 -0.022180432 0.0403874 0.06551902 -0.031249207 0.00849839 
0.04143184 0.08083111 0.047902633 -0.063242465 0.0409777 -0.006381431 0.04100546 0.014528141 -0.022432536 -0.034169704 -0.048537232 0.01991029 0.015056104 0.03599454 -0.0622276 -0.021479564 
-0.07689481 0.09788289 0.062744565 -0.013744759 0.11525444 0.118904695 0.06490347 0.036821377 0.05647999 0.04470672 0.0068337778 -0.032916572 -0.08626076 0.055681385 0.0807484 -0.035647713 
-0.038243175 -0.025111381 -0.009539176 -0.043178573 -0.07611267 0.01902073 0.039186217 0.11818283 -0.056372527 0.08756562 0.013241139 -0.08404193 -0.07213254 0.028480006 -0.040530868 0.049255773 
-0.07539452 0.021438513 0.012873736 0.109852 -0.08422076 -0.012606572 -0.0072593796 0.10396646 -0.0751973 0.090828374 -0.07338932 0.050699256 0.06385247 0.043753956 0.02999877 0.08836181 
-0.025060186 -0.02182903 0.08217296 0.051925775 0.014283184 0.050113823 0.07663114 0.054092083 0.06166938 -0.057587396 -0.096172914 0.07176356 -0.035488486 -0.081863634 0.07769995 0.054284573 
0.091016136 0.07602392 -0.08319689 -0.013009248 -0.010103995 0.037717048 -0.021623135 0.032473307 0.03977661 -0.044738773 0.068582155 0.012359997 0.019115724 -0.07444373 0.02553311 0.03080401 
-0.046916936 -0.062427796 -0.07882311 -0.092314176 0.003371925 0.099098556 0.0625121 0.06568902 0.06222562 -0.08249783 0.011135156 0.0042868685 0.0632237 -0.015408248 -0.060092606 -0.013844191 
0.038150936 -0.042112358 0.01200713 0.10435895 0.031295497 -0.009647092 -0.02587519 0.08521729 -0.041916654 -0.053877976 0.020093555 -0.09102109 0.020491034 -0.0075716847 0.06497082 -0.038791727 
0.064303614 0.01789114 -0.008950026 0.1219567 -0.0018227963 0.071655 0.028791668 0.090759665 0.018658035 0.04663945 0.104489125 0.0614231 -0.012629105 -0.037580837 -0.06290276 0.08765765 
-0.08839892 -0.01871111 -0.08525425 -0.01010988 -0.075278066 -0.10601799 -0.037999317 -0.06272191 -0.037738286 -0.020098807 -0.07927837 -0.0005318119 0.016048554 -0.04948543 0.016056579 0.07847315 
-0.02698423 0.07328812 -0.07524853 0.015308213 0.004754832 0.045411345 0.028072989 -0.023463195 0.0783262 -0.0042203646 -0.05963509 -9.676436e-05 0.03587717 0.042601973 -0.04095662 -0.030117085 
0.019194098 -0.059317734 0.021822255 -0.015881158 -0.057446886 -0.036248144 0.006424766 -0.004746884 0.051785827 -0.11814526 0.07665691 0.060061686 -0.0600688 0.00057072967 -0.05203312 0.06855236 
0.03671546 -0.07049074 0.004142769 0.025642768 -0.07332484 -0.043953523 -0.051171888 0.024665724 0.047202416 0.11598158 -0.052672826 -0.0486038 -0.062215384 0.014308736 0.080350734 -0.05202588 
-0.040980164 0.02276977 -0.030170433 0.11850493 0.02468041 0.0018396758 -0.078014314 0.04352279 -0.03313916 0.093159 -0.019727364 -0.0033642447 0.011952141 0.010851216 -0.08991919 -0.07940383 
-0.036683816 0.053918105 0.023819225 0.054330945 0.060736872 -0.0009938587 0.03669055 0.020195182 -0.013622214 0.028360698 0.023676448 -0.08965713 0.08663227 -0.054923635 -0.06949877 -0.035205133 
-0.033321824 -0.041956604 0.08472997 0.01225407 0.039111316 -0.050443448 0.025966177 -0.0032906078 -0.040669773 -0.056180295 0.06792857 0.117770046 0.019970063 -0.054074246 -0.08347922 0.06076166 
-0.067178816 -0.020397818 0.027646415 0.040825985 0.07801625 -0.044783 -0.04461443 0.008828752 -0.052645613 -0.06240589 0.092273206 0.050104015 0.08280451 0.052480347 0.06792524 0.062604435 
-0.0086779175 -0.077250354 -0.04186668 0.0121162925 0.06997679 -0.011069085 0.062098004 0.06458526 -0.011782585 0.08308464 0.051321097 -0.021526013 0.026252093 0.043459844 -0.043317392 0.074431874 
0.01701455 0.070534475 -0.0038667538 0.029603215 0.08507037 -0.020511067 -0.068122886 0.095827095 -0.061114706 0.04283989 0.07679549 0.06701393 -0.03856606 0.038297422 -0.0440611 0.06682985 
-0.056033548 -0.03289039 -0.07022887 0.021366952 0.050771333 -0.087591805 0.0001264582 0.042176705 -0.051391676 0.065212056 -0.105843164 -0.01196344 -0.059855003 0.06229093 -0.06780275 0.095607996 
-0.06721965 0.08429844 -0.043045435 -0.01834391 -0.054258082 -0.012242598 -0.032492287 -0.05176438 0.053151645 -0.019761166 -0.08447896 -0.037194245 -0.056272957 0.07334967 -0.025764497 0.04800904 
0.031194447 -0.038583193 -0.042839702 0.0265921 -0.08556449 -0.08348772 0.068097584 0.01229513 -0.014979135 0.077006705 0.0030018657 0.0034900445 -0.07270576 -0.031315017 -0.03039909 -0.09270439 
-0.099303454 -0.049688127 -0.015100366 -0.02747254 0.021225624 0.08642611 -0.10378079 0.027162265 -0.052571762 0.04428528 0.06788462 0.08902255 -0.020227648 0.0071711633 -0.01357498 -0.06848702 
-0.09595307 0.07628076 -0.040064644 0.050967604 0.006993218 0.04882152 -0.07415023 -0.032150082 -0.0061844056 0.07002326 -0.11257815 0.015178544 0.033338107 0.04452038 -0.037389707 0.11722149 
-0.041214723 -0.07247488 0.042014766 -0.028617335 0.0023431901 0.09040759 -0.020070355 -0.06632149 0.023621736 0.0533013 0.053480033 0.035759788 0.0027425333 -0.05073739 0.039643206 -0.032075286 
0.015611305 0.036046326 0.05594774 0.05173382 0.010213283 0.06855146 0.0034539483 -0.011177027 -0.026144698 -0.033322275 0.032993596 -0.035771634 0.080305755 -0.003089019 0.014139915 0.062103298 
0.040931463 0.05043065 -0.031629037 0.02035378 0.00053447054 0.057155464 0.065451205 -0.025037857 -0.057952333 0.08464588 0.043508943 -0.03392151 -0.029847326 0.083474636 0.008427189 -0.025317652 
0.055133294 -0.08140508 0.061653495 -0.071046256 0.017441379 -0.10652322 0.084131874 0.020261116 -0.00574968 0.09551512 0.0147812525 0.040383372 0.024907336 0.06102964 -0.01993157 -0.11120564 
0.0036160122 -0.03259566 -0.038172074 0.031488568 -0.023426902 0.086448744 -0.014181298 0.08404469 -0.012823783 -0.08901396 -0.04474563 0.05773975 0.06913512 -0.021658711 -0.073099785 -0.047525626 
0.045603264 -0.042996775 -0.014068911 0.027167507 0.02402095 0.006206706 -0.06377522 0.01471973 -0.028442781 -0.014959643 0.09092783 0.026009887 0.036085274 -0.066156484 0.07593184 0.058008105 
-0.001477324 0.11796951 -0.040275138 0.0687057 0.063207455 -0.04505134 -0.087369494 -0.039414797 0.08260955 0.08489968 0.058426972 -0.039648514 0.026955621 -0.017351316 0.079164125 -0.0733311 
0.041193657 -0.025083022 0.0089506535 0.042944323 -0.01985267 0.052261516 -0.06311384 -0.052145414 0.024348512 -0.052351948 0.022650996 0.051643744 -0.054999482 0.058792196 -0.05642355 0.07057939 
0.055263877 -0.00092124945 0.036829446 0.013467222 0.015901692 0.06725045 -0.0510494 -0.0178173 -0.029333139 -0.018543605 0.025737202 -0.015682707 0.044569917 -0.051238842 0.06871203 0.024271775 
0.069151945 -0.03657778 -0.052952237 -0.03577471 0.0911846 -0.02204122 -0.020327576 -0.011576138 0.0668049 -0.06891533 0.06767321 0.035197396 0.009357439 0.06959692 -0.08201017 -0.048788868 
-0.080318294 -0.032031134 0.0023448928 -0.002984965 0.056671496 -0.019859105 -0.059892416 0.071782544 -0.044263903 -0.04667671 -0.046060167 0.067698285 0.085384384 0.013500608 0.019903423 -0.026003877 
-0.012120047 -0.0118386205 -0.032188557 -0.025313905 0.07728291 0.0070752576 -0.058573425 0.07785864 0.002845764 0.052581765 0.06961784 0.078496814 -0.082023695 0.022462657 0.009783275 0.08571612 
-0.10586403 0.0033636563 -0.0663607 -0.1255026 0.031240413 0.1033966 0.018828906 0.018474199 -0.017395211 -0.09267766 0.005112608 0.07888307 -0.086814545 -0.06876064 0.057585523 0.0032185246 
-0.012178679 -0.033116795 -0.041495014 -0.09094274 -0.053564142 0.044916973 0.063413106 0.06201731 -0.019020123 -0.013694531 0.07139923 -0.043455716 0.078585744 0.06766334 0.11922107 0.063724816 
-0.08777781 0.07645557 -0.038228083 0.007468303 0.08011847 0.03714193 -0.08122045 0.006803642 0.087718755 -0.0035832047 0.11148664 0.11836408 0.09295416 -0.063761555 -0.08784997 -0.014386193 
0.1248229 -0.06371284 -0.035491955 -0.0047053685 0.09695919 0.07334652 0.118081 0.06005883 -0.00067593413 -0.06829625 -0.08033546 -0.057204265 0.017566334 0.070513554 0.06551615 -0.04875272 
-0.06472599 -0.085069485 0.00515649 0.086154 -0.031192658 0.09823927 -0.0521959 0.037548706 -0.0661172 0.035396256 0.061016023 0.083669566 0.01779594 0.009303763 -0.03876738 0.064041145 
0.039723184 0.046650086 -0.07514488 -0.08485876 -0.0105685955 0.07254115 -0.07957342 0.03388768 -0.053243916 0.07752095 -0.021894226 -0.07502254 -0.085083134 0.014829535 0.03525647 0.0034370045 
-0.008499349 -0.04870449 0.08450696 0.040836487 0.038939293 0.08022923 0.023747748 0.0007616782 -0.04789039 0.07666587 -0.11091906 -0.07424535 -0.05733918 -0.025048815 -0.07092958 0.03571166 
-0.09334826 0.045858055 -0.028851332 -0.044099793 0.043927807 0.06256633 -0.08064713 0.043894652 -0.068923555 0.06916676 -0.010370779 -0.045821488 -0.025659237 0.0012658287 -0.060466476 0.011415118 
-0.0054155937 0.037622016 -0.08354575 -0.07889107 0.104716584 0.093837306 -0.09207977 0.0025723206 0.040983357 0.042721502 0.015060711 0.06789442 -0.012649219 0.08622328 -0.013112002 0.026191486 
-0.044821184 0.047738574 0.009982782 0.031861976 -0.07001936 -0.08866083 0.015351953 0.07737073 -0.056174066 -0.034626402 0.017933443 -0.06608923 -0.041894663 -0.008893194 0.03846592 -0.0006747818 
0.036108825 0.014028674 -0.0069458513 -0.019606628 0.10456377 0.06376888 0.06052889 0.07600358 -0.07886334 -0.10359904 -0.026646279 0.06236406 0.06803826 -0.043112952 0.06453931 -0.058018 
-0.0555426 -0.075206816 -0.05516874 0.0050828564 0.038609818 -0.06763048 -0.0005108601 0.03998413 -0.021791607 -0.01776338 0.042738155 -0.0256619 0.014326385 0.009744191 -0.086235985 0.009728935 
-0.018447438 -0.07532581 -0.05438438 -0.07994298 0.066807106 -0.048971105 -0.08662618 0.053984445 0.07481709 0.0068502286 0.002828823 -0.039964452 0.057836093 0.053375006 0.0128670065 -0.051097054 
-0.05178454 0.083259225 -0.0553863 -0.09459549 -0.11419253 0.11557525 -0.07702411 -0.06343263 -0.014965623 0.07634522 -0.050811682 0.04156327 0.07548084 0.0020914213 -0.1223216 0.04823929 
0.035983454 0.051428534 0.031081133 -0.07417897 0.04767512 0.093951665 0.07018783 -0.07029487 -0.0680445 -0.029739037 0.03324677 -0.0675128 -0.06831952 -0.021191835 -0.050487664 -0.05767201 
-0.02050125 -0.07041651 0.08609075 -0.05271929 0.028795475 0.015698578 -0.06758443 -0.06138563 -0.030275242 -0.09742485 -0.07463753 0.0038727166 0.046155576 0.06340929 0.077791885 0.037551243 
-0.059461936 -0.07484551 0.061747957 0.044184588 0.07087394 -0.028212216 0.0049475674 0.010217427 -0.024434641 -0.04452354 -0.055710223 -0.06537874 -0.029831422 0.01887622 0.0730267 0.038252838 
0.007169577 -0.11756352 0.061780643 -0.090886384 -0.069998786 -0.057745084 -0.01652033 -0.022808906 -0.09079117 -0.08208367 -0.049632158 0.12756708 -0.008043841 -0.04899188 -0.06524005 0.12079027 
-0.003249707 -0.02238825 -0.08303813 0.08106211 0.09254401 -0.00023115559 0.062672414 -0.029593652 0.025156822 -0.07827433 -0.025639588 0.06167039 0.021364192 0.05520423 -0.012390537 0.009205311 
0.0850099 0.08537882 -0.0031590988 -0.0030965605 -0.024976242 0.034103893 -0.047307212 -0.010010715 0.0026905185 0.043239243 -0.0072643277 -0.0017349416 0.009628441 -0.03168643 -0.026061742 -0.054324064 
-0.10472625 0.046585184 0.024493922 -0.048347916 -0.040315073 0.08827262 -0.04147726 0.039351337 0.06584112 -0.075345546 -0.07749508 0.00024257816 -0.027240828 0.087963514 0.003934893 -0.06608844 
-0.02279128 0.022284994 0.03239184 0.0021337075 0.012729542 -0.02150508 -0.021587713 -0.04714575 0.08047312 -0.029959213 -0.120789565 -0.03218264 0.0376956 0.031289496 -0.060648944 -0.045997284 
0.07851331 0.02071892 -0.016621025 0.066532746 0.043516412 0.02921751 0.013429586 -0.12628594 0.082322724 0.04797958 0.07584464 0.09607343 -0.0060333833 0.019849252 0.08411457 0.03477803 
0.008547669 -0.04439815 -0.08390479 -0.06275864 -0.0065913275 -0.081014425 -0.0010187925 -0.06434647 0.059196223 0.005279502 0.024479885 -0.026143087 0.012778909 0.01567268 0.0017879765 -0.0046888688 
-0.08573913 -0.0739787 0.09119408 0.058916517 0.103651315 0.029014742 -0.057207327 0.042823315 0.020445868 0.06855942 -0.02600264 -0.06549541 -0.009269771 0.05662981 0.06783987 -0.00287615 
-0.055960603 -0.0858878 0.015040841 -0.033147715 -0.0320006 0.042956214 0.044799387 0.046729773 -0.0124074835 -0.08308203 0.034484666 0.07287926 -0.08236778 0.0063361484 0.046627294 -0.02292451 
0.036589295 0.056244243 0.048697557 -0.06452733 -0.06691175 -0.11458385 -0.055673733 0.0059293676 0.045850765 -0.019346138 0.050924398 0.022676459 0.005899976 -0.036625225 -0.07197015 -0.020422185 
0.033451136 -0.08341976 -0.040822912 -0.034570366 -0.06784858 -0.02123519 0.07842684 0.03144574 -0.0403072 -0.042254 0.07241844 -0.10192688 -0.048373815 0.07047333 -0.052839886 0.030697532 
0.060777187 -0.020884901 0.05481612 0.073462345 -0.068515874 -0.11094622 -0.015774217 0.012887668 -0.01574947 -0.005314207 0.090341814 0.071667455 0.021338291 -0.021873387 0.030913942 -0.055904277 
0.022576809 -0.012109 -0.08124756 0.07454681 -0.09499116 0.04164614 -0.040250078 -0.07069775 -0.0761047 0.037431087 0.047197733 0.017715096 -0.011174407 -0.008804309 -0.0031420647 -0.106227696 
0.03124214 -0.05646942 -0.08292476 -0.053026173 -0.057511266 0.02293125 0.07402195 0.08290972 0.004741325 -0.084421314 -0.03627321 0.024578488 0.014470908 -0.040913954 0.0090961205 0.04871741 
0.022653783 -0.062401056 0.051392753 0.12744494 -0.06444322 0.0063474975 0.0018673892 -0.028087284 0.07295618 0.11620479 -0.04376104 -0.09360325 -0.034633942 -0.02891763 0.059205454 0.03643543 
-0.054887775 0.044324823 0.071020074 -0.06461328 0.024923017 -0.00095183734 0.082905345 -0.07581149 -0.041410387 -0.006087249 0.039915405 0.026524013 0.11430846 -0.015551626 0.1125814 0.027331708 
0.01570878 0.09895562 -0.0892757 -0.0034492812 -0.10861511 -0.014217144 0.07156955 -0.0012532481 -0.079329565 0.054492913 0.07005026 -0.03238115 0.006687658 -0.05914023 0.07212351 -0.057556108 
0.05672638 0.025371652 -0.060113013 -0.068976834 -0.1027931 -0.02188927 -0.0061473064 0.10028828 0.07693298 0.0116394 -0.109482385 -0.06569679 -0.07427957 -0.0010738316 -0.035156578 -0.055084124 
-0.063848026 0.0075502843 -0.020594595 0.074108236 0.03082912 0.03234678 0.05670305 0.020783272 -0.056858134 -0.0003143121 -0.012976779 -0.01315803 -0.0077390107 0.076808006 0.022353027 -0.03906436 
0.06353795 0.068522155 0.021725476 0.044390384 0.045649037 0.0883072 -0.033684872 -0.0013105079 0.0052752867 0.118693836 0.0014257792 -0.019474315 0.018665954 0.037381776 -0.026904603 0.055977926 
-0.04276794 0.09193335 -0.07913578 0.08178369 0.05710669 -0.0695514 -0.07584975 -0.07036148 -0.029666644 0.079890646 -0.12060914 -0.015741346 -0.06387448 -0.021189565 0.056753997 0.09406002 
-0.11064884 -0.053722832 0.053967744 0.002186569 -0.07569429 -0.02207544 -0.032092158 -0.06497444 -0.043657124 -0.003005825 0.06798763 -0.08383834 -0.06863544 -0.008919229 -0.029339524 0.03077511 
0.08796277 0.018985817 0.11783379 0.04171282 -0.07659188 -0.038942736 0.1269961 0.092504926 -0.025434606 0.025333524 0.07386002 -0.09260014 -0.075143166 -0.028708769 -0.095019005 -0.015402417 
-0.04727757 -0.065522745 -0.04065226 0.11743641 0.029967481 -0.097578526 -0.06240865 0.05245286 -0.025244763 -0.0014269644 -0.04694511 -0.06666204 0.0010013462 -0.013768176 -0.061777294 -0.0044296808 
0.074409015 -0.04982838 -0.006502253 -0.09739617 -0.055771593 0.05174869 0.05364013 0.058859665 -0.061646122 0.0280106 0.045098297 -0.08570735 0.03376434 0.036642525 -0.028790126 -0.0018330676 
0.017038649 -0.058737982 0.0930662 0.0024283202 -0.05042376 0.037874155 0.0767167 -0.073259585 0.021531941 0.09791198 -0.07979517 0.08033081 0.0008437426 -0.08474251 0.06447754 0.016679022 
-0.039772093 0.013379253 -0.06811229 -0.07482327 -0.058557283 0.0919732 -0.078681834 0.098388515 0.020800766 -0.03542861 0.04294785 -0.041265644 -0.087745935 0.08015636 0.019817557 0.056698404 
0.06563435 -0.012964748 0.026674483 0.03507564 -0.067772955 -0.069795184 -0.080438904 0.0037400306 -0.022570373 0.08574931 -0.014134488 -0.06349872 0.07001368 0.022556175 0.026756085 0.0031741639 
0.040622998 -0.082719915 0.027442107 0.054500207 -0.07304514 -0.018337397 0.005075856 -0.039510515 0.03679774 -0.03373749 -0.010554963 -0.06724915 0.043506924 0.082248926 0.08503159 0.038910404 
-0.04214648 -0.04088607 -0.02636498 -0.023645055 -0.114748225 0.03311789 0.0073780497 0.05484236 0.031671483 -0.006588811 0.017528504 -0.058919534 -0.069379084 -0.034379624 -0.029365348 -0.006317928 
-0.07188561 0.088556565 0.007820364 -0.05372657 0.027124755 0.033659484 0.076072305 0.005778865 0.045516454 0.027132224 -0.048594337 0.034215886 0.079402775 -0.040748622 0.043472435 -0.07474999 
-0.08030309 0.03806117 -0.031922933 -0.081912726 0.054217312 -0.06771468 -0.022307226 -0.0079537025 0.0068316953 0.048280437 -0.015108534 0.050789986 -0.07356417 -0.07710048 -0.08418213 0.004852897 
0.010430843 -0.08812426 -0.0760448 0.018472197 -0.030917078 -0.008637685 0.06109727 -0.08820835 -0.04761142 0.065423794 -0.021520257 0.02148176 -0.06365998 0.050307225 -0.0069508995 0.026471576 
-0.023465022 0.0015428977 0.08321715 -0.07647039 0.06995407 0.07421982 -0.016816847 0.025640272 -0.032034256 0.08321747 0.117856964 0.030213604 -0.060609616 -0.046548158 0.042201545 -0.022533217 
0.07651869 -0.043412037 -0.0019287119 0.046129096 0.049345374 -0.049601234 0.021845857 -0.0028703993 -0.008381833 0.12230593 0.00479575 0.046897683 0.088730514 -0.076884866 -0.077596985 0.047090486 
-0.035977427 0.006010468 0.056423433 -0.007900606 0.04596039 0.08302315 0.0002765701 0.04135772 -0.08354951 -0.037310302 0.042221908 0.10486997 -0.0041832393 0.049079426 0.056381453 0.07918486 
0.08118475 -0.04408744 0.0058812136 0.014525612 0.009959857 -0.09595284 -0.060462236 0.044507988 0.024853311 0.11364131 -0.004454433 0.011456741 0.020081664 0.059215754 -0.037466194 0.054039277 
-0.069941565 0.0022791272 0.02053683 0.051420126 0.012541776 -0.021116314 0.09305727 -0.08460333 0.056644544 0.025554124 -0.042614862 -0.029123528 -0.069226876 0.0022798388 0.04168773 -0.033644445 
-0.057330225 0.0047689388 -0.085202135 -0.0009542404 -0.062226124 0.0006518369 0.061445042 0.0022955646 -0.087727085 -0.0017060889 -0.0065945853 -0.04033995 0.08767113 -0.025505891 0.04145176 0.06281807 
-0.014010209 -0.118714005 0.008436281 0.12286388 0.10998824 0.06284874 0.04686718 0.02021645 0.003092462 0.00032605458 0.11318065 0.055282548 -0.0115797585 -0.040433433 -0.02415293 0.054306675 
-0.015331964 -0.021124898 -0.076645195 0.08442936 0.018297894 -0.069830924 0.006164102 -0.015258438 0.08417113 0.04191117 -0.019107617 0.07355178 -0.07975843 -0.017141491 -0.09627655 0.059967294 
-0.096785575 0.07651793 0.039246593 0.101546265 0.05923065 -0.07339431 -0.014338445 0.015489304 0.06731556 -0.06841352 0.043089844 -0.083144136 -0.05440101 -0.081449345 -0.010974829 0.07326279 
0.024439732 0.032571062 -0.05332071 0.02871451 -0.028716601 0.06536343 0.06368822 0.05523811 0.0690844 -0.014899425 0.10498066 0.07111405 0.037628196 -0.056273848 -0.013171691 0.014413739 
-0.038007397 -0.013660571 -0.046990406 -0.105115324 0.114343174 0.045594614 -0.018355038 -0.020186655 0.034652043 0.0025690014 0.12273727 -0.06422792 0.07488472 0.05655533 -0.012351601 0.06862536 
-0.05970414 -0.007953247 -0.05206621 -0.075950414 -0.033306412 -0.07868975 0.080733195 0.03233605 -0.0021614714 0.054665934 -0.03196715 -0.072860114 0.018272959 -0.0182819 0.096981324 -0.067266755 
0.010479063 0.036566675 0.06879339 0.032299664 -0.032512713 0.021318063 0.005224028 -0.043076508 -0.057063285 0.058515478 -0.052964915 -0.065717965 -0.05440745 0.07276604 -0.01930353 0.02942288 
-0.038772855 0.068345256 0.02681324 0.062363334 -0.05435972 0.028134283 -0.036133666 -0.07394181 0.057424407 -0.026581232 -0.0037273183 -0.058077607 0.0204659 -0.008944027 -0.0095670065 -0.07568899 
-0.021913433 -0.051237367 -0.04119656 0.0762696 -0.0131682 0.07496503 0.06599369 0.124299586 0.07114413 0.028600378 0.05510386 0.010806036 0.023921179 0.06910496 0.12087874 -0.051896274 
-0.057034265 0.061552208 0.05142294 -0.07633957 -0.059504848 -0.0073785405 -0.058956698 -0.050063096 -0.070198834 -0.054595117 -0.029510463 0.023729166 -0.10897503 -0.016567204 -0.09580498 -0.050073314 
0.010251685 0.026598426 -0.041686136 -0.063836634 -0.041703835 -0.049533445 0.03439777 -0.025663627 0.03458954 0.020967377 -0.0819011 0.026461262 -0.07383767 0.023944538 -0.067100994 0.05543091 
-0.046523273 -0.025258742 0.033663757 0.060856003 0.088008605 0.08302161 0.0047880216 -0.03854243 0.03659595 0.052498914 -0.0059593283 0.086256176 -0.065429464 0.02487951 0.02895826 -0.018324364 
0.055611692 0.047889702 0.08165741 -0.04813714 -0.03789205 -0.026113788 0.058739442 0.037987772 -0.0016538505 -0.053551596 0.03652893 -0.08444644 0.08629396 -0.005099586 -0.06756743 0.10428644 
0.03997284 0.014883215 -0.023781769 -0.047245145 0.06598389 0.006468458 -0.012376706 0.055516038 -0.09603552 -0.027205518 0.09866036 0.02579383 -0.0032502976 0.082974926 0.092853986 0.024307063 
0.0818564 -0.012879589 0.07577265 0.12424077 -0.047755525 0.0279768 0.117274076 0.002150678 0.042095628 0.09581092 0.08008779 0.06990012 0.05485046 0.059677996 0.016276589 0.055866607 
-0.05724966 -0.1059583 -0.08115109 0.029114172 0.10295572 -0.08285078 -0.0006211251 -0.040254556 -0.004141677 -0.07133027 -0.082985364 0.07788321 -0.06889273 -0.048149757 -0.014474461 -0.0691433 
-0.087284 0.020768192 -0.048643064 -0.044506267 0.032383315 0.0926242 -0.038340583 0.025627285 0.07894808 0.0022125645 -0.03495353 -0.0088518 -0.09062618 0.11600351 -0.0040499517 0.09403922 
0.07930971 0.064213105 0.08353119 0.04873992 -0.046164006 0.12698829 -0.10645701 -0.0030691868 -0.013173853 -0.05026237 0.07152074 -0.07486254 -0.040881094 0.077460006 0.014854757 0.12483323 
0.0074746725 -0.01459796 0.006030977 -0.07520797 0.03382449 0.03758826 0.04009711 0.008820098 0.009485646 0.030676054 0.110891126 0.07179186 0.055224653 -0.030519323 -0.016918108 -0.076413184 
-0.069959305 -0.09621063 -0.08326486 0.05897848 0.075005345 -0.039780375 0.078019425 0.07073157 -0.04603992 -0.028412605 0.025739709 0.052837867 -0.03179134 0.0026620184 -0.04805067 -0.031927478 
-0.07805003 0.016357305 0.06997441 -0.075635456 0.020041544 -0.08094667 0.06776425 0.02654922 0.031049572 -0.008564272 0.067513324 -0.062278956 0.05046394 0.01824959 0.018208155 0.05559551 
0.022802267 0.06638184 -0.017801419 0.075277336 -0.08184401 0.087454155 -0.08266391 -0.026868898 0.007618237 0.12542202 -0.02091642 -0.05318564 0.04363257 0.0634589 0.09376667 0.0049171057 
0.07844089 -0.040724974 -0.04002609 -0.060382426 -0.07606872 -0.081415966 -0.017839346 -0.029433437 -0.053504575 -0.079356834 0.05415805 -0.07165129 0.083634235 -0.049805403 -0.048547678 0.039982706 
0.05955847 -0.023045985 0.053328384 -0.027173767 -0.0008588859 -0.0027637135 -0.07702995 0.010699897 -0.065311454 -0.067124955 -0.017054867 -0.04002381 0.005459968 0.0030198225 -0.07692968 -0.07931336 
-0.059988633 -0.080226794 -0.07358423 -0.071528405 -0.07385304 0.020072272 0.030442452 -0.006877179 0.07524672 0.033406574 -0.07420091 0.054858286 0.049946867 0.032183405 0.027760932 0.06454991 
-0.08053741 0.10864559 -0.040652234 -0.038392387 -0.050600067 0.11060788 -0.017540306 0.067035235 -0.08349487 0.062128995 -0.06825205 -0.057727966 0.003989192 0.043175302 0.08634261 0.0008193775 
-0.05069985 -0.058260962 -0.014080261 0.087670594 -0.012927241 0.005318196 -0.06762025 -0.03850899 -0.022868471 0.070463106 -0.029953524 -0.020300874 0.0047950633 -0.035340484 0.026392879 -0.04331046 
0.055490382 -0.0072801253 -0.023506602 0.019559376 -0.043309238 0.06782013 0.0053973556 0.050180882 -0.029040761 -0.06662764 0.075807564 -0.09617824 0.007965373 -0.06634385 -0.06402171 -0.10809101 
0.017476747 0.0489093 0.045095515 -0.038178395 0.06807948 0.029402882 0.011600195 -0.006943054 -0.036075685 -0.034215625 -0.0046570497 -0.046242617 0.020278541 -0.02982623 0.07841535 0.024279278 
0.059592497 -0.04682697 -0.021048022 -0.040536758 -0.01684433 0.09501151 -0.07707175 -0.05945002 0.065467045 -0.05134707 -0.10363372 -0.021414043 -0.053356193 0.002754199 0.07202642 -0.064184256 
-0.0004527898 -0.003733725 -0.08134544 0.038620457 0.0017900664 0.039445598 0.07803081 -0.066523716 -0.06658833 -0.08709149 -0.096841715 -0.042449977 -0.018557504 0.06453568 -0.06940061 0.06561058 
0.03723375 0.057250537 0.05162109 -0.011690743 0.08382814 0.03180784 -0.05924458 0.082128644 0.08021018 -0.036264926 0.040364224 -0.114220515 -0.009148581 -0.023120342 0.07528315 -0.008943117 
-0.0036794408 0.080026165 0.03340455 0.03439561 0.013330416 0.06743656 -0.08461595 -0.011232941 0.08533554 -0.10649727 0.058884464 0.08305792 0.053055815 -0.077212386 -0.05014121 0.101108044 
-0.005584924 0.07219572 -0.043524906 0.05211454 0.017844945 0.001851143 0.026992813 0.03332716 0.040554326 -0.07258069 0.009935865 -0.03273859 0.030179929 0.014288981 -0.058517803 0.044730026 
-0.005665881 -0.07867317 0.016974105 -0.003818891 0.075286254 -0.032172665 0.015910719 0.06726823 -0.04627566 -0.03187156 -0.087566 0.11142204 0.050235685 -0.036084678 0.11799457 -0.008731987 
0.07449283 0.018875893 -0.06275059 -0.046310205 0.12498023 0.047980513 -0.04773832 -0.034072444 -0.061549135 0.0072156726 0.079368144 0.0408487 0.0628704 -0.035199434 0.020137107 0.023926629 
0.042567763 0.064259715 -0.022437757 -0.05048122 0.06457723 0.10928313 0.04094843 0.016211944 0.031629506 -0.0910389 -0.0524022 -0.019701995 -0.06093018 -0.007986991 -0.00826693 0.051453136 
0.05083177 0.09677337 0.06676762 -0.015881512 -0.08605062 0.09205942 -0.030163039 -0.02649018 -0.019688057 0.069852255 -0.014061772 0.005487039 -0.042814344 -0.052720804 -0.019145204 0.00021830008 
-0.059451614 0.06662962 -0.0036682412 0.078342125 -0.06249261 0.079157785 0.033269733 -0.07111184 -0.060149536 0.05048828 0.045631282 -0.06582932 -0.03077072 -0.05585938 0.124479815 0.056170743 
-0.030114146 -0.06597746 0.07581621 0.123886205 0.07067676 -0.02764086 -0.037803415 -0.029821066 0.031911578 -0.0052316915 0.1257612 0.04452573 0.038487338 -0.03387952 0.059189636 0.015565377 
0.06147613 0.015522578 0.08252093 -0.0031080404 0.08011065 0.06786998 -0.033362024 0.031631205 -0.056257714 -0.028950112 0.085504055 0.03843773 -0.06797308 0.048538562 0.020313216 0.00088629377 
-0.08745144 0.015258296 0.076140575 0.0016469962 -0.0021931343 -0.044664156 0.058497176 -0.011785789 0.03159669 0.043172922 0.011330429 -0.07472956 0.011717166 -0.072889425 0.09722405 0.08182869 
0.00937668 0.099196725 -0.06192499 0.048441146 0.013116645 0.03718641 0.07036475 0.07096588 0.019170457 0.086221345 -0.09913276 -0.029882919 -0.04108649 -0.06725148 -0.022923082 -0.009921354 
0.053759716 0.06148668 -0.051806327 -0.120555185 -0.025166329 0.12070473 -0.084509626 -0.04778182 -0.0053211814 0.028729906 0.009980435 0.061275914 -0.03749189 -0.04970773 -0.065031335 -0.045467332 
0.04691716 0.085301585 -0.00029698125 0.07564464 -0.048504204 -0.042994354 0.066637866 0.08781971 0.018405644 0.042334054 0.024206059 0.044569317 0.12654118 0.076836914 0.05932644 0.068367384 
0.07937581 0.073809095 -0.0057742023 0.039870564 0.071206935 -0.0339326 -0.088520646 -0.08661897 0.047206074 -0.05366277 -0.0329132 -0.028839476 0.08511441 -0.0501529 0.01755191 -0.052534744 
0.020670623 -0.082793124 0.06916054 -0.004646653 0.015998716 0.024746856 -0.0045102728 0.085883796 -0.049691707 0.045053776 -0.002896475 -0.026352435 0.02219853 -0.028581807 0.0795942 0.115968496 
0.08159317 0.0042876974 -0.048137438 0.07016444 -0.0580316 -0.051679663 -0.056809843 0.080243155 0.0019110349 0.03985911 0.05597047 0.05594926 0.03586439 0.07562713 0.025468854 0.053522825 
-0.020493593 -0.042078074 0.012100958 -0.016624358 -0.032157928 0.11132023 -0.06321861 -0.11854026 0.068992384 -0.0600786 0.10993847 0.07457668 -0.060910866 -0.06940389 -0.003269296 -0.04927357 
0.036809806 0.058141425 0.0028319708 0.049838588 0.10719127 0.07070482 0.08714903 0.017838947 -0.044270784 -0.07230141 -0.028228322 -0.010315684 0.0008957047 -0.08336189 -0.061918315 0.0036516988 
0.033432167 -0.026567744 -0.036459878 0.0044463305 -0.08483137 -0.020714624 -0.065210365 0.044976052 0.04898573 0.03708786 -0.03632105 -0.024376333 -0.06838881 0.028838836 0.07466719 -0.04940547 
0.03473607 -0.034701068 0.0043326225 0.0771672 -0.060131356 -0.04259801 0.0014462855 0.09358992 0.008136448 0.09377804 0.047190778 0.061870042 -0.0059628887 -0.020525347 0.07677932 0.0023150968 
-0.08099227 0.08326456 0.021525955 0.02390256 -0.041220788 0.06201505 -0.10251437 0.0025302505 -0.0643203 -0.04365582 0.0076955 0.014952415 -0.0472575 -0.03161218 0.117487386 0.10081236 
0.049289625 0.024107385 -0.04848182 -0.0053006113 0.0029035544 0.11586073 -0.08257675 -0.009494734 0.11377453 0.052125968 -0.052100163 0.08617298 0.045975443 0.07164934 0.06133148 -0.062690824 
0.036188975 0.031462003 -0.083598375 -0.003418314 -0.05199847 0.053659745 0.030168498 -0.034569554 -0.022269636 0.015399084 -0.049896087 0.021646501 0.086081125 0.00543311 0.03182725 0.076543644 
-0.06594968 0.07581004 -0.049713578 0.007990446 0.07304537 -0.03449504 0.081054494 0.10908309 -0.07274588 0.08214196 -0.090682894 0.079075195 -0.05332485 0.00033979912 -0.016270602 -0.065605365 
-0.06630017 -0.06785529 -0.032843865 0.016880957 -0.035716314 0.09772053 -0.034961022 -0.036376208 -0.026919752 0.08350009 0.075753585 -0.004218958 -0.05681599 -0.020265741 -0.038857866 0.07892953 
-0.014009876 0.035822924 -0.042152043 0.047660224 0.0024718246 -0.0031497027 -0.041842785 -0.03290323 0.014843867 0.061062485 0.068596244 -0.0294854 0.0048473333 0.030267151 0.10874161 0.058317535 
0.034711067 0.042390272 0.052318517 0.11641027 0.09188837 0.06680109 -0.054137323 0.02694253 -0.036571678 0.04336211 -0.06330911 0.091508046 0.008219989 0.038029972 0.09289437 -0.058847412 
0.011713999 0.058512922 -0.05647726 0.03145005 0.029733868 -0.016183948 -0.061093736 0.003428598 0.016003214 -0.07126503 0.020004116 0.070326224 0.017055504 0.04062388 0.059436716 0.059317753 
0.06456059 0.002904696 0.012035813 -0.008179847 -0.076655656 -0.0051913727 -0.11491515 -0.035003085 0.00019588206 -0.03861964 0.04703594 -0.011442443 0.01875922 0.026308862 -0.07036633 -0.048394185 
-0.059505925 -0.09703325 -0.097034164 -0.05943079 0.016765604 0.09962039 -0.05521468 0.030873677 -0.045214225 0.045133892 -0.08127648 0.00579852 -0.0641623 -0.008846797 0.03461253 -0.049043734 
0.051274437 -0.031239472 -0.086233355 0.04914105 -0.012977925 -0.052411478 -0.028505215 -0.055107284 0.03629425 0.075893655 0.0059626605 0.057739206 0.085998684 0.025613656 -0.0818215 -0.050606605 
0.022398712 0.0740095 -0.007053749 -0.03385212 -0.02083221 -0.1220977 0.068954185 0.043296143 -0.026081549 -0.049032744 0.11285638 -0.10344698 0.005942549 0.0058390796 -0.03503721 0.08165791 
0.0119197965 0.10854681 -0.02787738 0.017560648 -0.004971442 0.066045105 -0.0153816845 0.020266296 0.09252464 -0.023275297 -0.11156336 0.06438807 -0.0077547776 -0.086478084 -0.0013267377 -0.060295235 
-0.071517795 -0.04874035 0.055593964 -0.049453873 0.0064341235 -0.011202878 0.0706174 0.067727044 -0.0038197075 -0.030193329 -0.11282595 0.022173947 -0.08265055 -0.05212349 -0.0051504103 0.046939276 
-0.07688732 -0.033869267 -0.047114443 -0.014337132 -0.03878379 0.07588142 0.0474116 0.08925776 0.06211565 0.06776898 -0.045526877 0.0107492125 -0.020472758 -0.07535443 0.036203083 -0.069620766 
0.038345776 0.07037227 0.09382566 0.057867732 0.082488894 -0.10836212 0.064709544 0.013934865 0.034050398 0.06593701 -0.02104759 -0.022750536 0.013082308 0.044780467 0.057988025 0.04966564 
-0.04029838 0.016490089 -0.042943083 0.03128719 -0.01646615 0.07172707 0.039783593 -0.048927147 -0.045763306 0.04826016 -0.05957528 -0.065535255 -0.00830184 -0.027720075 0.064221695 0.0050116386 
0.07747819 -0.07160508 0.053349275 0.08472803 -0.08262152 -0.082339264 -0.062207077 -0.0059644543 0.034005504 -0.04129057 0.053559303 -0.010525968 -0.022692077 0.008962386 -0.085590914 0.019493952 
0.050070345 -0.07868466 0.06258178 0.08150527 -0.007355138 0.0139079215 -0.0358344 -0.05130878 -0.06843854 0.057020526 -0.077959836 -0.05235896 -0.032884628 0.0042614993 0.038058255 -0.039160967 
-0.034928493 0.0462598 0.0028771563 -0.009359307 -0.04778959 0.09363788 0.004623939 -0.049706206 0.015595338 -0.073958375 -0.08737519 -0.027186882 0.06955081 -0.026443142 -0.026185734 -0.07028161 
-0.07599781 -0.06153298 -0.046077747 0.07619774 -0.06766441 0.018969104 0.058214173 0.018091638 0.065418266 -0.05475594 0.028859418 -0.026315048 -0.069230475 0.066250235 -0.088546194 0.026188826 
-0.017971084 -0.110932335 -0.035462823 0.049742863 -0.06586365 0.112443365 -0.057823434 0.08330208 0.06900755 -0.00085203414 -0.074824244 -0.08657448 0.031191055 0.124523304 -0.06086809 0.06819597 
-0.07219735 0.123187214 -0.0006362361 0.056280788 0.033348925 -0.070737176 -0.014442923 -0.04092809 0.012028761 -0.09296219 0.070017844 -0.08036038 -0.007206464 -0.080454655 -0.020732604 -0.043715365 
0.028616235 0.10044328 -0.0178311 -0.06759056 -0.09221192 0.08076954 0.007879751 -0.07187347 0.030618856 -0.06548187 -0.07248625 0.073263794 0.042681172 -0.012407916 -0.054481618 0.0046828887 
0.022309603 -0.03225974 -0.058393013 0.072629794 0.12624496 -0.027114732 -0.10776151 0.07176267 0.022071354 -0.06206645 0.0012699865 0.09557616 -0.0018738738 -0.0081479 0.07775077 0.015218846 
0.076565556 0.10525135 0.0407215 -0.023509607 0.05231268 0.066996366 -0.022796407 0.12022004 -0.02636487 0.035250176 -0.04043862 -0.017953038 -0.040112678 -0.06206924 -0.017317854 -0.06828338 
0.0078021623 0.02043367 0.058472607 -0.033699706 0.066175975 0.045942783 0.016808983 0.023701591 0.03336085 0.05299302 -0.08251927 0.026932037 0.06939215 -0.032899328 -0.04954405 -0.0680848 
0.030825898 -0.06771308 -0.057655383 -0.109340645 -0.100783214 -0.0018412896 -0.055814087 0.06987929 0.10558204 -0.025130639 0.05346772 0.0024271663 0.022116687 -0.04713756 -0.11057395 0.029029762 
0.009171001 -0.052227337 0.020652182 -0.03666987 -0.0057941675 -0.061250273 -0.016079022 -0.0026650066 -0.079035744 -0.10362209 -0.06448833 0.11413143 0.0061757197 0.0034897027 0.0419938 -0.020355739 
-0.021771172 -0.05089492 0.017962597 0.06254828 -0.060834844 0.036965594 -0.08060898 0.10157277 -0.013255923 -0.103417166 0.054648116 0.044607453 0.004867241 -0.022657903 -0.08843339 -0.053893086 
0.096868455 0.08290789 -0.08202824 -0.058846816 -0.039732795 0.055151314 0.018110044 0.001897161 0.0048709693 0.054341186 0.02173746 -0.034978457 -0.04168097 -0.0006510592 0.068960994 -0.07412628 
0.009219132 -0.024693757 -0.07592632 0.029433394 0.08024924 -0.025322549 -0.017180339 -0.06074777 0.014083965 -0.07939651 -0.053374335 0.03993191 0.03252053 0.02920499 -0.04940341 -0.07439179 
0.09923072 0.020721471 -0.019764356 0.020483527 0.09059329 -0.07864864 0.050365563 0.0004423849 -0.060965452 -0.019058589 -0.00043611682 0.02732841 -0.062340166 -0.071306564 0.11739153 0.10216239 
0.00017302671 0.062020216 0.082165815 -0.034737043 -0.0687715 0.023774482 0.017659374 0.040322263 0.010284243 -0.07426254 -0.08278409 0.006710641 -0.030113248 0.051242437 -0.03462256 -0.0032974815 
0.05630382 -0.077991016 -0.04053945 0.055039663 -0.09433403 -0.031166095 -0.004582275 -0.009866812 0.055490647 0.10172406 0.05346363 0.004071844 0.037667558 -0.067954235 -0.0037677425 0.0074245334 
0.057140954 0.11610164 -0.07011374 -0.034871694 -0.048633188 -0.031012485 0.012822795 -0.065713845 -0.016653169 -0.093731694 -0.030638156 -0.06842169 -0.073261954 -0.056238018 -0.10173682 0.016783623 
-0.02799704 0.003671596 0.056793664 0.019719472 0.09755056 0.099730335 0.05273146 0.0626999 0.049355023 0.038086515 -0.07570553 -0.056241374 0.039188538 0.06594912 -0.037056454 -0.07120549 
0.057644896 -0.03226586 0.053129792 -0.044083744 0.07522035 0.037034027 -0.07309006 0.0074038585 -0.08710425 -0.06937944 -0.021319812 -0.03507944 0.058216598 -0.01889022 -0.07636424 0.05150078 
-0.047738418 0.08830676 -0.025679315 -0.0034298995 0.074844 0.08888302 0.05023242 0.039990023 -0.057704605 -0.06941825 0.050311353 -0.016243648 -0.063965976 -0.026376573 -0.0017651423 0.042218957 
-0.00576563 -0.006809481 -0.07753715 -0.058268823 0.033220775 0.011649954 -0.03468173 -0.039817315 -0.03709353 -0.058328636 -0.030709436 0.016598418 0.08031274 -0.03466816 0.036776077 -0.030287633 
0.07404288 0.008444435 -0.051920258 -0.080207214 0.11705682 -0.10997677 0.039939217 -0.058073536 -0.00094035774 -0.07404117 0.039873827 0.08187781 -0.06983689 -0.04862074 -0.053470634 -0.052540883 
-0.032325078 -0.057144973 -0.013718589 0.06628468 0.12674397 -0.074531294 -0.07198046 -0.0091408035 -0.0010876104 -0.02180075 -0.002756829 0.0396722 0.08787585 -0.00073538406 0.07185829 0.014449871 
-0.04154499 -0.077085316 -0.08261917 -0.093577445 -0.039391592 0.06662268 0.0678868 0.08200072 -0.07826714 -0.030088386 0.12534183 0.12125961 0.08521095 -0.027358735 0.10832827 0.11480862 
0.06783126 -0.0062588505 -0.014884711 0.012751331 0.044607323 -0.09004231 -0.031826876 0.04496309 -0.0042512347 0.073826395 -0.01195403 0.0060781953 0.04940772 0.017882707 0.046925236 -0.059796624 
0.033403892 0.06486119 0.07350084 -0.054549493 -0.048496503 0.089217834 0.027613197 0.08061325 0.027910082 -0.074883565 0.041066475 0.115376145 -0.08230469 -0.025655398 0.030903503 0.03948553 
0.051863264 -0.04935105 0.05967647 -0.036349975 0.040552914 -0.05885309 -0.018546712 -0.06335242 -0.016355064 -0.015086596 0.10657743 -0.08943578 0.04864086 0.07596721 -0.07313769 -0.053176396 
0.05796715 0.032940157 -0.0009930559 0.08305536 -0.03736982 0.011870889 0.08171676 -0.040934518 0.060354512 0.0047667315 0.014879769 -0.05977977 -0.012371611 -0.06241246 -0.01676856 -0.017090876 
-0.03206184 -0.007719007 0.091976844 -0.05638034 -0.06024477 0.06398834 -0.06717712 0.0687071 0.0384971 0.01877052 -0.01137811 0.029858118 0.06564857 0.08666459 -0.027721575 -0.036031958 
-0.06650862 -0.029521663 0.04928842 0.08732995 0.016681882 0.09836934 0.0015826483 -0.0033496032 0.047277633 -0.005068295 -0.0408616 -0.045620985 -0.05807318 0.07572688 0.099277824 0.038191512 
0.03990117 0.034110293 -0.054287676 -0.05108063 -0.011287113 -0.053425685 0.00018495378 -0.024766175 -0.012647101 0.051370546 -0.061042503 0.07509715 0.060131676 -0.017620329 -0.057498395 -0.08105661 
-0.039134856 -0.073259495 0.03619581 -0.06050996 0.036635768 0.07871313 0.061248645 0.085298985 0.035332236 -0.02289759 -0.054456454 -0.07782709 -0.03269286 -0.013823533 -0.058502853 -0.07510919 
-0.057102747 -0.006148247 -0.02963472 -0.004275104 -0.02939029 0.04571037 0.10936288 0.046814278 0.08207267 -0.009256082 0.031917617 -0.038992114 -0.03187286 -0.056213014 0.043091845 -0.059426032 
0.07270195 -0.0983571 -0.06127356 0.014536291 0.12503271 0.05204176 0.06573777 -0.047628574 0.069991075 0.056137864 0.004848339 0.024965825 0.013317917 0.09030899 -0.019475708 0.016802846 
-0.080036044 -0.06840468 0.0130443 -0.06525759 -0.000681967 0.013334912 0.07435011 0.023347156 -0.061224435 -0.035181824 6.616799e-05 0.05881098 0.048507225 -0.07816776 -0.026118826 0.09364416 
0.007789589 0.01636704 -0.05386296 -0.018341383 -0.020076688 0.0138460845 0.013486496 0.07008045 -0.045076016 -0.009904905 -0.08506387 0.09150656 -0.07322911 0.067049794 -0.041048106 -0.0042795744 
0.061520793 -0.013214994 -0.018770838 0.06598197 -0.10246555 -0.02132439 0.039071314 0.11032856 0.013711737 -0.06374866 -0.11382111 -0.1059138 -0.090500146 -0.081119806 -0.08682477 -0.07372168 
-0.10628823 -0.06367952 -0.035030376 0.023602374 0.057904106 0.04549994 0.0013596825 0.0019051527 -0.0073730713 0.08078125 -0.10038121 0.017050754 -0.08746177 0.060459137 -0.023302179 -0.045074683 
-0.019040778 -0.0070895324 0.0034963498 -0.07559767 -0.036894944 -0.07515539 0.04531528 -0.05053308 0.0068957754 -0.007195528 0.011440268 0.014555395 0.04909295 -0.005870021 0.01237529 -0.031990018 
0.042531714 -0.034573533 -0.086960614 -0.052500717 0.0019619658 0.064169474 -0.008602059 0.011979008 0.0281565 0.07213136 -0.026784606 -0.10939461 0.0025133449 -0.034631 -0.06609804 0.055580497 
-0.012477302 0.062885806 -0.03604384 0.1152991 0.047859617 0.071698606 0.038909145 -0.08620879 -0.042461533 -0.05527289 0.09274393 -0.110494524 0.077510476 0.00071873964 0.027259678 -0.08511051 
-0.016817492 0.0015671136 -0.062344003 0.091968775 -0.01908884 -0.02020263 0.06365356 -0.033258613 0.019219706 -0.0846276 -0.051601667 -0.086690985 -0.0701263 0.057830676 0.07788554 0.040501643 
-0.065736875 -0.048417103 0.0053589037 0.023885114 0.026802784 -0.07731861 -0.035388812 0.06889508 -0.049729347 -0.04342945 0.04952044 -0.04519156 -0.053937275 -0.08500227 0.032396343 0.046187572 
-0.012873656 -0.08486244 -0.05488258 0.059916977 0.007940246 -0.08690681 -0.027952021 0.11839293 0.0405953 0.017889153 0.02611019 -0.022975784 0.08447125 -0.004453894 -0.0113123525 0.007545216 
-0.020599982 -0.057558883 0.08308576 0.03729914 -0.059178185 0.036606528 -0.047705222 -0.053729538 0.032571834 -0.027458176 -0.012362767 -0.03157046 0.01667366 0.028642846 -0.06461615 -0.014014833 
-0.047304563 0.01421068 0.04435947 0.042341735 0.029032305 0.09460198 -0.087721586 -0.018635975 0.046270527 -0.049879603 -0.0766894 -0.021379326 -0.022362612 -0.022607338 0.017365946 -0.00880786 
0.08301969 0.019925449 -0.051278483 0.06612989 -0.030025411 0.07076545 0.0024602027 0.00013801668 -0.044717155 0.10425224 0.018387992 0.03260971 -0.044738725 0.009049323 0.083945684 -0.052594103 
-0.03217758 0.02765279 -0.03384559 -0.031651545 0.03207601 -0.07724129 -0.051652443 -0.0068121077 0.0018638426 0.06529793 -0.048999637 0.00493743 -0.07903436 0.08650201 -0.041738246 0.059035007 
-0.03383388 0.022129664 0.01022356 0.12122944 -0.023905657 -0.043231398 0.09265186 -0.03953026 0.0054734885 -0.018100847 -0.066531524 0.08258319 -0.030852338 0.07397332 -0.059293162 0.045711692 
-0.078526266 0.053419963 -0.023797652 0.105475724 0.028383251 0.0317055 0.05820959 0.005438102 0.00072923355 -0.031808026 0.08776132 0.022498656 0.076178856 -0.029591609 0.013605157 -0.042598464 
-0.051412195 -0.027053583 -0.04094981 0.02626248 -0.051271982 0.026780536 -0.028235607 0.03589473 0.04004844 -0.0641765 0.011907836 -0.017868992 0.041378975 -0.026521262 -0.038482375 -0.035893913 
0.045552507 -0.07125477 0.038035784 -0.03730008 -0.03727723 -0.118778616 0.03265339 -0.039795507 0.05105637 -0.0024060917 -0.081722304 -0.03461565 0.026072891 -0.02148859 -0.057369806 -0.019900423 
-0.049354613 -0.041154247 -0.02076407 0.014902983 -0.0587165 0.114761956 0.0028361594 0.0077336878 0.03172236 0.043840297 -0.022545576 -0.031931825 0.076584496 -0.05010718 -0.019213863 0.0099309385 
0.05323696 -0.038751535 -0.020643717 -0.02890101 0.05966477 -0.08003157 0.07630904 -0.040703036 -0.073792264 0.05116553 0.08177879 -0.016589668 0.04149642 0.027646556 -0.0617402 0.03072681 
-0.08230387 -0.046818845 -0.010566485 -0.019281007 -0.03616471 -0.018525584 0.048144635 0.06250536 -0.065786935 -0.12088296 -0.06275252 -0.05793565 -0.008496414 -0.046940114 0.06761897 0.004171444 
0.07770518 0.115082785 0.021163598 0.052894335 -0.01817674 0.068824254 0.059266325 -0.007522589 -0.061628055 -0.05760232 0.06387353 0.039121773 0.07212522 -0.025971703 -0.012411677 -0.053283982 
-0.0320344 0.078270204 0.10711401 0.07525274 0.033874188 0.032123994 0.036459543 0.05144198 0.06937189 -0.04140737 0.00019529268 -0.014204431 -0.01891654 0.024068661 0.097743705 0.12680398 
0.09715983 -0.016332505 -0.05049334 0.049440797 -0.057295132 -0.008049487 0.020850845 -0.117242865 0.038853373 -0.05227798 -0.04404178 -0.07962104 0.06417207 -0.025430776 -0.059417386 0.09150842 
-0.009097792 0.06635313 -0.013705701 -0.073479116 0.046437997 0.052783225 0.06314576 0.10064732 -0.025765644 0.016030705 -0.099387325 0.025133979 0.05679103 0.08129725 -0.0022122911 -0.008703336 
